#include "main.h"
#include <cstring>

void store_input(float input[1][32][32], float input_oc[1][32][32])
{
	memcpy(input_oc, input, sizeof(float) * 32 * 32);
}

void store_output(float output[10], float output_oc[10])
{
	memcpy(output, output_oc, sizeof(float) * 10);
}

void fused_layer1(float input[1][32][32], float weights[6][1][5][5], float bias[6], float output[6][14][14]) {
    #pragma HLS array_partition variable=weights cyclic dim=4 factor=5
	#pragma HLS array_partition variable=input cyclic dim=3 factor=5

    float intermediate[6][28][28];

    for(int co = 0; co < 6; co++) {
        for(int h = 0; h < 28; h++) {
            for(int w = 0; w < 28; w++) {
                #pragma HLS pipeline
                float sum[32] = {0.0f};

                for (int offset = 0; offset < 25; offset++) {
                	int m = offset / 5;
                	int n = offset % 5;
                	int i = h + m;
                	int j = w + n;
                	sum[offset] = weights[co][0][m][n] * input[0][i][j];
                }

                for (int offset = 16; offset > 0; offset /= 2) {
                	for (int r = 0; r < 16; r++) {
                		sum[r] = sum[r] + sum[r + offset];
                	}
                }

                sum[0] += bias[co];
                if (sum[0] < 0) sum[0] = 0;
                intermediate[co][h][w] = sum[0];
            }
        }
    }

    for (int c = 0; c < 6; c++) {
        for (int h = 0; h < 14; h++) {
            for (int w = 0; w < 14; w++) {
                #pragma HLS pipeline
                float max_value = -9999999;
                for (int di = 0; di < 2; di++) {
					#pragma HLS unroll factor=2
                    for (int dj = 0; dj < 2; dj++) {
                        #pragma HLS unroll factor=2
                        int i = h * 2 + di;
                        int j = w * 2 + dj;
                        max_value = (max_value > intermediate[c][i][j]) ? max_value : intermediate[c][i][j];
                    }
                }
                output[c][h][w] = max_value;
            }
        }
    }
}

void convolution_3_ReLU(float input[6][14][14], float weights[2][6][5][5], float bias[2], float output[2][10][10])
{
#pragma HLS array_partition variable=weights complete dim=2
#pragma HLS array_partition variable=input complete dim=1

    for(int co = 0; co < 2; co++)
        for(int h = 0; h < 10; h++)
            for(int w = 0; w < 10; w++)
            {
				#pragma HLS PIPELINE
				float sum[256] = {0.0f};

				for (int i = 0; i < 150; i++) {
					int m = i / 30;
					int n = (i - m * 30) / 6;
					int ci = (i - m * 30 - n * 6);

					sum[i] = (weights[co][ci][m][n] * input[ci][h+m][w+n]);
				}

				for (int offset = 128; offset > 0; offset /= 2) {
					for (int r = 0; r < 128; r++) {
						sum[r] = sum[r] + sum[r + offset];
					}
				}

				sum[0] = sum[0] + bias[co];
				if (sum[0] < 0) sum[0] = 0;
				output[co][h][w] = sum[0];
            }
}

void maxpool_4(float input[2][10][10],float output[2][5][5])
{
    for(int c = 0;c < 2; c++)
        for(int h = 0; h < 5; h++)
            for(int w = 0; w < 5; w++)
            {
				#pragma HLS PIPELINE
                float max_value=-1000000000000.0;
                for(int i = 0; i < 2; i++)
                {
                    for(int j = 0;j < 2; j++)
                        max_value = (max_value > input[c][h*2+i][w*2+j]) ? max_value:input[c][h*2+i][w*2+j];
                }
                output[c][h][w] = max_value;
            }
}

void convolution_5_ReLU(float input[2][5][5], float weights[120][2][5][5], float bias[120], float output[120][1][1])
{
	#pragma HLS array_partition variable=weights cyclic dim=4 factor=5
	#pragma HLS array_partition variable=input cyclic dim=3 factor=5
    for(int co = 0; co < 120; co++)
    {
        float sum = 0;
        for(int ci = 0; ci < 2; ci++)
        {
			#pragma HLS PIPELINE
        	float partial_sum[32] = {0.0f};

        	for (int i = 0; i < 25; i++) {
        		int m = i / 5;
        		int n = i % 5;
        		partial_sum[i] = weights[co][ci][m][n] * input[ci][m][n];
        	}

        	for (int offset = 16; offset > 0; offset /= 2) {
        		for (int r = 0; r < 16; r++) {
        			partial_sum[r] = partial_sum[r] + partial_sum[r + offset];
        		}
        	}

        	sum += partial_sum[0];
        }
		sum = sum + bias[co];
		if (sum < 0) sum = 0;
        output[co][0][0] = sum;
    }
}

void fc_6_ReLU(const float input[120][1][1], const float weights[10][120][1][1], const float bias[10], float output[10])
{
    for(int n = 0; n < 10; n++)
    {
        output[n] = 0;

        for(int c = 0; c < 120; c++)
        {
            output[n] += weights[n][c][0][0] * input[c][0][0];
        }
        output[n] += bias[n];
		if (output[n] < 0) output[n] = 0;
    }
}

int lenet_accelerator(float input[1][32][32], float output[10])
{
#pragma HLS dataflow

#pragma HLS interface m_axi depth=1024 port=input offset=slave bundle=INPUT

#pragma HLS interface m_axi depth=10 port=output offset=slave bundle=OUTPUT

#pragma HLS interface s_axilite port=return bundle=CTL

	float input_oc[1][32][32];
	//store input on chip
	store_input(input, input_oc);
	float w1_oc[6][1][5][5] = {{{{0.12309238314628601,0.18751367926597595,0.16033867001533508,0.14688700437545776,0.0643291249871254},{-0.01737282983958721,0.060100406408309937,0.09361089020967484,0.23851366341114044,-0.07972978055477142},{-0.04096712917089462,-0.05015527829527855,0.3007136881351471,0.16080977022647858,-0.07049243897199631},{-0.10783036053180695,-0.18421292304992676,0.21892401576042175,0.3784251809120178,-0.16394321620464325},{-0.2905158996582031,-0.21402467787265778,-0.16114948689937592,0.33681929111480713,0.38291120529174805}}},{{{0.1718001663684845,0.3424355387687683,-0.0032580015249550343,-0.06507081538438797,0.023422257974743843},{0.193976029753685,0.09728634357452393,0.009032299742102623,-0.18120305240154266,-0.11412566900253296},{0.4032094478607178,0.3022981286048889,-0.2027486115694046,-0.09756717830896378,-0.0321212075650692},{0.3905191123485565,-0.06279987841844559,-0.35543715953826904,-0.1304432600736618,-0.29943224787712097},{0.5624936819076538,0.2703673541545868,-0.005879933480173349,0.09074973315000534,0.044667430222034454}}},{{{-0.1682482659816742,-0.14149972796440125,-0.033103007823228836,0.2562911808490753,0.3648979365825653},{-0.29873621463775635,0.0197455994784832,0.5077075362205505,0.11761724948883057,-0.006090101785957813},{-0.30651819705963135,0.3009030818939209,0.4789299964904785,-0.19576692581176758,-0.081602081656456},{-0.09674631059169769,0.4920535683631897,0.3127610683441162,-0.49319982528686523,-0.18662293255329132},{0.22704164683818817,0.2855532765388489,-0.09167706966400146,-0.2299744337797165,0.11538290232419968}}},{{{0.06242147460579872,0.206094890832901,-0.212177112698555,-0.3041677176952362,-0.32294973731040955},{-0.11666609346866608,0.20302839577198029,-0.1645498126745224,-0.3856141269207001,-0.5494934320449829},{-0.1465345323085785,0.34627896547317505,0.5269408226013184,-0.11998332291841507,-0.15401041507720947},{0.10941728949546814,0.2931572198867798,0.595906674861908,0.3938842713832855,0.32307082414627075},{0.035163525491952896,-0.5111848711967468,-0.062224023044109344,0.22210603952407837,0.27573105692863464}}},{{{0.43382254242897034,0.7099919319152832,0.8317323327064514,0.7978370785713196,0.07939981669187546},{-0.10874632745981216,-0.029628664255142212,0.16789701581001282,-0.1474110633134842,0.0012941377935931087},{-0.20215697586536407,-0.5239771008491516,-0.5485641360282898,-0.4241025447845459,0.12706740200519562},{0.17708463966846466,-0.14853328466415405,-0.15103498101234436,-0.22086584568023682,0.39667657017707825},{0.2924693822860718,0.20116548240184784,0.08838709443807602,0.006942753680050373,0.1854928731918335}}},{{{-0.18680956959724426,-0.2198903113603592,-0.12270116060972214,-0.04138977453112602,-0.12423712015151978},{0.0210561566054821,-0.23349541425704956,-0.013907846994698048,0.008026348426938057,0.06643577665090561},{-0.33545926213264465,-0.0986911728978157,0.16686241328716278,0.16135874390602112,0.03456903249025345},{-0.03622203320264816,0.056995101273059845,-0.09506592899560928,0.15140019357204437,0.30822116136550903},{-0.28267303109169006,-0.08027096837759018,0.125875324010849,0.4131973087787628,0.3655809462070465}}}};
	float w3_oc[2][6][5][5] = {{{{0.04012147709727287,-0.0615176297724247,-0.12188952416181564,0.047726742923259735,-0.07727984338998795},{-0.06804929673671722,0.3064541518688202,0.2925182580947876,0.04943261295557022,-0.030228668823838234},{-0.27608415484428406,0.22203318774700165,0.13403695821762085,0.1500902771949768,0.3452538251876831},{-0.21769516170024872,-0.20899023115634918,-0.12149406969547272,-0.1282598376274109,0.1300453245639801},{0.10093947499990463,-0.01946348510682583,-0.3282052278518677,-0.35049933195114136,-0.1403149664402008}},{{-0.09715309739112854,0.15011419355869293,0.3953866958618164,-0.06275694072246552,-0.08686594665050507},{-0.18594792485237122,0.07372412085533142,0.06422543525695801,-0.100331149995327,-0.296469122171402},{-0.17156045138835907,-0.1456672102212906,-0.26089784502983093,0.02454373799264431,-0.39793869853019714},{0.10157575458288193,0.054423894733190536,-0.10848623514175415,-0.33757123351097107,-0.44511884450912476},{0.08654569089412689,0.04595492035150528,-0.0933472216129303,-0.1722835898399353,-0.007890797220170498}},{{0.2197279930114746,0.2243468314409256,0.2667553722858429,0.16419528424739838,0.32548245787620544},{0.06674199551343918,-0.16844886541366577,-0.2009059488773346,-0.18942701816558838,-0.15661659836769104},{-0.16788870096206665,-0.5092709064483643,-0.2098405808210373,-0.047830965369939804,0.04499295726418495},{-0.12095901370048523,0.11690201610326767,-0.09873757511377335,-0.17203183472156525,-0.05229343846440315},{0.05768052488565445,-0.025456802919507027,-0.23989877104759216,0.3111558258533478,0.2076750546693802}},{{-0.25083422660827637,-0.2778386175632477,-0.1465529501438141,0.06481241434812546,0.33469632267951965},{0.09464158117771149,-0.16453233361244202,0.29874998331069946,0.3005819618701935,0.7104385495185852},{0.4254949986934662,0.2701777517795563,0.5843706130981445,0.26594817638397217,0.1647716760635376},{-0.10922980308532715,0.16124427318572998,-0.21024355292320251,-0.2390473186969757,-0.08733530342578888},{-0.3374611437320709,-0.25976529717445374,-0.15200944244861603,-0.16630806028842926,-0.2757706046104431}},{{-0.36097452044487,-0.3491385579109192,-0.09567739814519882,0.15646874904632568,0.17721176147460938},{-0.12687157094478607,-0.3879621624946594,0.009198174811899662,0.22738993167877197,-0.1800684779882431},{-0.18453098833560944,-0.06097961962223053,-0.09071961045265198,0.35580095648765564,0.34391915798187256},{0.14716759324073792,-0.05895085632801056,0.29518577456474304,0.3581511080265045,0.46664005517959595},{0.26495203375816345,0.10810887813568115,0.16978177428245544,0.13385625183582306,0.17003598809242249}},{{0.4173736274242401,0.0992198958992958,-0.0857175961136818,-0.1130814328789711,-0.23021212220191956},{-0.052679967135190964,0.16719642281532288,0.1991574764251709,-0.19720789790153503,-0.18616609275341034},{0.11625178158283234,0.04667508602142334,0.054187361150979996,-0.3336292803287506,-0.21275641024112701},{0.026484109461307526,-0.028305714949965477,-0.22895891964435577,-0.5177222490310669,-0.46771159768104553},{-0.11225424706935883,0.09108896553516388,0.1476028859615326,0.3145159184932709,0.2784087657928467}}},{{{0.08251755684614182,0.07601063698530197,-0.10854388773441315,-0.14175644516944885,-0.15945012867450714},{-0.14935402572155,0.10529003292322159,0.06818307936191559,0.10452722012996674,-0.14106199145317078},{-0.2351081371307373,-0.12467543035745621,-0.21152591705322266,-0.2399020493030548,-0.16955584287643433},{0.15738895535469055,-0.09831954538822174,-0.062121618539094925,-0.2610345780849457,-0.29160669445991516},{0.2620387375354767,-0.03442121297121048,0.078975148499012,-0.10858888924121857,-0.4623531997203827}},{{-0.04942861199378967,0.11241075396537781,0.20905089378356934,0.24149662256240845,0.041518863290548325},{-0.26341381669044495,-0.2365078330039978,-0.47473230957984924,-0.3550010919570923,-0.24709179997444153},{-0.3529013693332672,-0.16615663468837738,-0.7448117136955261,-0.6321935653686523,-0.17979662120342255},{-0.1802046000957489,-0.06797126680612564,-0.024753397330641747,-0.34025537967681885,-0.4608421325683594},{-0.007089484017342329,0.36871859431266785,0.10350977629423141,0.07612647116184235,-0.3378530442714691}},{{0.45387202501296997,0.41030558943748474,0.15349382162094116,0.0114964060485363,0.043854910880327225},{-0.13035275042057037,-0.2142605185508728,-0.4721960127353668,-0.16879154741764069,-0.05074650049209595},{-0.5495238304138184,-0.9123629927635193,-0.5620325803756714,-0.5317907929420471,-0.23804980516433716},{-0.05519752576947212,-0.24332396686077118,-0.4559047818183899,-0.23794208467006683,-0.48552894592285156},{0.35196682810783386,0.21212980151176453,-0.03218213841319084,0.08915140479803085,-0.2573716342449188}},{{-0.17117497324943542,0.08568096160888672,-0.08687996864318848,0.15390896797180176,0.03276713564991951},{-0.5500149130821228,-0.3095836639404297,-0.04563361778855324,0.15559186041355133,-0.07793457806110382},{0.3540568947792053,0.007835140451788902,-0.25493717193603516,-0.017457421869039536,-0.27368056774139404},{0.4179053008556366,0.3807474970817566,0.3646622598171234,0.06932734698057175,-0.2693583369255066},{0.0380265936255455,0.135562926530838,0.35844874382019043,0.311839759349823,0.4446873664855957}},{{0.2891179621219635,0.26394277811050415,0.03728306293487549,0.16868017613887787,0.4573356807231903},{0.6024399995803833,0.4546026587486267,-0.018475044518709183,-0.06527230888605118,0.14132115244865417},{0.2796938419342041,0.2846965491771698,-0.20653098821640015,-0.046183992177248,0.03558214008808136},{-0.003229013876989484,-0.14004409313201904,-0.17378611862659454,-0.023130249232053757,0.1921873837709427},{0.4883318245410919,-0.08960294723510742,-0.1528778076171875,-0.10082779824733734,0.0012715632328763604}},{{-0.13967309892177582,-0.2624741792678833,0.09453879296779633,0.03416501358151436,0.3122187852859497},{-0.21756602823734283,-0.48887792229652405,-0.0847623273730278,-0.0010691845091059804,-0.0036145118065178394},{-0.012761780060827732,-0.3318028450012207,-0.3160025477409363,-0.27082347869873047,-0.41344907879829407},{0.11963719129562378,0.1085745170712471,-0.07176872342824936,-0.1594574749469757,-0.3872855007648468},{0.1436128467321396,0.12038825452327728,0.45083126425743103,0.3585020899772644,0.5298701524734497}}}};
	float w5_oc[120][2][5][5] = {{{{-0.024081170558929443,-0.07800226658582687,-0.02293367125093937,-0.007527992594987154,-0.009809023700654507},{0.061482738703489304,-0.04575439170002937,-0.05323121324181557,0.012628205120563507,-0.014625295996665955},{-0.011367094703018665,-0.053651243448257446,-0.07809703797101974,-0.05503242090344429,0.006282377056777477},{-0.0039506698958575726,-0.010092477314174175,6.917291466379538e-05,-0.022502973675727844,0.04107994586229324},{-0.040736906230449677,-0.001989424927160144,-0.04791216179728508,-0.0072551146149635315,-0.007351712789386511}},{{-0.023441899567842484,0.03567799553275108,0.007881990633904934,-0.06573760509490967,-0.05055800452828407},{0.02965458668768406,-0.00498676672577858,-0.0015393360517919064,-0.013654225505888462,-0.0013683433644473553},{0.035756975412368774,-0.0772688239812851,0.02890482358634472,-0.07564359903335571,-0.05625646561384201},{-0.04070083424448967,-0.0057905809953808784,-0.05463675409555435,-0.05011311173439026,-0.07579955458641052},{-0.00762411393225193,-0.05618374049663544,-0.06850431114435196,-0.05106839910149574,-0.007448410149663687}}},{{{-0.011319312267005444,-0.037553008645772934,0.03077114373445511,-0.04167739301919937,-0.03859841823577881},{-0.08774346858263016,0.019345581531524658,0.031831853091716766,-0.0809837132692337,-0.011445733718574047},{-0.08158567547798157,-0.07742747664451599,0.025654511526226997,-0.0647118091583252,-0.12649081647396088},{-0.06540203094482422,-0.02695537358522415,0.05765197053551674,0.00570771424099803,-0.014863823540508747},{0.06518986821174622,-0.015910014510154724,-0.011237415485084057,0.07117494195699692,-0.09067663550376892}},{{-0.16658201813697815,-0.6428251266479492,-0.224495530128479,-0.05014268681406975,0.04607260972261429},{-0.12126284092664719,0.13299965858459473,-0.18699519336223602,0.1228339672088623,0.1585657149553299},{-0.6509845852851868,-0.1251131296157837,0.06312541663646698,0.24024438858032227,0.07049240916967392},{0.07678796350955963,-0.13687849044799805,-0.1897042840719223,-0.2079412341117859,-0.24155105650424957},{-0.3751315474510193,-0.10133910179138184,-0.08927827328443527,0.1706838607788086,0.13573995232582092}}},{{{0.017354607582092285,0.05168364942073822,0.017806611955165863,0.136764258146286,0.0651111975312233},{-0.00930234044790268,0.05965927988290787,-0.00012041794252581894,0.04449160024523735,0.035526540130376816},{-0.08867857605218887,-0.15900252759456635,-0.268233984708786,0.008140696212649345,0.011697405949234962},{-0.10241083055734634,-0.19621746242046356,-0.09944558888673782,0.05509358271956444,-0.07534673064947128},{-0.08414290100336075,-0.020024189725518227,0.15667679905891418,0.10444366186857224,-0.021564703434705734}},{{0.03801807761192322,0.022937167435884476,-0.09969581663608551,0.0933365672826767,-0.032050300389528275},{0.11729105561971664,-0.11562158912420273,-0.12389974296092987,-0.052291564643383026,0.015162046998739243},{0.12138913571834564,-0.03249999135732651,0.10865164548158646,-0.09148528426885605,-0.1536971926689148},{0.2200762778520584,0.04904879629611969,-0.02281838282942772,0.09863130748271942,-0.04269876331090927},{-0.15881496667861938,-0.03721550852060318,-0.030847391113638878,0.032737404108047485,-0.014565840363502502}}},{{{-0.02908250503242016,-0.10746985673904419,-0.045516930520534515,-0.03624964877963066,-0.012449353002011776},{0.016455652192234993,-0.060965392738580704,-0.018541855737566948,0.0244729146361351,0.005466755945235491},{-0.011974669992923737,-0.010179786942899227,0.026364203542470932,0.03609272465109825,-0.028738580644130707},{0.003881499171257019,0.01842893473803997,-0.011859413236379623,-0.03662426024675369,-0.0672483816742897},{-0.08400918543338776,-0.032365262508392334,0.01828957535326481,0.01735004410147667,-0.007395588327199221}},{{0.11668697744607925,-0.2766529321670532,-0.24565719068050385,0.06092928349971771,0.04578370600938797},{-0.2977401614189148,-0.11343702673912048,-0.20408712327480316,-0.021560121327638626,-0.14070816338062286},{-0.27034634351730347,-0.044187624007463455,0.06336934864521027,-0.04386572912335396,-0.20369794964790344},{-0.2706417143344879,-0.05160532146692276,-0.14899547398090363,0.09340334683656693,0.011671661399304867},{-0.2708445191383362,0.04936165362596512,0.024425353854894638,0.0034174348693341017,-0.11152183264493942}}},{{{-0.032793283462524414,-0.05053713172674179,-0.05017906799912453,-0.040096383541822433,-0.03589129447937012},{-0.06481433659791946,-0.0016027260571718216,-0.04888186976313591,-0.02754351869225502,-0.07792147248983383},{-0.05155562236905098,-0.0422954335808754,-0.029894830659031868,-0.05779791623353958,-0.01331823505461216},{-0.03700931370258331,-0.07388892769813538,-0.0779777318239212,-0.028829077258706093,-0.034836865961551666},{-0.027229847386479378,-0.05635629966855049,-0.06023390591144562,-0.03319613263010979,-0.06829839944839478}},{{-0.01849002204835415,0.02085701748728752,-0.007521170191466808,0.032062213867902756,0.03658652678132057},{-0.0049931700341403484,0.00040804213494993746,0.0023031109012663364,0.020169375464320183,-0.03577211871743202},{-0.03698781505227089,-0.009003748185932636,-0.031983569264411926,-0.0027646480593830347,0.024975180625915527},{0.032320767641067505,0.023979078978300095,-0.032074663788080215,-0.0047074113972485065,0.018710589036345482},{0.03751242160797119,0.0037222024984657764,0.03558819741010666,0.008594946935772896,-0.005606767255812883}}},{{{-0.005944996606558561,-0.01824238896369934,-0.06533878296613693,-0.029755592346191406,-0.02793317288160324},{0.013602870516479015,-0.056538209319114685,-0.0650673508644104,-0.009330588392913342,-0.038721852004528046},{-0.030396681278944016,0.02359577640891075,-0.04237213730812073,-0.07243261486291885,0.00604627002030611},{-0.030474260449409485,-0.013833579607307911,-0.07824157923460007,-0.0015477176057174802,-0.07980746030807495},{-0.05900425836443901,-0.07548192888498306,-0.008125333115458488,-0.0015317728975787759,0.03171936422586441}},{{0.011139921844005585,0.007117969449609518,0.006694574374705553,-0.02781687304377556,-0.06309302896261215},{-0.025152454152703285,-0.03897995129227638,-0.0176834836602211,0.03597831353545189,-0.06802122294902802},{-0.003379275556653738,-0.058485791087150574,-0.004896082915365696,-0.023602435365319252,-0.0408996120095253},{-0.039937134832143784,-0.031988829374313354,-0.07773301005363464,-0.019315378740429878,-0.056705325841903687},{-0.0073224869556725025,-0.052663180977106094,-0.04081488028168678,-0.050555601716041565,0.018879879266023636}}},{{{0.013527731411159039,-0.08831793814897537,-0.015571791678667068,-0.10383041203022003,-0.022803697735071182},{-0.06587093323469162,-0.07470148056745529,-0.1540011763572693,-0.11631092429161072,0.010643994435667992},{-0.051261041313409805,-0.11209329962730408,-0.03756406903266907,-0.03790360316634178,-0.03954185172915459},{-0.040912628173828125,-0.07229012250900269,-0.036746907979249954,-0.0635041669011116,-0.052177995443344116},{-0.05054740235209465,0.02084079571068287,-0.02969982661306858,-0.0899316668510437,-0.07323098927736282}},{{0.09042190760374069,-0.03165691718459129,0.2749841809272766,0.22587041556835175,0.054038774222135544},{-0.09680334478616714,0.24379011988639832,0.16770495474338531,0.1978500634431839,-0.15350034832954407},{-0.6274658441543579,-0.06041528284549713,-0.09389661997556686,0.09391456097364426,-0.24674710631370544},{0.24062369763851166,0.18197517096996307,-0.21326705813407898,0.1677568256855011,-0.17980311810970306},{0.3421768546104431,0.07223858684301376,0.19919821619987488,0.008765983395278454,-0.011318143457174301}}},{{{-0.029599031433463097,-0.16669631004333496,-0.08531729876995087,0.06835003942251205,-0.0934416875243187},{0.008859551511704922,0.0008133642841130495,-0.06346771121025085,0.09082221239805222,0.014161516912281513},{-0.03511650115251541,-0.04884466901421547,-0.19192750751972198,0.1126849502325058,0.06563276797533035},{-0.09917660057544708,-0.04317891597747803,-0.07491639256477356,-0.09856899082660675,-0.178222194314003},{0.06891568750143051,0.22679390013217926,0.1572689414024353,-0.01854533888399601,-0.0629008486866951}},{{0.06281760334968567,-0.02030383236706257,0.03106052242219448,0.0012067209463566542,-0.08061534911394119},{0.2514159381389618,0.026551270857453346,-0.11184640228748322,0.12361735105514526,0.040094416588544846},{0.0032024900428950787,-0.1908935010433197,-0.27136310935020447,0.11923658102750778,-0.05281120911240578},{-0.24380426108837128,-0.23253856599330902,-0.0487813800573349,-0.07587100565433502,0.1248699426651001},{0.2094895839691162,0.019999461248517036,-0.009553280659019947,0.03377748653292656,-0.09989774972200394}}},{{{-0.10209854692220688,-0.1373777836561203,-0.2550646960735321,-0.13716217875480652,0.07226260751485825},{-0.07839704304933548,-0.04360956326127052,-0.16842544078826904,0.033630743622779846,0.1637013852596283},{0.0414443239569664,0.001628434401936829,-0.05925891175866127,0.0788409486413002,0.04057036340236664},{0.007191521115601063,0.114192895591259,0.054366614669561386,0.10396282374858856,0.09583651274442673},{0.03412014991044998,-0.13018395006656647,-0.08128239214420319,0.043901097029447556,-0.024656902998685837}},{{0.023227771744132042,0.06224546954035759,0.068588025867939,0.04996342211961746,0.08318311721086502},{0.14202408492565155,0.09607790410518646,-0.1550438404083252,-0.05541011318564415,0.08070958405733109},{0.06700509041547775,-0.022757606580853462,-0.17666156589984894,0.055569447576999664,0.1001892238855362},{-0.0017467574216425419,0.10415776073932648,-0.09543157368898392,-0.06819068640470505,-0.12148741632699966},{0.04439269006252289,0.05574658885598183,0.03728616237640381,0.05367233604192734,0.04346545785665512}}},{{{-0.00948571227490902,-0.15137164294719696,-0.058688655495643616,0.03166116774082184,0.08354178071022034},{-0.2528577446937561,-0.1575775295495987,0.013661807402968407,0.15893256664276123,-0.036119405180215836},{0.0633636936545372,-0.17092278599739075,0.03012167662382126,0.059281110763549805,-0.0918658971786499},{0.0918436348438263,-0.09927169233560562,-0.06301428377628326,0.001954269828274846,0.15107668936252594},{0.05652964487671852,0.1440025269985199,-0.07536938041448593,-0.11389121413230896,0.055653542280197144}},{{0.29365646839141846,0.11466538906097412,0.08269482851028442,0.10237966477870941,0.15649333596229553},{0.033813174813985825,0.01696557179093361,-0.18454495072364807,0.1281171292066574,0.17488285899162292},{-0.13348132371902466,-0.18552391231060028,-0.27418091893196106,-0.049726177006959915,-0.039289332926273346},{0.2937137484550476,0.14311401546001434,-0.22344380617141724,-0.20920979976654053,-0.30873817205429077},{0.015690380707383156,0.1316763460636139,0.22672797739505768,-0.4843120574951172,-0.08664321899414062}}},{{{-0.02406768873333931,0.045669879764318466,0.024300269782543182,0.040719784796237946,0.014491777867078781},{-0.20564131438732147,-0.1824266016483307,0.10335580259561539,0.11630035936832428,-0.12068016082048416},{-0.2798314392566681,-0.4552866220474243,-0.14592808485031128,0.11596153676509857,0.032877255231142044},{-0.0026834742166101933,-0.21942737698554993,-0.02551618404686451,-0.05250212177634239,0.03869865834712982},{0.29832831025123596,0.31337934732437134,0.11462516337633133,0.015480720438063145,0.19254980981349945}},{{-0.006364092230796814,0.24504466354846954,0.5096089839935303,0.21476182341575623,0.12537173926830292},{-0.714104175567627,-0.44164252281188965,-0.24427101016044617,-0.0730096846818924,-0.3041684627532959},{-0.8110125660896301,-0.1619018018245697,0.23688991367816925,-0.08160337060689926,-1.0517174005508423},{-0.43920332193374634,-0.004968782886862755,0.189992293715477,-0.08301546424627304,-0.9875796437263489},{-0.14982999861240387,0.09738565981388092,0.12547147274017334,0.39638131856918335,0.11121729016304016}}},{{{-0.0029354498255997896,-0.01642686501145363,-0.04028866067528725,0.07882987707853317,-0.03545081987977028},{0.053485140204429626,-0.07770916074514389,-0.06531668454408646,0.04516022652387619,0.021389054134488106},{-0.007125223986804485,0.004178630653768778,-0.08017583936452866,0.0216397512704134,0.003096205648034811},{-0.012205565348267555,-0.0393422469496727,0.044080037623643875,-0.0332772321999073,0.03860626369714737},{-0.05443340167403221,-0.0032578674145042896,-0.007801773026585579,-0.0803779810667038,8.464802522212267e-05}},{{0.041044604033231735,-0.026610353961586952,0.02461032196879387,-0.047638338059186935,-0.03840015456080437},{-0.001220477046445012,0.03957371041178703,0.0012033001985400915,-0.04697079584002495,-0.056977998465299606},{-0.008333190344274044,-0.0667445957660675,0.001064548036083579,-0.06222299858927727,-0.018411079421639442},{-0.023762011900544167,-0.03873423859477043,-0.03491552919149399,-0.059917278587818146,-0.050333764404058456},{-0.023708006367087364,0.02147921361029148,0.07146937400102615,-0.007288191933184862,-0.034610625356435776}}},{{{-0.04516179859638214,-0.030906958505511284,-0.02961571514606476,0.02461252547800541,-0.07686274498701096},{0.043515052646398544,0.017514605075120926,-0.06624667346477509,-0.0673816129565239,-0.02685832418501377},{-0.02232266776263714,-0.0745171532034874,-0.014777536503970623,-0.00831711757928133,0.057463955134153366},{-0.06252115964889526,-0.030701570212841034,-0.056187354028224945,-0.027016757056117058,0.07088781148195267},{-0.07235812395811081,-0.007617346476763487,-0.014352469705045223,-0.011618096381425858,-0.018439430743455887}},{{-0.039435435086488724,0.03201746940612793,0.0015553768025711179,-0.0013846623478457332,0.001536984695121646},{-0.014148448593914509,-0.05179138481616974,-0.023286212235689163,-0.07323518395423889,-0.028254229575395584},{-0.02884948067367077,0.017933452501893044,-0.02266300469636917,-0.008737560361623764,-0.031317636370658875},{-0.023562289774417877,-0.023144913837313652,-0.018807686865329742,-0.028537552803754807,-0.06847362965345383},{0.020427919924259186,-0.0716019794344902,0.04465149715542793,-0.021064359694719315,-0.041619665920734406}}},{{{-0.007925644516944885,-0.04440737143158913,-0.1811704933643341,-0.07945448160171509,-0.08759346604347229},{-0.0696127712726593,-0.026350537315011024,-0.058477841317653656,0.0008249718230217695,-0.09969872981309891},{0.12357314676046371,0.1986938863992691,0.08831346035003662,0.1729595959186554,0.11149443686008453},{-0.11959827691316605,-0.05410805717110634,-0.0709608942270279,-0.10195024311542511,-0.051411982625722885},{-0.1349504441022873,-0.09793195873498917,-0.10954645276069641,0.10262239724397659,0.08757850527763367}},{{0.010463354177772999,-0.015011916868388653,0.003883920842781663,0.029472384601831436,0.008268301375210285},{0.007246761582791805,0.041411153972148895,-0.012647775933146477,-0.058826249092817307,-0.010013790801167488},{-0.058282576501369476,0.03988818824291229,0.009347536601126194,-0.05119572952389717,0.06842636317014694},{0.021690333262085915,0.03347674757242203,0.04938451200723648,-0.03105609305202961,0.0645420253276825},{-0.008719788864254951,-0.04965569078922272,-0.09565315395593643,0.00993660930544138,0.06849108636379242}}},{{{-0.05348611995577812,-0.06273409724235535,0.03898537531495094,-0.0382818765938282,-0.016369864344596863},{-0.07924723625183105,-0.0006913141114637256,-0.04361620917916298,-0.03265044093132019,0.0016984458779916167},{0.00964818149805069,-0.012404541485011578,-0.03134632483124733,-0.034304458647966385,0.04103264957666397},{0.022162875160574913,-0.0666009932756424,-0.06182632967829704,4.369996986497426e-06,-0.0706746056675911},{-0.039622657001018524,-0.012444691732525826,-0.07894433289766312,-0.024602672085165977,-0.016157034784555435}},{{0.03593770042061806,-0.026698783040046692,-0.013194249011576176,0.006374475080519915,0.0070886085741221905},{-0.0019145727856084704,-0.0024719894863665104,0.0395129956305027,0.0006466620252467692,-0.03535390645265579},{-0.007100142538547516,0.030270205810666084,-0.010521287098526955,0.0064702644012868404,0.02160767838358879},{0.031044775620102882,-0.00880387518554926,-0.036591026932001114,-0.024684233590960503,-0.033000119030475616},{-0.010820874013006687,0.029903437942266464,-0.03584282100200653,0.005807093344628811,-0.03150966018438339}}},{{{-0.010297332890331745,5.719708860851824e-05,-0.053192462772130966,-0.00996203999966383,-0.0664108619093895},{-0.04916718974709511,-0.02401142008602619,-0.0353793166577816,-0.023943960666656494,-0.0035594957880675793},{-0.028412654995918274,-0.04761392995715141,0.0008010512683540583,-0.0025795463006943464,-0.06510911881923676},{-0.07787778228521347,-0.020694462582468987,-0.018966123461723328,-0.045972030609846115,-0.014749394729733467},{-0.03608926385641098,-0.06442725658416748,-0.04549701511859894,-0.06697350740432739,-0.03538627177476883}},{{0.02535109966993332,0.040975723415613174,0.00017813072190620005,0.00503011979162693,-0.018571287393569946},{0.005114092957228422,-0.010765419341623783,-0.013580198399722576,0.011960340663790703,-0.02039751224219799},{-0.011566229164600372,-0.005981747526675463,-0.029716474935412407,-0.022468753159046173,0.036077626049518585},{-0.03534245491027832,0.017141593620181084,-0.006172508001327515,0.025941714644432068,-0.03241579234600067},{-0.003033811692148447,0.018375437706708908,0.025138728320598602,-0.01660328358411789,0.005564838647842407}}},{{{-0.04906269907951355,-0.05266553536057472,-0.06912696361541748,-0.017253629863262177,-0.05860585719347},{-0.005144842434674501,-0.026922745630145073,-0.022789379581809044,-0.06371407955884933,-0.013813246972858906},{0.0666751116514206,-0.01585586555302143,-0.07809272408485413,-0.05644439533352852,-0.020688725635409355},{0.02719918079674244,-0.07019605487585068,-0.07178231328725815,-0.01793733984231949,0.06476134806871414},{-0.04532701522111893,-0.05213146656751633,-0.009572693146765232,-0.013234364800155163,0.003201162675395608}},{{-0.027758736163377762,-0.018452834337949753,0.02358064241707325,0.023485692217946053,-0.035114847123622894},{0.003130379831418395,0.05517980828881264,-0.04536346718668938,0.0799289345741272,-0.010178457014262676},{0.008363702334463596,-0.02091323770582676,-0.0029181872960180044,-0.06918018311262131,-0.0574476383626461},{-0.024502458050847054,-0.003427059855312109,-0.03892446681857109,-0.008927664719522,-0.051608212292194366},{0.016169901937246323,-0.015667084604501724,-0.07216186821460724,-0.04585220664739609,-0.0036894476506859064}}},{{{-0.12441135942935944,-0.06769228726625443,0.253911554813385,0.2078256756067276,-0.1055760532617569},{0.049574580043554306,0.006084846332669258,0.2397318333387375,0.09361722320318222,-0.17729464173316956},{0.035778071731328964,0.028236089274287224,-0.023538468405604362,-0.09853490442037582,0.07878421992063522},{-0.032993998378515244,-0.20296820998191833,-0.1714514046907425,0.03183235228061676,0.1731252819299698},{0.08308102190494537,0.19220629334449768,0.12703238427639008,-0.15057852864265442,-0.044789984822273254}},{{0.11250997334718704,0.028906188905239105,-0.0042974622920155525,-0.18267379701137543,0.2069053202867508},{-0.03132295608520508,0.00995936430990696,0.17731982469558716,0.0513695627450943,-0.26652759313583374},{0.07634709030389786,-0.0525069460272789,-0.04320327192544937,-0.12342218309640884,-0.06867820769548416},{-0.19059090316295624,-0.2345784455537796,-0.01656181365251541,-0.04661036655306816,0.1070089116692543},{-0.05287296324968338,-0.11246427893638611,-0.09110844880342484,-0.010833256877958775,-0.00020981971465516835}}},{{{0.08081366866827011,0.02255941927433014,0.03082280606031418,0.03434755280613899,0.01944906637072563},{-0.011151056736707687,0.004934172611683607,0.07622348517179489,0.04500029608607292,0.06859734654426575},{0.04601215198636055,-0.07504307478666306,-0.14980393648147583,0.03803775832056999,0.0034546570386737585},{-0.16017721593379974,-0.0699167549610138,-0.01708930917084217,0.0255479346960783,-0.056816257536411285},{-0.18055576086044312,-0.11603373289108276,-0.031939346343278885,-0.05997443199157715,-0.09207651019096375}},{{-0.06143932789564133,-0.08245749026536942,0.015559384599328041,0.10594063997268677,0.017633700743317604},{0.11830553412437439,0.12221431732177734,0.09724850207567215,0.06328913569450378,-0.23655372858047485},{-0.1832641065120697,-0.15600675344467163,-0.07828860729932785,0.20204876363277435,0.0015688010025769472},{0.11232903599739075,0.08927761763334274,-0.038167912513017654,-0.10006082057952881,0.07583517581224442},{0.23685325682163239,-0.23132237792015076,-0.23636913299560547,0.20290859043598175,0.0130591606721282}}},{{{-0.049502432346343994,-0.005231729708611965,-0.011935753747820854,-0.021223485469818115,0.03692072629928589},{-0.07024724036455154,-0.0836821123957634,-0.001926265424117446,0.0031277677044272423,0.07048742473125458},{-0.06463851034641266,-0.08935699611902237,-0.047687459737062454,-0.06197211518883705,-0.046825286000967026},{0.09650527685880661,0.19046184420585632,0.040859051048755646,-0.011108992621302605,-0.01813465543091297},{0.037193067371845245,0.007023003417998552,-0.12425751984119415,-3.463558459770866e-05,-0.05330073833465576}},{{0.06723344326019287,0.07605411112308502,0.1235988587141037,0.03906618058681488,-0.05064281076192856},{-0.042401645332574844,-0.03951175883412361,-0.024331940338015556,-0.08068231493234634,-0.07505932450294495},{-0.06485440582036972,-0.04152388125658035,0.02877568081021309,0.019714783877134323,-0.010125542990863323},{0.02229667454957962,-0.04244425147771835,-0.01103978417813778,0.007407419383525848,0.09272497892379761},{0.03235538303852081,-0.027350828051567078,0.0007002240745350718,-0.024186691269278526,-0.027487171813845634}}},{{{0.045528873801231384,-0.01551252044737339,-0.0626232773065567,-0.07368075102567673,-0.02693636529147625},{-0.050720177590847015,-0.011628204956650734,-0.018215302377939224,-0.07762451469898224,-0.033707309514284134},{-0.03205243498086929,-0.04025772958993912,-0.02968502603471279,0.022910358384251595,-0.017325112596154213},{-0.06489680707454681,-0.042264923453330994,-0.03287807106971741,-0.07263333350419998,-0.026842940598726273},{-0.020828355103731155,-0.04222305491566658,-0.04627293348312378,0.042831748723983765,-0.073418028652668}},{{0.010904459282755852,-0.015437579713761806,0.038076914846897125,0.005394283682107925,0.005412326660007238},{0.0121816610917449,0.009477241896092892,0.025651829317212105,-0.022504236549139023,-0.024994760751724243},{0.016464242711663246,0.014798231422901154,0.03873389959335327,0.027145879343152046,0.0012403384316712618},{-0.006678941659629345,-0.012687412090599537,-0.0005190987139940262,-0.0007226720917969942,0.0011253146221861243},{0.005563285201787949,0.03673361614346504,-0.01995953358709812,-0.036710068583488464,0.027681473642587662}}},{{{-0.024285396561026573,0.0510193407535553,0.03759505972266197,0.05632809177041054,-0.13284407556056976},{0.0795874148607254,0.05221796780824661,0.14037592709064484,0.1112508699297905,-0.0655641034245491},{0.12771418690681458,0.040706586092710495,-0.07918526977300644,0.05818678066134453,0.02438022755086422},{-0.06179727613925934,-0.14358855783939362,-0.26484617590904236,0.09249439835548401,0.08363748341798782},{-0.04125285521149635,0.33251243829727173,0.1341792345046997,-0.153477743268013,-0.05846673250198364}},{{-0.03726760670542717,0.006978898774832487,0.12489039450883865,-0.014670638367533684,0.10985168814659119},{0.01278346125036478,-0.07736129313707352,0.09849667549133301,-0.004196446388959885,-0.17235766351222992},{-0.045586150139570236,-0.14429013431072235,-0.12009475380182266,-0.0670108050107956,0.03807317838072777},{-0.38829702138900757,-0.367081880569458,0.036727551370859146,0.014718728139996529,0.25834035873413086},{-0.08421116322278976,-0.13723565638065338,0.02561994269490242,-0.025499342009425163,-0.0497758723795414}}},{{{0.054588619619607925,0.011807562783360481,-0.04368837550282478,-0.07012070715427399,-0.05176139622926712},{-0.04347901791334152,-0.0343119278550148,0.007237425073981285,-0.03785419836640358,-0.05985341593623161},{-0.04665452614426613,-0.08129645138978958,-0.05151054635643959,0.0021221169736236334,0.06434234976768494},{-0.026123717427253723,-0.10479643195867538,-0.06676598638296127,-0.07135876268148422,0.029312914237380028},{0.00458147469907999,0.11449360102415085,0.07969311624765396,-0.04379425570368767,0.015428869985044003}},{{0.0078019918873906136,-0.020802447572350502,-0.02731863223016262,0.015852568671107292,0.03608161583542824},{0.006557490676641464,-0.022212369367480278,-0.052500057965517044,-0.05562328174710274,0.010793840512633324},{-0.012287747114896774,-0.04895046353340149,0.002835298888385296,-0.07570812851190567,-0.08298468589782715},{-0.014137744903564453,0.05034632980823517,-0.014276804402470589,-0.08197136968374252,-0.10992780327796936},{0.007827740162611008,-0.03416860103607178,-0.013042508624494076,-0.07564904540777206,-0.0580919124186039}}},{{{-0.5439271330833435,-1.2611092329025269,-0.7857468128204346,-0.180502250790596,0.022370487451553345},{-0.35813289880752563,-0.8556210398674011,-0.6522691249847412,0.19499577581882477,-0.12500186264514923},{-0.16862349212169647,-0.6957306861877441,-0.2687860131263733,0.5503066778182983,-0.13941481709480286},{-0.3786976933479309,-0.5855078101158142,-0.1018124595284462,0.25368019938468933,-0.578795850276947},{-0.2245209515094757,0.13222050666809082,0.40725353360176086,0.5998692512512207,-0.6667576432228088}},{{0.47143909335136414,0.055160365998744965,-0.02283162996172905,0.3222311735153198,-0.23336215317249298},{0.3721349239349365,-0.2614286243915558,-0.26833224296569824,0.42302173376083374,-0.22300200164318085},{0.39797812700271606,-0.05055515840649605,-0.2022620290517807,-0.14190277457237244,-0.30487579107284546},{0.29195520281791687,-0.15076524019241333,-0.29823336005210876,0.14814406633377075,0.1345328986644745},{-0.13939058780670166,-0.12494713068008423,-0.013521842658519745,0.13145016133785248,-0.046471256762742996}}},{{{0.023503540083765984,-0.07079430669546127,-0.11718437820672989,0.019511351361870766,0.02271851897239685},{-0.011694861575961113,0.11743094027042389,-0.07655126601457596,0.011244706809520721,-0.0038183405995368958},{-0.013742388226091862,-0.006569109857082367,-0.12149376422166824,-0.03457272797822952,-0.036343690007925034},{-0.04162721708416939,-0.026823226362466812,0.009865188039839268,-0.029748978093266487,-0.0552130863070488},{0.0005932851345278323,0.010322646237909794,0.06653770804405212,0.024247249588370323,-0.03859329968690872}},{{0.031568389385938644,-0.015162414871156216,0.04511251300573349,0.10083738714456558,-0.022108906880021095},{0.0687631145119667,-0.03824000433087349,-0.049001432955265045,-0.028006892651319504,-0.02409500442445278},{-0.016352737322449684,-0.013355797156691551,-0.018665699288249016,-0.026449954137206078,-0.04080885276198387},{0.06357598304748535,0.01789269782602787,-0.044549643993377686,-0.016111087054014206,0.000485391152324155},{-0.00882642436772585,0.009909315034747124,-0.004947850480675697,-0.07971090078353882,-0.016961023211479187}}},{{{-0.0893310010433197,-0.057904426008462906,0.003883455879986286,-0.018829992040991783,-0.022490236908197403},{-0.0671188086271286,-0.07850749790668488,-0.0007126907003112137,-0.03634524345397949,-0.08599094301462173},{0.004245146177709103,-0.02198701724410057,0.00826124008744955,-0.05634426698088646,-0.03721509128808975},{-0.07114151120185852,-0.1262689232826233,-0.027026141062378883,0.07672634720802307,0.030756134539842606},{-0.09290239959955215,-0.09471838176250458,-0.04375637695193291,0.025575783103704453,-0.09582637995481491}},{{0.012121699750423431,0.00214023026637733,0.19715818762779236,0.13145563006401062,0.03497854992747307},{-0.022422056645154953,0.08660943061113358,-0.038924094289541245,-0.03706501051783562,0.03570882976055145},{-0.13666445016860962,-0.004771885462105274,-0.011148910038173199,-0.17350918054580688,-0.33243459463119507},{-0.3345056176185608,-0.03717988356947899,-0.14913435280323029,-0.28596916794776917,-0.1598941534757614},{0.15182393789291382,0.03868585452437401,-0.1083996593952179,-0.04938727617263794,0.09128627181053162}}},{{{-0.04218294844031334,-0.047708045691251755,-0.006148222368210554,-0.025011826306581497,0.031588561832904816},{-0.04894925653934479,-0.05527868866920471,-0.023523926734924316,-0.0623428076505661,-0.07250077277421951},{-0.0871024951338768,-0.045548390597105026,-0.0031059870962053537,0.021262463182210922,-0.04696914926171303},{-0.08435577899217606,-0.04144509136676788,-0.03456089645624161,0.003532501170411706,-0.09434149414300919},{0.018794428557157516,-0.04631736874580383,-0.04085313156247139,-0.00012824792065657675,-0.04569832235574722}},{{-0.2316649854183197,-0.20860974490642548,-0.04292232543230057,0.10364929586648941,0.06855270266532898},{-0.3850899934768677,-0.03634535148739815,-0.001517120748758316,-0.049524642527103424,-0.3267768323421478},{0.04738200083374977,0.06865599751472473,0.009434696286916733,-0.08143873512744904,-0.42365720868110657},{0.1416967809200287,-0.14863023161888123,0.048749200999736786,-0.20656734704971313,0.019681593403220177},{-0.12866754829883575,0.19297359883785248,-0.1754031926393509,-0.1750311553478241,0.05537530407309532}}},{{{-0.028472525998950005,0.08234766870737076,0.0480896532535553,0.09979192167520523,0.08290431648492813},{0.07105987519025803,0.0420306995511055,0.03648987039923668,0.030783655121922493,0.062087103724479675},{0.07328138500452042,-0.020817959681153297,-0.115593321621418,-0.02488802932202816,0.05817846581339836},{0.029075108468532562,-0.04330046474933624,0.06847716867923737,0.08157294243574142,0.0162822138518095},{-0.031395651400089264,-0.06988326460123062,0.037148598581552505,0.1693350225687027,0.06299223750829697}},{{-0.16971103847026825,-0.18135665357112885,-0.10054439306259155,0.05261394754052162,-0.1654103696346283},{-0.1037069633603096,-0.03999042138457298,-0.06376121938228607,-0.04612407088279724,0.19723466038703918},{0.10490263998508453,-0.07546253502368927,0.2157546430826187,-0.20899280905723572,-0.07697096467018127},{0.0251320693641901,-0.17463745176792145,-0.017736351117491722,0.11201193928718567,0.008103897795081139},{0.2180178016424179,-0.047994766384363174,0.222903311252594,0.16835276782512665,-0.06599901616573334}}},{{{-0.5787697434425354,-0.6855310797691345,0.5038756132125854,0.19904479384422302,-0.1702600121498108},{-1.3922834396362305,-0.10330290347337723,0.11548027396202087,-0.061007458716630936,-0.3917178809642792},{0.08140651136636734,0.5052100419998169,0.1942201554775238,-0.1090828999876976,-0.3784686028957367},{0.32082822918891907,0.4892471432685852,-0.10133112967014313,-0.201264426112175,-0.61464923620224},{0.10874152183532715,-0.47518840432167053,-0.4524393677711487,0.1953592598438263,0.20517410337924957}},{{-0.1122196763753891,-0.32221004366874695,-0.003391791135072708,0.7182090282440186,0.3140416443347931},{-0.5980881452560425,-0.2853052020072937,0.2145683914422989,-0.1527491807937622,-0.08533429354429245},{-0.45964953303337097,0.2760554254055023,-0.01458181906491518,-0.5537326335906982,-0.30886536836624146},{0.23043052852153778,-0.060883164405822754,-0.3401173949241638,-0.030129002407193184,-0.11304746568202972},{-0.5223257541656494,-0.06557638198137283,0.013955497182905674,-0.1024460643529892,-0.11005654186010361}}},{{{0.03316941112279892,0.02724154107272625,0.15746434032917023,0.13684993982315063,0.053935419768095016},{-0.05578657239675522,-0.002015932695940137,0.027141530066728592,0.061727773398160934,0.007216323167085648},{0.017090052366256714,-0.10158074647188187,-0.06580346077680588,0.038591526448726654,0.007916275411844254},{0.022326581180095673,-0.05779855698347092,0.028215276077389717,0.09157534688711166,0.03316471725702286},{0.0020294059067964554,-0.12812764942646027,-0.0898439884185791,0.08000006526708603,0.0386275015771389}},{{-0.010871382430195808,0.03206266462802887,0.06111195683479309,-0.004111096262931824,0.04749443009495735},{0.015635743737220764,0.0006416336400434375,0.06135392561554909,0.020935507491230965,-0.1052447184920311},{0.04878273978829384,0.06478290259838104,0.021880602464079857,0.029708044603466988,-0.10529172420501709},{-0.05135558173060417,-0.07036838680505753,0.03457020968198776,-0.07358400523662567,0.00020231970120221376},{-0.019163111224770546,0.01625540852546692,0.0027638261672109365,0.055127035826444626,0.06619653105735779}}},{{{-0.018264854326844215,-0.019301733002066612,-0.03541380167007446,-0.06260444968938828,-0.006728679873049259},{-0.04446917399764061,-0.02891697734594345,-0.029889462515711784,-0.00587124191224575,-0.03159911185503006},{-0.0025995231699198484,-0.0012397924438118935,-0.053964994847774506,-0.05072544142603874,-0.04205168038606644},{-0.03628992289304733,-0.0033940544817596674,-0.047563839703798294,-0.051691945642232895,-0.02976885251700878},{-0.0015657743206247687,-0.042006656527519226,-0.07169924676418304,-0.0002141456789104268,0.0004725152684841305}},{{-0.02919575944542885,-0.02495441772043705,-0.01947687193751335,0.04267529770731926,0.018879862502217293},{-0.019929463043808937,0.0016982874367386103,-0.03360675647854805,0.008516059257090092,0.01377013511955738},{0.01161946076899767,-0.030908875167369843,-0.001000748947262764,-0.002899913117289543,0.030031820759177208},{0.004950416274368763,0.02752065472304821,0.0339699424803257,0.0333435945212841,0.029366837814450264},{0.006033041048794985,-0.001721247797831893,0.013851222582161427,0.032216351479291916,-0.034891337156295776}}},{{{-0.01922990195453167,-0.06364279985427856,-0.0477452427148819,-0.05792374536395073,-0.013637352734804153},{-0.06581462174654007,-0.08698558062314987,-0.06311028450727463,-0.05995866656303406,-0.06131355091929436},{-0.05761414393782616,-0.10213100165128708,-0.04657990112900734,-0.044397786259651184,0.00023258832516148686},{-0.014137865044176579,-0.04137381911277771,-0.10298137366771698,-0.02574063092470169,-0.05925823375582695},{-0.022308066487312317,-0.029760222882032394,-0.09831905364990234,-0.10292284935712814,-0.09353970736265182}},{{-0.014086759649217129,0.09768432378768921,0.014800405129790306,0.05425040423870087,-0.04722078889608383},{-0.08000165224075317,0.09595321118831635,-0.007871946319937706,0.2076176553964615,-0.30375874042510986},{0.0740819200873375,0.03451867774128914,-0.20175325870513916,0.15582428872585297,0.09908811002969742},{-0.04655909538269043,-0.03096916526556015,0.1754603087902069,0.07467735558748245,-0.07966315001249313},{0.0037301366683095694,-0.23925121128559113,0.16092774271965027,-0.08264664560556412,-0.23726478219032288}}},{{{-0.006888627074658871,-0.019652336835861206,-0.06099369749426842,-0.06745502352714539,-0.011792657896876335},{-0.02082928642630577,-0.06343568116426468,-0.03130926936864853,0.021419726312160492,0.035541124641895294},{-0.06378528475761414,0.05887884646654129,-0.03493611887097359,-0.02281629852950573,0.030976176261901855},{-0.07405415177345276,-0.032004475593566895,-0.03867346793413162,-0.027471186593174934,0.06109648197889328},{-0.04666898027062416,-0.05635508522391319,-0.043144043534994125,-0.0389685221016407,0.0008260360336862504}},{{0.002194833243265748,-0.020721152424812317,-0.004338160157203674,-0.01350658293813467,-0.01882587932050228},{0.031624745577573776,-0.01834440790116787,-0.011668100021779537,-0.05289273336529732,-0.051461391150951385},{0.023656535893678665,-0.0683598518371582,-0.01840105652809143,-0.03057769127190113,-0.06162652745842934},{0.041020799428224564,-0.07601099461317062,-0.014199472963809967,-0.03540791571140289,-0.01920711062848568},{-0.016452224925160408,-0.04854242131114006,-0.04901683330535889,-0.046823881566524506,-0.013129564933478832}}},{{{-0.02300269342958927,0.015356265008449554,-0.04139008745551109,-0.02699950709939003,0.01270146481692791},{-0.010636724531650543,0.01896016299724579,-0.1701657921075821,-0.07186498492956161,-0.029538799077272415},{0.1839187890291214,0.06682577729225159,0.05857062712311745,0.0943831205368042,0.01768212579190731},{-0.038084354251623154,0.02340792492032051,1.2423195585142821e-05,-0.01392671000212431,-0.030670318752527237},{-0.05147746950387955,-0.009576404467225075,-0.060259800404310226,0.048975761979818344,0.03460099920630455}},{{-0.07508637011051178,0.21649661660194397,-0.20999541878700256,-0.06530153751373291,-0.03398153558373451},{-0.04625490680336952,-0.04251377657055855,0.1951993852853775,-0.03883305564522743,-0.08272895961999893},{-0.2839379906654358,0.028823314234614372,-0.12048687785863876,-0.08450324833393097,-0.010554755106568336},{-0.17937146127223969,0.25734856724739075,-0.11838962882757187,0.15520894527435303,0.08583595603704453},{0.05434903874993324,0.08741296827793121,-0.22954045236110687,-0.27170705795288086,-0.20858900249004364}}},{{{-0.0686350017786026,0.025243734940886497,0.1393713802099228,0.19455993175506592,0.10632581263780594},{0.11062581092119217,-0.03641612455248833,-0.036681920289993286,-0.03727973252534866,0.08347389101982117},{0.26935163140296936,0.03862704709172249,0.018452128395438194,-0.0534018874168396,-0.04955068603157997},{0.07127995043992996,0.12407665699720383,-0.016097886487841606,-0.05103815346956253,-0.043430399149656296},{-0.08882198482751846,0.05231179669499397,0.09892658144235611,-0.010064234025776386,-0.02701336331665516}},{{-0.1560295820236206,0.01395527832210064,-0.09987621009349823,-0.025596268475055695,-0.0013601940590888262},{-0.18514741957187653,-0.1665375828742981,0.09183215349912643,-0.0030301325023174286,0.12219060957431793},{-0.04998715594410896,-0.10309198498725891,0.08406634628772736,-0.07754222303628922,-0.10246751457452774},{-0.006250779144465923,-0.05817265808582306,-0.07744314521551132,-0.06242155283689499,-0.017561133950948715},{0.046673838049173355,0.07743458449840546,0.1067831739783287,-0.006800830829888582,-0.2655913233757019}}},{{{-1.3600865602493286,-1.0833945274353027,-0.0037454853300005198,0.00786285474896431,0.24358907341957092},{-0.4140463173389435,-0.10554993897676468,-0.35944998264312744,0.25892528891563416,0.19775597751140594},{0.09866617619991302,-0.037311017513275146,-0.03211324289441109,0.19075532257556915,0.08057667315006256},{0.037971124053001404,-0.11212045699357986,0.14868129789829254,-0.13792087137699127,-0.11948262155056},{-0.0515466034412384,0.22772473096847534,0.4419440031051636,-0.09718328714370728,-0.21116958558559418}},{{-0.03269604593515396,-0.19232571125030518,-0.163909450173378,-0.07512979209423065,-0.017356930300593376},{-0.6203200221061707,-0.07742638140916824,0.26778721809387207,0.2738202214241028,0.35853418707847595},{-0.21630464494228363,0.09243354946374893,-0.20896421372890472,0.27276965975761414,0.040000125765800476},{-0.15033651888370514,-0.042738981544971466,0.003004593774676323,0.22062425315380096,-0.019670292735099792},{-0.10014161467552185,0.05916590616106987,0.1548742949962616,0.18799638748168945,0.145964115858078}}},{{{-0.008786063641309738,0.000131019318359904,-0.03874771669507027,-0.0438118614256382,-0.04096619412302971},{-0.004786111414432526,-0.007175529841333628,-0.020781200379133224,-0.050946079194545746,-0.06762618571519852},{-0.02973087504506111,-0.03350009024143219,-0.011529937386512756,-0.03677535057067871,-0.06337035447359085},{-0.003010429907590151,-0.03473226726055145,-0.02334602177143097,-0.011011696420609951,-0.035963814705610275},{-0.06255775690078735,-0.004724888596683741,-0.07243546843528748,-0.07372277975082397,-0.021383173763751984}},{{0.035836778581142426,-0.015304803848266602,-0.037306539714336395,0.020319143310189247,-0.012278338894248009},{0.030292347073554993,0.034030087292194366,-0.004086548928171396,0.0035893553867936134,0.01938718557357788},{0.03178785368800163,-0.025084979832172394,0.008268418721854687,-0.02520911581814289,0.006648920942097902},{-0.010917140170931816,0.02095285803079605,-0.012415891513228416,-0.01791274920105934,-0.01630064845085144},{0.005682964343577623,0.004098072648048401,-0.025449402630329132,-0.040133748203516006,-0.004752823617309332}}},{{{-0.019885631278157234,-0.052696432918310165,-0.022067051380872726,-0.004892583936452866,-0.056701645255088806},{-0.009785289876163006,0.02468273974955082,-0.04749065265059471,0.04514341801404953,-0.02065395563840866},{-0.04055438190698624,0.027195360511541367,-0.0459238700568676,0.03406599536538124,0.06617697328329086},{-0.020674029365181923,-0.009859489277005196,-0.04794451594352722,-0.07838445901870728,-0.03756927698850632},{-0.07184663414955139,-0.013625580817461014,-0.0348888635635376,-0.05846300348639488,-0.0024108137004077435}},{{-0.02934878319501877,0.01695348136126995,0.01292629074305296,-0.027534987777471542,-0.011007281020283699},{-0.0319216251373291,0.0388701967895031,-0.03677516058087349,-0.06790142506361008,-0.05285923182964325},{-0.0009441017173230648,-0.026614587754011154,0.019182149320840836,-0.015554734505712986,-0.04853280261158943},{-0.02125583589076996,-0.047920867800712585,-0.045792028307914734,-0.00012174495350336656,-0.007706777658313513},{-0.0007075576577335596,-0.019139844924211502,-0.04621409624814987,-0.05692426487803459,-0.011667073704302311}}},{{{-0.09260644018650055,-0.1168263852596283,0.03603874146938324,-0.029945742338895798,0.01349901594221592},{0.03608829528093338,-0.11443518847227097,0.008565065450966358,-0.03458578884601593,-0.0010971492156386375},{0.01141125988215208,0.011628096923232079,-0.01223631389439106,-0.11026233434677124,-0.05109955370426178},{-0.05480020493268967,0.053486671298742294,0.028596222400665283,-0.09282563626766205,-0.07947088032960892},{-0.0942792296409607,-0.03820544481277466,-0.00924967136234045,0.0024156863801181316,-0.023899761959910393}},{{-0.026114432141184807,-0.04421412572264671,0.15681657195091248,0.12027117609977722,0.0408484973013401},{-0.2674252390861511,-0.18857645988464355,0.0656864121556282,0.05544259399175644,-0.1905745416879654},{-0.11310840398073196,-0.08816151320934296,0.08557071536779404,-0.042789436876773834,0.21476960182189941},{-0.09784995764493942,-0.21599338948726654,-0.0829225704073906,-0.05413888394832611,0.028812674805521965},{-0.10032381117343903,0.1535436362028122,0.04007911682128906,0.014366389252245426,-0.03329494222998619}}},{{{0.008857154287397861,-0.005847164895385504,-0.02142653986811638,-0.010421192273497581,0.0005940147675573826},{-0.010186729021370411,0.03253142163157463,-0.025283189490437508,-0.07054366916418076,0.0190394539386034},{-0.0133940689265728,0.032505374401807785,-0.03135034069418907,0.03611619770526886,-0.037379104644060135},{-0.008541427552700043,-0.036275237798690796,-0.04311341419816017,-0.0534028559923172,-0.03500866889953613},{0.02332056313753128,-0.032830167561769485,-0.014228841289877892,-0.04038960859179497,-0.022750211879611015}},{{-0.01996733620762825,0.007167246658354998,-0.006321560591459274,-0.07596389204263687,0.003577048424631357},{-0.015703292563557625,0.015335309319198132,-0.07288061827421188,-0.004578622058033943,-0.003010302083566785},{-0.026058213785290718,-0.006924579851329327,0.022057784721255302,-0.012738510966300964,0.0016152937896549702},{0.03064930997788906,-0.07910076528787613,-0.008268711157143116,-0.06212937459349632,-0.03836047649383545},{-0.007565653882920742,-0.019996371120214462,0.001377386157400906,-0.030392387881875038,0.00452739791944623}}},{{{-0.041283246129751205,0.031091773882508278,0.018464883789420128,0.014132633805274963,-0.033786628395318985},{0.004843804053962231,-0.029929572716355324,-0.0237684678286314,-0.03670763596892357,-0.061298128217458725},{-0.009518289938569069,-0.03460030257701874,-0.004408787935972214,-0.04323221743106842,-0.031089548021554947},{-0.041423145681619644,-0.016667339950799942,-0.022666260600090027,-0.03050200082361698,-0.02707667648792267},{0.005093039479106665,-0.046876147389411926,-0.026771673932671547,0.016496585682034492,-0.0028492254205048084}},{{-0.12612058222293854,0.01218939945101738,0.07632171362638474,-0.012323737144470215,-0.024328062310814857},{-0.16877897083759308,-0.3577924966812134,-0.07834656536579132,0.0220977570861578,0.14418236911296844},{-0.05628136917948723,-0.1337232142686844,0.04372905194759369,0.04611494764685631,-0.06137857958674431},{-0.08411156386137009,-0.11723044514656067,-0.18534576892852783,-0.001058452297002077,-0.017570318654179573},{-0.07141587883234024,-0.04266493022441864,0.03511335328221321,-0.05814215540885925,-0.03701404109597206}}},{{{-0.08146771043539047,-0.015651926398277283,0.022173086181282997,-0.08477538824081421,0.024402160197496414},{0.033520642668008804,0.04127253219485283,-0.06320934742689133,-0.0036475493106991053,0.007395315449684858},{-0.09438186138868332,-0.028095312416553497,-0.03736644610762596,-0.06178966164588928,-0.03894449770450592},{-0.08849479258060455,0.06739850342273712,0.08801955729722977,-0.011806492693722248,-0.07057207822799683},{-0.06065940856933594,-0.03966701403260231,0.0972035825252533,0.02527722902595997,-0.03857739642262459}},{{0.15245047211647034,0.11804527789354324,0.20326058566570282,-0.39762577414512634,-0.9623779654502869},{-0.658696711063385,-0.471120685338974,-0.17934550344944,0.1070529893040657,-0.09645796567201614},{0.5509454607963562,0.4622357487678528,-0.10180702060461044,0.12778626382350922,0.0433214046061039},{0.2933187782764435,-0.12861037254333496,-0.2965468764305115,0.19427232444286346,0.10061568021774292},{-0.3707554042339325,-0.14115676283836365,-0.32123884558677673,-0.26343834400177,0.04111161455512047}}},{{{0.049016550183296204,0.019359173253178596,-0.0074976165778934956,0.006994188297539949,-0.06018328666687012},{0.01837545447051525,-0.020492788404226303,-0.03609524667263031,-0.00016615874483250082,0.00035609552287496626},{-0.053663674741983414,-0.06327853351831436,-0.012580286711454391,-0.035337913781404495,0.05395989492535591},{-0.008045444265007973,-5.6256769312312827e-05,-0.031823042780160904,-0.014762602746486664,0.06681811064481735},{-0.05853340029716492,0.017746396362781525,-0.07508394867181778,-0.0743652805685997,-0.02133740484714508}},{{-0.029277853667736053,0.014907270669937134,-0.028462301939725876,-0.01814338006079197,-0.06790110468864441},{0.024681156501173973,-0.05270643159747124,-0.002844424219802022,-0.01722544990479946,-0.07502011209726334},{-0.004501332528889179,0.039934903383255005,0.05768116936087608,-0.039238132536411285,-0.038945045322179794},{0.01654014363884926,0.0801464319229126,0.0016116605838760734,-0.01016403827816248,-0.005607441067695618},{-0.02343769557774067,-0.05593705177307129,-0.015284485183656216,-0.052735164761543274,-0.07939441502094269}}},{{{-0.015678880736231804,-0.003448797855526209,-0.0710238367319107,-0.020639054477214813,0.02182029001414776},{-0.0320771187543869,-0.05492907762527466,-0.009125285781919956,-0.028377370908856392,0.08009705692529678},{-0.018582133576273918,-0.00914062187075615,-0.057369302958250046,-0.06563008576631546,0.0010263535659760237},{-0.023175163194537163,0.016079628840088844,0.022425072267651558,-0.0456928052008152,0.0029315657448023558},{-0.058502983301877975,-0.0714917778968811,-0.07411596924066544,-0.017566252499818802,-0.017151247709989548}},{{0.013530651107430458,0.019115926697850227,0.01080289389938116,-0.018593451008200645,-0.01294948160648346},{-0.003700233530253172,-0.03950615972280502,-0.01828869991004467,-0.028666863217949867,-0.06761922687292099},{-0.028897827491164207,-0.02598901465535164,-0.061981502920389175,-0.05618162453174591,-0.01979443058371544},{-0.004549237433820963,0.020807603374123573,-0.011875582858920097,-0.03994745761156082,-0.006224511191248894},{-0.021833527833223343,-0.05411473661661148,0.03442452847957611,-0.06563831120729446,-0.045303795486688614}}},{{{-0.06534998118877411,-0.046737078577280045,0.012835698202252388,-0.07711242884397507,-0.02836696244776249},{-0.06420683860778809,-0.03157871589064598,-0.07810310274362564,-0.017079317942261696,-0.014547571539878845},{-0.05380094051361084,-0.05669568106532097,0.014179445803165436,0.018576117232441902,-0.04630013927817345},{0.005993902683258057,-0.031292397528886795,0.0032138165552169085,-0.04778014495968819,0.005585681181401014},{-0.07309114933013916,0.03758683055639267,-0.04706738516688347,0.00455067353323102,-0.05040282383561134}},{{-0.02997950091958046,0.0022937734611332417,0.00572208734229207,0.036277689039707184,0.02820686809718609},{-0.01674686372280121,-0.06408387422561646,0.014001324772834778,0.008616391569375992,-0.027986658737063408},{0.016548197716474533,-0.015091372653841972,-0.0034675900824368,0.06954921036958694,-0.03376120701432228},{-0.03847246617078781,0.061378344893455505,-0.04349476844072342,-0.007786628790199757,-0.03581647202372551},{-0.021972913295030594,0.0845242589712143,-0.01960688829421997,0.022504029795527458,-0.0636344775557518}}},{{{0.07544129341840744,-0.019216744229197502,0.05272689461708069,-0.07379993051290512,-0.022737158462405205},{-0.13728241622447968,0.08932933956384659,-0.007721485570073128,0.034548621624708176,-0.005655731540173292},{0.006774991285055876,-0.11397270113229752,-0.12569695711135864,0.04726926609873772,0.12911860644817352},{-0.027732830494642258,-0.14766301214694977,-0.036182235926389694,0.08229674398899078,0.05749400705099106},{-0.0511750727891922,-0.2292710840702057,-0.12306967377662659,0.09776011109352112,0.02143024653196335}},{{0.06422334909439087,0.05911966413259506,0.17759117484092712,-0.04350224509835243,0.11097437888383865},{0.06462869048118591,0.06420427560806274,-0.1915183812379837,0.010448580607771873,-0.05637950077652931},{-0.42667528986930847,0.182032972574234,-0.1666557639837265,0.10779385268688202,-0.39732590317726135},{-0.2523571848869324,0.05324726179242134,-0.006020067259669304,0.20968882739543915,-0.24086689949035645},{0.1871250569820404,-0.1175752505660057,-0.2806912362575531,0.11649315804243088,0.07212469726800919}}},{{{0.0357242189347744,0.06795071810483932,0.16419845819473267,0.08882288634777069,-0.06360071152448654},{0.020814811810851097,0.10600028932094574,0.10898760706186295,-0.0405740849673748,-0.20286257565021515},{-0.17021305859088898,-0.4174349009990692,-0.15154065191745758,-0.11930163204669952,-0.06210511922836304},{-0.11905714124441147,-0.5522650480270386,-0.2879091203212738,-0.10878010839223862,-0.023322686553001404},{0.10590134561061859,0.16771651804447174,0.20204147696495056,0.12678088247776031,0.09117366373538971}},{{0.03261739760637283,0.029786236584186554,-0.03223259747028351,0.12817871570587158,-0.005010784137994051},{-0.3475346565246582,-0.08212780952453613,-0.06067900359630585,-0.06603743880987167,-0.05414040386676788},{-0.14881335198879242,0.015591959469020367,0.20604877173900604,-0.10648611932992935,-0.2481321394443512},{0.10509594529867172,0.06497492641210556,0.06436923146247864,-0.02102963998913765,-0.18640583753585815},{0.19504810869693756,0.08668222278356552,0.03897639364004135,0.09320741146802902,-0.04701509326696396}}},{{{-1.0714130401611328,-0.7486862540245056,-0.30912357568740845,-0.32550865411758423,-0.2142103910446167},{-0.56827312707901,-0.6816200017929077,-0.2437252253293991,-0.24515563249588013,-0.24860821664333344},{0.006777224130928516,-0.6435266733169556,-0.12135917693376541,0.3521307706832886,0.3228892982006073},{-0.3227555453777313,-0.6520389318466187,-0.001258694683201611,-0.3494560420513153,-0.6549353003501892},{-0.2674812376499176,-0.17650017142295837,0.21594542264938354,-0.08725067228078842,0.0011746844975277781}},{{0.1699146181344986,-0.005284352693706751,0.0939091145992279,-0.16415666043758392,-0.008413216099143028},{0.23345477879047394,-0.6600887775421143,-0.08759520947933197,-0.13444869220256805,-0.363751620054245},{-0.27941861748695374,-0.5427073836326599,-0.44497594237327576,-0.47429540753364563,-0.014115894213318825},{-0.8574341535568237,-0.5630179643630981,-0.2185048758983612,-0.019585546106100082,0.015216133557260036},{0.15895390510559082,0.018502235412597656,0.16996333003044128,-0.13374704122543335,-0.4067901372909546}}},{{{-0.10836483538150787,0.05414824187755585,0.1434485912322998,0.04192109778523445,-0.159541055560112},{0.03962435573339462,-0.04367979243397713,7.683879812248051e-05,-0.11656279116868973,-0.11346014589071274},{0.09844185411930084,0.09311191737651825,0.04639566317200661,0.024617822840809822,-0.09054762125015259},{0.042942024767398834,-0.11291593313217163,-0.06615719199180603,-0.15373441576957703,0.01162136159837246},{0.06594844907522202,0.36055827140808105,0.10538233816623688,-0.11361511796712875,-0.0744861513376236}},{{0.15074193477630615,0.044552743434906006,-0.07890019565820694,0.036128848791122437,0.07335381209850311},{-0.0010828488739207387,-0.042711108922958374,-0.04324768856167793,-0.10051006823778152,-0.1648968905210495},{-0.01942610926926136,0.1292962282896042,0.019081054255366325,-0.10130812972784042,0.20421993732452393},{-0.021316442638635635,-0.019538531079888344,0.09125020354986191,-0.07032235711812973,0.1162828877568245},{-0.028718560934066772,0.019569236785173416,0.015252061188220978,-0.12217015773057938,-0.013176552020013332}}},{{{0.0062191663309931755,-0.047014493495225906,-0.08880434930324554,-0.05505169555544853,0.06281954050064087},{-0.04914100095629692,-0.0552765391767025,-0.08407711982727051,0.012168165296316147,-0.009941091760993004},{-0.03455318883061409,-0.08690623193979263,-0.10088899731636047,-0.0878337025642395,0.06582529097795486},{0.13559623062610626,0.19451555609703064,0.08503138273954391,0.012080361135303974,0.020801104605197906},{-0.11039981245994568,-0.08754053711891174,-0.1269741654396057,-0.07572823017835617,0.03829416260123253}},{{0.07032307237386703,-0.03330634906888008,0.031219905242323875,-0.050165798515081406,-0.00717123132199049},{0.08800719678401947,0.04945043474435806,-0.03156957030296326,-0.08023091405630112,0.03536992520093918},{-0.07176897674798965,-0.04707909747958183,-0.07939916849136353,-0.0522109679877758,0.09935857355594635},{0.04439249262213707,0.05465059354901314,-0.021213967353105545,-0.09306886792182922,-0.054887302219867706},{0.03838180750608444,-0.07537967711687088,-0.039042674005031586,-0.11711236089468002,0.018967989832162857}}},{{{-0.028478609398007393,-0.018083995208144188,-0.03983857482671738,0.019072063267230988,0.07940127700567245},{-0.007699263282120228,0.05328796058893204,0.014042687602341175,0.09773149341344833,0.04371423274278641},{-0.055867090821266174,-0.02787441574037075,-0.026838703081011772,0.04856561869382858,0.047845643013715744},{-0.05257433280348778,0.0037765013985335827,-0.08472678810358047,-0.02593376860022545,0.014600236900150776},{0.07355630397796631,0.004204654134809971,-0.052308399230241776,-0.01407636608928442,-0.023798281326889992}},{{-0.02498776651918888,0.044697608798742294,0.01805373840034008,-0.018471363931894302,0.04047948867082596},{-0.014156205579638481,-0.02279590256512165,0.024239959195256233,-0.05360760912299156,0.09118787944316864},{-0.007106398232281208,0.05820876732468605,-0.07057137787342072,0.06779060512781143,-0.018931696191430092},{0.039017997682094574,0.04614463075995445,0.021447332575917244,-0.018489008769392967,-0.08847945928573608},{-0.032839156687259674,0.04557108134031296,-0.03821558505296707,-0.013772174715995789,-0.05576273426413536}}},{{{-0.02458927594125271,-0.032379403710365295,-0.03673741966485977,-0.07005475461483002,-0.026006709784269333},{-0.04526512697339058,-0.04070933908224106,-0.0688844621181488,-0.05560126528143883,-0.011941035278141499},{0.05999551713466644,-0.0728006511926651,-0.016134172677993774,-0.06613681465387344,-0.004312800709158182},{0.025562478229403496,-0.002127703046426177,-0.01750277727842331,-0.004591210279613733,0.02554362639784813},{-0.0486062653362751,0.004568643867969513,-0.07848911732435226,-0.03772619739174843,0.02006174996495247}},{{-0.015045760199427605,0.03576232120394707,-0.007718260865658522,-0.003916813991963863,-0.0324513241648674},{0.01812146231532097,0.022572165355086327,-0.06073106825351715,-0.006267795339226723,-0.028590651229023933},{0.0008435135241597891,-0.02576327882707119,-0.053927063941955566,-0.07677492499351501,0.016526274383068085},{-0.0018037674017250538,0.010988786816596985,0.036770716309547424,-0.010639389976859093,0.07245244085788727},{0.024287892505526543,-0.06335475295782089,-0.026526598259806633,-0.05206555873155594,0.022779447957873344}}},{{{0.030529974028468132,0.08468814194202423,0.07048404216766357,0.026311254128813744,0.03780197724699974},{-0.07162817567586899,-0.08949434757232666,-0.020673401653766632,-0.12659752368927002,0.025423245504498482},{0.025558091700077057,0.11784536391496658,0.20239922404289246,0.012167478911578655,-0.12277515977621078},{-0.11872662603855133,-0.06831054389476776,-0.021869514137506485,-0.08213365823030472,-0.08580663800239563},{0.04514677822589874,-0.04812050610780716,-0.024060772731900215,0.015279862098395824,0.00841599889099598}},{{-0.18910180032253265,-0.010629742406308651,-0.09871578961610794,-0.07497599720954895,-0.12282393127679825},{-0.15181812644004822,-0.21515820920467377,0.07496797293424606,-0.06400438398122787,0.03706279769539833},{0.18071360886096954,0.2272978574037552,-0.030063346028327942,0.02384420484304428,0.0059166718274354935},{0.08422776311635971,0.06441693007946014,0.025599587708711624,-0.021838286891579628,-0.17232997715473175},{-0.05545930936932564,-0.048057109117507935,0.02467682771384716,0.18466250598430634,0.02551836334168911}}},{{{0.005659425165504217,-0.09658683836460114,-0.14302527904510498,-0.03537660464644432,-0.06816677004098892},{0.018292512744665146,0.01929539069533348,-0.11584298312664032,-0.04566999524831772,-0.08152900636196136},{-0.12049564719200134,-0.008817271329462528,0.03717859834432602,-0.05429843068122864,-0.04947327822446823},{-0.09127800911664963,0.015573899261653423,0.05930414795875549,-0.04066619649529457,0.01796792261302471},{-0.03680015727877617,-0.026505617424845695,0.08734052628278732,0.06450402736663818,-0.046013325452804565}},{{0.030849944800138474,-0.12324609607458115,-0.011439169757068157,0.12296159565448761,-0.15958894789218903},{0.015307044610381126,-0.0442042350769043,-0.028125176206231117,0.1406412571668625,-0.07876665890216827},{0.05751361697912216,0.055707477033138275,-0.07319170236587524,0.11875057220458984,-0.05245906487107277},{0.05489686504006386,0.006712810136377811,-0.10963068157434464,0.06686055660247803,-0.013498500920832157},{0.07033131271600723,-0.022169966250658035,-0.06790831685066223,-0.08252065628767014,-0.05489807948470116}}},{{{-0.09381232410669327,-0.11551184952259064,-0.020685574039816856,0.006008680909872055,0.0016334549291059375},{-0.057147666811943054,-0.08172617107629776,-0.05840695649385452,-0.010031250305473804,0.011962893418967724},{-0.10175138711929321,0.014093413949012756,-0.0007759259315207601,-0.10097378492355347,-0.022233357653021812},{-0.02513010799884796,-0.03287367895245552,-0.00890217162668705,-0.051785651594400406,-0.048855170607566833},{-0.05323001369833946,-0.061257921159267426,-0.03036157414317131,-0.03807732090353966,-0.037496887147426605}},{{-0.019923245534300804,0.0867597907781601,0.041999779641628265,0.0526190809905529,-0.03519180789589882},{-0.04189297556877136,-0.17489080131053925,0.02708275057375431,0.10309845209121704,-0.20660388469696045},{-0.05088101327419281,-0.061070166528224945,0.06836536526679993,0.008076098747551441,-0.10794511437416077},{0.04752502217888832,-0.022329753264784813,-0.040505196899175644,0.1010938212275505,0.014636281877756119},{-0.15146641433238983,0.05308912321925163,-0.07230677455663681,0.0972956195473671,0.042268771678209305}}},{{{-2.1857075691223145,-0.8868089914321899,0.13919927179813385,0.2494846135377884,0.6187121868133545},{-0.38046061992645264,-0.09189550578594208,0.13879112899303436,0.29639047384262085,0.5786532163619995},{0.4846065938472748,0.22385051846504211,0.08378151804208755,-0.07668062299489975,0.09960195422172546},{-0.06046014651656151,0.032173722982406616,-0.033863577991724014,-0.24486654996871948,-0.3790166676044464},{0.03366650640964508,0.16613291203975677,-0.06255068629980087,0.07017072290182114,-0.04336458817124367}},{{-0.3207949101924896,-0.16985681653022766,0.29107552766799927,0.02587433159351349,-0.2776424288749695},{-0.2940770983695984,-0.141577810049057,0.3098076283931732,0.27331995964050293,0.3983787000179291},{0.054890695959329605,-0.06547382473945618,-0.024083396419882774,0.18010030686855316,0.06304408609867096},{-0.10846076905727386,0.01092656422406435,0.13926471769809723,0.09625755250453949,-0.07470407336950302},{-0.06752938032150269,-0.5609994530677795,-0.028745226562023163,-0.09708297997713089,-0.2618503272533417}}},{{{-0.09713032841682434,-0.2206050157546997,-0.1436735987663269,-0.08818675577640533,-0.1965111941099167},{-0.23690158128738403,-0.15220308303833008,0.019894380122423172,-0.11345991492271423,-0.40100550651550293},{-0.17512887716293335,-0.2540200650691986,-0.10711167752742767,0.1439201980829239,-0.012101678177714348},{0.19398729503154755,0.24111449718475342,0.19808796048164368,0.0029393441509455442,0.05735742300748825},{0.11383433640003204,0.08925262838602066,-0.010172459296882153,0.09235592931509018,0.11946853250265121}},{{0.04297291859984398,0.0640035942196846,-0.13289156556129456,-0.005134539678692818,-0.02627597190439701},{-0.3697161376476288,-0.09051617980003357,0.04061034694314003,0.09310708940029144,0.27805185317993164},{-0.6378586292266846,-0.07875187695026398,-0.02231973223388195,0.07847635447978973,-0.06635332107543945},{-0.018355445936322212,0.0171110350638628,-0.026320915669202805,-0.10538110136985779,-0.08961699157953262},{0.16494210064411163,0.25946834683418274,0.05508475750684738,0.06273332238197327,0.1974146068096161}}},{{{0.022420493885874748,0.040832873433828354,0.011283124797046185,0.032798100262880325,0.06092796102166176},{0.0028713082429021597,0.06724654138088226,-0.0006114016869105399,0.06192397326231003,0.031336452811956406},{-0.09141771495342255,-0.06839918345212936,-0.053829267621040344,-0.061089061200618744,-0.07585969567298889},{-0.07179159671068192,0.08288665860891342,0.0006238471833057702,-0.018496502190828323,-0.06882963329553604},{0.004155352246016264,-0.040364451706409454,-0.030426422134041786,-0.06436342000961304,-0.07592184096574783}},{{-0.03577408567070961,0.031984277069568634,0.029239516705274582,0.021740738302469254,0.007836868986487389},{0.021810930222272873,-0.012140877544879913,-0.002704663434997201,-0.0375882163643837,0.05830824747681618},{-0.0191813837736845,-0.05782031640410423,0.005213820841163397,-0.013341359794139862,-0.0411088764667511},{0.02528485283255577,0.013925648294389248,-0.0356137752532959,0.029798725619912148,0.08923164755105972},{-0.02829337678849697,-0.002697948832064867,-0.019561436027288437,-0.09324125945568085,-0.05981104075908661}}},{{{-0.06255634874105453,-0.059171177446842194,-0.06112547591328621,0.0317099504172802,-0.005801902152597904},{-0.01568845473229885,0.0564279705286026,-0.021759169176220894,-0.013920045457780361,0.03301863372325897},{-0.08131317794322968,-0.07535307854413986,-0.0538298524916172,-0.05130193009972572,-0.08959753066301346},{-0.043024368584156036,0.03389892354607582,-0.025685660541057587,0.05294308811426163,0.0557393953204155},{-0.015020964667201042,-0.015204905532300472,-0.021342333406209946,-0.014902015216648579,-0.018727116286754608}},{{0.14747212827205658,0.16059017181396484,0.15050654113292694,0.10330726951360703,-0.07597721368074417},{-0.0760100930929184,-0.10483091324567795,-0.21740935742855072,0.05532637611031532,-0.13146783411502838},{-0.1844887137413025,0.06796926259994507,-0.28669896721839905,0.036737844347953796,-0.09392064809799194},{-0.5923050045967102,-0.3466113805770874,-0.209770068526268,-0.06670372933149338,-0.06949988007545471},{-0.007600691635161638,0.03301157429814339,0.014980150386691093,-0.12535029649734497,0.003238929668441415}}},{{{0.033206500113010406,-0.030217327177524567,0.03428692743182182,0.06811991333961487,0.07346188277006149},{0.033552948385477066,0.05279843136668205,0.08642520755529404,0.04219035059213638,0.03618425503373146},{-0.03649486228823662,-0.08298855274915695,-0.062203068286180496,-0.11783867329359055,-0.07350003719329834},{-0.004560839384794235,-0.03186791017651558,-0.025153687223792076,-0.007201469969004393,-0.03867056965827942},{-0.04069490358233452,-0.011667432263493538,0.03331122547388077,0.01592540740966797,0.005275202449411154}},{{-0.027489816769957542,0.014506545849144459,-0.03825075924396515,0.00955021008849144,-0.03221360221505165},{0.00027741771191358566,-0.03479594364762306,-0.0008816648623906076,0.051114704459905624,0.10604750365018845},{0.08000877499580383,-0.018023794516921043,0.04610881581902504,0.07243496924638748,-0.07337215542793274},{0.0453752800822258,0.05570008605718613,0.02123854123055935,-0.06730648130178452,-0.0384875051677227},{0.023145925253629684,-0.005345261190086603,-0.005151431076228619,-0.006713607348501682,-0.013961970806121826}}},{{{-0.01779831200838089,-0.01139158010482788,-0.012335842475295067,0.00300332042388618,-0.022478770464658737},{-0.06417126953601837,-0.005835149437189102,-0.005274900700896978,-0.04860299080610275,-0.019418317824602127},{-0.033888936042785645,-0.026437196880578995,-0.0364491231739521,0.029834158718585968,-0.028720049187541008},{-0.06203455477952957,-0.023780737072229385,-0.037805140018463135,0.021481985226273537,0.015763120725750923},{-0.07150286436080933,-0.05371963232755661,0.03214332088828087,0.006727277301251888,0.03494379669427872}},{{0.01185579877346754,-0.036086492240428925,0.02503117173910141,-0.03557529300451279,0.02180861309170723},{-0.008147594518959522,0.026661336421966553,0.02036108449101448,-0.032104287296533585,-0.0005544262239709496},{-0.0106350714340806,0.00901818834245205,0.010525521822273731,-0.03542042896151543,-0.011106975376605988},{-0.036643367260694504,-0.0016400765161961317,-0.0038609178736805916,-0.03794161230325699,-0.02102518640458584},{-0.0021067303605377674,0.0010548490099608898,-0.023748623207211494,-0.04100046306848526,-0.01298598200082779}}},{{{0.03475501388311386,0.012167555280029774,0.028124360367655754,0.06890139728784561,0.06692982465028763},{-0.08759099245071411,-0.05043317377567291,-0.03176342323422432,-0.05423542484641075,0.023617807775735855},{-0.030144011601805687,-0.07542497664690018,-0.033999837934970856,0.012724028900265694,-0.09663032740354538},{0.004416497889906168,0.02157427743077278,-0.04174519330263138,-0.018252840265631676,0.0389421209692955},{-0.016366397961974144,-0.021526770666241646,-0.06300994753837585,-0.010906911455094814,-0.03728117048740387}},{{-0.043493326753377914,-0.03853362053632736,-0.02590230479836464,-0.027427777647972107,0.026286141946911812},{-0.025217294692993164,-0.014956948347389698,0.04393035173416138,-0.04145518317818642,0.06689152866601944},{0.0410243384540081,0.02471218816936016,0.04203560948371887,0.08174533396959305,-0.08946957439184189},{0.05896705016493797,0.04274037107825279,-0.07008612900972366,0.006409538444131613,-0.06898695230484009},{-0.02414563298225403,0.02374074049293995,-0.0015977114671841264,-0.07477612048387527,0.033495333045721054}}},{{{0.051691919565200806,0.02637678198516369,0.011062727309763432,-0.04253142699599266,-0.03852554038167},{-0.11009509861469269,0.03444577753543854,-0.03760547190904617,-0.08771941810846329,-0.056032393127679825},{-0.05456509813666344,0.09596969932317734,0.08745130896568298,0.15464656054973602,0.13484834134578705},{-0.0564693957567215,-0.05160586163401604,0.0031899013556540012,0.06741190701723099,-0.013170341961085796},{-0.024815240874886513,-0.0714934840798378,-0.08206846565008163,0.07394719868898392,-0.06553512066602707}},{{-0.005786930210888386,0.09319169819355011,0.1836511194705963,0.003282533260062337,0.059468064457178116},{0.13120298087596893,0.10828249901533127,-0.11581529676914215,-0.04743863269686699,-0.12424438446760178},{0.11768728494644165,0.1789807230234146,-0.10887052118778229,-0.17056679725646973,0.05498858168721199},{0.286092609167099,0.2111695259809494,0.036874279379844666,0.2769756615161896,0.07198919355869293},{-0.06527574360370636,-0.03607354685664177,-0.31575921177864075,0.0036994756665080786,0.1195453628897667}}},{{{-0.05592162907123566,-0.09819457679986954,-0.07931914925575256,-0.0620495043694973,0.04138340801000595},{-0.08653564751148224,-0.0670124962925911,-0.0639893114566803,0.01803455501794815,0.08399155735969543},{-0.11749376356601715,-0.016563426703214645,0.007806782145053148,-0.0789702907204628,-0.0072825695388019085},{0.045913852751255035,0.02418690361082554,0.03531785309314728,0.005974385887384415,0.0154198557138443},{-0.004749281331896782,-0.043302055448293686,0.05841410905122757,-0.05519780144095421,-0.06698685139417648}},{{-0.029099008068442345,-0.014896710403263569,0.022073842585086823,-0.09010474383831024,0.018872903659939766},{0.003979976288974285,-0.03560047224164009,-0.05480188876390457,-0.07683710753917694,0.08104830980300903},{0.11073692888021469,0.1115359365940094,-0.020968588069081306,0.06965827941894531,-0.07322011888027191},{-0.005042020231485367,0.05840248614549637,0.009705420583486557,-0.09287446737289429,-0.024411380290985107},{-0.019362015649676323,0.08268684148788452,0.08895424008369446,-0.022278867661952972,-0.06118616461753845}}},{{{0.04132489860057831,0.02560492418706417,-0.13314807415008545,-0.13975046575069427,-0.006114900577813387},{-0.17339825630187988,-0.23155131936073303,0.010409449227154255,0.0008777152979746461,0.03877904266119003},{-0.18110410869121552,-0.21544553339481354,0.19393350183963776,0.15251964330673218,-0.08616310358047485},{0.14341311156749725,0.055473003536462784,0.026752961799502373,-0.03410155326128006,-0.10973791778087616},{0.04280417785048485,-0.021626127883791924,-0.1139759048819542,-0.09059353917837143,0.052193377166986465}},{{-0.012704654596745968,0.027912603691220284,-0.008702725172042847,-0.16989192366600037,-0.19430726766586304},{0.08024213463068008,0.12429207563400269,0.03487832471728325,-0.07153252512216568,0.35565948486328125},{0.1514972448348999,0.25520631670951843,-0.053222332149744034,0.1272859126329422,0.1614634096622467},{0.12868547439575195,0.2768518030643463,0.12729457020759583,-0.028553416952490807,-0.3273269832134247},{-0.02050268091261387,0.07354996353387833,-0.044104695320129395,-0.031193913891911507,-0.02023070678114891}}},{{{-0.030375460162758827,-0.0450296588242054,-0.0034726648591458797,-0.035559579730033875,-0.05275757983326912},{0.03936513513326645,-0.033225417137145996,-0.07650500535964966,-0.013789556920528412,-0.027844851836562157},{0.06787118315696716,0.05663609504699707,-0.03490160033106804,-0.02184446156024933,0.013680714182555676},{-0.04537380486726761,-0.05688990652561188,-0.005169740412384272,-0.03266739472746849,-0.00370805780403316},{-0.04492148011922836,-0.026052840054035187,-0.07314368337392807,-0.07637335360050201,-0.04791718348860741}},{{-0.0259157195687294,-0.03968634083867073,0.009222776629030704,-0.020817086100578308,-0.05215654522180557},{-0.015563414432108402,0.00549135310575366,-0.0169624462723732,-0.04737512022256851,-0.062349945306777954},{0.023134246468544006,0.0655435100197792,-0.0017047264846041799,-0.06988201290369034,-0.06092972680926323},{-0.02373727411031723,-0.046925950795412064,-0.01730821654200554,-0.07964473962783813,-0.034536875784397125},{0.03641163930296898,-0.04773344844579697,-0.06555581092834473,-0.033555638045072556,-0.05619170144200325}}},{{{-0.17941270768642426,-0.1972205489873886,0.03559253737330437,0.13398675620555878,0.05373357981443405},{0.06097990646958351,-0.0379241406917572,-0.02821004018187523,-0.1595933586359024,0.06271587312221527},{0.30428019165992737,0.23992279171943665,0.07356740534305573,-0.10129880160093307,-0.15236042439937592},{0.007369512692093849,0.1247224435210228,-0.10045358538627625,-0.08147922158241272,-0.029134785756468773},{0.024542536586523056,-0.09613505005836487,0.019002465531229973,0.11605360358953476,-0.006171925459057093}},{{0.04040629416704178,-0.014147440902888775,-0.06917255371809006,-0.019326750189065933,0.07479868829250336},{0.023913927376270294,0.013039997778832912,0.053855013102293015,-0.13568665087223053,-0.10188289731740952},{-0.02401038073003292,0.03139391541481018,0.022113261744379997,-0.11090251058340073,-0.16476893424987793},{-0.029938772320747375,-0.003977522253990173,-0.0012431003851816058,0.007860798388719559,0.004333430901169777},{-0.05655486136674881,0.04036116227507591,-0.010868611745536327,-0.09769672900438309,-0.0953347384929657}}},{{{-0.033668152987957,0.029079869389533997,0.06102011352777481,0.003491954645141959,0.004644709173589945},{-0.028559939935803413,-0.0703238919377327,0.0638912245631218,0.015968626365065575,-0.06162708252668381},{-0.035511646419763565,-0.046630311757326126,-0.003606596728786826,-0.010383548215031624,-0.04068836569786072},{-0.0486471951007843,-0.05116747319698334,-0.037969909608364105,-0.0032137806992977858,-0.0771011933684349},{-0.003663475625216961,0.03159215301275253,-0.036649271845817566,-0.10103095322847366,-0.06882430613040924}},{{-0.013745724223554134,-0.015841728076338768,0.03723381459712982,-0.03316938504576683,0.024266378954052925},{0.03480926901102066,0.0723566934466362,0.08258132636547089,-0.03329865261912346,-0.02286587655544281},{-0.06014668941497803,-0.01861339434981346,-0.02936507761478424,-0.010303670540452003,0.07277148216962814},{-0.004436485935002565,-0.008216050453484058,0.046504225581884384,0.036774419248104095,0.10638529062271118},{-0.03120538219809532,-0.006363961845636368,0.11897250264883041,0.03725951164960861,-0.04832681268453598}}},{{{-0.0797709971666336,-0.0783705934882164,-0.02395663596689701,-0.014593392610549927,-0.00013218946696724743},{-0.05726214498281479,0.005708380602300167,0.0329095683991909,0.025596922263503075,-0.026455601677298546},{-0.0524606816470623,-0.024287741631269455,0.07286254316568375,-0.07118452340364456,-0.049543559551239014},{0.03862426057457924,0.03351648524403572,0.08663351088762283,-0.04878498241305351,-0.03292853757739067},{-0.0964699238538742,-0.04957333207130432,0.10170421749353409,-0.005003408063203096,-0.06244785338640213}},{{-0.02156677655875683,-0.0023794497828930616,-0.025548530742526054,-0.018229156732559204,0.011042609810829163},{-0.014951218850910664,-0.08097250014543533,-0.0618806853890419,-0.03399704396724701,-0.037085823714733124},{-0.025448132306337357,0.06026947498321533,-0.01330767571926117,0.0746207907795906,-0.007116404827684164},{-0.011414887383580208,0.05496915802359581,-0.05980246886610985,0.017131730914115906,-0.06485636532306671},{0.0270337276160717,-0.06667713075876236,-0.08732838183641434,-0.038949768990278244,-0.036156944930553436}}},{{{-0.11622180044651031,-0.07667656987905502,0.043248649686574936,-0.0817570760846138,-0.05149207264184952},{-0.17965352535247803,-0.042001619935035706,0.11262309551239014,0.061643727123737335,-0.014303376898169518},{-0.06245257332921028,-0.06697314232587814,-0.016658879816532135,-0.01318142656236887,-0.0003659466456156224},{-0.12722468376159668,-0.23716987669467926,-0.12856243550777435,0.001992282923310995,0.04416866600513458},{-0.09869880229234695,-0.10644888877868652,-0.06674996018409729,0.06558385491371155,0.034342799335718155}},{{-0.031672053039073944,0.11119959503412247,0.2983998954296112,0.09206380695104599,0.06663061678409576},{-0.35182711482048035,-0.21370825171470642,-0.15469865500926971,0.01668611913919449,-0.10865293443202972},{-0.40689072012901306,-0.1125490814447403,0.029920503497123718,0.020815527066588402,-0.27441129088401794},{0.062292296439409256,-0.02277403138577938,-0.044621482491493225,-0.0688597708940506,-0.2511099576950073},{0.023714246228337288,-0.05671679973602295,0.06670758873224258,0.18357981741428375,0.0827486589550972}}},{{{0.045349638909101486,0.024382678791880608,0.04319638013839722,-0.04492006450891495,-0.023278743028640747},{-0.03311481326818466,-0.016293605789542198,-0.02826053276658058,-0.007511034607887268,0.030385205522179604},{-0.07158314436674118,-0.012305004522204399,-0.024262266233563423,0.05905503034591675,-0.034679122269153595},{-0.07646773010492325,-0.06528705358505249,0.0071017625741660595,-0.006031089928001165,-0.12187368422746658},{-0.0303526408970356,0.027644651010632515,0.0927022397518158,-0.06509743630886078,-0.08275831490755081}},{{0.023323817178606987,-0.02038211189210415,0.07156874239444733,-0.07023224979639053,-0.10112187266349792},{0.058315664529800415,0.019736595451831818,0.016438307240605354,0.016515394672751427,0.01030772365629673},{-0.0022599033545702696,0.07984817028045654,-0.007204054389148951,0.08210277557373047,0.11829165369272232},{0.07485956698656082,0.05729568004608154,-0.029352238401770592,0.003154315520077944,-0.0668577328324318},{0.047757916152477264,-0.0036433932837098837,-0.009173703379929066,-0.08858005702495575,-0.07707123458385468}}},{{{-0.04308164119720459,-0.004413303919136524,-0.0222920011729002,-0.04622561112046242,-0.015329606831073761},{-0.02426045387983322,0.04516652226448059,-0.08168710023164749,-0.065556600689888,-0.08010651916265488},{-0.14762656390666962,-0.004428222309798002,0.18031641840934753,0.08725819736719131,-0.0868590846657753},{-0.11887754499912262,-0.021430276334285736,-0.0915117934346199,-0.0007368586957454681,-0.0857091099023819},{0.13923482596874237,0.16285060346126556,-0.04419723525643349,-0.18767595291137695,-0.07197488844394684}},{{-0.005581377074122429,-0.06135708838701248,0.13528744876384735,0.003678053617477417,-0.07348250597715378},{0.0976458191871643,-0.12720392644405365,0.21545131504535675,-0.06278704106807709,-0.026537714526057243},{-0.3607942461967468,-0.10539498925209045,-0.2151922732591629,0.055183421820402145,-0.005988911725580692},{-0.14440421760082245,-0.4066579341888428,0.10506986081600189,0.21767932176589966,0.006677172612398863},{0.013921081088483334,0.19735494256019592,0.07744330912828445,0.10840867459774017,0.05080122500658035}}},{{{-0.09208351373672485,-0.11628402024507523,0.16976849734783173,0.12721112370491028,-0.13322265446186066},{0.08694150298833847,-0.024921555072069168,0.06308311969041824,0.0267802607268095,-0.09285387396812439},{0.11781885474920273,0.1515093445777893,-0.038810234516859055,-0.03782813623547554,-0.012139310128986835},{0.019748209044337273,0.00918372068554163,-0.15074001252651215,0.0014586846809834242,0.05484522134065628},{-0.03470226377248764,0.25383803248405457,0.05002576485276222,-0.2392701953649521,-0.17953035235404968}},{{-0.054117001593112946,-0.07661117613315582,-0.10628540068864822,-0.08527727425098419,0.0968460664153099},{0.010004222393035889,-0.031185468658804893,0.0685751810669899,-0.016928154975175858,-0.2464004009962082},{0.030292099341750145,-0.0716923177242279,-0.008895509876310825,-0.1159825474023819,0.029583146795630455},{-0.25887200236320496,-0.3238131105899811,-0.13453102111816406,0.04912412911653519,0.14413177967071533},{-0.05861024558544159,-0.08832267671823502,0.08163800835609436,-0.029698479920625687,-0.15501926839351654}}},{{{-0.0053859674371778965,-0.07721444219350815,-0.006322107743471861,-0.04715782403945923,0.05030665919184685},{0.06812432408332825,0.035039935261011124,-0.06471218913793564,0.013759051449596882,0.05542207136750221},{-0.006592686288058758,-0.048404015600681305,-0.009022796526551247,-0.043550897389650345,0.011204805225133896},{0.02881048247218132,0.03156948462128639,-0.010251305997371674,-0.07530372589826584,-0.04615795612335205},{-0.06787196546792984,-0.07383642345666885,0.068097785115242,-0.006018980871886015,-0.02186112105846405}},{{-0.010016079060733318,-0.03735515475273132,0.019106222316622734,-0.06350617110729218,-0.07425165921449661},{0.03636808320879936,-0.03769829124212265,-0.05440352484583855,-0.061544813215732574,-0.02504175715148449},{-0.032991498708724976,0.06748925149440765,-0.011424037627875805,-0.034182798117399216,-0.05685630440711975},{0.0083084087818861,0.03201717138290405,-0.06291801482439041,-0.022366264835000038,-0.013691389933228493},{-0.03898870199918747,0.05146069452166557,-0.04067516326904297,-0.021399086341261864,-0.06084471568465233}}},{{{-0.089868925511837,-0.1931663155555725,-0.03280014917254448,-0.009318914264440536,-0.01296649407595396},{-0.1051541119813919,-0.07316705584526062,0.006957456935197115,0.05027332529425621,-0.03852549567818642},{-0.16839070618152618,-0.19409503042697906,-0.09207868576049805,0.0808563157916069,-0.09277747571468353},{0.0282497126609087,-0.1382598727941513,-0.008218384347856045,-0.0018849263433367014,-0.03706962987780571},{0.05748964846134186,0.04168955236673355,0.2977682650089264,-0.0423341728746891,-0.05646973103284836}},{{-0.05742070823907852,-0.15696734189987183,-0.02739628218114376,0.031442053616046906,0.036276232451200485},{-0.3376386761665344,-0.00821595173329115,0.0954333245754242,0.1664334535598755,0.2633819878101349},{-0.5132562518119812,0.09077347069978714,0.1323462873697281,0.2271275520324707,-0.07754425704479218},{-0.05817659944295883,0.1838684231042862,0.06061447784304619,-0.160995215177536,-0.34794119000434875},{-0.08320432156324387,0.24802793562412262,0.032572295516729355,0.0921497642993927,-0.028113702312111855}}},{{{-0.02299397625029087,0.0008253855048678815,-0.01259605959057808,0.0391048789024353,0.01606227643787861},{-0.024985209107398987,-0.037701062858104706,-0.024418268352746964,-0.05793346092104912,0.034275759011507034},{-0.03168615698814392,-0.014412719756364822,-0.019364606589078903,0.018243420869112015,0.011553097516298294},{0.02343665435910225,-0.07257737964391708,-0.07025697082281113,-0.10302697122097015,-0.0005222994950599968},{0.05243819206953049,-0.004243071656674147,-0.07812244445085526,0.012345508672297001,-0.008548572659492493}},{{0.0326455719769001,0.03300997614860535,-0.02815520577132702,0.014677257277071476,0.010814402252435684},{-0.013017821125686169,-0.03901560977101326,0.012455928139388561,0.008211465552449226,-0.019194133579730988},{0.0035053270403295755,-0.0358855277299881,-0.010729891248047352,-0.0025459416210651398,0.011882346123456955},{-0.030784912407398224,-0.007132194470614195,-0.037896331399679184,-0.03813060373067856,-0.007432810962200165},{-0.03707149252295494,-0.007385067641735077,0.022721124812960625,-0.009870275855064392,0.016030777245759964}}},{{{0.08041805028915405,0.02628071792423725,0.03402072936296463,0.09325002878904343,0.17335914075374603},{0.12527641654014587,0.15113283693790436,-0.03934791311621666,-0.164539635181427,0.1778598576784134},{0.3281964063644409,0.06557650119066238,-0.08000161498785019,-0.15374436974525452,-0.029080945998430252},{0.18323035538196564,0.19609281420707703,-0.027787841856479645,0.034571558237075806,-0.08089058101177216},{-0.0839623510837555,-0.05479973182082176,-0.07684483379125595,0.12114311009645462,-0.237122043967247}},{{0.05301842838525772,0.0408918559551239,-0.0030159044545143843,0.08224601298570633,0.08768599480390549},{-0.11569558829069138,0.05904486030340195,-0.032043810933828354,0.06424607336521149,0.05768957734107971},{-0.11230266839265823,0.08311976492404938,-0.3837628662586212,-0.07750609517097473,0.13017915189266205},{-0.0772458165884018,-0.04526341333985329,-0.08042313903570175,0.1275225430727005,0.01246092189103365},{0.044625312089920044,-0.08047175407409668,-0.1446399986743927,-0.08384595066308975,-0.05683225393295288}}},{{{-0.04745934531092644,-0.0764840692281723,-0.06577402353286743,0.0015696686459705234,-0.058425888419151306},{-0.009640999138355255,-0.07436677068471909,-0.11705513298511505,-0.06125655397772789,-0.06218865141272545},{-0.003563081379979849,-0.0026310726534575224,-0.07259777188301086,-0.023880207911133766,0.0320667028427124},{-0.002089458517730236,-0.04579344764351845,-0.04304833710193634,-0.03869603946805,-0.03707370162010193},{-0.05497283488512039,-0.055798254907131195,-0.11554989218711853,-0.058944813907146454,-0.07595714926719666}},{{0.00729923602193594,-0.02022804506123066,-0.05903801694512367,0.09496881067752838,-0.09408170729875565},{0.06565234065055847,0.10138419270515442,0.10009753704071045,-0.13004086911678314,0.004180168733000755},{-0.25023263692855835,-0.23509353399276733,0.0028493015561252832,-0.16274873912334442,-0.061162639409303665},{-0.46059826016426086,-0.21677057445049286,-0.16597184538841248,0.12230906635522842,0.11088012158870697},{-0.16481466591358185,-0.0708121582865715,0.09671690315008163,0.10850437730550766,-0.02637600526213646}}},{{{0.03624192997813225,0.1388809233903885,0.0994572639465332,0.06999106705188751,-0.042352404445409775},{-0.06467349082231522,-0.11172505468130112,0.10423771291971207,-0.050796184688806534,-0.07953543215990067},{-0.06849776208400726,-0.0671461895108223,0.012080357410013676,-0.09338313341140747,0.023406241089105606},{0.03988148644566536,-0.1585870236158371,-0.009147985838353634,-0.09457943588495255,-0.07990332692861557},{0.08451598137617111,0.22030937671661377,-0.02650976926088333,-0.07818116992712021,0.09156348556280136}},{{0.09706961363554001,0.02181205153465271,-0.06361070275306702,-0.10353211313486099,-0.03607743978500366},{0.05549728497862816,-0.0006108588422648609,-0.030531637370586395,-0.0748889222741127,-0.042637377977371216},{-0.014604567550122738,0.06734354794025421,-0.019928308203816414,-0.1179097443819046,0.10627187788486481},{0.049951810389757156,0.1192125752568245,0.01720111072063446,-0.12917591631412506,-0.08114837110042572},{0.04093228280544281,-0.05634121596813202,-0.05502740666270256,-0.08936094492673874,0.046656910330057144}}},{{{0.23470014333724976,0.2708526849746704,0.18506523966789246,-0.4639304578304291,-0.4345550239086151},{-0.03798478841781616,0.08551847189664841,-0.0011290301335975528,-0.2572381794452667,-0.11888127028942108},{-0.4225388467311859,0.052750397473573685,0.21890605986118317,0.09205807745456696,0.06782382726669312},{-0.1549188196659088,-0.024371618404984474,0.021972009912133217,0.13717155158519745,0.14955207705497742},{-0.028468521311879158,0.0078049711883068085,-0.11018946766853333,-0.04997238516807556,0.08462995290756226}},{{0.3302805721759796,-0.0983564630150795,0.020664134994149208,0.0009743493865244091,-0.15853142738342285},{0.34425270557403564,0.3103671669960022,-0.1595940887928009,-0.2214210480451584,-0.22021864354610443},{0.16659973561763763,0.2312159687280655,-0.04009836167097092,-0.1825527846813202,0.24729032814502716},{0.27240076661109924,0.2649373710155487,