#include "main.h"
#include <cstring>

void store_input(float input[1][32][32], float input_oc[1][32][32])
{
	memcpy(input_oc, input, sizeof(float) * 32 * 32);
}

void store_output(float output[10], float output_oc[10])
{
	memcpy(output, output_oc, sizeof(float) * 10);
}

void fused_layer1(float input[1][32][32], float weights[6][1][5][5], float bias[6], float output[6][14][14]) {
    #pragma HLS array_partition variable=weights cyclic dim=4 factor=5
	#pragma HLS array_partition variable=input cyclic dim=3 factor=5

    float intermediate[6][28][28];

    for(int co = 0; co < 6; co++) {
        for(int h = 0; h < 28; h++) {
            for(int w = 0; w < 28; w++) {
                #pragma HLS pipeline
                float sum[32] = {0.0f};

                for (int offset = 0; offset < 25; offset++) {
                	int m = offset / 5;
                	int n = offset % 5;
                	int i = h + m;
                	int j = w + n;
                	sum[offset] = weights[co][0][m][n] * input[0][i][j];
                }

                for (int offset = 16; offset > 0; offset /= 2) {
                	for (int r = 0; r < 16; r++) {
                		sum[r] = sum[r] + sum[r + offset];
                	}
                }

                sum[0] += bias[co];
                if (sum[0] < 0) sum[0] = 0;
                intermediate[co][h][w] = sum[0];
            }
        }
    }

    for (int c = 0; c < 6; c++) {
        for (int h = 0; h < 14; h++) {
            for (int w = 0; w < 14; w++) {
                #pragma HLS pipeline
                float max_value = -9999999;
                for (int di = 0; di < 2; di++) {
					#pragma HLS unroll factor=2
                    for (int dj = 0; dj < 2; dj++) {
                        #pragma HLS unroll factor=2
                        int i = h * 2 + di;
                        int j = w * 2 + dj;
                        max_value = (max_value > intermediate[c][i][j]) ? max_value : intermediate[c][i][j];
                    }
                }
                output[c][h][w] = max_value;
            }
        }
    }
}

void convolution_3_ReLU(float input[6][14][14], float weights[16][6][5][5], float bias[16], float output[16][10][10])
{
#pragma HLS array_partition variable=weights complete dim=2
#pragma HLS array_partition variable=input complete dim=1

    for(int co = 0; co < 16; co++)
        for(int h = 0; h < 10; h++)
            for(int w = 0; w < 10; w++)
            {
				#pragma HLS PIPELINE
				float sum[256] = {0.0f};

				for (int i = 0; i < 150; i++) {
					int m = i / 30;
					int n = (i - m * 30) / 6;
					int ci = (i - m * 30 - n * 6);

					sum[i] = (weights[co][ci][m][n] * input[ci][h+m][w+n]);
				}

				for (int offset = 128; offset > 0; offset /= 2) {
					for (int r = 0; r < 128; r++) {
						sum[r] = sum[r] + sum[r + offset];
					}
				}

				sum[0] = sum[0] + bias[co];
				if (sum[0] < 0) sum[0] = 0;
				output[co][h][w] = sum[0];
            }
}

void maxpool_4(float input[16][10][10],float output[16][5][5])
{
    for(int c = 0;c < 16; c++)
        for(int h = 0; h < 5; h++)
            for(int w = 0; w < 5; w++)
            {
				#pragma HLS PIPELINE
                float max_value=-1000000000000.0;
                for(int i = 0; i < 2; i++)
                {
                    for(int j = 0;j < 2; j++)
                        max_value = (max_value > input[c][h*2+i][w*2+j]) ? max_value:input[c][h*2+i][w*2+j];
                }
                output[c][h][w] = max_value;
            }
}

void convolution_5_ReLU(float input[16][5][5], unsigned char weights[120][16][5][5], float bias[120], float output[120][1][1], float q_scale, float q_bias)
{
	#pragma HLS array_partition variable=weights cyclic dim=4 factor=5
	#pragma HLS array_partition variable=input cyclic dim=3 factor=5
    for(int co = 0; co < 120; co++)
    {
        float sum = 0;
        for(int ci = 0; ci < 16; ci++)
        {
			#pragma HLS PIPELINE
        	float partial_sum[32] = {0.0f};

        	for (int i = 0; i < 25; i++) {
        		int m = i / 5;
        		int n = i % 5;
        		float t = weights[co][ci][m][n] * q_scale + q_bias;
        		partial_sum[i] = t * input[ci][m][n];
        	}

        	for (int offset = 16; offset > 0; offset /= 2) {
        		for (int r = 0; r < 16; r++) {
        			partial_sum[r] = partial_sum[r] + partial_sum[r + offset];
        		}
        	}

        	sum += partial_sum[0];
        }
		sum = sum + bias[co];
		if (sum < 0) sum = 0;
        output[co][0][0] = sum;
    }
}

void fc_6_ReLU(const float input[120][1][1], const float weights[10][120][1][1], const float bias[10], float output[10])
{
    for(int n = 0; n < 10; n++)
    {
        output[n] = 0;

        for(int c = 0; c < 120; c++)
        {
            output[n] += weights[n][c][0][0] * input[c][0][0];
        }
        output[n] += bias[n];
		if (output[n] < 0) output[n] = 0;
    }
}

int lenet_accelerator(float input[1][32][32], float output[10])
{
#pragma HLS dataflow

#pragma HLS interface m_axi depth=1024 port=input offset=slave bundle=INPUT

#pragma HLS interface m_axi depth=10 port=output offset=slave bundle=OUTPUT

#pragma HLS interface s_axilite port=return bundle=CTL

	float input_oc[1][32][32];
	//store input on chip
	store_input(input, input_oc);
	float w1_oc[6][1][5][5] = {{{{0.0545767, 0.23989, 0.0460905, 0.189254, -0.05937},{-0.113319, -0.0641011, 0.116482, -0.149269, -0.0171202},{-0.131366, -0.311866, -0.210143, -0.0695679, 0.0284911},{0.0391543, -0.0259974, 0.094974, 0.0104539, 0.0778511},{0.168553, 0.104512, 0.0410958, 0.0146441, -0.00248896}}},{{{-0.0154949, 0.099448, 0.0110861, -0.067664, 0.0793657},{0.0402379, 0.150162, 0.0429996, 0.094292, -0.00749176},{-0.00506536, -0.112828, 0.120868, -0.0806194, 0.0422961},{-0.0107369, -0.054286, 0.0866676, 0.12219, -0.100322},{-0.17428, -0.0507913, -0.0691036, 0.141563, 0.102478}}},{{{0.174924, 0.134596, -0.187919, 0.0461813, -0.165645},{0.00977915, -0.0212893, -0.0484104, 0.0657643, -0.165713},{-0.0930862, 0.122882, 0.135085, 0.0390209, -0.0346848},{0.0081442, 0.0938551, 0.042818, 0.0999697, -0.10891},{-0.0067663, -0.12705, 0.0739289, 0.175849, 0.156797}}},{{{0.0263749, -0.181893, -0.164046, 0.182536, 0.130094},{0.221941, 0.0570199, 0.188594, 0.0110711, -0.0082457},{-0.0374623, 0.11972, -0.0154772, -0.0747878, -0.0887413},{0.0604595, 0.0796974, 0.220836, -0.0822295, -0.00671071},{0.243419, 0.0123286, -0.0656004, -0.0667637, 0.0790848}}},{{{-0.176736, -0.15172, 0.0584658, 0.140155, -0.108961},{0.150772, -0.084157, -0.0754009, -0.00868887, 0.0346975},{-0.162376, 0.0310157, 0.0312256, 0.0466559, -0.115986},{0.170055, 0.0399354, -0.0783964, 0.0863523, -0.0793049},{-0.135728, 0.0255421, -0.0162169, 0.181592, 0.099328}}},{{{0.0896063, 0.0715614, 0.0976575, -0.105534, 0.137008},{0.0331393, -0.13787, 0.0547835, -0.155438, 0.048253},{0.119975, 0.174484, -0.181807, 0.0147251, 0.115346},{0.161037, -0.00182935, -0.143296, -0.0300758, -0.147059},{0.166156, 0.0855182, -0.0660527, -0.0506291, -0.000405967}}}};
	float w3_oc[16][6][5][5] = {{{{-0.129261, -0.0289099, 0.0184702, -0.138075, -0.0124496},{-0.0285535, 0.00823692, -0.0297472, -0.0741726, -0.111873},{-0.00241776, -0.0357605, -0.0721717, -0.0690174, -0.0463054},{-0.0555739, -0.168166, 0.00849856, -0.0188851, -0.0601877},{0.00945889, -0.023853, -0.0596479, -0.0166567, 0.069691}},{{-0.142638, -0.0153503, -0.0468888, -0.0215886, -0.128881},{-0.133847, -0.0462115, -0.0044102, -0.174365, -0.0699026},{-0.0702239, -0.0377102, 0.0365786, -0.063224, -0.0226005},{-0.102342, -0.0337095, 0.0333703, -0.0414642, -0.0441285},{-0.0933843, -0.174715, 0.105353, 0.0221832, -0.164781}},{{-0.0781251, -0.0276996, -0.0470228, -0.162764, 0.0559927},{0.00366788, -0.069815, -0.0445151, 0.0447063, -0.00819102},{-0.021628, -0.0989205, -0.144545, -0.0866375, 0.0276147},{0.00398364, 0.0238648, -0.0190027, 0.0481727, -0.102903},{-0.133263, 0.0311742, -0.077264, 0.074022, 0.0818293}},{{-0.104329, 0.0790577, -0.0120822, -0.149289, -0.0478914},{0.0133649, -0.0382749, 0.0110402, -0.126987, 0.0120774},{-0.139748, 0.00418727, -0.0360503, -0.0977113, -0.143386},{-0.140293, -0.0616587, -0.141593, -0.173577, -0.177134},{-0.0386355, -0.106546, -0.169028, 0.148764, -0.0883557}},{{-0.0891919, -0.157275, -0.0989936, -0.0197369, -0.0124629},{-0.145393, -0.162981, -0.0940324, -0.102652, -0.103638},{-0.114461, -0.057649, 0.0344953, -0.175194, -0.0354439},{-0.160436, -0.0969764, 0.0891696, -0.000979664, -0.0645946},{-0.144691, -0.0462282, 0.0324772, 0.00783432, -0.0195419}},{{-0.0552662, 0.0359445, 0.0124199, -0.0252009, -0.0902319},{-0.0318873, -0.0549578, -0.131763, -0.110682, -0.219306},{-0.112414, -0.122503, -0.0131506, -0.161638, -0.0627306},{-0.121991, 0.0189145, -0.134296, 0.0830286, -0.116169},{-0.13894, -0.0507925, -0.0430381, -0.187582, -0.146764}}},{{{-0.0895522, -0.0414514, 0.10063, -0.0278707, 0.0159904},{-0.0470842, -0.0623859, -0.0888349, -0.0509604, -0.0720695},{0.0509305, -0.150708, -0.143679, 0.0929064, -0.0628851},{-0.0269158, 0.0982552, -0.0919063, 0.0753651, 0.0515129},{-0.0543418, -0.122054, -0.000856871, -0.0615378, 0.0251746}},{{0.0206155, -0.0112556, 0.0842336, -0.069518, -0.0256245},{-0.18057, 0.0316797, -0.088084, -0.0954881, -0.00277953},{0.0655662, 0.022198, 0.0556672, 0.0153003, -0.00909537},{-0.0381522, -0.0733511, 0.0221377, -0.0814525, 0.0166451},{-0.0739427, -0.105035, 0.00196501, 0.0106432, -0.0593914}},{{0.0511965, 0.0869132, 0.0378749, -0.00432896, -0.0485051},{-0.156816, -0.0906766, 0.0559867, -0.0259185, -0.138992},{-0.0529025, -0.088935, -0.0605052, -0.0838744, -0.0264925},{-0.150562, -0.170548, -0.0299732, -0.0500588, -0.164255},{-0.016338, -0.154449, -0.0638839, 0.0900813, -0.0508652}},{{-0.0639989, 0.00514697, -0.00906741, 0.01237, 0.0291043},{-0.0494463, -0.116657, -0.170625, -0.0298164, 0.0515654},{-0.0752444, -0.0231436, -0.0305314, 0.00626886, -0.0697285},{0.0102537, -0.0409231, -0.181532, -0.0952781, -0.0554903},{-0.0322557, 0.0243933, -0.026453, 0.013855, -0.101427}},{{0.0142398, 0.0892175, 0.0124474, -0.141523, 0.086917},{-0.18259, -0.0501907, 0.0898794, -0.0222907, -0.12287},{-0.0827385, -0.149408, 0.022225, -0.179166, -0.0695702},{-0.0898408, 0.089216, 0.0649454, 0.0878047, -0.107332},{-0.0217752, 0.0230026, 0.0970636, -0.176912, -0.147825}},{{-0.0303836, -0.0780598, -0.168039, -0.155981, 0.0428945},{0.00118545, -0.181787, -0.17995, -0.00758494, 0.0961368},{0.0963731, 0.0683355, -0.114628, -0.101038, -0.00461955},{-0.147631, -0.082423, -0.115081, -0.0791371, -0.156984},{0.000589146, 0.0646608, -0.0728179, -0.112348, -0.0456091}}},{{{0.0119388, -0.110373, -0.0628674, 0.00278134, -0.000864331},{-0.133999, -0.00798646, -0.179457, 0.08468, 0.0172873},{-0.0883792, -0.0946258, -0.0703178, -0.0321096, -0.0176235},{0.0161023, -0.124591, -0.158014, -0.00203667, 0.0140114},{-0.0592958, -0.0389376, -0.101205, 0.014594, -0.0604719}},{{-0.138822, -0.0938506, -0.0524952, 0.0642052, -0.004004},{-0.0385987, -0.0553011, 0.0820715, 0.0658219, -0.0637358},{0.00916214, -0.0660088, -0.144493, -0.0198533, -0.0614401},{0.023402, -0.174289, -0.173175, -0.18113, -0.0966702},{-0.0940631, 0.037408, -0.101008, 0.0874443, 0.0160654}},{{-0.184362, -0.00322744, 0.099591, -0.0202223, -0.105778},{-0.13124, 0.0989625, -0.0872646, -0.0581248, -0.151491},{0.0686936, -0.060686, -0.0643929, -0.0972577, 0.026754},{-0.0318161, -0.124788, -0.0382446, 0.0181377, 0.0412582},{0.0522304, -0.168824, -0.00514975, -0.0968274, -0.0267144}},{{-0.0195458, -0.0386267, 0.00366978, -0.00386224, -0.103473},{-0.11704, -0.129249, -0.0443041, -0.00681567, -0.0102625},{-0.109282, -0.104627, -0.134266, -0.01863, -0.179606},{-0.100578, -0.0733844, -0.0381478, -0.157249, -0.0545314},{-0.06716, -0.0145719, -0.149387, 0.0189755, -0.0964863}},{{-0.0428581, 0.0385743, -0.0629674, -0.12723, -0.0953111},{-0.182357, -0.112723, -0.138517, -0.0178248, -0.17777},{0.079377, 0.0108422, 0.00436017, -0.0210725, -0.0460026},{0.00367242, -0.128001, -0.181007, -0.131728, -0.122029},{0.0741337, 0.00849671, -0.0742102, 0.0751761, 0.0631189}},{{-0.145775, -0.0648572, -0.166994, 0.0487051, -0.0951986},{-0.0760277, -0.0917364, -0.0234135, -0.0604116, 0.0143839},{-0.170393, -0.00716433, 0.0651257, -0.11286, 0.0284651},{-0.170197, 0.0569963, -0.0255011, -0.0370339, -0.167812},{-0.134685, 0.100856, -0.0951683, -0.0665146, -0.0457028}}},{{{0.102804, 0.107052, 0.0495304, -0.130975, -0.0230085},{0.0427185, 0.0252026, -0.0322962, -0.0438177, -0.0325856},{-0.0418871, 0.0691676, 0.0188272, 0.039125, -0.03135},{0.10512, 0.0233852, 0.0734469, -0.0126155, -0.0378622},{0.0548269, 0.0419745, 0.0708264, 0.0168747, -0.0856699}},{{-0.0354236, -0.0556637, -0.0942579, -0.098927, -0.104745},{0.00302662, -0.0783154, -0.00621244, -0.152018, -0.0657526},{-0.0375333, -0.0723602, 6.22225e-05, -0.0169809, -0.0991931},{-0.0533926, -0.0551794, 0.0379048, 0.05448, -0.0250473},{0.00249969, -0.0544915, 0.0981555, 0.0114965, 0.102648}},{{0.0342179, -0.0825872, -0.0866728, -0.13839, -0.0498914},{-0.0155045, -0.120809, -0.0834408, -0.0922583, -0.0304057},{-0.0486374, 0.0668018, 0.0308724, -0.0724216, -0.0940492},{-0.0593514, 0.0143045, 0.0821808, 0.083597, 0.0733888},{-0.0665889, -0.0108314, -0.0131484, 0.0151598, 0.128973}},{{-0.0820233, 0.0884727, -0.0115823, 0.0219569, -0.0917826},{0.117808, 0.0806971, 0.104299, -0.0605797, 0.0661285},{0.0733661, 0.143311, -0.0157113, -0.0870225, -0.0807192},{0.0323176, 0.0798099, 0.0215246, 0.0378372, 0.0112849},{-0.00221242, 0.0678629, 0.0333929, -0.0959504, -0.0259208}},{{0.0549289, 0.0955187, 0.0474165, -0.0407647, -0.0451095},{-0.0344963, -0.0519297, -0.0565725, 0.022331, 0.0297794},{-0.0288773, 0.0511393, 0.064616, 0.00409213, -0.0149956},{0.0248715, 0.0429867, -0.097057, 0.105095, -0.00671784},{-0.0400305, 0.0836708, -0.080438, -0.0337606, 0.0807461}},{{-0.075969, 0.0195272, -0.0889619, 0.0386834, 0.087423},{0.0237334, -0.110231, 0.103967, 0.0301213, -0.00586264},{0.0275603, -0.0617973, -0.0177716, -0.0834612, -0.00207616},{-0.0401254, 0.000297911, -0.194064, -0.0176427, -0.054313},{0.00253792, -0.0110215, 0.0699961, -0.105004, -0.036865}}},{{{-0.0539518, 0.0261353, 0.0705259, 0.0511905, 0.0822311},{-0.186133, -0.0059026, -0.0378111, -0.0843846, -0.0336804},{-0.288492, -0.153133, -0.15696, -0.241432, -0.0380001},{-0.112926, -0.0397594, -0.227438, -0.161823, -0.202977},{0.0441074, 0.027958, -0.144117, -0.0521333, -0.147701}},{{0.167016, -0.0714575, 0.0665004, 0.0878336, 0.232736},{0.0253453, 0.0605375, 0.0342209, 0.1283, 0.279271},{0.079527, 0.0231912, -0.0405121, 0.104151, -0.060437},{0.267966, 0.043781, -0.187433, -0.0788761, -0.0201963},{0.222269, 0.150286, 0.0234425, -0.0399275, 0.00121588}},{{-0.0677622, -0.0367805, -0.0369337, -0.181288, -0.0211513},{0.0867513, 0.0420698, -0.246993, 0.0150135, -0.0612922},{0.133115, 0.0758477, 0.206381, -0.0835321, -0.0753008},{0.0147126, -0.0823702, 0.030231, -0.0875561, -0.0217631},{-0.0641224, 0.00504563, 0.0662692, -0.0287004, -0.0676327}},{{-0.000821245, 0.0464763, -0.0722191, -0.0321613, -0.028211},{-0.176889, -0.0302033, -0.00255953, -0.144664, -0.0917464},{-0.182237, 0.00655777, -0.0358131, -0.12942, -0.198091},{-0.311738, -0.0999347, 0.0748808, -0.0805315, -0.228158},{-0.16907, -0.0680484, 0.0413026, 0.00945603, -0.0621412}},{{-0.0922265, -0.166828, -0.280976, 0.189185, -0.0140929},{0.0254581, -0.0403104, -0.0624442, -0.0243184, -0.0119436},{-0.065358, 0.0157591, -0.0963534, -0.051139, -0.0952643},{0.0306271, -0.0943645, -0.186472, -0.0188328, 0.0131187},{-0.0269307, -0.00818961, 0.0219037, 0.0278908, -0.180014}},{{0.0220732, 0.158232, 0.0985136, -0.190685, -0.025946},{0.0926973, 0.177484, -0.132198, -0.0891592, 0.0226986},{-0.119123, 0.16614, -0.0764217, -0.00534477, -0.0101514},{-0.0175566, 0.154491, 0.0314746, -0.0747327, 0.0963112},{0.00831252, -0.0296708, -0.120025, -0.0279267, 0.0398743}}},{{{-0.105252, 0.030565, -0.0144114, 0.000944253, 0.0447709},{-0.0284984, 0.0623484, 0.0354501, 0.0041021, 0.011246},{0.00842158, -0.089184, 0.0454986, 0.0643984, -0.0607067},{-0.0245979, -0.0922544, -0.0109515, -0.108218, -0.0421516},{-0.119493, 0.0413378, 0.0253023, 0.0382327, -0.113783}},{{0.11265, -0.00923728, -0.00914131, 0.0266558, -0.0221231},{-0.0795667, -0.0856251, 0.0607741, 0.0627036, -0.0887475},{0.0225972, -0.03297, -0.0396581, -0.0787565, 0.0168849},{0.0458077, -0.118485, -0.0678753, 0.0479479, -0.0538719},{-0.13508, -0.0374318, -0.0966922, 0.0516805, 0.0315433}},{{-0.137981, -0.0806147, 0.00530453, -0.0432751, 0.0416812},{-0.00865472, -0.138746, -0.114378, -0.0353936, -0.0805674},{-0.0763495, 0.0408251, 0.035095, 0.0408087, -0.0277762},{-0.0368213, -0.000262611, -0.0886537, -0.0498485, 0.0394512},{-0.0131971, -0.0404211, -0.0838473, -0.0747933, -0.142494}},{{0.0424494, -0.0239662, -0.101731, -0.079388, 0.0267633},{-0.0363929, 0.0307809, 0.0469844, -0.035238, -0.0553589},{-0.110619, -0.0927672, 0.0537883, -0.0668858, -0.132028},{0.0502129, 0.0407371, 0.0512589, -0.02447, 0.0319282},{-0.065308, 0.0477783, -0.0105658, -0.0968397, -0.117749}},{{-0.126172, -0.0594891, -0.0969631, -0.0699949, -0.0787754},{-0.112871, -0.107939, 0.0344648, -0.0176287, -0.123138},{-0.0580512, 0.0546539, 0.0260837, -0.1096, -0.105774},{-0.0526579, 0.00217071, -0.110937, -0.0942379, 0.0392273},{-0.0244961, -0.0445015, -0.0715454, -0.0610661, -0.132547}},{{-0.0069035, -0.0966485, -0.133658, -0.00571999, -0.11547},{-0.0405742, 0.0182058, -0.0360275, -0.107252, -0.107949},{-0.0225701, -0.0252279, 0.0494322, 0.0637685, -0.121956},{0.026185, -0.0498922, -0.0202861, -0.111861, 0.0594309},{-0.0808988, 0.0438837, 0.0151738, 0.059963, -0.0134868}}},{{{-0.140229, 0.0027806, -0.0410435, -0.0240733, -0.138452},{-0.130828, -0.0549352, 0.032291, -0.0754715, -0.0783877},{0.0592988, -0.0178931, -0.109311, 0.0949787, 0.113649},{0.022409, 0.0158738, -0.103526, 0.0906753, -0.0555571},{-0.0122962, -0.0139284, -0.00487873, -0.134061, 0.0319951}},{{-0.0754255, -0.146366, 0.0478861, -0.00702309, 0.0756998},{-0.0416549, -0.0980797, 0.0051907, -0.0413872, -0.0558671},{0.0274184, -0.0488976, -0.017158, -0.0480913, -0.00930165},{-0.0621795, -0.121071, 0.0141921, -0.000372628, -0.0043231},{0.0631807, 0.0611851, -0.0298194, -0.0996271, 0.0294799}},{{-0.074275, -0.017685, 0.0605159, -0.0651568, 0.00892166},{-0.0915392, -0.046671, 0.112813, -0.0366743, -0.117578},{-0.0791671, -0.140671, -0.0469803, 0.0780369, -0.00579832},{0.0375159, 0.0164328, 0.00777356, -0.040324, -0.0639412},{-0.139659, 0.03581, -0.0360136, 0.0420516, 0.0234908}},{{-0.050286, -0.141645, 0.0575939, -0.0058419, -0.00205707},{-0.000976834, 0.0129776, -0.0505923, -0.0266149, 0.0211158},{-0.116328, -0.00984384, 0.0242763, -0.143446, -0.129583},{-0.0432527, -0.0743604, 0.0350591, -0.0265444, 0.0217874},{-0.014392, -0.00884263, -0.0487523, -0.00374398, 0.0212005}},{{-0.0249827, -0.0952586, -0.0909775, -0.0549951, -0.028095},{0.0219366, -0.0103157, -0.0323278, -0.00981532, -0.0937031},{0.0333802, -0.144703, -0.111418, -0.0864473, 0.010772},{-0.0937372, -0.0861521, -0.0236115, 6.47008e-05, -0.0928776},{-0.0651737, -0.0368549, 0.021966, -0.0715667, -0.0707039}},{{-0.147891, -0.0998048, 0.0284441, 0.0152214, 0.0290793},{1.84884e-05, 0.0593189, 0.00835666, -0.137568, 0.0738553},{-0.110376, -0.0981981, -0.107846, -0.0996781, 0.0418954},{-0.102888, -0.0874814, -0.114698, -0.0410717, -0.091869},{0.00886917, -0.138884, -0.107488, -0.12094, 0.0411298}}},{{{-0.0134998, -0.0216333, 0.00769715, -0.000516624, -0.127624},{-0.111104, -0.103394, 0.069326, -0.100834, -0.0187336},{0.0438482, -0.0157666, -0.0107471, -0.0363038, -0.0287438},{-0.129929, -0.081618, -0.0583595, 0.0294522, -0.0431867},{-0.053514, 0.00461604, 0.0979553, -0.124788, 0.00304299}},{{-0.150463, 0.00607812, -0.0488111, -0.117948, -0.065927},{0.0653303, 0.0965907, -0.111054, -0.0593994, -0.102124},{0.0434828, -0.0744066, 0.056119, -0.0600111, -0.0511943},{-0.113791, -0.0757582, 0.000863658, -0.0726155, -0.105019},{-0.134628, -0.0103612, -0.061664, 0.0119004, 0.0442323}},{{-0.12363, 0.0883909, -0.019802, 0.026217, 0.0119996},{0.056395, 0.0583066, -0.081474, -0.0197107, 0.0494621},{0.000591542, -0.0609284, 0.00696281, -0.0692173, 0.053022},{-0.0678364, -0.0810269, 0.0436927, 0.0189459, -0.0738357},{-0.132718, 0.0107926, 0.0256404, 0.0115595, -0.104287}},{{-0.0450636, -0.0634837, -0.133659, -0.083932, -0.102433},{-0.127599, -0.128535, 0.0359789, 0.0390415, -0.0671238},{0.00615947, -0.0349231, -0.0576515, -0.0469836, -0.0240302},{-0.121034, -0.101266, -0.107041, -0.0216885, -0.128531},{0.0337999, -0.0388798, -0.0284326, -0.129752, -0.0212632}},{{-0.0828965, 0.0139576, -0.130386, 0.0337976, 0.0104112},{-0.0415436, -0.16382, 0.0123937, 0.0542327, 0.0114941},{-0.118405, 0.0227896, -0.0250342, -0.00672879, -0.148641},{0.0387622, -0.010925, -0.135222, -0.110317, -0.0432467},{-0.0446624, -0.0557681, 0.000477248, -0.0680331, -0.12547}},{{-0.09294, -0.0293277, -0.0105383, -0.0315087, -0.0300583},{0.0974144, 0.0322619, 0.0543613, 0.0902003, -0.107566},{-0.0198575, 0.0356127, 0.100719, -0.0912006, 0.0494184},{0.032615, -0.0743267, -0.0872081, 0.0526338, -0.0602165},{-0.00884503, 0.0140507, -0.102983, 0.0565964, 0.00916943}}},{{{0.0833679, 0.109878, -0.0411061, -0.0116293, -0.0576758},{-0.0726363, 0.100439, -0.034684, 0.0730063, -0.031588},{0.0795504, 0.109673, 0.118653, 0.066671, 0.0740152},{-0.0748624, 0.0902079, 0.0923406, 0.0616899, 0.00861184},{0.00404745, -0.0904279, 0.0884733, 0.0538638, -0.0193435}},{{0.021319, -0.00479295, -0.0720208, 0.0274616, -0.0329993},{-0.0701407, 0.0450236, 0.0442456, -0.018129, 0.106034},{0.0411685, -0.0603372, 0.0109108, -0.0296978, -0.0616099},{-0.148852, -0.125383, 0.00423001, 0.0969713, 0.115895},{-0.115707, -0.0591366, -0.01297, -0.0141053, 0.00149408}},{{-0.0652515, -0.142372, -0.0563349, -0.0158333, 0.0155152},{0.101515, -0.0438642, -0.0739774, 0.0129048, 0.00184177},{0.000671584, -0.0803233, 0.0903722, 0.0341143, -0.00980729},{-0.0803867, -0.0700458, -0.00539356, 0.0428024, 0.00330835},{-0.0493277, -0.0633204, -0.0107666, 0.0673363, 0.0328666}},{{-0.0160969, 0.0361874, 0.0925772, 0.0666718, -0.0280364},{-0.0487263, -0.0186208, 0.0501665, -0.04769, -0.0500939},{-0.109573, 0.0197903, 0.0470008, -0.101676, -0.0563059},{-0.0226977, -0.0797615, 0.0588004, -0.0371762, 0.0625914},{0.0687493, 0.0367218, 0.0693316, 0.0291466, 0.122362}},{{0.00112146, -0.020688, 0.066966, -0.0112029, -0.0902761},{0.0337661, 0.0155081, 0.0575603, 0.0851888, 0.0913282},{0.00154101, -0.079087, -0.067218, -0.0751321, 0.0802889},{0.0485308, -0.0516994, 0.0908411, 0.0462283, 0.0213017},{0.00806369, 0.0891957, 0.0890507, 0.0732447, 0.0246495}},{{0.0509855, 0.0554976, -0.0591561, -0.16706, -0.00362119},{0.0942237, 0.00293974, -0.0865472, -0.106283, -0.0772263},{-0.0311456, 0.0822817, -0.0161322, -0.130283, -0.117583},{0.0477309, -0.157793, -0.0189967, -0.0263117, -0.00550587},{0.0085211, -0.115684, -0.0153355, 0.0583896, 0.0374569}}},{{{0.0136459, -0.0062497, -0.100307, 0.0352212, 0.0157456},{0.0365293, -0.0319178, -0.0798601, -0.00517026, 0.0430616},{0.0580729, -0.00594497, -0.0181286, 0.0341047, -0.00309146},{-0.0500672, -0.00136324, 0.0244932, 0.0988878, 0.1156},{0.148688, 0.0731645, 0.00263841, 0.16165, 0.0903321}},{{-0.0814003, -0.0670692, 0.00117759, -0.0390284, -0.0684568},{-0.0686867, 0.0659109, 0.0641414, -0.0588136, -0.0826171},{-0.0718039, 0.0750218, -0.0642317, -0.0298705, -0.0608711},{0.0506554, 0.0147265, 0.00730247, -0.0604984, 0.0467181},{-0.0611616, -0.0621433, -0.124927, 0.00479014, -0.0459531}},{{-0.0317324, -0.105646, -0.0104251, 0.0496922, 0.0380115},{0.0595132, 0.0250573, 0.125314, 0.0352286, 0.105304},{0.0703704, 0.0304645, 0.0661383, -0.0852436, -0.0978714},{-0.0807614, -0.00749534, -0.0720313, -0.0841334, -0.136705},{-0.0833789, -0.158943, -0.0174596, -0.0791942, 0.0443447}},{{0.00851981, -0.0487614, -0.00116826, 0.0155863, 0.0434757},{0.060902, -0.0683892, -0.0300416, 0.0420408, 0.0272906},{-0.00793585, 0.0220265, -0.0584638, 0.0178032, 0.0505305},{0.00254375, -0.0325679, -0.138712, -0.0655454, 0.024765},{-0.0246706, -0.0631361, -0.214798, -0.00907197, -0.0183152}},{{0.0805733, 0.0736055, -0.0501414, 0.0961003, 0.0384409},{-0.0510654, 0.0997122, 0.0428427, 0.0186567, 0.0390571},{0.0840248, -0.00382984, -0.0515525, -0.028565, -0.0160622},{0.0696635, 0.0280728, -0.0352281, -0.0808243, -0.177312},{-0.114359, -0.0565487, -0.0278831, -0.0210536, 0.0284301}},{{-0.0306501, -0.111828, -0.041045, 0.0345406, 0.0266684},{-0.0457194, -0.0054004, 0.00093062, 0.0377796, -0.0591581},{0.0264342, 0.0152956, -0.120955, 0.0159504, -0.0379388},{0.0269715, 0.0127659, -0.0924439, -0.176279, -0.053813},{-0.0924963, -0.150656, -0.035364, -0.0940865, -0.0857302}}},{{{-0.0739168, -0.100902, -0.0421982, 0.0291905, -0.0656708},{-0.0654756, -0.00577797, -0.0973977, 0.0255491, -0.0209548},{0.0236901, -0.0498975, 0.0104153, -0.0873722, -0.0348857},{0.0162024, -0.00772257, 0.08599, -0.0492656, -0.144282},{0.00422573, 0.0442395, -0.0343463, 0.0919012, -0.0780296}},{{-0.0252503, -0.0642015, -0.0940773, -0.0595245, -0.0352087},{-0.0874449, -0.0230818, -0.0852736, 0.00716566, -0.113328},{-0.0285439, 0.0382516, 0.0642185, 0.0835255, 0.0346627},{-0.103774, -0.0468067, 0.0583616, -0.051541, -0.0638438},{0.0360915, -0.0191605, -0.0581786, -0.0502974, -0.0688397}},{{-0.0348117, 0.0764726, 0.0543849, 0.0786103, 0.0347377},{-0.0205503, -0.0268072, -0.054606, 0.0375151, -0.122201},{-0.00845636, 0.110361, 0.149153, 0.0927693, 0.0198816},{-0.174182, -0.0475718, 0.0317887, 0.0876434, 0.0449889},{0.016368, -0.0421333, -0.0299371, 0.12244, 0.0348522}},{{-0.0152248, -0.039399, -0.167982, 0.0497738, -0.069283},{0.0258371, -0.0417523, -0.0755979, -0.0160094, 0.0406449},{-0.061844, -0.139028, -0.0218922, 0.0757115, -0.0966512},{-0.116438, -0.147944, -0.0543374, 0.114087, 0.0172543},{-0.0484327, -0.0464722, -0.0212026, 0.0484245, 0.0109813}},{{-0.157573, 0.099463, -0.0326312, -0.0516097, -0.0964099},{0.0364291, 0.0693004, -0.0307666, 0.032068, -0.0900186},{-0.113897, -0.0619576, -0.0274739, -0.0947871, 0.0493942},{0.0857068, -0.0161497, -0.063065, 0.0552022, 0.0556705},{-0.00747703, 0.021096, 0.0243649, -0.00114968, -0.0948769}},{{-0.0872427, -0.0556899, -0.166012, 0.0125794, -0.146867},{-0.0619092, -0.106107, 0.0116869, 0.12785, -0.0894844},{-0.066041, -0.0225763, 0.0289269, 0.140481, 0.000285462},{-0.11226, -0.00504773, 0.0449915, 0.0743904, 0.0199676},{-0.0126643, 0.0266437, 0.0277476, 0.00470388, -0.0440987}}},{{{-0.0920882, 0.140767, 0.138497, 0.0822469, -0.0481175},{0.284996, 0.0933539, -0.060772, 0.00925033, -0.0869506},{0.181932, 0.0818412, -0.200448, -0.186582, -0.337831},{-0.0939565, -0.122249, -0.123578, -0.246309, -0.0871063},{-0.0160753, -0.209635, 0.0551513, 0.0891372, 0.124891}},{{0.122462, 0.172698, -0.0978215, -0.13804, -0.201072},{-0.0555092, 0.275737, 0.0510169, 0.0830972, -0.0352117},{-0.191073, 0.0380023, -0.145257, -0.250895, -0.0493314},{0.0914468, -0.0248962, -0.00985023, -0.192296, -0.0894993},{0.160736, -0.0841007, 0.0717301, -0.0180769, -0.203032}},{{-0.0470614, 0.128526, 0.120869, 0.230857, -0.0660361},{-0.419255, -0.234607, -0.0374896, 0.108621, 0.089286},{-0.0551167, -0.105326, -0.270235, 0.00454762, -0.143789},{0.106779, 0.0791002, 0.121085, -0.165484, -0.462817},{0.099558, 0.109847, 0.0896899, 0.143875, 0.0935614}},{{0.0433463, 0.00397697, -0.0384615, -0.0361398, 0.0144595},{-0.11151, -0.178566, -0.230928, -0.180447, -0.144353},{-0.388848, -0.616195, -0.32271, -0.413469, -0.161286},{0.0270838, -0.102949, -0.200438, -0.113958, -0.272868},{0.0295301, 0.0795945, 0.00658216, 0.0408629, -0.164253}},{{-0.132423, -0.08337, 0.00859046, -0.000407973, 0.0327532},{-0.2697, -0.296337, -0.105187, 0.0214579, 0.104885},{-0.121487, -0.295125, -0.180082, -0.0208934, -0.0740473},{0.130762, 0.0736735, -0.164461, -0.16662, -0.383654},{0.18384, 0.148051, 0.192942, 0.190401, 0.13584}},{{0.0943832, 0.0127344, 0.111761, 0.160721, 0.0542136},{-0.16598, -0.232542, -0.290998, -0.163265, -0.325584},{0.00616371, -0.1488, -0.573173, -0.493826, -0.168845},{-0.0220861, -0.069354, 0.018541, -0.141385, -0.168402},{0.131412, 0.150349, 0.0443967, 0.0575643, -0.154393}}},{{{-0.0918551, -0.0118418, -0.0687312, 0.0672411, 0.0783003},{-0.0392285, -0.0981931, -0.022162, 0.0369225, 0.0408319},{-0.0500071, 0.0650534, -0.132239, -0.0440378, 0.0930152},{-0.107536, -0.162287, -0.073402, 0.0288976, -0.00389108},{-0.120293, -0.102469, -0.00717181, 0.0577299, -0.0164696}},{{0.020626, 0.0528204, -0.0650507, -0.0181911, -0.0639276},{0.104133, -0.0466748, -0.110855, -0.0320097, -0.0157315},{0.0825102, -0.040521, 0.00284234, -0.00551302, -0.0433551},{0.0787176, 0.10612, -0.0844044, -0.0258847, -0.0303557},{0.0365299, 0.00478732, -4.3273e-05, 0.0425782, -0.129664}},{{-0.122086, -0.10239, 0.0505654, -0.0346697, -0.0171881},{-0.0458772, -0.0962558, -0.104169, -0.00705438, -0.0117347},{-0.189307, -0.0947591, -0.121595, -0.000958914, -0.0185872},{-0.166765, -0.089556, 0.0401252, -0.0126539, 0.00907193},{-0.0711962, 0.0348857, 0.0181111, 0.00722798, 0.0855436}},{{-0.0725385, 0.00505443, 0.00714073, -0.00378772, 0.0734437},{-0.0842778, -0.0777906, -0.00241708, 0.0741412, 0.000418081},{-0.00836205, -0.0456052, 0.109407, 0.0892006, -0.0329025},{-0.0353419, 0.045227, 0.0478774, -0.0547005, -0.0273723},{0.00874879, 0.0117565, 0.0714176, 0.00710361, -0.00650539}},{{-0.0860937, 0.00320494, 0.0938315, -0.0226071, 0.0462188},{0.0776627, 0.0722204, -0.0338566, 0.0908892, -0.0576445},{-0.0772328, 0.00148911, -0.034729, 0.00085627, -0.0928303},{-0.04727, 0.0194588, 0.013639, -0.0112872, -0.0512872},{-0.0857779, 0.0549627, 0.0100229, -0.0177597, -0.137597}},{{0.107082, 0.0680283, 0.0346225, 0.0388272, -0.0288544},{-0.0949866, -0.0290471, 0.028516, -0.0200151, -0.0455285},{-0.0361919, 0.0887494, 0.11117, 0.0976022, 0.088537},{-0.0137098, 0.102217, 0.134811, 0.0474692, -0.0730626},{-0.187031, 0.115696, 0.0579718, 0.0400077, -0.0151297}}},{{{-0.10643, 0.106649, 0.171873, -0.0221392, -0.32045},{0.046251, 0.0917398, -0.010598, -0.0372021, -0.184749},{-0.215173, -0.146763, 0.0145548, 0.19367, -0.0243501},{-0.145582, -0.0950416, 0.15378, 0.182534, -0.191034},{0.155504, 0.200386, 0.0650928, -0.0862275, -0.0830411}},{{-0.0783404, -0.28154, 0.0956417, 0.0577722, -0.233304},{-0.380268, -0.34086, -0.0672899, -0.205606, -0.0734398},{-0.224416, -0.0423655, -0.296133, -0.330333, -0.282924},{-0.235319, -0.250801, -0.33259, -0.330365, -0.149234},{-0.529298, -0.438408, -0.281517, -0.0642203, 0.0652382}},{{0.0540541, -0.174544, -0.090547, -0.0268361, -0.248468},{0.0608416, -0.219582, 0.0365487, -0.120444, -0.178017},{-0.231566, -0.312402, -0.434223, -0.29983, 0.198346},{-0.255452, -0.195707, -0.210323, -0.00657898, -0.0650288},{-0.0162558, -0.0321461, 0.10011, -0.0622065, -0.126825}},{{-0.239392, -0.389471, 0.0254484, 0.0816054, 0.142932},{0.0721241, 0.0339921, 0.0989347, -0.0122507, 0.137338},{0.106107, 0.00812645, -0.0751439, -0.00307351, -0.309589},{0.0780506, 0.0056312, -0.120937, -0.29743, 0.0399128},{-0.0270076, -0.0378532, -0.0207855, -0.131004, 0.100026}},{{0.00632242, 0.0785286, 0.207234, 0.00101617, -0.304807},{0.042644, 0.00507404, 0.00323471, -0.184063, -0.204875},{-0.0183832, 0.0381419, 0.0846892, -0.0933303, -0.0278139},{-0.0238163, -0.000988492, -0.0461127, 0.112848, 0.0711399},{0.130673, 0.152999, 0.0020296, -0.0101544, 0.0968374}},{{-0.286048, -0.18262, 0.0975274, 0.273095, 0.264497},{-0.289082, 0.0278545, -0.0154251, 0.21944, 0.166291},{-0.0437145, -0.097161, -0.033292, -0.19045, -0.0471908},{-0.0682109, -0.095521, -0.162619, -0.181277, -0.142797},{-0.278072, -0.23656, -0.161759, -0.135475, 0.13208}}},{{{0.0236985, -0.0392232, -0.021665, -0.0227191, -0.0427599},{-0.11538, -0.0742112, -0.0533134, -0.0295603, -0.109639},{-0.351767, -0.193254, -0.12178, 0.0124221, -0.036894},{-0.332015, -0.297395, -0.393294, -0.0487955, 0.035321},{-0.153882, -0.122598, -0.113016, -0.0554465, -0.0696655}},{{0.16611, -0.177835, -0.0384244, 0.20957, 0.295102},{0.0315874, -0.189245, 0.0916268, -0.0153294, -0.0619332},{-0.0287145, -0.32053, -0.0203595, -0.05846, -0.0941725},{-0.240367, -0.246881, -0.0536145, -0.048281, -0.250404},{-0.196124, -0.113277, -0.148265, -0.0798971, -0.200454}},{{-0.0287232, -0.0534751, -0.128599, -0.157294, 0.0279795},{0.080569, -0.142872, -0.0238009, 0.0209582, 0.0138886},{-0.0704962, -0.166923, 0.173035, 0.0783086, -0.0131765},{-0.094786, -0.010272, 0.00446273, -0.0687187, -0.00130252},{-0.0474363, 0.0602918, -0.0204654, -0.0125003, -0.0187084}},{{0.0323294, 0.047029, 0.025425, 0.00202473, -0.0139537},{0.0149134, 0.0233069, 0.0301405, 0.0191441, 0.103646},{-0.0231095, 0.136383, 0.0176123, -0.123589, -0.0608785},{-0.054272, 0.164411, -0.0831616, 0.053993, -0.0509725},{0.0506318, 0.0112089, 0.0584746, 0.128254, 0.0491131}},{{0.10543, -0.0522101, -0.0933127, -0.041915, 0.0675785},{0.0973044, -0.000440631, -0.011989, -0.0614305, 0.000939527},{0.0302037, -0.0171251, -0.0823747, 0.00434778, -0.0580576},{0.00588694, -0.0348043, 0.0465786, 0.116703, 0.0802154},{-0.027686, 0.0819166, 0.1231, 0.00273088, 0.118521}},{{0.0707456, 0.0747052, 0.0658723, -0.111295, -0.0111421},{0.164547, 0.13202, 0.0214965, -0.123253, 0.0285198},{0.198542, -0.00763734, 0.0468534, -0.0226308, -0.0778749},{0.123513, 0.0198033, 0.0745755, -0.00781344, -0.0219797},{0.0980913, -0.0840027, 0.143071, -0.0179059, -0.0643576}}},{{{-0.0127664, 0.0708241, -0.0532108, -0.107884, 0.0153186},{0.00821942, 0.0187836, 0.0649163, -0.0631211, -0.000753712},{-0.0947621, -0.153074, -0.114102, -0.00505697, 0.0227641},{-0.0175101, -0.105016, 0.0232986, 0.0229431, -0.00753246},{0.0039268, -0.0152001, -0.0684588, -0.0808882, -0.088869}},{{-0.0985737, -0.107092, 0.000172298, -0.158665, 0.0153984},{0.0280994, -0.00539674, -0.0179821, -0.128481, 0.0225494},{0.0704439, 0.0898147, 0.0934945, -0.0732724, -0.144264},{-0.101957, -0.0824765, -0.008026, -0.084337, 0.0127313},{-0.0131972, -0.0214325, -0.0814771, -0.00267536, 0.0148881}},{{-0.0967123, -0.116459, -0.129716, -0.1627, 0.0858143},{0.0285505, -0.179793, -0.0430133, -0.0129181, 0.0187994},{-0.145076, -0.100257, -0.0411954, 0.0975937, -0.110246},{-0.0623691, 0.0990596, 0.0010419, -0.0788009, -0.126703},{-0.0652662, 0.0685771, 0.0813517, -0.053574, 0.0174222}},{{-0.0945103, -0.0398473, -0.0749687, -0.104287, -0.167276},{-0.136902, -0.0343525, -0.0740736, -0.096417, -0.14195},{-0.037113, 0.00278924, -0.157419, -0.00201406, 0.0586825},{-0.0381606, -0.129808, -0.0861627, -0.158871, 0.0683362},{0.0202781, -0.0808708, -0.0801663, -0.108516, -0.137609}},{{-0.0468771, -0.0454765, 0.0087258, 0.0206858, -0.0236095},{0.0589784, -0.0014874, -0.103067, -0.0512966, -0.182509},{0.0804152, 0.00303145, -0.0243858, -0.0213431, -0.0422859},{-0.142735, -0.0345454, -0.0904369, -0.144575, -0.160199},{-0.0797607, -0.0674096, 0.0703939, -0.0445425, 0.0509925}},{{-0.0404334, -0.0610879, -0.053788, -0.133708, -0.112979},{-0.0542541, 0.0646651, 0.0289004, 0.0640439, -0.0360216},{0.0106462, -0.0903596, -0.0437141, 0.0794916, 0.100559},{-0.0883645, -0.0960646, -0.0248774, 0.0417907, -0.0514112},{-0.00312966, 0.0190895, 0.0186544, -0.0148745, -0.0627911}}}};
	unsigned char w5_oc[120][16][5][5] = {{{{193,187,188,190,192},{197,187,187,192,194},{192,188,191,192,195},{194,187,193,195,197},{190,187,192,194,191}},{{187,188,189,193,192},{194,187,193,190,189},{189,192,190,190,191},{192,191,190,189,191},{193,192,189,187,187}},{{190,188,189,189,191},{191,193,188,189,188},{189,193,192,193,191},{187,189,191,191,189},{190,187,188,189,190}},{{191,189,187,188,191},{193,190,192,189,191},{190,192,190,190,191},{192,189,193,192,193},{193,188,191,189,193}},{{187,187,194,189,188},{191,191,190,187,192},{188,194,190,189,187},{193,189,191,190,190},{189,187,191,189,190}},{{191,189,191,192,191},{191,190,191,188,191},{187,189,190,191,191},{193,192,191,191,194},{191,190,191,192,188}},{{187,188,192,187,190},{188,187,193,189,189},{190,187,192,192,187},{190,191,192,192,190},{191,192,193,187,187}},{{192,189,190,193,189},{192,193,191,190,193},{192,193,191,193,192},{194,192,188,189,187},{193,187,190,187,187}},{{193,188,187,188,193},{189,191,193,190,189},{189,189,189,190,188},{187,193,191,192,192},{187,187,190,187,189}},{{191,187,192,193,193},{199,190,189,195,192},{193,189,187,189,194},{193,193,194,192,197},{190,193,189,193,193}},{{194,190,189,189,192},{191,197,188,191,192},{194,190,192,192,189},{194,187,194,188,188},{194,192,190,193,196}},{{192,197,194,188,189},{196,193,193,192,193},{197,187,196,187,189},{190,193,189,189,187},{193,189,188,189,193}},{{197,195,190,188,189},{194,194,190,191,193},{191,196,192,190,193},{196,193,187,193,192},{193,197,190,193,187}},{{193,188,187,193,190},{189,190,193,191,193},{190,193,192,188,192},{193,189,191,189,188},{191,189,194,188,190}},{{190,188,187,193,188},{188,188,191,192,192},{191,190,193,193,188},{190,191,190,187,188},{190,191,193,188,194}},{{195,193,189,188,189},{188,188,187,193,187},{200,190,187,187,192},{189,189,191,191,189},{189,189,189,191,193}}},{{{197,194,198,199,197},{198,197,193,191,196},{189,189,188,194,197},{195,192,191,197,196},{197,193,200,193,197}},{{194,185,186,192,196},{194,197,185,195,193},{194,191,193,197,192},{193,187,197,195,195},{197,193,195,190,192}},{{188,195,191,188,191},{197,193,190,187,193},{187,190,193,187,192},{190,192,190,186,194},{192,197,188,194,194}},{{190,190,192,197,192},{192,194,192,199,192},{188,189,195,197,187},{192,193,196,190,198},{193,193,196,194,189}},{{197,213,205,200,201},{178,201,208,203,185},{197,202,200,194,190},{205,205,203,198,166},{189,213,181,157,184}},{{198,194,196,199,189},{194,198,198,200,194},{194,193,200,197,198},{200,196,199,200,196},{192,194,189,199,194}},{{199,190,193,199,198},{195,199,198,193,189},{190,199,191,193,197},{188,192,190,198,188},{197,194,199,197,197}},{{194,199,195,189,189},{188,200,200,190,192},{190,188,202,197,194},{200,196,194,187,194},{190,198,189,188,191}},{{194,191,195,193,195},{195,192,191,192,196},{188,188,186,196,191},{194,185,186,194,194},{191,184,196,196,197}},{{192,190,197,190,192},{186,195,195,186,192},{187,184,191,187,183},{185,187,197,189,192},{196,190,191,197,188}},{{186,196,193,194,186},{184,195,195,190,186},{189,190,194,194,189},{191,191,196,183,187},{194,197,194,188,193}},{{180,138,175,188,198},{183,205,176,201,204},{139,184,196,206,197},{201,182,178,175,172},{161,183,184,205,201}},{{193,191,194,195,194},{193,192,189,188,190},{192,195,194,187,190},{192,197,195,195,191},{191,194,186,190,189}},{{210,196,196,200,218},{204,185,197,202,198},{189,183,197,187,185},{177,175,194,203,207},{179,205,190,187,197}},{{197,212,212,216,215},{197,200,202,197,171},{170,200,206,212,185},{169,180,199,184,199},{217,208,171,187,195}},{{191,196,195,190,187},{188,194,192,185,190},{187,189,190,189,190},{185,187,189,189,192},{191,194,193,195,189}}},{{{195,199,199,190,189},{196,193,196,192,196},{186,199,194,197,191},{190,185,194,191,196},{200,188,197,194,192}},{{197,196,191,197,195},{194,193,197,196,190},{191,197,196,192,196},{196,193,196,194,196},{190,193,190,197,196}},{{195,196,200,200,191},{196,197,194,194,190},{195,193,194,190,197},{196,193,196,192,200},{192,194,192,195,199}},{{195,193,192,191,195},{195,196,195,194,195},{196,194,194,192,191},{197,193,191,192,196},{193,196,196,193,192}},{{195,199,198,198,201},{197,200,195,196,205},{195,200,196,195,195},{199,198,201,196,187},{205,196,194,191,182}},{{197,195,196,194,195},{200,198,197,198,198},{198,198,196,198,195},{194,196,200,200,200},{197,197,196,200,197}},{{195,199,198,195,196},{197,198,195,195,198},{199,199,194,197,194},{196,194,197,194,194},{196,196,200,198,194}},{{195,198,197,197,194},{196,194,195,195,195},{197,194,197,198,195},{198,193,196,196,198},{198,194,194,200,191}},{{196,191,194,195,192},{195,193,196,193,197},{196,194,196,193,193},{191,194,196,196,193},{196,194,194,194,195}},{{195,193,191,196,192},{196,191,194,191,196},{190,197,190,196,194},{191,196,193,195,189},{190,189,196,193,188}},{{193,194,192,192,192},{190,195,191,195,194},{190,189,190,192,186},{189,192,197,192,185},{191,195,195,195,193}},{{194,196,189,201,194},{200,186,186,190,204},{197,192,201,186,180},{208,198,196,199,183},{181,195,188,193,191}},{{188,192,194,194,194},{189,192,193,196,194},{191,195,192,189,195},{190,190,194,194,195},{187,193,194,192,192}},{{197,204,195,194,186},{193,180,198,196,193},{182,182,199,184,178},{189,196,191,194,201},{197,193,192,186,194}},{{187,200,210,206,195},{194,195,197,195,189},{182,186,215,198,191},{181,200,199,189,193},{194,197,195,194,189}},{{189,190,190,191,186},{194,193,194,196,192},{191,193,191,187,188},{195,196,194,187,193},{196,195,196,193,187}}},{{{189,184,195,182,186},{196,199,196,191,193},{200,197,195,197,193},{194,193,199,194,196},{195,196,193,194,195}},{{195,197,195,191,196},{196,193,197,191,190},{191,192,195,191,194},{195,197,191,194,197},{193,193,194,196,194}},{{195,197,196,200,199},{198,194,194,197,198},{194,192,187,197,196},{194,192,194,191,197},{191,196,190,196,191}},{{194,195,193,192,195},{191,191,193,192,194},{192,193,194,195,190},{196,197,196,194,195},{191,193,191,195,191}},{{193,192,199,202,195},{197,198,195,195,194},{201,197,196,189,202},{197,201,199,192,200},{197,195,194,188,191}},{{193,198,195,200,197},{198,199,194,195,197},{197,196,199,197,196},{195,195,194,197,198},{198,198,195,199,198}},{{194,195,199,196,199},{198,198,196,195,199},{195,196,196,194,197},{197,197,198,197,198},{199,193,199,198,199}},{{196,199,194,197,198},{200,197,198,196,198},{198,196,199,198,193},{194,198,194,200,188},{199,198,194,195,194}},{{193,194,190,195,192},{196,196,190,193,195},{191,194,193,195,196},{196,196,197,193,191},{192,190,195,193,192}},{{191,185,190,190,193},{196,190,193,196,194},{193,195,196,195,191},{193,195,191,192,189},{186,190,195,197,193}},{{191,191,196,194,194},{192,192,194,192,194},{193,191,197,196,185},{193,187,195,192,191},{192,197,196,195,190}},{{204,170,173,201,200},{168,184,176,192,182},{171,190,199,190,176},{171,189,181,201,193},{171,198,195,194,185}},{{190,187,192,190,194},{189,193,193,191,193},{189,192,195,193,195},{192,189,192,193,196},{188,191,194,187,185}},{{200,204,191,198,198},{207,197,198,191,194},{186,186,194,185,199},{175,182,206,181,187},{208,201,194,189,186}},{{192,205,201,198,194},{196,193,189,199,201},{193,164,200,176,193},{197,201,183,193,192},{176,195,199,195,196}},{{191,184,192,192,196},{184,190,195,197,192},{192,193,195,191,192},{193,192,193,193,187},{185,193,186,191,190}}},{{{195,191,191,190,193},{193,192,194,192,192},{195,193,194,195,191},{190,193,194,192,197},{195,192,192,193,196}},{{194,190,187,190,191},{188,191,188,187,190},{191,194,191,188,188},{189,191,192,189,191},{193,189,189,189,193}},{{193,194,194,195,195},{194,193,193,195,191},{188,189,193,190,195},{192,189,193,189,194},{193,191,188,188,194}},{{193,189,194,192,188},{189,193,192,194,188},{187,190,190,192,194},{189,192,188,190,191},{190,192,187,189,193}},{{193,194,196,191,196},{192,195,192,194,197},{196,192,196,188,190},{197,193,192,194,192},{195,196,191,193,193}},{{191,192,193,193,191},{193,195,195,195,193},{191,194,191,194,197},{193,192,190,193,191},{191,192,194,191,191}},{{194,190,194,193,194},{191,192,194,195,194},{191,195,190,197,195},{197,193,190,195,194},{191,197,190,194,193}},{{193,195,192,191,195},{191,196,193,193,194},{197,195,192,191,192},{194,193,193,191,195},{196,191,193,194,194}},{{188,193,187,188,190},{192,188,192,191,190},{190,188,192,188,189},{189,194,193,190,193},{190,187,192,192,191}},{{191,189,189,190,190},{188,193,189,191,187},{189,190,191,189,192},{190,187,187,191,191},{191,189,188,191,188}},{{192,193,190,191,191},{187,188,189,194,193},{188,189,193,188,188},{189,190,188,192,190},{192,191,192,193,190}},{{192,195,193,196,197},{193,194,194,195,190},{190,193,191,193,196},{196,196,191,193,195},{197,194,197,194,193}},{{187,187,188,193,189},{189,187,188,191,189},{193,191,191,192,190},{189,191,188,189,190},{189,189,191,193,192}},{{192,191,192,192,194},{195,192,192,192,190},{195,191,195,191,190},{193,193,194,192,196},{193,196,190,192,193}},{{195,195,192,194,193},{190,192,191,193,195},{192,196,192,190,191},{193,197,191,194,193},{196,192,195,196,193}},{{192,192,191,191,192},{189,193,190,193,192},{190,189,190,187,192},{189,190,192,190,193},{190,191,193,188,193}}},{{{195,190,194,193,195},{190,196,187,197,191},{195,192,193,190,195},{197,192,194,196,191},{196,190,196,193,193}},{{193,187,189,192,192},{190,191,190,193,192},{187,187,191,193,191},{187,193,192,191,191},{187,191,194,189,193}},{{189,189,190,190,193},{188,191,188,191,190},{190,191,193,191,192},{190,189,191,195,193},{190,194,196,188,189}},{{192,187,189,188,188},{189,193,193,188,189},{194,191,190,191,187},{190,190,187,192,192},{188,189,189,189,193}},{{189,191,191,190,187},{191,191,192,187,193},{194,193,191,188,189},{193,188,193,192,191},{193,192,189,194,192}},{{188,189,187,193,191},{192,193,191,193,193},{188,189,193,193,187},{191,192,192,188,191},{187,193,188,192,191}},{{188,193,191,188,189},{192,193,189,188,191},{189,193,187,188,190},{192,191,192,191,189},{193,193,189,192,190}},{{189,193,187,191,194},{191,193,189,193,190},{191,191,191,188,191},{187,188,187,193,190},{193,187,192,194,195}},{{187,189,188,190,190},{188,187,192,189,193},{187,192,194,188,191},{188,189,191,187,187},{189,187,190,191,193}},{{193,192,188,191,191},{195,189,188,193,190},{191,196,190,187,194},{191,192,187,193,187},{188,187,193,193,196}},{{196,192,193,191,187},{193,193,188,190,187},{192,192,193,190,193},{196,188,191,188,190},{194,191,196,196,192}},{{194,194,194,191,188},{191,190,192,197,188},{193,189,193,192,190},{190,191,187,192,189},{193,189,190,189,195}},{{196,191,190,192,189},{193,194,193,188,191},{196,190,195,188,187},{194,188,191,192,191},{193,191,193,196,196}},{{189,188,193,193,192},{187,187,187,189,188},{187,192,188,190,190},{191,188,188,187,188},{187,190,193,192,192}},{{190,194,193,192,191},{190,188,192,188,189},{189,190,192,187,193},{189,193,194,189,188},{190,187,191,191,191}},{{192,189,192,187,192},{195,190,187,190,193},{193,196,193,195,194},{190,188,192,191,189},{192,192,187,192,190}}},{{{187,185,189,193,196},{191,189,187,194,191},{195,192,191,192,191},{187,190,191,193,196},{192,192,193,193,191}},{{196,190,194,194,197},{194,194,191,191,192},{186,185,197,196,197},{191,191,187,192,194},{191,192,195,192,194}},{{193,200,197,198,191},{189,193,193,198,189},{188,192,191,197,196},{195,193,187,184,187},{193,194,185,189,199}},{{195,193,192,191,192},{193,194,195,194,184},{194,186,193,194,197},{195,192,196,197,197},{192,191,197,194,190}},{{200,191,174,203,204},{186,191,192,181,189},{198,193,194,192,180},{206,183,186,188,191},{193,189,186,204,196}},{{196,194,199,194,190},{190,196,200,194,197},{198,199,197,195,194},{199,196,195,200,194},{197,196,199,197,196}},{{200,200,194,194,195},{194,194,193,189,200},{189,193,190,191,196},{191,200,198,199,197},{199,198,194,199,197}},{{188,195,200,193,190},{187,198,187,195,189},{195,189,197,189,198},{187,196,194,195,189},{190,193,200,188,196}},{{195,196,192,196,191},{194,190,191,192,191},{193,188,196,196,195},{192,186,192,193,193},{196,194,196,192,193}},{{192,184,191,184,191},{189,191,185,186,193},{189,185,192,189,190},{194,191,194,191,193},{189,193,187,183,187}},{{189,188,192,186,186},{192,184,195,188,186},{192,196,196,193,193},{187,194,196,185,187},{188,186,184,189,192}},{{203,195,218,212,202},{186,211,205,209,180},{139,189,188,200,169},{214,210,175,205,176},{224,201,211,196,196}},{{190,187,190,186,190},{190,194,187,185,189},{191,193,186,190,187},{193,194,195,191,193},{191,188,190,188,186}},{{188,215,173,210,208},{200,204,201,200,195},{200,209,198,209,197},{205,200,196,178,200},{210,205,203,168,172}},{{202,183,180,186,191},{213,212,206,198,191},{189,206,210,196,210},{150,169,174,186,188},{184,197,211,189,163}},{{190,195,194,189,189},{185,195,190,188,193},{184,190,190,188,189},{189,189,187,193,190},{191,192,196,188,187}}},{{{197,203,187,195,191},{192,188,199,191,197},{193,199,194,196,191},{183,198,193,196,194},{188,194,193,193,197}},{{190,195,193,192,192},{193,191,194,196,186},{192,196,192,195,197},{196,191,192,196,197},{196,193,187,194,191}},{{192,188,199,196,196},{197,193,194,199,197},{195,194,190,195,200},{195,191,194,192,194},{195,192,189,194,198}},{{194,197,192,192,192},{193,194,194,190,194},{191,195,194,196,194},{194,194,193,192,196},{195,193,195,192,197}},{{199,197,188,199,193},{199,206,194,192,191},{203,195,191,194,192},{197,191,195,195,195},{204,200,201,200,207}},{{198,199,195,197,200},{194,194,194,197,198},{200,200,195,199,198},{199,198,198,200,199},{196,194,195,195,195}},{{198,196,199,192,198},{198,195,196,200,195},{200,199,194,194,195},{197,195,194,199,198},{199,198,197,200,195}},{{193,196,198,194,198},{200,199,199,199,197},{197,197,201,194,197},{196,195,194,198,199},{196,197,194,195,195}},{{195,196,193,195,193},{194,194,197,191,193},{195,191,193,194,192},{192,194,193,197,195},{195,191,192,193,193}},{{191,186,190,195,184},{187,188,192,194,191},{198,189,191,196,197},{197,198,187,197,189},{197,195,189,193,191}},{{188,188,188,193,196},{192,186,191,195,193},{193,192,191,199,193},{188,193,194,187,189},{188,196,192,188,188}},{{198,192,196,193,195},{206,197,189,201,204},{193,195,182,206,198},{186,195,199,196,194},{208,198,188,196,193}},{{194,190,190,194,194},{189,192,188,192,192},{193,187,192,194,195},{190,193,190,188,194},{191,191,191,191,191}},{{193,193,186,197,207},{196,196,200,207,209},{200,193,192,200,192},{191,187,194,184,195},{195,201,197,191,193}},{{200,196,199,196,199},{196,193,198,194,199},{194,202,193,183,192},{202,199,194,195,191},{198,210,206,205,196}},{{187,185,186,193,192},{189,197,195,193,194},{195,195,193,192,189},{190,191,195,192,192},{192,193,193,194,193}}},{{{191,193,188,190,196},{189,189,192,194,191},{200,190,191,189,193},{190,191,198,194,192},{196,188,192,192,196}},{{193,190,197,194,190},{191,194,195,195,187},{189,199,193,189,194},{192,194,190,194,189},{193,196,190,187,192}},{{190,193,192,198,194},{191,187,199,197,194},{191,193,192,198,196},{195,194,188,190,199},{188,187,187,194,198}},{{189,193,193,196,191},{189,193,197,194,193},{191,192,197,198,188},{190,187,198,190,188},{193,189,187,192,188}},{{193,194,188,191,189},{187,187,200,190,187},{188,192,191,194,198},{189,188,193,187,189},{193,193,189,189,190}},{{190,193,189,192,193},{189,187,187,188,190},{191,189,189,187,192},{192,187,189,193,191},{192,192,187,193,187}},{{191,194,196,197,194},{192,194,195,196,189},{191,199,192,192,195},{189,187,192,189,193},{191,196,199,187,190}},{{188,189,189,198,196},{189,188,198,187,193},{199,191,192,191,198},{189,187,193,189,194},{192,192,192,191,188}},{{188,187,189,193,189},{188,189,196,190,191},{191,187,188,191,188},{192,187,187,189,191},{190,192,190,187,194}},{{190,194,188,190,196},{193,196,188,191,194},{200,190,192,200,192},{199,199,195,198,196},{191,188,196,190,189}},{{196,188,187,193,188},{199,194,194,193,190},{197,200,191,192,189},{191,200,189,191,192},{195,188,187,188,193}},{{192,195,195,195,198},{195,200,188,187,198},{194,194,187,198,192},{190,198,192,195,190},{194,195,199,192,192}},{{192,193,200,193,188},{192,200,190,193,189},{192,191,193,194,193},{196,190,188,189,193},{192,197,194,191,192}},{{192,193,193,190,188},{193,189,193,199,188},{192,191,187,191,190},{190,193,187,192,189},{193,193,193,187,193}},{{187,193,192,188,190},{190,190,190,189,191},{191,190,193,189,189},{197,193,192,190,191},{190,193,192,188,188}},{{195,200,189,192,189},{191,188,189,193,198},{193,188,188,192,193},{187,193,188,188,197},{197,192,190,197,193}}},{{{201,196,200,202,193},{191,196,197,193,195},{197,192,195,200,191},{190,200,195,196,194},{186,196,197,195,193}},{{193,196,195,190,189},{195,180,187,192,189},{176,193,187,192,187},{207,191,196,188,188},{190,164,190,197,192}},{{188,190,195,194,200},{194,188,196,194,197},{195,191,192,198,198},{188,190,188,199,196},{197,192,196,190,187}},{{190,195,185,193,179},{179,200,194,183,168},{187,203,203,177,183},{198,198,212,206,198},{203,187,212,202,187}},{{180,191,190,197,205},{193,188,188,199,191},{194,180,181,210,190},{192,184,192,193,197},{198,170,182,170,190}},{{199,194,189,192,197},{193,193,189,192,194},{193,193,188,189,191},{196,189,198,189,191},{193,190,194,196,189}},{{188,192,197,188,188},{193,192,193,198,190},{194,192,200,189,192},{198,188,193,187,195},{190,189,189,190,197}},{{199,191,189,199,195},{193,190,192,200,195},{197,200,198,199,196},{197,195,191,195,188},{196,195,195,194,199}},{{195,193,189,183,188},{196,210,188,185,194},{197,205,196,176,190},{186,188,181,184,199},{186,191,199,196,197}},{{192,193,190,187,195},{183,196,186,203,192},{200,189,198,200,183},{204,197,207,216,222},{211,208,192,192,205}},{{210,190,201,203,203},{202,194,204,195,192},{206,185,219,191,193},{174,193,196,186,201},{196,204,178,204,188}},{{217,208,197,198,196},{209,214,194,202,205},{187,189,178,188,187},{209,204,175,180,175},{189,205,229,174,201}},{{200,184,183,194,190},{218,175,177,179,193},{194,193,189,198,198},{221,209,201,202,184},{201,182,180,176,213}},{{183,197,188,205,187},{208,222,207,183,206},{219,223,195,198,193},{197,199,178,169,193},{204,190,180,177,175}},{{195,186,148,172,196},{216,215,207,203,190},{210,197,193,201,200},{146,174,175,168,173},{199,180,189,176,153}},{{196,189,189,200,199},{190,200,192,200,191},{195,197,199,196,192},{197,197,193,194,193},{188,197,199,187,195}}},{{{190,192,194,194,187},{190,193,194,197,190},{190,192,194,196,196},{193,196,195,196,196},{193,193,193,195,193}},{{195,194,191,192,187},{192,195,195,192,191},{195,193,193,192,192},{192,193,192,188,195},{193,195,191,194,187}},{{192,195,195,197,199},{194,194,192,193,200},{192,188,192,197,198},{192,188,190,191,198},{194,196,195,191,193}},{{191,194,192,195,187},{191,191,184,186,186},{195,192,187,181,184},{191,196,193,194,195},{192,192,202,210,201}},{{197,180,188,185,198},{198,203,212,194,205},{195,203,214,196,195},{189,200,203,189,173},{199,217,212,137,144}},{{197,194,197,196,197},{197,199,195,198,199},{199,199,195,200,196},{197,195,194,197,200},{199,199,194,197,198}},{{199,197,200,200,195},{193,197,200,198,196},{199,200,198,195,195},{199,198,194,197,199},{195,194,193,199,195}},{{197,195,197,199,195},{199,193,194,198,194},{194,199,198,195,194},{192,195,193,199,191},{191,191,198,194,199}},{{194,201,193,191,194},{195,194,179,187,192},{192,181,187,196,186},{195,189,187,195,193},{196,190,195,195,192}},{{187,185,186,187,184},{181,182,191,193,188},{182,182,189,199,196},{196,188,198,200,191},{195,191,198,199,198}},{{194,188,191,188,199},{195,186,187,194,197},{198,196,190,199,199},{188,197,185,189,191},{197,195,192,187,189}},{{182,208,241,221,196},{131,158,176,191,166},{130,185,220,189,111},{151,189,192,190,115},{173,202,208,232,200}},{{188,195,192,188,188},{193,188,188,188,193},{198,200,187,181,198},{199,186,186,188,197},{191,189,182,183,189}},{{193,204,226,180,129},{186,201,189,157,124},{180,194,200,190,201},{121,170,185,206,217},{179,147,185,184,205}},{{217,204,191,134,181},{203,198,181,203,196},{160,210,245,229,188},{173,177,198,182,208},{197,186,161,198,200}},{{189,190,188,192,191},{188,189,189,192,190},{191,197,187,190,187},{196,197,197,194,189},{193,193,191,189,187}}},{{{196,187,190,191,194},{194,192,194,195,197},{191,196,194,192,193},{197,193,191,193,192},{192,190,193,193,192}},{{192,192,198,190,192},{190,187,191,190,192},{187,191,188,196,191},{194,189,198,194,193},{191,194,194,190,191}},{{193,188,191,188,194},{199,187,187,194,200},{198,191,194,190,197},{200,188,191,191,198},{189,189,194,194,189}},{{187,189,200,190,192},{188,189,192,192,192},{192,192,190,192,194},{189,193,188,191,187},{189,189,188,187,188}},{{191,191,193,199,192},{188,187,187,187,198},{189,193,194,200,189},{190,192,188,198,193},{191,193,196,191,188}},{{189,194,189,187,187},{188,188,196,187,200},{192,192,192,189,192},{188,188,193,189,192},{191,194,193,193,190}},{{191,192,193,194,191},{193,187,192,189,190},{187,191,191,189,196},{188,197,187,195,192},{192,197,194,190,189}},{{197,191,192,192,190},{198,187,198,196,194},{189,195,200,194,196},{197,194,194,195,187},{194,196,193,187,191}},{{191,187,188,191,192},{193,188,197,192,193},{188,192,189,187,188},{198,192,190,190,190},{199,192,188,192,190}},{{193,192,190,200,190},{198,187,188,197,195},{193,194,187,195,194},{192,190,197,191,197},{189,193,193,187,194}},{{190,192,188,197,197},{190,197,187,196,197},{192,192,188,197,192},{194,189,197,197,191},{196,188,198,197,193}},{{197,191,196,189,190},{193,197,194,190,189},{193,188,194,188,192},{191,190,191,188,189},{191,195,200,193,191}},{{195,191,187,192,199},{196,187,193,192,197},{194,192,187,194,193},{191,199,198,199,191},{193,195,188,190,197}},{{199,192,190,194,187},{196,191,192,191,190},{190,188,193,192,197},{189,190,187,191,188},{192,200,188,191,187}},{{188,194,191,193,198},{192,191,192,194,191},{188,192,193,197,192},{190,188,187,189,187},{191,188,192,187,188}},{{190,194,198,189,195},{193,192,195,198,187},{194,187,198,189,190},{187,194,197,188,195},{194,197,188,192,192}}},{{{190,189,192,187,192},{196,192,193,194,194},{192,192,190,190,194},{188,187,193,193,192},{191,189,188,196,193}},{{190,191,193,189,190},{188,191,192,191,193},{192,192,192,187,187},{193,190,187,190,190},{193,193,191,189,191}},{{188,187,192,188,193},{188,189,195,188,192},{195,187,193,189,191},{197,193,191,189,190},{187,190,190,191,195}},{{190,190,189,190,188},{189,193,189,190,187},{189,190,188,189,191},{191,188,193,190,190},{191,187,193,193,188}},{{192,193,189,194,189},{187,193,187,189,191},{191,188,194,189,187},{192,189,187,188,188},{193,193,191,192,187}},{{187,192,188,191,189},{191,192,193,192,193},{190,192,193,188,190},{188,191,188,191,188},{191,191,193,191,190}},{{190,189,187,189,189},{189,193,188,192,190},{189,188,191,192,189},{192,187,191,190,191},{189,192,190,188,193}},{{194,191,189,192,187},{187,189,190,190,190},{193,191,190,189,194},{189,189,194,193,187},{191,188,188,188,187}},{{192,194,192,187,192},{191,189,188,193,191},{192,188,192,193,192},{189,191,188,190,188},{187,190,191,188,191}},{{190,191,191,196,187},{197,195,188,188,191},{192,187,192,193,198},{188,191,189,191,200},{187,193,192,193,192}},{{192,192,193,189,192},{191,198,190,193,188},{192,200,190,187,196},{193,196,192,187,192},{193,192,189,189,193}},{{190,196,194,193,194},{192,189,192,187,191},{191,195,192,193,191},{192,192,192,191,188},{195,187,197,192,190}},{{194,195,193,191,192},{195,189,199,193,189},{197,190,194,188,189},{195,190,190,192,190},{196,194,192,187,199}},{{190,193,187,189,192},{190,190,190,188,191},{191,193,190,191,192},{193,192,192,192,190},{190,191,192,193,193}},{{191,189,192,188,191},{187,189,189,188,189},{190,189,188,192,192},{189,192,189,189,190},{188,187,193,191,191}},{{194,200,188,187,187},{188,190,187,188,192},{194,188,190,193,194},{190,190,190,194,194},{197,191,193,195,196}}},{{{195,192,193,194,196},{188,193,194,196,193},{200,195,197,197,195},{187,192,194,195,191},{190,198,197,195,194}},{{191,199,194,188,192},{192,193,192,188,192},{191,192,189,192,190},{196,190,191,192,192},{188,192,192,193,190}},{{193,188,191,199,197},{191,193,187,188,197},{192,189,188,197,191},{192,191,189,196,196},{193,189,197,188,190}},{{189,190,193,187,192},{189,192,187,190,191},{189,191,192,192,193},{191,194,188,191,192},{190,191,192,187,190}},{{187,190,189,188,192},{190,193,187,193,189},{192,190,189,190,191},{191,188,188,192,187},{188,193,192,190,193}},{{187,190,190,187,193},{190,188,193,191,188},{192,187,191,192,193},{191,192,187,192,194},{190,191,190,191,188}},{{192,192,200,198,187},{192,189,188,188,188},{190,192,194,189,187},{193,189,187,193,192},{194,193,192,190,187}},{{191,192,189,187,192},{195,193,187,189,188},{193,191,197,192,187},{189,190,192,188,193},{189,188,190,194,196}},{{189,193,190,195,189},{189,192,190,189,192},{192,191,193,192,190},{193,190,188,187,188},{189,193,193,188,188}},{{192,191,188,190,187},{187,189,193,193,187},{194,198,191,200,200},{192,190,189,194,194},{189,191,189,198,198}},{{193,189,191,189,191},{197,187,193,193,198},{196,197,189,193,199},{195,190,192,190,199},{194,191,188,197,197}},{{195,195,193,194,191},{195,197,191,187,193},{190,193,195,187,197},{192,190,194,187,195},{193,192,190,194,197}},{{191,194,192,192,190},{196,192,195,191,199},{196,190,187,192,192},{191,191,188,199,199},{191,190,192,195,191}},{{191,187,193,191,193},{187,193,187,187,187},{192,190,187,192,193},{194,190,188,188,192},{191,192,187,193,192}},{{189,187,188,193,192},{193,191,193,190,193},{187,191,187,193,189},{188,189,190,190,190},{193,187,190,187,189}},{{191,199,195,189,199},{193,195,193,193,191},{194,192,192,194,191},{198,199,196,195,190},{187,188,187,193,192}}},{{{193,194,193,193,195},{193,191,194,194,196},{196,196,195,194,192},{195,195,196,197,196},{196,195,195,196,192}},{{192,193,193,194,195},{193,191,193,193,196},{192,191,193,197,191},{195,191,196,196,195},{196,193,191,197,192}},{{192,190,190,192,191},{197,191,192,194,196},{192,194,196,194,190},{193,195,197,197,192},{192,194,194,197,195}},{{194,192,196,193,193},{195,195,191,188,191},{196,193,195,188,197},{189,189,191,189,191},{193,196,194,189,190}},{{194,191,194,190,193},{196,195,192,192,195},{196,194,190,194,194},{197,192,194,193,194},{192,191,194,195,192}},{{195,192,193,192,192},{190,192,193,190,190},{193,196,195,195,194},{194,190,195,190,196},{194,195,193,194,195}},{{191,193,193,192,194},{191,194,191,197,193},{191,191,195,194,192},{195,193,196,197,195},{192,194,193,195,193}},{{193,190,189,193,196},{194,195,194,193,196},{197,194,187,194,193},{194,196,187,193,197},{192,191,193,193,193}},{{192,194,194,191,194},{192,192,194,197,194},{195,194,196,190,190},{195,194,193,193,192},{192,190,194,191,191}},{{189,188,197,190,192},{187,193,190,191,194},{194,192,191,191,197},{195,188,188,194,187},{190,192,187,191,192}},{{194,197,190,196,196},{193,193,197,196,192},{191,191,187,195,194},{195,193,193,190,195},{190,194,191,193,190}},{{197,191,192,194,194},{193,193,197,194,191},{193,196,193,194,195},{196,193,190,191,191},{193,196,190,194,191}},{{194,193,187,192,191},{191,196,192,194,188},{193,189,189,194,190},{193,192,189,192,189},{193,193,195,190,195}},{{195,195,192,192,196},{195,194,196,196,194},{191,193,190,191,193},{190,191,193,190,195},{194,191,195,193,192}},{{190,188,197,190,193},{191,193,197,194,187},{192,189,191,190,193},{191,188,188,193,192},{189,193,192,191,191}},{{195,190,190,196,196},{193,192,196,193,195},{193,195,191,194,197},{193,195,195,191,195},{193,192,193,195,190}}},{{{197,192,196,193,195},{196,196,192,190,192},{191,192,192,193,195},{193,197,190,195,193},{193,191,196,194,193}},{{190,191,192,187,191},{188,191,189,191,189},{190,190,192,192,191},{189,190,187,188,190},{190,194,191,189,190}},{{192,195,195,191,194},{192,187,190,197,194},{193,194,192,195,195},{195,192,192,193,192},{195,188,188,195,193}},{{190,192,190,193,187},{187,187,193,188,193},{187,194,187,193,189},{188,189,193,189,188},{192,189,189,189,192}},{{192,195,192,193,194},{192,191,194,193,191},{194,191,191,196,192},{197,192,196,191,191},{196,193,192,193,193}},{{194,193,195,192,195},{191,193,196,190,195},{192,192,195,191,190},{191,193,192,195,190},{192,191,192,193,194}},{{197,196,193,190,195},{194,194,192,197,194},{191,192,195,190,192},{193,197,194,192,193},{197,197,196,196,194}},{{193,190,193,191,191},{190,191,196,191,191},{193,196,194,190,195},{192,193,192,190,194},{192,194,191,196,192}},{{191,193,188,193,187},{192,192,191,190,188},{191,192,190,191,191},{187,190,193,190,187},{191,188,190,191,187}},{{193,194,189,193,188},{189,191,190,191,193},{191,189,194,193,188},{187,192,192,190,192},{190,188,190,188,190}},{{191,191,190,192,191},{190,188,187,189,190},{187,193,187,192,192},{189,187,190,190,188},{189,193,193,189,190}},{{196,197,194,194,192},{194,193,192,195,192},{193,193,191,192,197},{191,195,193,196,191},{193,195,196,192,194}},{{190,192,188,192,191},{188,192,192,188,187},{187,192,188,188,191},{190,189,189,193,187},{193,193,189,192,189}},{{193,190,195,194,195},{191,194,191,194,190},{194,191,192,191,191},{190,190,197,197,195},{194,193,190,190,197}},{{190,197,196,197,193},{197,191,192,191,194},{195,195,193,196,191},{195,193,196,190,190},{192,193,194,191,193}},{{190,192,188,188,187},{190,191,188,191,188},{188,190,189,188,190},{191,193,190,191,193},{193,191,193,187,191}}},{{{191,192,190,193,194},{194,191,192,191,192},{196,187,190,193,194},{198,189,195,194,196},{189,190,191,195,192}},{{188,199,195,191,189},{192,191,188,198,188},{188,190,192,187,192},{190,193,189,187,189},{191,188,192,187,190}},{{191,190,192,196,196},{190,190,189,199,194},{191,193,187,193,195},{192,193,193,193,196},{189,190,193,191,190}},{{192,188,191,195,192},{188,189,187,190,190},{191,193,193,190,189},{190,190,188,193,187},{193,188,194,188,192}},{{193,193,194,190,187},{190,190,194,196,191},{190,191,191,194,189},{188,188,193,191,190},{187,192,193,187,191}},{{188,187,189,191,193},{188,189,188,188,189},{188,192,193,192,194},{191,192,188,193,190},{189,193,193,188,189}},{{192,187,199,199,198},{189,195,193,188,191},{190,193,188,187,192},{188,190,193,189,188},{191,189,188,187,191}},{{193,188,192,188,199},{190,188,193,189,191},{193,187,189,188,187},{189,188,189,187,193},{189,193,190,187,187}},{{188,188,189,192,188},{191,193,189,188,187},{192,188,193,188,190},{191,192,191,190,190},{192,193,192,191,193}},{{189,189,188,192,189},{193,192,192,188,192},{200,193,187,189,192},{196,188,187,192,199},{190,189,193,193,194}},{{191,187,189,188,192},{195,193,189,191,193},{196,189,187,188,196},{194,190,191,192,192},{196,190,187,188,187}},{{191,192,196,197,192},{194,198,190,200,193},{194,192,193,188,189},{192,194,190,193,189},{195,192,187,190,193}},{{197,191,188,188,190},{193,200,190,187,188},{192,190,188,189,194},{190,190,193,193,191},{196,192,187,187,189}},{{193,190,191,193,194},{194,188,189,192,192},{193,193,193,189,193},{188,190,191,193,191},{191,188,188,192,193}},{{189,190,191,188,187},{187,191,192,192,193},{189,188,192,192,190},{191,190,189,189,193},{192,189,193,192,190}},{{194,200,188,192,191},{189,187,188,190,189},{193,190,188,190,196},{192,187,193,192,187},{194,190,187,190,191}}},{{{196,195,191,194,197},{198,196,200,197,197},{188,196,191,199,195},{189,200,189,195,191},{193,200,197,190,196}},{{193,191,193,188,188},{187,190,199,190,191},{190,195,195,187,193},{191,190,192,193,191},{193,191,190,190,193}},{{193,188,197,190,193},{197,192,199,190,187},{198,187,193,194,188},{199,190,190,199,193},{194,193,188,194,196}},{{189,187,190,192,189},{193,189,190,188,193},{188,188,191,192,187},{191,192,192,193,190},{190,194,193,190,190}},{{193,189,200,193,190},{190,190,190,187,192},{190,193,188,192,189},{189,189,199,191,190},{190,187,191,193,193}},{{190,193,190,191,194},{190,187,189,194,187},{191,190,191,189,194},{195,192,192,191,192},{190,194,193,189,191}},{{190,187,190,187,189},{193,190,188,200,191},{192,196,188,198,199},{191,192,189,192,188},{189,190,191,197,191}},{{197,194,193,200,195},{196,187,191,193,200},{187,191,190,200,194},{198,196,188,190,198},{189,196,196,196,191}},{{192,193,192,192,193},{187,188,191,190,189},{192,188,197,187,188},{187,194,191,193,193},{191,190,190,188,193}},{{194,193,193,199,189},{196,198,199,198,188},{187,190,190,189,198},{194,188,188,192,193},{198,195,198,191,193}},{{192,197,190,195,188},{187,195,196,196,190},{192,197,193,190,196},{197,198,192,188,198},{191,194,196,187,199}},{{196,192,191,192,195},{192,192,194,189,190},{196,193,195,192,189},{195,195,193,193,191},{196,197,187,187,189}},{{194,194,188,195,199},{195,191,198,195,195},{195,191,189,188,198},{196,199,193,187,193},{194,191,194,196,198}},{{192,189,194,191,192},{194,189,193,191,197},{199,192,187,188,189},{196,191,192,193,193},{193,190,194,193,191}},{{191,189,187,190,190},{193,188,192,192,189},{196,193,188,192,193},{187,192,191,189,187},{196,187,187,193,188}},{{192,192,188,191,188},{192,198,197,197,199},{199,190,197,197,194},{188,192,197,198,195},{197,197,197,194,194}}},{{{192,193,196,201,191},{195,194,196,196,191},{196,198,196,197,191},{194,193,200,191,193},{195,200,196,190,195}},{{192,192,193,192,193},{193,194,194,197,197},{191,192,187,193,196},{195,191,192,192,193},{192,197,192,194,195}},{{199,199,194,194,194},{197,195,192,197,194},{197,196,193,192,196},{194,192,196,187,196},{195,195,196,186,194}},{{195,191,191,193,196},{191,192,194,195,194},{195,193,195,194,196},{191,191,196,192,191},{190,191,191,196,192}},{{200,196,202,189,207},{193,193,199,182,197},{195,196,201,193,181},{195,195,196,187,185},{189,200,198,204,200}},{{199,200,196,195,199},{199,194,198,197,194},{198,199,196,196,198},{196,195,193,200,195},{197,198,194,199,195}},{{195,194,196,195,194},{198,199,197,198,194},{198,199,198,199,200},{199,200,197,198,199},{195,198,196,200,194}},{{196,200,194,198,193},{200,197,195,195,200},{193,199,199,200,197},{193,193,196,194,194},{199,200,199,197,195}},{{193,194,194,195,194},{192,194,196,197,191},{196,194,196,193,193},{195,196,194,191,194},{196,191,196,191,195}},{{197,194,194,193,191},{192,192,196,194,197},{196,194,193,196,191},{186,196,194,193,192},{191,195,191,191,192}},{{192,193,195,196,190},{192,196,194,192,195},{194,189,191,194,194},{191,184,193,196,191},{192,190,195,192,190}},{{191,186,190,203,193},{203,200,203,203,181},{181,193,196,210,186},{203,204,192,180,191},{218,179,175,212,200}},{{191,187,192,196,190},{188,192,193,194,196},{191,191,193,195,191},{188,194,193,196,192},{191,188,195,195,193}},{{185,195,208,182,175},{193,201,196,191,209},{195,194,190,201,190},{178,199,187,197,191},{193,198,191,189,181}},{{189,168,168,161,188},{204,194,180,180,203},{200,204,211,201,195},{186,175,195,191,181},{182,219,205,203,196}},{{193,193,192,191,194},{196,193,193,194,190},{197,195,195,191,187},{196,191,190,195,187},{185,193,196,190,191}}},{{{191,197,195,191,191},{194,191,190,197,193},{196,194,192,195,196},{190,190,196,194,194},{191,196,197,195,194}},{{193,191,188,192,190},{196,195,194,189,190},{192,188,191,190,192},{187,191,189,188,188},{190,190,191,192,189}},{{192,195,192,197,196},{193,188,188,196,190},{191,194,195,191,194},{188,193,193,192,194},{192,192,190,188,196}},{{191,189,191,187,190},{187,188,193,189,191},{189,192,191,190,187},{191,187,193,192,192},{191,192,190,192,189}},{{193,190,192,189,194},{189,191,193,194,188},{194,193,192,187,187},{192,192,192,192,192},{187,187,188,190,191}},{{188,190,188,188,187},{187,191,191,192,187},{192,188,188,190,191},{187,193,190,188,187},{192,188,190,193,192}},{{191,191,195,188,193},{189,195,193,193,191},{193,188,190,192,192},{191,192,192,193,189},{188,193,191,188,187}},{{190,193,188,193,193},{190,191,191,188,192},{194,188,187,189,191},{189,190,190,187,197},{193,189,189,190,194}},{{191,188,190,190,189},{187,193,193,193,190},{192,188,188,191,191},{194,194,195,192,193},{192,190,189,188,188}},{{191,196,195,191,195},{189,187,192,192,195},{191,191,193,191,190},{196,196,195,195,192},{195,190,190,196,190}},{{196,192,193,192,190},{191,191,192,189,190},{190,196,192,190,192},{194,197,188,192,193},{193,192,192,192,192}},{{194,194,197,191,190},{192,194,193,188,191},{194,196,196,196,194},{191,191,193,191,196},{193,192,196,194,194}},{{193,196,193,191,192},{194,193,191,193,194},{197,193,197,193,192},{195,192,197,191,197},{193,194,192,192,195}},{{187,192,191,189,189},{194,189,190,193,187},{187,187,190,191,188},{190,189,193,192,193},{188,190,188,188,192}},{{191,192,189,187,191},{191,190,190,193,188},{188,188,188,189,191},{190,191,190,190,192},{193,190,192,193,190}},{{193,193,194,193,191},{191,187,193,189,192},{192,191,190,190,196},{193,191,187,196,194},{192,192,193,193,195}}},{{{191,193,191,192,191},{197,194,191,191,194},{193,194,191,190,193},{195,194,192,193,194},{196,193,193,195,197}},{{194,196,190,191,195},{191,194,191,190,194},{195,195,197,196,194},{194,192,195,196,195},{190,192,193,195,194}},{{193,194,194,192,197},{192,193,193,194,196},{192,192,194,194,196},{193,192,191,196,192},{194,191,192,197,193}},{{187,188,192,193,188},{187,190,191,190,187},{192,189,190,188,192},{190,192,191,187,192},{188,190,192,192,189}},{{194,195,197,196,191},{190,196,195,196,192},{196,192,193,190,194},{195,197,194,197,195},{195,196,193,194,194}},{{193,196,195,192,192},{192,192,192,196,194},{194,197,192,192,197},{196,191,190,194,194},{196,192,192,192,192}},{{193,190,194,193,195},{193,197,190,191,194},{193,196,191,197,196},{191,191,195,196,191},{195,196,196,190,196}},{{195,191,193,194,191},{192,192,192,191,190},{194,194,194,190,191},{196,197,189,190,193},{194,194,191,190,197}},{{187,187,190,192,191},{190,192,192,190,188},{193,188,191,194,187},{190,191,189,188,188},{187,188,192,187,191}},{{197,192,188,187,191},{189,193,192,187,191},{191,190,191,195,192},{188,190,191,187,191},{192,190,190,197,187}},{{197,194,195,191,193},{195,193,195,195,192},{191,192,191,194,191},{193,191,190,195,196},{191,196,195,193,195}},{{194,192,197,194,194},{195,194,196,192,191},{195,195,197,196,194},{193,192,193,193,194},{194,197,192,190,196}},{{194,193,193,193,189},{193,195,187,192,187},{194,193,187,191,188},{194,190,194,192,195},{193,189,195,196,194}},{{196,193,191,195,195},{190,190,195,193,192},{197,194,195,194,192},{191,194,192,193,194},{195,192,192,192,193}},{{189,187,193,189,193},{189,190,189,187,188},{192,190,188,188,191},{192,193,191,193,192},{188,191,190,191,193}},{{196,194,194,195,192},{196,191,196,192,195},{190,196,193,195,195},{197,192,194,190,196},{195,194,191,192,192}}},{{{199,198,190,194,191},{194,200,198,196,191},{197,191,198,200,197},{188,194,193,194,197},{189,199,197,193,191}},{{191,190,190,190,187},{191,191,198,193,191},{187,192,200,191,189},{190,190,197,196,190},{193,188,189,195,190}},{{197,193,196,187,192},{198,190,194,191,198},{195,193,199,198,191},{195,192,188,196,195},{198,190,188,199,195}},{{191,188,188,189,192},{190,192,192,189,193},{187,191,196,188,192},{190,194,193,193,189},{189,191,193,193,190}},{{190,190,190,188,193},{190,193,188,193,188},{197,192,191,196,191},{192,188,191,191,193},{189,193,188,193,188}},{{192,189,190,193,187},{194,190,193,188,190},{188,190,192,192,192},{187,190,194,189,192},{193,189,190,193,190}},{{191,189,187,188,187},{192,187,193,195,189},{187,193,190,193,194},{191,190,187,195,199},{191,189,190,198,199}},{{187,189,189,195,197},{200,188,190,199,187},{197,187,193,197,196},{195,199,188,197,195},{194,199,193,193,198}},{{188,193,193,193,192},{188,191,193,187,189},{192,193,199,192,192},{192,191,188,191,189},{190,190,189,187,188}},{{198,192,190,200,190},{191,194,190,194,193},{189,187,188,195,196},{196,197,187,200,197},{200,200,190,192,194}},{{194,197,191,195,192},{189,195,192,189,195},{191,197,191,191,193},{191,199,188,188,198},{194,191,191,190,193}},{{195,193,196,190,197},{195,187,200,192,194},{194,195,195,190,197},{192,197,196,192,200},{191,194,196,193,193}},{{195,192,190,194,197},{191,191,199,189,199},{191,188,191,192,200},{196,197,192,191,188},{194,193,195,198,191}},{{190,193,188,192,192},{187,193,189,196,191},{193,191,188,194,187},{193,190,189,191,192},{191,192,189,188,188}},{{191,192,190,187,188},{188,192,191,190,187},{188,187,190,197,191},{196,194,193,191,191},{199,191,189,188,190}},{{192,193,189,200,197},{188,194,193,196,194},{199,190,196,195,196},{200,187,195,200,200},{197,196,198,194,197}}},{{{194,188,197,200,190},{192,195,192,196,190},{192,192,192,200,190},{190,199,190,196,193},{187,195,196,192,196}},{{194,193,193,193,187},{191,192,189,187,191},{193,191,188,191,191},{191,189,193,187,189},{194,188,193,187,188}},{{188,190,194,188,188},{188,193,191,192,191},{188,190,192,197,190},{191,190,188,188,188},{189,194,187,191,195}},{{191,191,192,189,191},{192,188,191,191,191},{190,190,192,191,193},{193,193,189,189,189},{189,193,188,190,193}},{{193,190,188,190,188},{193,193,189,187,193},{190,189,193,191,192},{192,190,193,188,191},{191,191,194,188,192}},{{189,187,189,192,190},{194,190,188,191,193},{189,188,188,192,187},{188,189,190,193,189},{192,191,187,188,193}},{{191,188,187,193,190},{189,190,191,193,188},{192,193,187,187,191},{192,191,193,192,188},{191,188,187,191,191}},{{188,191,191,188,194},{193,193,190,192,193},{193,191,190,191,191},{191,193,191,188,193},{193,192,191,191,189}},{{187,189,187,191,189},{187,187,193,190,191},{187,190,190,194,189},{187,193,192,187,191},{187,189,193,190,192}},{{197,193,189,187,188},{191,193,190,190,189},{191,191,188,193,200},{194,188,191,191,195},{191,196,193,193,193}},{{191,198,193,195,190},{192,194,187,193,196},{190,196,189,193,195},{194,188,188,192,196},{195,191,194,188,194}},{{192,192,190,194,192},{194,192,191,188,189},{194,192,196,190,189},{193,199,191,187,187},{193,190,194,188,188}},{{193,192,187,193,193},{196,189,193,190,190},{195,193,188,187,191},{193,190,187,189,190},{195,193,192,194,190}},{{187,191,187,193,193},{190,188,188,190,190},{192,190,191,192,194},{192,193,188,193,190},{187,189,192,193,191}},{{193,188,190,191,190},{189,192,188,191,193},{188,188,190,189,193},{194,191,192,191,188},{193,192,189,189,194}},{{192,195,189,193,189},{192,196,193,191,191},{200,188,189,197,194},{193,193,192,193,188},{187,194,196,187,196}}},{{{189,197,198,194,197},{194,188,194,196,190},{188,190,191,188,193},{192,193,190,191,192},{188,188,193,197,191}},{{200,193,193,197,195},{200,191,192,198,197},{194,192,191,194,197},{189,240,194,187,194},{185,172,199,187,200}},{{191,198,187,190,190},{187,195,188,192,193},{191,199,191,190,191},{193,195,188,199,187},{193,199,190,188,191}},{{165,196,126,201,198},{132,175,166,201,195},{186,168,178,174,196},{159,160,193,194,139},{192,209,184,158,177}},{{181,192,191,181,172},{182,198,216,201,190},{203,184,197,203,176},{203,222,205,188,177},{190,208,201,194,198}},{{187,187,189,200,188},{193,189,189,199,187},{188,192,190,187,192},{191,193,188,196,198},{190,188,193,189,188}},{{194,190,189,187,194},{198,197,194,191,187},{189,188,193,193,192},{192,190,187,191,188},{189,188,196,191,192}},{{188,193,199,190,197},{193,192,193,191,188},{188,192,190,191,191},{190,188,198,192,191},{193,187,193,190,192}},{{160,192,198,188,188},{184,208,185,184,186},{183,225,199,186,191},{186,216,209,176,167},{191,197,201,183,184}},{{137,77,133,185,190},{178,123,169,194,162},{195,137,193,202,165},{168,148,199,233,174},{178,198,198,246,144}},{{210,223,208,206,209},{189,182,178,200,198},{194,121,185,192,192},{129,156,222,221,184},{168,193,198,168,230}},{{220,189,209,203,186},{185,148,178,255,193},{213,220,186,192,165},{206,181,179,207,193},{166,183,186,198,191}},{{44,138,167,205,209},{156,116,176,194,202},{241,205,196,192,149},{179,184,200,194,171},{206,199,199,188,140}},{{202,194,193,207,189},{206,218,197,187,207},{185,207,206,198,216},{194,212,202,191,187},{194,191,186,168,202}},{{184,175,216,217,212},{196,202,191,200,200},{188,203,206,224,204},{175,211,198,208,194},{180,196,202,185,196}},{{196,187,198,193,193},{191,189,190,191,189},{188,193,189,187,194},{187,187,187,193,188},{190,190,187,197,194}}},{{{189,190,194,196,192},{196,189,187,191,193},{195,192,191,191,192},{197,194,195,194,191},{193,192,191,191,191}},{{195,195,196,193,191},{194,190,196,197,189},{192,190,191,197,188},{191,191,194,191,191},{190,193,196,193,188}},{{193,190,195,195,193},{188,196,196,196,194},{193,190,191,191,190},{195,187,192,192,197},{187,192,192,193,196}},{{189,190,190,191,192},{190,191,193,191,191},{191,191,189,193,196},{189,190,187,188,192},{188,193,188,190,189}},{{190,192,187,192,189},{190,188,188,192,189},{188,189,191,188,190},{192,187,191,192,188},{192,190,189,189,190}},{{191,187,191,188,192},{192,193,188,188,188},{193,192,192,187,193},{192,187,191,191,191},{192,189,190,190,188}},{{187,189,189,195,188},{188,190,191,191,192},{191,192,188,193,191},{188,193,193,187,195},{192,193,194,193,188}},{{191,193,193,194,188},{194,194,187,191,196},{188,187,193,193,191},{189,189,191,191,192},{192,192,192,192,190}},{{187,193,188,189,192},{189,192,193,192,187},{187,187,187,188,187},{188,193,188,193,193},{192,190,188,191,191}},{{193,190,187,197,194},{192,197,187,193,194},{196,195,187,191,192},{194,193,195,194,191},{195,192,196,190,189}},{{190,188,191,193,196},{197,197,197,194,196},{193,193,187,190,193},{194,192,192,193,191},{197,190,189,192,192}},{{196,194,193,196,193},{197,191,191,193,193},{192,195,193,194,195},{197,193,190,192,194},{191,191,192,188,192}},{{191,194,195,192,187},{193,197,195,193,188},{195,192,190,192,188},{196,191,191,195,188},{190,191,193,190,194}},{{193,187,189,190,192},{188,191,190,191,192},{190,192,187,189,187},{189,193,187,192,187},{191,187,190,187,192}},{{189,190,192,188,189},{188,190,191,191,193},{191,190,188,194,191},{187,190,187,192,190},{191,190,190,188,193}},{{194,192,194,195,189},{188,187,191,192,192},{192,188,193,189,194},{194,193,191,187,192},{195,193,192,195,195}}},{{{194,192,191,194,190},{191,188,188,193,191},{189,198,195,190,191},{197,188,195,197,191},{193,191,193,193,192}},{{195,197,191,191,194},{195,195,197,190,193},{191,193,192,191,194},{194,190,185,195,195},{197,193,193,185,193}},{{190,199,190,198,191},{187,191,193,193,190},{188,196,184,198,190},{189,191,186,197,193},{189,191,193,190,191}},{{192,193,196,197,194},{195,190,194,192,193},{192,196,193,197,196},{195,193,195,197,193},{195,196,196,193,194}},{{195,193,195,192,189},{195,193,189,194,191},{207,197,199,187,200},{191,193,180,183,190},{187,180,195,204,200}},{{194,198,197,195,196},{196,200,199,194,198},{196,198,197,194,195},{195,195,198,197,198},{196,196,195,194,196}},{{194,195,187,198,199},{198,194,195,191,197},{198,196,198,188,197},{197,195,196,198,195},{198,198,197,198,198}},{{194,196,194,187,190},{194,197,196,191,192},{189,199,195,191,189},{187,189,198,193,193},{192,199,200,198,190}},{{196,194,191,192,191},{192,195,194,197,196},{191,191,188,192,191},{191,194,193,193,192},{191,196,194,195,195}},{{186,190,195,192,191},{193,188,193,191,187},{194,190,194,192,191},{189,187,191,196,191},{186,189,192,192,186}},{{192,186,192,186,189},{192,189,196,185,194},{188,194,193,186,189},{187,186,192,192,189},{187,187,196,197,186}},{{193,194,208,202,196},{197,205,191,188,196},{183,195,197,180,167},{166,191,181,172,183},{207,198,186,191,201}},{{187,192,191,188,185},{192,193,190,185,185},{189,197,185,194,188},{191,184,189,196,191},{193,188,189,188,189}},{{188,194,198,194,194},{189,195,182,196,200},{193,205,193,197,191},{205,197,189,193,200},{192,199,195,189,192}},{{190,189,189,165,189},{183,189,191,180,192},{192,208,218,190,194},{202,189,182,190,204},{195,208,217,207,196}},{{189,189,195,194,184},{189,184,185,187,188},{188,187,189,184,187},{191,193,185,187,187},{192,190,184,196,193}}},{{{193,196,195,196,191},{198,195,200,193,195},{186,195,198,199,191},{209,199,198,196,197},{194,196,194,194,193}},{{192,194,188,195,191},{193,196,194,193,194},{193,195,197,191,191},{190,193,194,190,197},{194,190,193,194,194}},{{197,200,200,195,190},{194,195,188,195,197},{196,197,194,191,195},{193,193,193,196,196},{195,193,191,196,194}},{{196,191,193,191,195},{192,196,193,192,194},{194,193,195,195,195},{196,194,197,193,195},{192,195,194,192,193}},{{199,203,201,193,179},{194,197,190,182,199},{202,195,177,179,201},{188,197,195,196,202},{187,193,208,200,209}},{{194,200,199,198,200},{198,200,198,197,197},{197,196,198,193,199},{199,194,196,194,195},{194,199,197,198,195}},{{200,197,194,195,196},{198,197,197,196,200},{196,194,197,199,194},{200,194,197,199,198},{193,199,199,197,196}},{{196,200,200,199,189},{196,197,196,198,194},{194,196,196,195,193},{196,194,197,195,199},{195,194,199,199,197}},{{197,191,192,195,191},{193,194,192,191,192},{194,192,191,196,195},{196,191,195,191,190},{192,193,197,193,193}},{{190,191,195,192,196},{190,191,193,189,187},{186,191,194,196,190},{187,191,191,194,186},{197,192,191,194,190}},{{192,191,195,196,194},{193,193,195,191,194},{190,191,192,191,195},{191,189,195,195,193},{187,193,194,195,194}},{{174,176,189,204,202},{161,190,194,190,166},{198,200,195,187,157},{206,181,198,176,195},{183,211,179,179,199}},{{187,187,195,193,192},{193,186,193,196,194},{188,188,193,192,193},{193,191,194,191,194},{192,188,195,195,189}},{{216,196,187,182,164},{196,180,197,193,194},{143,168,192,191,198},{182,175,196,182,185},{186,191,202,190,191}},{{198,207,199,183,185},{193,179,219,191,202},{174,168,163,157,195},{199,186,180,202,194},{185,201,217,200,194}},{{187,187,193,195,191},{196,192,193,193,184},{186,191,191,191,193},{193,194,194,197,187},{187,190,196,197,187}}},{{{197,194,200,200,200},{192,195,191,190,196},{185,191,196,197,192},{187,195,192,195,191},{193,192,191,192,196}},{{194,199,198,196,194},{197,193,197,200,196},{193,197,197,197,199},{195,198,199,195,194},{198,196,198,199,198}},{{193,191,196,196,193},{198,200,196,196,192},{193,197,197,191,196},{195,196,199,198,193},{196,197,194,195,192}},{{199,196,196,197,196},{199,197,196,197,195},{200,197,194,194,197},{197,194,194,193,197},{198,198,200,197,195}},{{212,191,184,187,199},{189,179,190,191,194},{187,188,197,198,197},{192,194,208,193,191},{213,184,205,193,190}},{{191,192,190,191,193},{192,190,192,195,195},{190,192,197,195,190},{193,192,192,194,196},{190,191,191,193,193}},{{194,193,192,196,195},{196,196,196,191,195},{194,193,194,191,196},{191,194,195,190,195},{192,196,195,194,195}},{{194,193,197,190,192},{194,191,194,195,195},{192,193,197,196,194},{192,195,199,188,190},{194,195,194,192,192}},{{198,195,199,194,194},{196,195,195,193,197},{198,194,197,196,199},{198,195,198,194,197},{200,194,196,196,198}},{{195,198,194,193,195},{199,195,199,198,200},{194,195,195,199,199},{194,194,199,196,193},{197,195,194,199,194}},{{198,198,199,199,195},{199,196,199,196,197},{196,198,197,195,197},{194,199,195,199,197},{197,200,193,200,194}},{{187,184,195,203,183},{190,199,184,178,201},{211,194,209,176,194},{199,187,195,205,194},{214,189,207,204,191}},{{195,195,194,198,200},{196,193,197,195,197},{194,198,197,195,195},{199,193,194,196,199},{199,195,197,198,194}},{{180,182,200,183,168},{186,195,193,175,185},{192,200,195,199,197},{179,200,192,200,192},{201,196,198,197,194}},{{180,182,181,169,180},{195,191,191,196,204},{164,190,210,224,188},{181,205,202,181,193},{174,179,172,190,195}},{{195,195,197,200,200},{194,194,200,198,197},{193,199,199,194,200},{196,194,197,199,195},{197,196,196,194,200}}},{{{191,192,193,193,191},{192,190,188,195,195},{187,193,194,191,192},{195,198,196,191,194},{193,192,192,196,193}},{{196,198,194,193,189},{193,190,200,199,193},{185,179,197,196,187},{166,207,194,196,194},{190,169,211,192,193}},{{187,191,195,199,196},{196,198,198,197,193},{199,194,191,196,200},{198,196,191,197,196},{199,188,187,188,195}},{{198,204,213,204,164},{204,204,203,201,182},{222,186,176,173,196},{169,219,207,187,198},{165,199,203,185,167}},{{194,181,188,196,171},{180,192,184,205,194},{191,183,176,215,208},{203,154,157,196,199},{191,191,180,197,188}},{{188,187,190,188,189},{190,193,194,199,193},{193,187,190,199,188},{189,190,188,196,189},{190,190,193,190,199}},{{198,195,195,194,196},{192,197,200,199,189},{192,191,199,193,196},{186,200,200,195,199},{189,198,198,188,191}},{{188,189,189,197,197},{198,191,194,187,198},{198,192,191,192,194},{188,191,199,194,192},{194,187,188,188,191}},{{185,209,215,195,176},{174,176,189,207,197},{183,179,204,198,189},{175,202,217,208,171},{187,205,201,203,159}},{{145,118,197,180,167},{66,166,200,203,165},{185,217,216,211,172},{206,214,180,161,123},{196,168,170,185,210}},{{72,134,179,188,202},{185,166,192,168,204},{176,183,149,197,156},{198,199,127,183,193},{215,183,212,208,232}},{{157,152,199,202,191},{160,188,223,164,178},{159,210,182,156,173},{192,185,176,197,176},{150,185,194,185,185}},{{189,208,191,150,127},{206,192,197,186,164},{194,195,165,183,192},{146,174,178,191,208},{191,211,186,187,178}},{{206,218,227,182,170},{205,173,198,207,136},{149,134,189,197,188},{175,177,209,195,196},{201,207,192,198,197}},{{197,200,179,90,187},{185,189,210,212,196},{195,195,158,185,217},{206,214,185,211,209},{198,195,210,209,190}},{{194,190,192,193,190},{193,187,189,197,196},{195,187,197,198,196},{198,192,193,188,193},{196,194,191,190,196}}},{{{196,194,195,194,196},{190,196,193,193,196},{195,193,195,191,193},{193,191,195,192,191},{194,190,192,194,196}},{{189,191,189,195,188},{193,193,196,192,193},{193,191,190,194,187},{192,192,189,194,194},{191,192,190,188,193}},{{190,188,193,193,191},{193,191,187,187,196},{191,190,194,191,196},{190,187,187,194,195},{190,191,194,191,193}},{{190,194,191,190,190},{189,190,188,192,193},{189,187,191,190,188},{191,189,188,191,193},{188,187,192,188,188}},{{187,187,190,187,191},{192,192,188,193,187},{189,192,192,191,187},{189,192,189,189,190},{188,187,189,190,187}},{{190,189,191,187,189},{188,193,193,188,192},{192,189,193,190,192},{188,192,189,190,190},{190,187,191,189,193}},{{190,193,187,187,190},{192,188,187,188,191},{188,193,188,192,193},{187,188,189,191,192},{188,189,189,191,191}},{{191,194,188,188,188},{191,191,193,189,188},{187,193,190,193,197},{188,193,190,189,191},{187,187,188,195,195}},{{189,191,193,187,193},{187,187,190,189,188},{188,193,191,190,188},{187,192,193,188,193},{190,189,192,193,190}},{{195,194,197,196,195},{192,194,191,195,194},{194,191,191,192,191},{192,190,197,194,193},{192,190,193,197,196}},{{196,192,195,191,189},{194,191,193,189,192},{191,196,193,193,191},{194,192,193,195,194},{193,188,191,196,196}},{{191,194,196,193,193},{196,195,196,196,194},{194,197,196,196,193},{193,193,195,192,194},{194,195,192,193,195}},{{196,195,196,194,192},{192,192,197,190,197},{192,193,187,190,194},{192,193,192,192,193},{193,193,191,194,194}},{{191,193,190,192,193},{187,190,187,189,187},{193,189,192,194,190},{190,193,190,188,190},{192,192,188,191,188}},{{188,188,190,189,188},{187,191,192,188,188},{187,191,192,190,190},{192,194,192,190,188},{192,193,193,190,192}},{{192,192,195,195,192},{190,197,192,194,192},{195,194,188,197,196},{194,189,191,192,195},{188,193,194,193,192}}},{{{192,195,196,192,193},{193,196,190,196,192},{194,191,193,196,195},{196,195,197,191,191},{195,196,191,190,192}},{{187,193,190,191,188},{188,192,193,187,191},{193,191,193,194,190},{193,193,191,191,187},{192,189,187,190,191}},{{194,193,194,196,195},{188,193,188,194,194},{194,193,187,190,193},{190,187,189,192,195},{192,190,190,192,193}},{{191,187,190,191,192},{188,191,187,190,192},{191,192,191,189,190},{188,192,190,191,187},{187,192,193,190,192}},{{197,193,191,194,195},{190,196,191,195,197},{193,191,194,189,194},{194,190,193,197,196},{192,192,195,196,191}},{{196,191,193,193,194},{192,196,194,193,191},{193,193,191,192,190},{194,193,191,197,197},{194,194,194,195,193}},{{197,192,192,191,194},{195,196,195,190,193},{195,197,191,197,193},{196,195,192,190,193},{195,193,197,194,192}},{{195,192,191,191,196},{191,194,192,192,196},{195,194,192,193,193},{191,192,197,192,195},{193,192,194,196,194}},{{191,190,189,188,190},{188,190,189,189,192},{191,190,192,189,189},{191,190,189,193,192},{188,189,192,190,193}},{{192,192,191,188,193},{190,191,191,193,191},{193,193,189,189,190},{190,193,189,189,191},{193,190,187,193,194}},{{192,194,190,187,190},{189,188,191,188,190},{189,191,189,193,189},{192,188,193,190,193},{188,193,190,188,192}},{{191,191,192,197,195},{192,194,191,194,195},{194,191,193,193,196},{194,196,196,196,196},{194,193,195,196,191}},{{192,189,188,189,191},{193,192,190,191,188},{190,191,187,187,189},{189,187,189,188,188},{193,193,190,190,188}},{{194,197,194,191,193},{195,192,192,196,191},{192,193,194,192,194},{194,197,190,194,193},{190,192,191,191,190}},{{195,192,192,192,193},{194,190,191,196,194},{196,193,197,195,197},{192,193,196,192,196},{195,194,195,192,196}},{{188,188,187,189,189},{192,192,188,188,190},{192,192,187,191,192},{188,192,190,193,194},{193,188,187,188,190}}},{{{190,194,195,186,193},{192,206,196,189,193},{191,197,194,197,194},{198,196,196,192,191},{194,196,196,195,193}},{{192,193,197,191,194},{190,193,190,196,197},{194,191,190,196,197},{191,189,193,194,193},{191,192,195,194,196}},{{196,195,195,194,197},{193,193,191,199,191},{193,190,187,195,192},{196,195,197,190,193},{195,191,193,193,190}},{{192,191,191,191,196},{194,191,194,193,192},{195,196,191,195,195},{191,196,194,192,197},{194,190,196,191,191}},{{194,200,194,198,186},{188,195,200,168,194},{202,189,177,185,202},{197,198,199,201,198},{195,206,196,201,193}},{{196,195,195,199,197},{194,199,199,200,195},{197,200,195,197,196},{197,195,194,200,194},{199,195,197,194,197}},{{196,199,198,196,198},{198,197,200,196,200},{194,195,197,197,196},{195,196,196,194,198},{195,195,197,198,200}},{{196,194,199,197,195},{192,199,194,198,197},{194,198,199,200,191},{199,198,195,196,192},{194,200,195,186,195}},{{192,195,195,197,196},{190,193,196,191,196},{195,194,191,192,191},{190,190,196,196,197},{196,192,191,194,195}},{{192,190,192,189,192},{188,187,188,188,187},{191,189,193,191,194},{192,191,187,192,189},{194,195,187,187,187}},{{190,190,190,191,191},{193,192,186,191,192},{189,193,194,190,193},{189,189,191,192,191},{190,196,196,189,193}},{{193,202,195,200,192},{187,203,196,216,171},{200,196,177,210,207},{190,191,211,201,187},{195,174,208,187,173}},{{190,189,192,191,195},{192,191,187,193,193},{190,192,192,191,192},{187,194,190,189,192},{191,191,192,188,192}},{{192,199,204,210,206},{195,198,201,191,191},{191,194,203,188,185},{192,187,199,205,177},{189,195,193,194,181}},{{193,183,184,199,200},{183,204,204,184,196},{190,182,208,186,202},{179,174,220,204,197},{192,217,221,201,195}},{{191,187,190,191,189},{191,192,193,187,192},{193,190,196,191,189},{188,196,188,187,193},{195,191,189,191,192}}},{{{187,190,187,192,193},{195,192,190,190,194},{197,193,188,188,196},{191,191,193,195,195},{192,188,191,196,196}},{{190,190,194,188,188},{191,188,194,189,189},{192,192,189,191,187},{190,190,188,187,193},{187,190,188,192,193}},{{191,187,188,190,195},{194,192,189,194,195},{188,187,193,187,200},{191,187,190,187,200},{189,193,188,190,195}},{{191,190,188,191,191},{194,189,190,192,191},{189,193,194,188,193},{187,188,189,192,188},{193,188,192,189,190}},{{189,188,192,189,193},{193,191,192,194,192},{193,192,188,188,189},{187,193,189,191,192},{188,191,187,190,190}},{{189,188,194,192,189},{191,191,188,192,187},{190,189,192,191,189},{188,189,189,189,194},{192,192,189,188,189}},{{189,192,191,188,193},{193,189,189,187,192},{192,191,190,187,191},{191,197,190,191,192},{192,190,189,193,193}},{{195,187,190,191,192},{189,192,190,194,188},{190,189,190,191,187},{189,190,190,194,192},{195,193,191,188,189}},{{190,189,192,187,190},{193,192,190,192,189},{192,189,192,191,193},{187,190,190,190,193},{188,188,188,193,189}},{{193,192,188,188,193},{192,188,191,195,197},{188,198,191,192,196},{187,191,190,191,199},{190,189,190,190,194}},{{192,190,190,191,195},{191,197,192,193,198},{192,193,190,192,199},{190,188,187,193,193},{193,187,189,194,191}},{{194,192,193,192,192},{196,192,193,189,189},{196,188,192,191,188},{197,187,192,190,192},{192,189,189,190,192}},{{192,190,189,190,191},{193,187,194,191,193},{193,192,189,193,192},{191,187,193,188,189},{191,192,191,192,188}},{{187,190,191,193,189},{192,193,191,193,193},{187,189,192,192,191},{187,191,193,188,188},{188,188,190,188,187}},{{191,190,193,190,187},{190,190,187,193,189},{193,189,194,187,189},{190,191,193,189,187},{188,192,192,194,188}},{{191,198,190,192,191},{189,188,190,197,190},{193,187,193,192,191},{192,188,190,193,192},{195,187,193,188,190}}},{{{192,199,196,197,195},{191,198,197,194,190},{199,188,195,191,191},{205,187,196,196,191},{198,197,195,195,192}},{{193,192,190,194,193},{192,194,197,193,196},{191,191,192,191,197},{193,191,192,196,192},{192,197,194,192,196}},{{199,194,196,193,198},{193,191,185,198,200},{194,190,195,191,196},{191,197,191,190,193},{193,186,195,194,200}},{{194,196,191,193,191},{190,192,197,194,193},{197,190,195,191,196},{196,196,194,195,191},{193,194,196,190,192}},{{199,196,202,191,194},{200,199,195,189,185},{198,197,198,201,205},{187,197,196,198,190},{200,200,201,198,195}},{{199,197,196,194,199},{199,195,195,199,194},{197,200,200,196,196},{199,193,194,200,194},{194,199,199,200,195}},{{194,197,198,196,197},{194,195,194,196,195},{196,191,187,188,197},{192,199,198,200,199},{194,199,199,199,196}},{{193,198,198,198,199},{200,194,198,200,188},{195,194,198,199,195},{194,198,200,200,194},{198,190,198,199,199}},{{195,191,195,195,193},{192,193,196,196,191},{195,193,196,193,193},{195,192,197,196,192},{195,195,194,195,193}},{{190,196,197,196,196},{190,195,185,189,192},{197,189,194,194,189},{192,197,193,193,195},{192,194,187,195,195}},{{189,192,194,193,194},{192,186,194,193,192},{195,196,191,196,195},{188,192,186,191,191},{190,194,187,195,189}},{{192,209,179,194,189},{186,185,204,190,190},{167,196,186,185,190},{176,209,181,204,199},{198,201,172,170,175}},{{190,187,193,193,193},{190,192,189,191,195},{191,185,197,193,191},{188,191,190,196,195},{193,192,195,192,184}},{{195,188,185,167,177},{187,203,173,195,186},{182,197,201,187,188},{192,199,198,205,201},{187,197,198,193,196}},{{195,199,177,185,198},{208,209,180,193,197},{168,192,182,184,192},{191,218,198,183,202},{180,210,195,193,193}},{{190,190,193,193,193},{192,191,184,191,195},{189,192,187,196,193},{195,192,190,197,195},{196,191,192,195,189}}},{{{195,199,196,202,197},{183,195,195,184,190},{191,186,190,191,197},{188,194,189,191,191},{199,188,187,195,192}},{{196,198,194,194,198},{197,196,197,195,195},{199,195,199,194,195},{194,196,195,194,194},{196,197,199,199,199}},{{196,194,194,194,194},{196,197,200,197,193},{195,198,196,194,194},{199,197,194,198,195},{199,199,195,199,194}},{{197,198,198,195,201},{200,198,196,195,197},{196,199,194,200,194},{196,199,199,194,199},{196,195,197,193,200}},{{190,195,187,192,194},{208,204,196,192,193},{192,201,197,189,199},{190,193,204,191,192},{193,211,198,195,188}},{{190,197,194,192,194},{192,193,190,191,192},{193,191,191,190,193},{191,191,195,193,196},{191,195,190,192,195}},{{194,195,195,190,193},{196,194,195,194,191},{194,198,195,192,192},{190,192,191,195,192},{192,193,201,196,192}},{{196,196,191,192,195},{196,190,192,195,194},{192,191,197,193,191},{193,195,194,188,191},{191,195,196,190,192}},{{198,194,197,198,196},{196,197,197,199,199},{199,193,196,194,198},{196,197,198,196,198},{197,200,198,199,196}},{{196,197,200,194,194},{199,199,195,198,197},{198,193,200,197,193},{195,194,197,199,197},{197,198,200,195,197}},{{198,195,197,199,195},{194,196,196,195,199},{194,198,196,198,199},{196,195,193,198,195},{199,194,198,200,196}},{{187,197,194,194,193},{187,187,191,190,203},{197,195,200,187,199},{200,202,194,191,185},{197,198,196,192,184}},{{199,196,198,196,197},{196,195,198,200,196},{194,193,197,200,198},{195,198,200,195,194},{198,197,196,200,196}},{{196,193,204,197,200},{191,188,188,196,183},{188,194,191,191,186},{191,195,200,196,194},{179,192,199,195,186}},{{187,187,192,186,197},{189,197,187,190,194},{188,185,199,182,197},{186,198,201,197,193},{184,205,202,194,193}},{{200,195,198,196,199},{199,197,196,199,194},{194,195,196,194,194},{199,194,195,198,199},{199,199,196,197,199}}},{{{194,193,194,195,199},{192,197,195,192,193},{193,194,195,192,191},{182,190,197,197,196},{195,196,195,191,191}},{{193,197,191,193,195},{165,184,191,197,196},{189,177,190,182,193},{195,193,191,193,190},{230,204,163,180,197}},{{193,191,191,190,191},{194,194,194,192,195},{195,194,197,197,190},{195,191,194,194,191},{192,191,195,194,193}},{{165,176,198,195,210},{156,179,213,206,205},{188,180,201,177,184},{196,187,197,193,203},{216,195,199,208,184}},{{192,207,189,191,213},{187,213,199,178,143},{191,176,198,199,201},{194,150,172,177,175},{204,216,153,143,162}},{{194,196,192,195,196},{195,195,194,197,195},{194,192,195,194,192},{196,194,192,196,194},{190,195,190,191,193}},{{191,197,194,195,193},{192,191,192,196,191},{195,195,197,195,190},{191,196,188,193,195},{191,193,194,191,191}},{{190,190,193,191,195},{195,195,192,197,193},{196,196,193,194,193},{195,191,194,197,193},{196,196,194,191,191}},{{184,182,182,184,217},{195,177,199,209,191},{189,187,185,199,203},{200,187,192,193,183},{208,196,211,196,196}},{{79,112,210,205,218},{170,212,185,223,202},{196,187,183,198,197},{189,186,204,189,203},{202,204,209,195,185}},{{199,205,177,152,153},{191,188,191,116,132},{224,221,205,186,197},{186,202,213,200,213},{208,183,108,144,137}},{{207,188,182,185,188},{154,189,199,205,200},{190,206,178,205,201},{193,199,192,195,178},{179,186,200,203,203}},{{201,205,203,228,175},{214,171,196,222,143},{202,211,197,162,163},{153,172,181,201,162},{173,194,211,193,220}},{{203,183,198,194,198},{186,195,209,205,200},{191,200,174,186,143},{199,194,195,179,176},{214,200,187,187,187}},{{196,212,213,213,202},{190,206,203,195,161},{202,187,179,196,195},{193,190,187,188,197},{218,203,174,186,193}},{{193,192,193,193,194},{190,197,196,193,193},{191,191,192,191,190},{191,190,193,191,197},{196,196,194,196,194}}},{{{194,191,190,195,196},{192,196,191,190,190},{191,191,194,195,193},{193,197,196,197,193},{191,194,192,192,194}},{{193,190,190,190,190},{193,189,187,187,193},{187,189,188,192,189},{189,191,192,188,192},{190,191,193,187,191}},{{191,193,196,191,197},{189,191,190,191,193},{192,192,188,192,195},{193,200,187,193,193},{190,193,191,188,192}},{{191,193,193,193,194},{187,189,