#include "main.h"
#include <cstring>

void store_input(float input[1][32][32], float input_oc[1][32][32])
{
	memcpy(input_oc, input, sizeof(float) * 32 * 32);
}

void store_output(float output[10], float output_oc[10])
{
	memcpy(output, output_oc, sizeof(float) * 10);
}

void fused_layer1(float input[1][32][32], float weights[2][1][5][5], float bias[2], float output[2][14][14]) {
    #pragma HLS array_partition variable=weights cyclic dim=4 factor=5
	#pragma HLS array_partition variable=input cyclic dim=3 factor=5

    float intermediate[2][28][28];
    //#pragma HLS array_partition variable=intermediate complete dim=1

    for(int co = 0; co < 2; co++) {
        for(int h = 0; h < 28; h++) {
            for(int w = 0; w < 28; w++) {
                #pragma HLS pipeline
                float sum[32] = {0.0f};

                for (int offset = 0; offset < 25; offset++) {
                	int m = offset / 5;
                	int n = offset % 5;
                	int i = h + m;
                	int j = w + n;
                	sum[offset] = weights[co][0][m][n] * input[0][i][j];
                }

                for (int offset = 16; offset > 0; offset /= 2) {
                	for (int r = 0; r < 16; r++) {
                		sum[r] = sum[r] + sum[r + offset];
                	}
                }

                sum[0] += bias[co];
                if (sum[0] < 0) sum[0] = 0;
                intermediate[co][h][w] = sum[0];
            }
        }
    }

    for (int c = 0; c < 2; c++) {
        for (int h = 0; h < 14; h++) {
            for (int w = 0; w < 14; w++) {
                #pragma HLS pipeline
                float max_value = -9999999;
                for (int di = 0; di < 2; di++) {
					#pragma HLS unroll factor=2
                    for (int dj = 0; dj < 2; dj++) {
                        #pragma HLS unroll factor=2
                        int i = h * 2 + di;
                        int j = w * 2 + dj;
                        max_value = (max_value > intermediate[c][i][j]) ? max_value : intermediate[c][i][j];
                    }
                }
                output[c][h][w] = max_value;
            }
        }
    }
}

void convolution_3_ReLU(float input[2][14][14], float weights[5][2][5][5], float bias[5], float output[5][10][10])
{
//    #pragma HLS array_partition variable=weights cyclic dim=2 factor=2
//    #pragma HLS array_partition variable=input cyclic dim=1 factor=2

#pragma HLS array_partition variable=weights complete dim=2 //factor=2
#pragma HLS array_partition variable=input complete dim=1
// #pragma HLS array_partition variable=input complete dim=1
    for(int co = 0; co < 5; co++)
        for(int h = 0; h < 10; h++)
            for(int w = 0; w < 10; w++)
            {
				#pragma HLS PIPELINE
				float sum[64] = {0.0f};

				for (int i = 0; i < 50; i++) {
					int m = i / 10;
					int n = (i - m * 10) / 2;
					int ci = (i - m * 10 - n * 2);

					sum[i] = (weights[co][ci][m][n] * input[ci][h+m][w+n]);
				}

				for (int offset = 32; offset > 0; offset /= 2) {
					for (int r = 0; r < 32; r++) {
						sum[r] = sum[r] + sum[r + offset];
					}
				}

				sum[0] = sum[0] + bias[co];
				if (sum[0] < 0) sum[0] = 0;
				output[co][h][w] = sum[0];
            }
}

void maxpool_4(float input[5][10][10],float output[5][5][5])
{
    for(int c = 0;c < 5; c++)
        for(int h = 0; h < 5; h++)
            for(int w = 0; w < 5; w++)
            {
				#pragma HLS PIPELINE
                float max_value=-1000000000000.0;
                for(int i = 0; i < 2; i++)
                {
                    for(int j = 0;j < 2; j++)
                        max_value = (max_value > input[c][h*2+i][w*2+j]) ? max_value:input[c][h*2+i][w*2+j];
                }
                output[c][h][w] = max_value;
            }
}

void convolution_5_ReLU(float input[5][5][5], float weights[120][5][5][5], float bias[120], float output[120][1][1])
{
	#pragma HLS array_partition variable=weights cyclic dim=4 factor=5
	#pragma HLS array_partition variable=input cyclic dim=3 factor=5
    for(int co = 0; co < 120; co++)
    {
        float sum = 0;
        for(int ci = 0; ci < 5; ci++)
        {
			#pragma HLS PIPELINE
        	float partial_sum[32] = {0.0f};

        	for (int i = 0; i < 25; i++) {
        		int m = i / 5;
        		int n = i % 5;
        		partial_sum[i] = weights[co][ci][m][n] * input[ci][m][n];
        	}

        	for (int offset = 16; offset > 0; offset /= 2) {
        		for (int r = 0; r < 16; r++) {
        			partial_sum[r] = partial_sum[r] + partial_sum[r + offset];
        		}
        	}

        	sum += partial_sum[0];
        }
		sum = sum + bias[co];
		if (sum < 0) sum = 0;
        output[co][0][0] = sum;
    }
}

void fc_6_ReLU(const float input[120][1][1], const float weights[10][120][1][1], const float bias[10], float output[10])
{
    for(int n = 0; n < 10; n++)
    {
		// #pragma HLS PIPELINE
        output[n] = 0;

        for(int c = 0; c < 120; c++)
        {
            output[n] += weights[n][c][0][0] * input[c][0][0];
        }
        output[n] += bias[n];
		if (output[n] < 0) output[n] = 0;
    }
}

int lenet_accelerator(float input[1][32][32], float output[10])
{
#pragma HLS dataflow

#pragma HLS interface m_axi depth=1024 port=input offset=slave bundle=INPUT

#pragma HLS interface m_axi depth=10 port=output offset=slave bundle=OUTPUT

#pragma HLS interface s_axilite port=return bundle=CTL

	float input_oc[1][32][32];
	//store input on chip
	store_input(input, input_oc);
	float w1_oc[2][1][5][5] = {{{{0.1625078171491623,0.07076556980609894,-0.13258837163448334,-0.3407166302204132,0.04365997388958931},{0.3632828891277313,0.7708247900009155,1.0380008220672607,0.5513386726379395,0.17084866762161255},{0.061082907021045685,0.18995390832424164,0.5222113728523254,0.041792888194322586,0.01776239089667797},{-0.6131954789161682,-0.48676860332489014,-0.03807048499584198,0.04600472003221512,0.146859809756279},{-0.5585189461708069,-0.4690909683704376,-0.45131438970565796,-0.08426214754581451,0.3870183527469635}}},{{{0.5190485715866089,0.399767130613327,-0.10796120017766953,-0.08429060876369476,0.22411122918128967},{0.25167810916900635,0.5040054321289062,0.11102447658777237,-0.1901913732290268,-0.17500336468219757},{0.26762884855270386,0.8490115404129028,0.028364744037389755,-0.43315091729164124,-0.32230088114738464},{0.6843047142028809,0.44948631525039673,-0.31779298186302185,-0.25815972685813904,-0.28894567489624023},{0.7191048860549927,-0.09059500694274902,-0.3467999994754791,-0.18480734527111053,0.054860830307006836}}}};
	float w3_oc[5][2][5][5] = {{{{-0.13026702404022217,0.00669810501858592,-0.0331648625433445,-0.06720705330371857,-0.13470737636089325},{-0.03476579487323761,0.05677641183137894,-0.05591461807489395,-0.27661120891571045,-0.12982316315174103},{-0.17497316002845764,0.25058162212371826,0.2216036021709442,0.27801772952079773,0.517863392829895},{0.07436396181583405,-0.03538641333580017,0.3558090627193451,0.5029684901237488,-0.04865529388189316},{-0.10758167505264282,-0.07880828529596329,-0.1580182909965515,-0.1552334874868393,-0.837460458278656}},{{0.002502929186448455,-0.029993213713169098,0.28795325756073,0.06915085762739182,-0.11445683985948563},{0.002770032035186887,-0.26227548718452454,0.1305684745311737,0.027653396129608154,0.16201642155647278},{-0.1549077033996582,-0.1549738645553589,-0.13296005129814148,0.021557677537202835,0.048127010464668274},{-0.20667941868305206,-0.4144745171070099,-0.46275463700294495,-0.44885191321372986,-0.3307545483112335},{-0.31842800974845886,-0.39320364594459534,-0.2416522055864334,-0.5323242545127869,-0.21780745685100555}}},{{{0.3999927341938019,0.3834908902645111,0.031040148809552193,0.08545885235071182,0.12311743944883347},{-0.11746092140674591,0.30500563979148865,-0.031125793233513832,-0.17491526901721954,-0.30835139751434326},{-0.11274576932191849,-0.14417970180511475,-0.22679653763771057,-0.3747481107711792,-0.15815281867980957},{0.6022979021072388,-0.19247311353683472,-0.2817153334617615,-0.48821523785591125,-0.4938063323497772},{0.19364866614341736,-0.14578065276145935,0.13127684593200684,-0.15764060616493225,-0.3120391368865967}},{{0.11886367946863174,0.20068329572677612,0.2975842356681824,0.44640085101127625,0.45124584436416626},{-0.1559642106294632,-0.5538045763969421,-0.3945132791996002,-0.2959543764591217,-0.35327497124671936},{-0.01003798097372055,-0.45740920305252075,-0.941761314868927,-0.8058170676231384,-0.3942226469516754},{0.045500628650188446,-0.11750854551792145,-0.19225375354290009,-0.5108262300491333,-0.5035504698753357},{0.2647523283958435,0.5057076811790466,0.22713972628116608,0.12786266207695007,-0.3344901502132416}}},{{{0.26783663034439087,-0.373078316450119,-0.26502078771591187,0.31347155570983887,0.35295844078063965},{-0.13505634665489197,-0.4555981159210205,-0.20710401237010956,-0.23884150385856628,0.32087355852127075},{-0.11780493706464767,-0.5401208400726318,-0.44771555066108704,-0.2939901053905487,-0.08134722709655762},{-0.6442109942436218,-0.46844276785850525,-0.08462594449520111,-0.2974091172218323,-0.5516093969345093},{-0.5244772434234619,-0.3174615204334259,-0.3914351463317871,-0.14120681583881378,-0.03215796500444412}},{{-0.11245089769363403,0.2623703181743622,0.1845913976430893,-0.05827490612864494,0.027604464441537857},{0.08314039558172226,0.24932144582271576,0.20059071481227875,0.059842754155397415,0.009776352904736996},{0.24445970356464386,0.03606344386935234,0.4714197814464569,0.002899551996961236,-0.23664233088493347},{0.2615109086036682,0.06665107607841492,0.23055914044380188,-0.0252276211977005,0.23056773841381073},{0.2540328800678253,-0.2532973289489746,0.04464924335479736,-0.218723863363266,0.6480475664138794}}},{{{0.030933927744627,-0.19883984327316284,0.09954173862934113,0.17992831766605377,-0.14769746363162994},{-0.5223406553268433,-0.31061381101608276,-0.013228110037744045,-0.17190542817115784,-0.3226206600666046},{-0.09947477281093597,0.1717388778924942,-0.22410617768764496,-0.4671471416950226,-0.5938408374786377},{0.022199535742402077,-0.1686585694551468,-0.5326998829841614,-0.6231284737586975,-0.14384950697422028},{-0.5349700450897217,-0.4773781895637512,-0.4266888201236725,-0.22067223489284515,0.1717691868543625}},{{-0.47499439120292664,-0.005493524018675089,0.3756813704967499,0.6225490570068359,0.7328352928161621},{-0.24013547599315643,0.24511075019836426,0.2739943861961365,0.2944667637348175,0.2596765160560608},{0.061541877686977386,0.1394205540418625,-0.11213846504688263,-0.5523861646652222,-0.19542065262794495},{0.011173696257174015,-0.15916568040847778,-0.4079788029193878,-0.331362783908844,-0.18140242993831635},{-0.23990605771541595,-0.43173494935035706,-0.31171271204948425,0.16113239526748657,0.25322476029396057}}},{{{-0.14059990644454956,-0.2230771780014038,-0.15479031205177307,0.005835747346282005,-0.004827605094760656},{-0.3402629494667053,0.044362571090459824,0.003647790988907218,-0.10261042416095734,-0.39197733998298645},{-0.49486321210861206,0.10905422270298004,0.3870367109775543,-0.25680243968963623,-0.5363502502441406},{-0.5093244910240173,-0.09085197001695633,0.46291202306747437,0.14228183031082153,-0.2633990943431854},{-0.1592646837234497,-0.12197712808847427,0.055643871426582336,-0.016074832528829575,-0.05486360564827919}},{{-0.10922107845544815,-0.16759616136550903,0.2571188807487488,0.24690474569797516,-0.442884624004364},{-0.11936391890048981,-0.17063844203948975,0.009591864421963692,0.23291076719760895,-0.5090413093566895},{-0.2985394299030304,-0.4502050578594208,0.03091001696884632,0.5252929925918579,-0.12316867709159851},{-0.48071202635765076,-0.5977694392204285,0.027230536565184593,0.29662057757377625,-0.08650984615087509},{-0.361948698759079,-0.3649365305900574,-0.1252574622631073,0.007299610413610935,-0.03623596206307411}}}};
	float w5_oc[120][5][5][5] = {{{{-0.024081170558929443,-0.07800226658582687,-0.02293367125093937,-0.007527992594987154,-0.009809023700654507},{0.061482738703489304,-0.04575439170002937,-0.05323121324181557,0.012628205120563507,-0.014625295996665955},{-0.011367094703018665,-0.053651243448257446,-0.07809703797101974,-0.05503242090344429,0.006282377056777477},{-0.0039506698958575726,-0.010092477314174175,6.917291466379538e-05,-0.022502973675727844,0.04107994586229324},{-0.040736906230449677,-0.001989424927160144,-0.04791216179728508,-0.0072551146149635315,-0.007351712789386511}},{{-0.023441899567842484,0.03567799553275108,0.007881990633904934,-0.06573760509490967,-0.05055800452828407},{0.02965458668768406,-0.00498676672577858,-0.0015393360517919064,-0.013654225505888462,-0.0013683433644473553},{0.035756975412368774,-0.0772688239812851,0.02890482358634472,-0.07564359903335571,-0.05625646561384201},{-0.04070083424448967,-0.0057905809953808784,-0.05463675409555435,-0.05011311173439026,-0.07579955458641052},{-0.00762411393225193,-0.05618374049663544,-0.06850431114435196,-0.05106839910149574,-0.007448410149663687}},{{-0.043794307857751846,-0.06940123438835144,-0.0734882801771164,-0.0006301702815108001,-0.06677184253931046},{-0.06485476344823837,-0.06415039300918579,-0.03157903626561165,-0.023477453738451004,-0.017003949731588364},{-0.033130496740341187,-0.045859143137931824,-0.008463640697300434,-0.009540554136037827,-0.060240209102630615},{-0.03985055908560753,-0.028535252436995506,-0.040730204433202744,-0.07755369693040848,-0.06377857178449631},{-0.0378749743103981,-0.02744441106915474,-0.009295093826949596,-0.07008727639913559,0.0006615094607695937}},{{-0.0055765327997505665,-0.06179250404238701,-0.07253393530845642,-0.00039318291237577796,-0.03544360771775246},{-0.05694659799337387,-0.043383702635765076,-0.005657654255628586,-0.030351722612977028,-0.007044911850243807},{-0.03567710891366005,-0.004413623362779617,-0.023391254246234894,-0.06752703338861465,-0.017184782773256302},{-0.007936991751194,-0.049747176468372345,-0.028338534757494926,-0.05085233598947525,-0.06304218620061874},{-0.03425595164299011,-0.05196579545736313,0.00019185345445293933,-0.06721605360507965,-0.04176533222198486}},{{0.0014851278392598033,-0.04337343946099281,-0.04968906193971634,-0.05302435904741287,-0.021885884925723076},{-0.03291074559092522,0.035556402057409286,-0.06114902347326279,-0.030544305220246315,-0.01946537382900715},{0.0011827039998024702,-0.03561129793524742,-0.01665010116994381,-0.020149454474449158,-0.05285301432013512},{0.00842324085533619,-0.07305848598480225,0.001543492078781128,-0.0651620402932167,-0.06212965026497841},{0.0022115157917141914,-0.01658189855515957,-0.04603557661175728,-0.006133720278739929,0.02476128377020359}}},{{{-0.026224320754408836,-0.04676913842558861,0.03127410262823105,-0.05248642340302467,-0.03264313563704491},{-0.13049884140491486,0.006067260168492794,0.013632412999868393,-0.0962306410074234,-0.0238728579133749},{-0.09125985205173492,-0.14783017337322235,-0.01812482811510563,-0.06627881526947021,-0.11176250129938126},{-0.12107736617326736,-0.0707322433590889,0.005536018870770931,-0.06928162276744843,-0.028270840644836426},{-0.0432809479534626,0.009431274607777596,-0.017992736771702766,0.10272844135761261,-0.08017659932374954}},{{-0.16013653576374054,-0.661795437335968,-0.24934573471546173,-0.11904871463775635,-0.06893695145845413},{-0.12994998693466187,0.1466819941997528,-0.18812984228134155,0.13549181818962097,0.22859402000904083},{-0.6484567523002625,-0.1253499835729599,-0.032364703714847565,0.1623147428035736,0.057980895042419434},{0.08650598675012589,-0.12526381015777588,-0.19840221107006073,-0.14572256803512573,-0.16750429570674896},{-0.3961585462093353,-0.09856392443180084,-0.04591354355216026,0.12414854764938354,0.03526485711336136}},{{0.054552339017391205,0.2288426160812378,0.20307743549346924,0.2432669848203659,0.22157832980155945},{-0.0013927541440352798,0.1310235559940338,0.03802358731627464,0.036399200558662415,-0.3023344874382019},{-0.3023124635219574,0.1178317442536354,0.15286344289779663,0.19492879509925842,-0.17750930786132812},{-0.3342019319534302,-0.15187935531139374,0.09736022353172302,-0.17110291123390198,0.043772220611572266},{0.26726287603378296,0.16943523287773132,-0.2659017741680145,-0.1423957496881485,-0.033183492720127106}},{{0.1862744688987732,0.01284373365342617,0.058720748871564865,0.0872812420129776,0.32791125774383545},{0.13468438386917114,-0.09234483540058136,0.08655072003602982,0.13185778260231018,0.11046116799116135},{-0.06248015537858009,-0.13371910154819489,-0.018025705590844154,-0.09860680997371674,-0.10287462919950485},{-0.20345748960971832,-0.20444312691688538,0.0012030275538563728,0.10763271152973175,0.1373065561056137},{-0.206490159034729,0.08555162698030472,-0.11158354580402374,-0.14975975453853607,0.039776116609573364}},{{-0.046404752880334854,0.06338523328304291,-0.02081761322915554,0.023694435134530067,-0.08927562832832336},{-0.04057842493057251,0.015540054999291897,-0.017856553196907043,-0.07357049733400345,-0.09127093851566315},{0.02608441933989525,-0.06518102437257767,-0.02946196310222149,-0.09659363329410553,-0.08124002814292908},{0.01345795951783657,-0.0787186250090599,0.10271427035331726,-0.19098515808582306,-0.10338348895311356},{-0.00709621561691165,0.04756093770265579,0.037565600126981735,-0.051742199808359146,-0.012932250276207924}}},{{{0.0224960595369339,-0.009108847007155418,-0.0379786379635334,0.033274516463279724,-0.018698859959840775},{0.05922650545835495,-0.008743621408939362,0.04121236875653267,-0.02629300020635128,0.03710869699716568},{-0.037749018520116806,0.027785124257206917,-0.03616265952587128,0.01884196139872074,0.006680450402200222},{-0.05594421923160553,0.007033870555460453,-0.002025868045166135,0.014436350204050541,-0.047288402915000916},{-0.0035319426096975803,-0.04478655755519867,0.04612399637699127,-0.008070653304457664,-0.0463055819272995}},{{0.0007456446182914078,0.03395049273967743,-0.049910932779312134,0.09356512129306793,-0.00037252402398735285},{0.0804319754242897,-0.0839887261390686,-0.09215350449085236,-0.03934541344642639,0.15148627758026123},{0.06316803395748138,-0.001017815200611949,0.10366101562976837,-0.0914052277803421,-0.16735300421714783},{0.19035300612449646,0.06925259530544281,0.0106801837682724,0.05994783341884613,-0.12045347690582275},{-0.1516401320695877,-0.0069985175505280495,-0.07825995981693268,0.004963256884366274,0.004352394491434097}},{{-0.09331738948822021,0.06766226142644882,0.1875477135181427,0.12886400520801544,-0.019521089270710945},{-0.016618728637695312,0.003972750622779131,0.005351090803742409,-0.022189022973179817,-0.08625160902738571},{-0.140639066696167,-0.11604730784893036,0.22363242506980896,0.017940694466233253,0.004855662118643522},{-0.170475572347641,0.08417925238609314,0.04273919761180878,-0.05533779785037041,-0.0072934613563120365},{-0.05022134259343147,0.028588805347681046,0.008156261406838894,0.006564741022884846,-0.07773612439632416}},{{0.03443334624171257,0.11909250169992447,0.01750030927360058,0.011000909842550755,-0.09460307657718658},{-0.009631156921386719,-0.16125519573688507,0.051507964730262756,0.007833028212189674,-0.013687334023416042},{-0.1330300271511078,-0.1363328993320465,0.05930479243397713,-0.11567855626344681,-0.1878587305545807},{-0.037798453122377396,0.02267702855169773,-0.01993313431739807,0.028892789036035538,0.09161215275526047},{0.026027532294392586,-0.004170936066657305,0.0018215372692793608,-0.052690695971250534,0.00010738293349277228}},{{0.0019128589192405343,-0.008770749904215336,-0.0196306761354208,-0.02963700145483017,-0.024951007217168808},{-0.030818665400147438,-0.0031905132345855236,-0.01829901710152626,0.037581585347652435,0.007282964885234833},{-0.040159836411476135,-0.07461154460906982,-0.04118342697620392,0.0069628688506782055,-0.08613274246454239},{-0.060417916625738144,-0.03383126109838486,0.02312738634645939,-0.003542538033798337,-0.11143483966588974},{-0.025855422019958496,0.018096204847097397,0.011921047233045101,0.02990363910794258,-0.0032465613912791014}}},{{{-0.026408726349473,-0.10703477263450623,-0.04596330225467682,-0.038423940539360046,-0.009438247419893742},{0.01563848927617073,-0.05250158533453941,-0.01940108835697174,0.02124853804707527,0.0037315685767680407},{0.03487919270992279,0.05614631623029709,0.031352169811725616,0.017280632629990578,-0.032742518931627274},{-0.04984801262617111,-0.05401116982102394,-0.05597015097737312,-0.028029590845108032,-0.056158848106861115},{-0.08055264502763748,-0.03876884654164314,0.029894409701228142,0.03702438250184059,-0.018174180760979652}},{{0.12368057668209076,-0.26613759994506836,-0.23098939657211304,0.07974392920732498,0.053080830723047256},{-0.29494231939315796,-0.11435038596391678,-0.21059271693229675,-0.029129693284630775,-0.1464495211839676},{-0.2686019241809845,-0.039475828409194946,0.06258280575275421,-0.04273905232548714,-0.2075781524181366},{-0.2544636130332947,-0.04257345199584961,-0.14616048336029053,0.10213180631399155,0.009237730875611305},{-0.277573823928833,0.009863754734396935,-0.0020277786534279585,0.006751087959855795,-0.1079128086566925}},{{-0.019874997437000275,0.16090285778045654,0.1438421905040741,0.06435146182775497,0.030117865651845932},{0.01929893158376217,-0.010020389221608639,-0.047827865928411484,0.0801471620798111,0.09839267283678055},{-0.013563032262027264,-0.3661763370037079,0.02960161305963993,-0.21178269386291504,-0.0009067807113751769},{0.07278742641210556,0.06496304273605347,-0.13473136723041534,0.02865249291062355,-0.008767887018620968},{-0.24684081971645355,-0.02419210784137249,0.033461201936006546,0.023803718388080597,0.040754642337560654}},{{0.07842739671468735,0.11407230794429779,-0.0266361515969038,0.06055525690317154,0.05392466112971306},{0.16623450815677643,0.047082945704460144,0.0526006706058979,-0.01484975777566433,0.006540508940815926},{-0.08521275967359543,-0.08240673691034317,-0.005924041382968426,-0.10466884821653366,0.06910241395235062},{-0.20323510468006134,-0.12803976237773895,0.15218183398246765,-0.14984506368637085,-0.08164354413747787},{0.1876099556684494,0.10139572620391846,0.030793026089668274,-0.02891789935529232,-0.07901874929666519}},{{-0.0335770808160305,-0.03416234627366066,0.05175763741135597,0.013040818274021149,0.015835484489798546},{-0.019879207015037537,-0.025039322674274445,0.03546195477247238,-0.01614903099834919,-0.002713448368012905},{-0.005188632756471634,-0.029709210619330406,0.036730051040649414,0.03529076650738716,-0.10447321087121964},{-0.008802705444395542,-0.08604876697063446,-0.007182651665061712,-0.018300998955965042,-0.028430871665477753},{-0.011328221298754215,0.05818168818950653,0.03598823770880699,-0.016923371702432632,-0.044772669672966}}},{{{-0.03279409557580948,-0.05054226145148277,-0.05018572509288788,-0.040096383541822433,-0.03589094802737236},{-0.0646272525191307,-0.0008759807678870857,-0.04794267192482948,-0.027236206457018852,-0.07792102545499802},{-0.05127866938710213,-0.04205641150474548,-0.029872845858335495,-0.057783227413892746,-0.013210177421569824},{-0.036654889583587646,-0.07375260442495346,-0.0779777318239212,-0.028636274859309196,-0.03466954454779625},{-0.027182459831237793,-0.05625664070248604,-0.05985068902373314,-0.03283362835645676,-0.06829438358545303}},{{-0.018190894275903702,0.02095066010951996,-0.0055055636912584305,0.035161856561899185,0.03936338797211647},{-0.004821470007300377,0.00042219823808409274,0.0023031109012663364,0.020475883036851883,-0.035738132894039154},{-0.03669026866555214,-0.008995798416435719,-0.031983569264411926,-0.002700554672628641,0.025538243353366852},{0.03254859149456024,0.023952800780534744,-0.032074663788080215,-0.004252518992871046,0.019592471420764923},{0.037710342556238174,0.004021408036351204,0.03603234887123108,0.009544504806399345,-0.004593418445438147}},{{0.021007755771279335,0.019739950075745583,-0.017588919028639793,0.007379641756415367,-0.010168780572712421},{-0.03643036633729935,-0.01689959317445755,-0.033811911940574646,-0.006601841654628515,0.018408525735139847},{-0.022759128361940384,0.028690697625279427,-0.014907920733094215,-0.036581505089998245,-0.03091120719909668},{-0.006110062822699547,0.03847093880176544,-0.029085291549563408,0.001307763741351664,-0.00224108574911952},{0.0357898585498333,-0.013868570327758789,0.021394111216068268,0.027368230745196342,-0.003274580230936408}},{{-0.01421209704130888,-0.024469252675771713,-0.02116364799439907,-0.014198621734976768,0.011723446659743786},{0.020030712708830833,-0.01562101673334837,-0.013101231306791306,-0.01912827044725418,-0.03725426271557808},{0.014852463267743587,-0.02829952910542488,0.01844632625579834,-0.025212422013282776,-0.040968213230371475},{-0.0003785480512306094,-0.00759704178199172,0.01112840324640274,-0.018615705892443657,0.031314730644226074},{-0.001135983970016241,0.033400699496269226,-0.03752748668193817,-0.01577366515994072,-0.0018132939003407955}},{{-0.020039986819028854,-0.010250064544379711,-0.044075120240449905,-0.025620074942708015,-0.025773199275135994},{-0.07421556860208511,-0.060708340257406235,-0.05226435884833336,0.0018742869142442942,-0.0100935697555542},{-0.06038432568311691,-0.051186539232730865,-0.002665390260517597,-0.06259042769670486,-0.0625104233622551},{-0.049466248601675034,-0.039364878088235855,-0.06099371612071991,-0.012757924385368824,-0.0380697026848793},{-0.021320801228284836,-0.03474172577261925,-0.022286375984549522,-0.011524992994964123,-0.04411562904715538}}},{{{-0.005944996606558561,-0.01824238896369934,-0.06533878296613693,-0.029755592346191406,-0.02793317288160324},{0.013602870516479015,-0.056538209319114685,-0.0650673508644104,-0.009330588392913342,-0.038721852004528046},{-0.030396681278944016,0.02359577640891075,-0.04237213730812073,-0.07243261486291885,0.00604627002030611},{-0.030474260449409485,-0.013833579607307911,-0.07824157923460007,-0.0015477176057174802,-0.07980746030807495},{-0.05900425836443901,-0.07548192888498306,-0.008125333115458488,-0.0015317728975787759,0.03171936422586441}},{{0.011139921844005585,0.007117969449609518,0.006694574374705553,-0.02781687304377556,-0.06309302896261215},{-0.025152454152703285,-0.03897995129227638,-0.0176834836602211,0.03597831353545189,-0.06802122294902802},{-0.003379275556653738,-0.058485791087150574,-0.004896082915365696,-0.023602435365319252,-0.0408996120095253},{-0.039937134832143784,-0.031988829374313354,-0.07773301005363464,-0.019315378740429878,-0.056705325841903687},{-0.0073224869556725025,-0.052663180977106094,-0.04081488028168678,-0.050555601716041565,0.018879879266023636}},{{-0.04229952022433281,0.00025423456099815667,-0.00876911636441946,-0.019299341365695,-0.02599852718412876},{-0.046162351965904236,-0.05987359583377838,-0.01949835941195488,-0.061041563749313354,-0.04923861846327782},{-0.04958207160234451,-0.03890034556388855,-0.01807573437690735,-0.07673054933547974,-0.003142104484140873},{-0.05491676181554794,-0.00940397847443819,0.00016892720304895192,-0.05884312093257904,-0.06275000423192978},{-0.04643386974930763,-0.07910783588886261,-0.030022796243429184,-0.030971942469477654,-0.03535338491201401}},{{-0.05724632740020752,-0.06906896829605103,-0.0014223870821297169,-0.0009650771389715374,-0.013665002770721912},{-0.0768762081861496,-0.07741600275039673,-0.07219937443733215,-0.04740611091256142,-0.06200353801250458},{-0.08013362437486649,-0.013960147276520729,-0.06558763980865479,-0.04284432902932167,-0.04232912138104439},{-0.026587869971990585,-0.06986945122480392,-0.06602970510721207,-0.07871794700622559,-0.06665609031915665},{-0.0766671746969223,-0.03749201074242592,-0.006126602180302143,-0.019419735297560692,-0.016135962679982185}},{{0.03505934402346611,-0.019051531329751015,-0.0077781761065125465,-0.02498035691678524,-0.07419873774051666},{-0.010081131011247635,-0.009439208544790745,-0.06949161738157272,-0.03761405870318413,-0.07398220151662827},{-0.014912045560777187,-0.02242102473974228,-0.0010748670902103186,-0.03902764990925789,-0.0031142255757004023},{0.027808353304862976,-0.05897286906838417,-0.02661418914794922,-0.06379798799753189,-0.037623364478349686},{0.007322334684431553,-0.02823425643146038,0.02820846438407898,0.03488339111208916,-0.013447077013552189}}},{{{-0.028532972559332848,-0.13383698463439941,-0.05311150476336479,-0.12662245333194733,-0.02685326524078846},{-0.06680285930633545,-0.06440890580415726,-0.11475078016519547,-0.09505079686641693,-0.0013638715026900172},{-0.050794802606105804,-0.09775499254465103,-0.020865878090262413,-0.04651929438114166,-0.03634244203567505},{0.05050842836499214,0.02715381607413292,0.014849227853119373,-0.04494287818670273,-0.02949647791683674},{-0.06510639190673828,-0.012064856477081776,-0.08694169670343399,-0.10530620813369751,-0.0794350877404213}},{{0.10932697355747223,0.021968523040413857,0.28790199756622314,0.20767484605312347,0.09318055957555771},{-0.09122958779335022,0.20347382128238678,0.1293107569217682,0.1625625193119049,-0.14450831711292267},{-0.6412431597709656,-0.04787861555814743,-0.06396207958459854,0.06697218865156174,-0.3040871322154999},{0.24466563761234283,0.19527265429496765,-0.21395932137966156,0.13363030552864075,-0.2199864536523819},{0.3592738211154938,0.10508688539266586,0.21082831919193268,0.01473961304873228,-0.011439085006713867}},{{0.11854967474937439,-0.13156014680862427,-0.1711672693490982,-0.0812382847070694,-0.05383533611893654},{0.20439915359020233,0.1979493796825409,0.13498175144195557,0.013303084298968315,-0.10022296756505966},{-0.10142114758491516,0.13206414878368378,0.20585210621356964,-0.03805062174797058,0.13560466468334198},{-0.517550528049469,-0.2940244972705841,-0.23331715166568756,-0.1010107696056366,-0.06823575496673584},{-0.13875313103199005,0.008197236806154251,0.16151854395866394,-0.1217755377292633,-0.36818909645080566}},{{-0.05258521810173988,0.2546011209487915,-0.24391473829746246,0.19230669736862183,0.16943281888961792},{0.07327111065387726,0.12134761363267899,0.11505840718746185,0.07534754276275635,0.01693752221763134},{0.06121310964226723,0.17689315974712372,0.04798860102891922,0.1817251592874527,0.04394333064556122},{0.12894710898399353,0.08262239396572113,0.03104797936975956,-0.17446033656597137,0.07109670341014862},{0.18120667338371277,0.10845253616571426,0.09589880704879761,-0.29493609070777893,-0.24545526504516602}},{{-0.048007119446992874,-0.06442691385746002,-0.027357585728168488,-0.09194090217351913,-0.0938834398984909},{0.011536400765180588,-0.1095728650689125,-0.01994193345308304,-0.06167089194059372,-0.08703761547803879},{0.030460648238658905,0.026284582912921906,0.016279300674796104,0.011534703895449638,0.0047304388135671616},{-0.0463130846619606,-0.006549859885126352,0.024813735857605934,-0.09266478568315506,-0.06475556641817093},{-0.07161609828472137,-0.09361065924167633,-0.10803361237049103,-0.04690781608223915,-0.012686929665505886}}},{{{-0.030682874843478203,-0.09863784164190292,-0.03901186212897301,0.037224799394607544,-0.11426836252212524},{-0.010052741505205631,-0.0392695851624012,-0.0035533972550183535,0.04806056618690491,-0.029528917744755745},{0.05170755088329315,-0.08210104703903198,-0.1517057567834854,-0.022022724151611328,0.06865199655294418},{-0.039972126483917236,-0.041653599590063095,-0.126384899020195,0.06454427540302277,-0.056546080857515335},{0.05541842430830002,0.08028728514909744,0.0013904866063967347,0.07417359203100204,-0.006183103658258915}},{{0.04809589311480522,-0.059415243566036224,-0.0195270087569952,0.0020395901519805193,-0.04310930520296097},{0.12966640293598175,0.024911608546972275,-0.01196226105093956,0.1337641328573227,0.12734921276569366},{0.007478839252144098,0.013676609843969345,-0.12372372299432755,0.11805343627929688,-0.01181011088192463},{-0.11503536254167557,-0.006382655818015337,0.06605933606624603,-0.030532052740454674,0.0867830440402031},{0.1603507250547409,0.07121457904577255,-0.03664015978574753,0.04908569157123566,-0.007315000519156456}},{{0.08966097235679626,-0.011742408387362957,0.03246232494711876,0.039984311908483505,-0.01378102507442236},{0.005265445448458195,-0.019747192040085793,0.05930618569254875,0.002827494405210018,-0.027549006044864655},{0.10907292366027832,0.1455310583114624,-0.04113123565912247,-0.0581606887280941,-0.10171220451593399},{0.10019592195749283,0.06657537817955017,0.043627701699733734,0.02503490075469017,-0.08009766042232513},{0.016582146286964417,0.19381099939346313,0.13758902251720428,0.041974954307079315,-0.014458892866969109}},{{-0.002189896535128355,-0.031239278614521027,-0.07988989353179932,0.03881758823990822,0.16486713290214539},{0.02109355293214321,0.015841815620660782,0.0837835744023323,0.15661588311195374,0.18237760663032532},{0.06294428557157516,-0.021802987903356552,-0.003955828491598368,0.08867888152599335,-0.041753023862838745},{-0.0591130293905735,-0.09419170022010803,0.046417977660894394,-0.0742630809545517,0.0398903451859951},{-0.006302434019744396,0.07565034180879593,0.02482595108449459,-0.08110649883747101,0.0003608432598412037}},{{-0.051453277468681335,-0.02746627666056156,-0.0427732951939106,0.006770686712116003,0.0010050039272755384},{0.03007950447499752,-0.03888041526079178,0.009926552884280682,-0.011549924500286579,-0.009649724699556828},{0.011255021207034588,0.0006158420001156628,-0.0225321426987648,0.046149931848049164,-0.0066324700601398945},{-0.05009032413363457,0.012337764725089073,0.01155625469982624,-0.13921308517456055,-0.0266774483025074},{-0.03867509588599205,0.05582914873957634,-0.00567465228959918,-0.0562162809073925,-0.0516534224152565}}},{{{-0.050828009843826294,-5.258551937004086e-06,-0.05921132490038872,-0.043524522334337234,0.029039574787020683},{0.004664893262088299,0.04083510860800743,-0.057668764144182205,-0.028650710359215736,0.006038238760083914},{0.0708930715918541,-0.04483480006456375,-0.019159147515892982,0.07530046999454498,-0.013715057633817196},{0.07944308966398239,0.09041373431682587,0.02632688730955124,0.06414482742547989,0.04255048558115959},{-0.03285413607954979,-0.06589663028717041,0.036798831075429916,-0.03315948694944382,-0.0558873787522316}},{{-0.01572914607822895,0.02259652316570282,0.018775813281536102,0.01674802415072918,0.05833178386092186},{0.017454538494348526,0.0675264224410057,-0.07015866041183472,-0.06356478482484818,0.0630602166056633},{0.001737427432090044,0.004046476446092129,-0.06644929945468903,0.0739186704158783,0.0033624612260609865},{-0.0417962484061718,0.055339738726615906,-0.012399233877658844,0.031320180743932724,-0.03320085257291794},{0.008547510951757431,0.027394114062190056,0.06580687314271927,-0.022066321223974228,-0.01922353357076645}},{{-0.06474754959344864,-0.005509200040251017,-0.024656666442751884,-0.06385549902915955,-0.03578314185142517},{-0.03238697350025177,-0.03479643911123276,-0.03421776741743088,-0.03981290012598038,-0.023249708116054535},{-0.029957234859466553,-0.04065466299653053,-0.0026708729565143585,-0.050076957792043686,-0.06092965975403786},{0.0433807373046875,-0.01072222925722599,-0.013160987757146358,-0.044327981770038605,-0.0332760252058506},{-0.02268352545797825,0.0036624777130782604,-0.0157836452126503,-0.05938554182648659,-0.05302257463335991}},{{-0.012514658272266388,-0.001202103216201067,-0.0016581474337726831,-0.04470136761665344,-0.061436399817466736},{-0.00352471019141376,-0.05534057319164276,-0.009887740015983582,0.06476990878582001,-0.06667641550302505},{-0.021574560552835464,-0.03390790894627571,-0.07588642090559006,-0.02165737934410572,-0.04301115497946739},{-0.04608704522252083,-0.008903119713068008,-0.0819215402007103,-0.011527192778885365,-0.05399350821971893},{7.197080412879586e-05,-0.006281656213104725,-0.013516957871615887,-0.079338438808918,-0.010176452808082104}},{{0.023811018094420433,-0.06675538420677185,-0.07565560936927795,-0.009713958017528057,-0.06438849121332169},{0.06465356796979904,0.0033407879527658224,0.010017529129981995,-0.0026663390453904867,-0.04005172848701477},{0.046291761100292206,0.08417496085166931,-0.026545405387878418,-0.020101865753531456,-0.05876176059246063},{-0.028030019253492355,0.08593882620334625,-0.046484511345624924,-0.022848913446068764,-0.015354802832007408},{0.013360577635467052,-0.07088100165128708,-0.07243436574935913,-0.06377027183771133,-0.009121578186750412}}},{{{-0.018047265708446503,-0.15551409125328064,-0.14089123904705048,-0.10909988731145859,0.03794964775443077},{-0.13906832039356232,-0.08970537781715393,-0.18847613036632538,0.1170424222946167,-0.0023933700285851955},{0.09362603724002838,-0.04021164029836655,0.05435287579894066,0.1264135241508484,-0.12785562872886658},{0.13528048992156982,0.1184554472565651,0.1783166378736496,0.21931923925876617,0.23771417140960693},{0.16955067217350006,0.1172003298997879,-0.04309242218732834,-0.02070140838623047,0.10258343070745468}},{{0.2685565948486328,0.17047710716724396,0.08335309475660324,0.1191498339176178,0.04472280293703079},{0.19134342670440674,0.22583609819412231,0.0284138023853302,0.12958157062530518,0.19508792459964752},{-0.07484535872936249,-0.06684647500514984,-0.1487128883600235,-0.03133758157491684,-0.007486291229724884},{0.18470695614814758,0.1409159004688263,-0.1902720183134079,-0.18520992994308472,-0.29131177067756653},{-0.041121575981378555,0.07182500511407852,0.30223023891448975,-0.3751756548881531,-0.03494558110833168}},{{0.033580273389816284,-0.10187841951847076,-0.5480883121490479,-0.2710026502609253,-0.0708565041422844},{0.15821515023708344,0.10617434978485107,0.06975764036178589,0.023856909945607185,-0.20754434168338776},{0.08679672330617905,0.04856369271874428,0.11495433747768402,-0.03895871713757515,-0.0484621524810791},{-0.5562551021575928,-0.2342751920223236,-0.2386438101530075,-0.3389340043067932,-0.24905851483345032},{-0.015316713601350784,-0.1469842791557312,-0.15984754264354706,-0.3670315444469452,-0.5462396144866943}},{{-0.12403099983930588,0.06817515939474106,-0.060433078557252884,0.13261538743972778,-0.08593200147151947},{0.1288422793149948,0.2536497414112091,0.15040728449821472,-0.13124187290668488,0.13382185995578766},{0.26991695165634155,0.34968143701553345,0.03248884156346321,0.00452945614233613,-0.017547020688652992},{0.08838368952274323,0.08424819260835648,-0.1782175898551941,-0.29037708044052124,-0.03488975763320923},{0.10642217844724655,-0.07251551747322083,-0.178937166929245,-0.23025287687778473,-0.1922941356897354}},{{0.18556025624275208,-0.08510919660329819,-0.001833104295656085,0.011614028364419937,0.12741954624652863},{0.12701581418514252,0.06255456805229187,0.03611467033624649,-0.013751078397035599,-0.015001479536294937},{0.13134139776229858,-0.031913477927446365,0.28665876388549805,0.051715072244405746,0.013617941178381443},{-0.23095004260540009,-0.025351688265800476,-0.008881461806595325,-0.06991731375455856,0.11996092647314072},{0.002696502720937133,0.07888871431350708,-0.1865120232105255,0.13578318059444427,-0.07582250982522964}}},{{{-0.10492975264787674,-0.14123086631298065,-0.11300759017467499,-0.07783834636211395,-0.10955274105072021},{-0.16948793828487396,-0.16947612166404724,-0.01766609400510788,-0.03474345803260803,-0.06578560173511505},{-0.17490142583847046,-0.16468864679336548,-0.08272022008895874,0.1091097742319107,0.02409493923187256},{0.04406297206878662,-0.09845058619976044,0.12205679714679718,0.13971726596355438,-0.03235256299376488},{0.00902965385466814,-0.11711393296718597,0.12673808634281158,0.08947569131851196,0.029175952076911926}},{{-0.11819618195295334,0.1854645162820816,0.5670644640922546,0.3073946237564087,0.09639676660299301},{-0.7373291254043579,-0.44772788882255554,-0.17953155934810638,-0.004179693292826414,-0.40747830271720886},{-0.7535110712051392,-0.10100413113832474,0.35604214668273926,-0.05291206017136574,-0.9570299386978149},{-0.497024267911911,-0.04991012439131737,0.03916705399751663,-0.09116287529468536,-1.0317656993865967},{-0.1951960027217865,0.08630756288766861,0.13193443417549133,0.3857247531414032,0.043884746730327606}},{{0.2215273529291153,0.1847066432237625,-0.04013172164559364,-0.6945551633834839,-0.2179664820432663},{0.2353811264038086,0.12213975936174393,-0.14512042701244354,0.07077714800834656,-0.024549372494220734},{-0.3445405960083008,0.23381683230400085,0.5901551246643066,0.46008679270744324,-0.12211231142282486},{-0.2216878980398178,-0.09515959769487381,0.06931015849113464,-0.11564481258392334,0.08573008328676224},{0.010642370209097862,-0.07202429324388504,-0.4277791976928711,-0.041727397590875626,0.06686491519212723}},{{0.015020912513136864,0.18905721604824066,0.4130518138408661,-0.19250796735286713,-0.7787577509880066},{-0.0656428188085556,0.06972521543502808,-0.13749322295188904,-0.3874433636665344,-0.8126918077468872},{-0.15005409717559814,0.03766176477074623,0.13455511629581451,0.009353348053991795,0.08261973410844803},{-0.8152901530265808,-0.2283163219690323,-0.12656795978546143,0.1795443892478943,0.22788198292255402},{-0.11924615502357483,-0.5477555394172668,-0.029461747035384178,0.010212295688688755,0.19052152335643768}},{{-0.07519461214542389,-0.12263381481170654,-0.046878911554813385,-0.09246423095464706,0.06173160299658775},{-0.09668978303670883,-0.09054718166589737,-0.12404125183820724,0.08535438776016235,0.04267971217632294},{-0.022725041955709457,0.09262487292289734,-0.03308063745498657,0.200030118227005,0.1429525762796402},{-0.036507800221443176,0.12531761825084686,-0.08853936195373535,0.07288902997970581,0.039664365351200104},{0.09690754860639572,0.06681263446807861,-0.029543008655309677,-0.11936534196138382,-0.0842619240283966}}},{{{-0.0029354949947446585,-0.01642690971493721,-0.04028866067528725,0.07882987707853317,-0.035450492054224014},{0.05348518118262291,-0.07770916074514389,-0.06531668454408646,0.04516389220952988,0.021394405514001846},{-0.00712521793320775,0.004177140537649393,-0.08017655462026596,0.02164158597588539,0.003097695531323552},{-0.012204209342598915,-0.039345379918813705,0.0440804585814476,-0.03327399119734764,0.03860500827431679},{-0.054433196783065796,-0.003256580326706171,-0.007796389050781727,-0.08037635684013367,8.476380753563717e-05}},{{0.04104581102728844,-0.02660822495818138,0.024609757587313652,-0.047638338059186935,-0.03839358314871788},{-0.0012172367423772812,0.03957386314868927,0.0012022993760183454,-0.04697079584002495,-0.05697796866297722},{-0.00833040103316307,-0.0667445957660675,0.0010644864523783326,-0.06222299858927727,-0.018405921757221222},{-0.02376287803053856,-0.03873412683606148,-0.03491552919149399,-0.05991416797041893,-0.05033014714717865},{-0.02369961515069008,0.021487940102815628,0.0714813843369484,-0.007286924868822098,-0.03460661694407463}},{{-0.062212612479925156,0.0010344948386773467,-0.02387571707367897,-0.007073996122926474,0.05460924655199051},{-0.017888933420181274,-0.02761198580265045,-0.013394464738667011,0.0038412169087678194,-0.028643842786550522},{-0.060367874801158905,-0.017151761800050735,-0.008667449466884136,0.03748835250735283,-0.019875532016158104},{-0.0445186048746109,-0.06656567007303238,-0.07666245102882385,-0.05579739809036255,-0.07237638533115387},{-0.03403426334261894,-0.06453860551118851,-0.012317479588091373,-0.07785048335790634,-0.06387481838464737}},{{0.07029284536838531,-0.013071521185338497,-0.0456397570669651,0.0014978247927501798,-0.08003386855125427},{0.028773989528417587,-0.02441059611737728,-0.013498438522219658,-0.03128603473305702,-0.036869458854198456},{-0.038865718990564346,-0.060034748166799545,-0.003728211857378483,-0.015088069252669811,0.04606739059090614},{-0.05883023515343666,-0.045809242874383926,-0.08035693317651749,-0.025515250861644745,-0.06133374571800232},{-0.018970875069499016,0.07984656095504761,-0.06002502515912056,-0.026344040408730507,-0.07239221036434174}},{{-0.04039088264107704,-0.012185757048428059,-0.05963817238807678,0.04587841406464577,0.039677683264017105},{-0.04104199260473251,0.04253937304019928,-0.08014508336782455,0.028598876670002937,0.045484840869903564},{-0.017070308327674866,-0.019570548087358475,-0.06371886283159256,0.03634371608495712,-0.01447238214313984},{0.0103282630443573,-0.054367661476135254,0.03724335506558418,0.03859667852520943,-0.030235154554247856},{0.02563737891614437,-0.06130792200565338,0.048460930585861206,0.03933781757950783,-0.007526644039899111}}},{{{-0.04516185075044632,-0.030907152220606804,-0.02961571514606476,0.02461252547800541,-0.07686274498701096},{0.04372219741344452,0.01778591051697731,-0.06624902784824371,-0.0673816129565239,-0.02685927227139473},{-0.022305918857455254,-0.0744796022772789,-0.014777536503970623,-0.008317739702761173,0.057465702295303345},{-0.0625218078494072,-0.030701659619808197,-0.056187354028224945,-0.02700818143785,0.07089585810899734},{-0.07235812395811081,-0.007617782335728407,-0.014333895407617092,-0.011515414342284203,-0.018389176577329636}},{{-0.039439477026462555,0.03201314061880112,0.001765645109117031,-0.0010738503187894821,0.0016460188198834658},{-0.01414872519671917,-0.05179149657487869,-0.023286212235689163,-0.07323518395423889,-0.028248637914657593},{-0.02879178710281849,0.01799699477851391,-0.02266300469636917,-0.008738428354263306,-0.031317636370658875},{-0.0235461238771677,-0.023142175748944283,-0.018807686865329742,-0.028537917882204056,-0.06847362965345383},{0.020445462316274643,-0.07158729434013367,0.04465149715542793,-0.02106441743671894,-0.04161955416202545}},{{-0.02945069968700409,-0.05586209148168564,-0.021921303123235703,-0.0644940584897995,-0.025926537811756134},{-0.07279536873102188,-0.052703361958265305,-0.05532049015164375,-0.0636422261595726,-0.0575111024081707},{-0.04680202528834343,-0.056571416556835175,-0.06796854734420776,-0.012031801044940948,-0.012333718128502369},{-0.05195115506649017,-0.021877337247133255,-0.049292370676994324,-0.047359347343444824,-0.03566765785217285},{-0.0662715882062912,-0.07318470627069473,-0.00825981143862009,-0.03234206512570381,-0.02775738574564457}},{{-0.03772217035293579,-0.00763367535546422,-0.07428966462612152,-0.05016745626926422,-0.013011006638407707},{-0.03570663183927536,-0.046970319002866745,-0.03634747862815857,-0.0700654610991478,-0.02705523744225502},{-0.03036430850625038,-0.006663493812084198,-0.040955062955617905,-0.030906403437256813,-0.0173337385058403},{-0.0005069960025139153,-0.01187689509242773,-0.020092176273465157,-0.018734553828835487,-0.046186257153749466},{-0.042983077466487885,-0.03252887353301048,-0.016425978392362595,-0.0044287825003266335,-0.0060035791248083115}},{{-0.014252875931560993,-0.02244850993156433,-0.00607363460585475,-0.051809389144182205,-0.01682424731552601},{-0.03062935546040535,0.0522221103310585,-0.0356377512216568,-0.006282970309257507,-0.06261149048805237},{-0.015873590484261513,0.07479143887758255,-0.04540642350912094,-0.07284083962440491,0.024734238162636757},{-0.002102637430652976,0.03046823851764202,-0.01776570826768875,-0.07532983273267746,-0.015385485254228115},{-0.011247280053794384,-0.018868016079068184,-0.05131307616829872,-0.04754005745053291,-0.009095140732824802}}},{{{-0.02271343395113945,-0.029228130355477333,-0.06689362227916718,-0.03961905464529991,-0.07930103689432144},{-0.07257688790559769,-0.050847310572862625,-0.006313864141702652,-0.004761482588946819,-0.07479994744062424},{0.010977094992995262,0.05409126728773117,-0.033570025116205215,0.07808004319667816,0.07778765261173248},{-0.021961938589811325,-0.038655076175928116,-0.053544096648693085,0.001584789832122624,0.0040740640833973885},{-0.057833608239889145,-0.03262701258063316,-0.05632562190294266,0.05843959003686905,0.05067313462495804}},{{0.014383767731487751,0.013883078470826149,-0.01157997827976942,0.003193588461726904,-0.033332597464323044},{0.01719292812049389,0.04502612724900246,-0.031092749908566475,-0.07407517731189728,-0.01109167281538248},{-0.03625376522541046,-0.007981120608747005,0.023322006687521935,-0.07233111560344696,0.04253409802913666},{-0.0198820773512125,-0.045858196914196014,0.0025308711919933558,-0.08025725185871124,0.016878290101885796},{-0.004149928689002991,-0.021015213802456856,-0.038728758692741394,0.004497984424233437,0.046613436192274094}},{{-0.054506976157426834,-0.0780957043170929,-0.06944055110216141,-0.00669569056481123,-0.014773392118513584},{-0.0013679064577445388,-0.03365260362625122,-0.005848117638379335,-0.04623842611908913,-0.0012024827301502228},{-0.07555731385946274,-0.024548593908548355,-0.07985081523656845,-0.004858117084950209,-0.05436159297823906},{-0.06066830828785896,-0.05803174152970314,-0.046372734010219574,-0.04120761901140213,-0.04633179306983948},{-0.004322183784097433,-0.07757486402988434,-0.04607072472572327,-0.07940922677516937,-0.056677840650081635}},{{-0.023833367973566055,-0.0757230669260025,-0.0018352376064285636,-0.024319076910614967,-0.0021899468265473843},{-0.07852449268102646,-0.005858160089701414,-0.07673883438110352,-0.07614606618881226,-0.0773458257317543},{-0.017849070951342583,-0.04205821081995964,-0.07466091960668564,-0.017972635105252266,-0.004031608812510967},{0.0013265362940728664,-0.03698280081152916,-0.06172599643468857,-0.06566122174263,-0.015129726380109787},{-0.035261981189250946,-0.014894161373376846,-0.07284710556268692,-0.00855252519249916,-0.021711315959692}},{{-0.011625061742961407,-0.05240720510482788,-0.026545964181423187,-0.054281625896692276,-0.033722780644893646},{0.04025508463382721,-0.0775732547044754,-0.010100909508764744,-0.0045613497495651245,0.0532429963350296},{0.029321089386940002,0.04465561732649803,-0.049140866845846176,-0.004450824111700058,0.06773007661104202},{0.018860720098018646,-0.040503766387701035,-0.02054535038769245,-0.04323915019631386,0.05878536403179169},{0.011518220417201519,-0.03269774466753006,-0.06294750422239304,0.03964553400874138,0.04151133447885513}}},{{{-0.05348611995577812,-0.06275324523448944,0.03879411518573761,-0.03831984102725983,-0.016401046887040138},{-0.07924723625183105,-0.0007428416865877807,-0.04365978762507439,-0.03265044093132019,0.0016975587932392955},{0.009480580687522888,-0.01263360120356083,-0.03144090622663498,-0.03430510684847832,0.041025590151548386},{0.022106651216745377,-0.06662392616271973,-0.06182632967829704,-6.82870404489222e-06,-0.0706750825047493},{-0.039622657001018524,-0.012445313856005669,-0.0789657011628151,-0.0246126689016819,-0.016157696023583412}},{{0.035902880132198334,-0.02670494094491005,-0.013195673935115337,0.0062208701856434345,0.006916728336364031},{-0.0019145727856084704,-0.0024746854323893785,0.0395129956305027,0.0006466620252467692,-0.03535390645265579},{-0.007172843907028437,0.03025883063673973,-0.010521287098526955,0.0064667691476643085,0.02156996726989746},{0.031005866825580597,-0.00880387518554926,-0.036591026932001114,-0.024684233590960503,-0.03301170468330383},{-0.01083778403699398,0.029903437942266464,-0.03584282100200653,0.005796582438051701,-0.03152169659733772}},{{-0.039404790848493576,-0.06180679798126221,0.03746978938579559,-0.03755664452910423,-0.008124894462525845},{-0.030742216855287552,-0.00840392429381609,0.0355842150747776,0.0016888768877834082,-0.07654380798339844},{-0.0166886355727911,-0.04931823909282684,-0.024462755769491196,-0.040761470794677734,-0.011217424646019936},{-0.0276772603392601,-0.06669531762599945,-0.06371238082647324,-0.007165657356381416,-0.012022063136100769},{-0.05250300094485283,-0.0015684169484302402,-0.017468921840190887,-0.03268015757203102,-0.0304611474275589}},{{0.014805234968662262,0.022441046312451363,-0.017585832625627518,-0.02332252450287342,0.0271659716963768},{0.01883542910218239,0.002687077270820737,0.024315789341926575,0.03290052339434624,0.005090690217912197},{-0.026476142928004265,-0.0028271968476474285,-0.041049811989068985,-0.028149431571364403,-0.01078037265688181},{-0.03735179081559181,-0.030783990398049355,-0.0029787435196340084,-0.03726986050605774,0.01270791795104742},{0.010995212942361832,-0.023674292489886284,0.016624411568045616,-0.008239658549427986,-0.018043499439954758}},{{0.004180733114480972,0.03922680392861366,-0.03755757585167885,0.02602786011993885,0.029381543397903442},{-0.0011476174695417285,-0.001845228485763073,0.038958415389060974,0.029383355751633644,-0.01595652662217617},{-0.025724388659000397,-0.03450818359851837,-0.07348491996526718,0.0198261346668005,0.0013152119936421514},{0.02109476923942566,-0.0037435567937791348,-0.002804360818117857,-0.04003520682454109,0.013534772209823132},{-0.03793670982122421,0.009443524293601513,-0.03346645459532738,-0.0018069009529426694,-0.037827812135219574}}},{{{-0.010297332890331745,5.719708860851824e-05,-0.053192462772130966,-0.00996203999966383,-0.0664108619093895},{-0.04916718974709511,-0.02401142008602619,-0.0353793166577816,-0.023943960666656494,-0.0035594957880675793},{-0.028412654995918274,-0.04761392995715141,0.0008010512683540583,-0.0025795463006943464,-0.06510911881923676},{-0.07787778228521347,-0.020694462582468987,-0.018966123461723328,-0.045972030609846115,-0.014749394729733467},{-0.036070600152015686,-0.06442725658416748,-0.04549701511859894,-0.06697350740432739,-0.03532426431775093}},{{0.025429027155041695,0.040975723415613174,0.00017813072190620005,0.00503011979162693,-0.018440866842865944},{0.005114092957228422,-0.010765419341623783,-0.013580198399722576,0.011960340663790703,-0.02039751224219799},{-0.011566229164600372,-0.005981747526675463,-0.029716474935412407,-0.022468753159046173,0.03647426888346672},{-0.03534245491027832,0.01726902648806572,-0.005907832644879818,0.02599303238093853,-0.03241579234600067},{-0.003033811692148447,0.018375437706708908,0.025138728320598602,-0.01660328358411789,0.005639581009745598}},{{-0.03699040785431862,0.04059166461229324,0.025115104392170906,0.03577650338411331,-0.005646680016070604},{0.04082803055644035,-0.03226393833756447,-0.015032236464321613,-0.027422362938523293,0.0008139981655403972},{0.015843138098716736,0.023705782368779182,-0.005941576790064573,0.0346672385931015,-0.03289402648806572},{0.01973063312470913,-0.008434243500232697,0.03441183269023895,-0.03749211132526398,-0.035943564027547836},{-0.018748890608549118,-0.0072163064032793045,0.0002536479150876403,-0.030590331181883812,-0.003252618946135044}},{{-0.0015264428220689297,-0.03962196037173271,0.020315038040280342,0.004091369453817606,0.01949736475944519},{-0.02847285196185112,0.011182840913534164,-0.031898804008960724,0.008265886455774307,-0.03678532689809799},{0.002005985239520669,-0.026412811130285263,-0.016596335917711258,-0.028336023911833763,-0.02693633921444416},{-0.03807276114821434,-0.03566547855734825,0.03973278030753136,0.037803903222084045,0.01303748320788145},{0.0019220224348828197,-0.009306429885327816,-0.0381086990237236,-0.03603297472000122,0.03618497774004936}},{{-0.03170923516154289,-0.03342253342270851,-0.04088161885738373,-0.02213410846889019,-0.03208376467227936},{-0.041400209069252014,-0.06946469843387604,-0.07186857610940933,-0.05751451104879379,-0.040370628237724304},{-0.07464784383773804,-0.001199811464175582,-0.0714958906173706,-0.018885986879467964,-0.021389825269579887},{-0.05797348544001579,-0.07821427285671234,-0.04042595624923706,-0.03594503924250603,-0.0683058425784111},{-0.05579163134098053,-0.005494742654263973,-0.008861744776368141,-0.04723942279815674,-0.03550142049789429}}},{{{-0.04913224279880524,-0.05266553536057472,-0.06912696361541748,-0.017253629863262177,-0.05858982354402542},{-0.00448577618226409,-0.021517589688301086,-0.013615347445011139,-0.06325837969779968,-0.01331457868218422},{0.07964960485696793,-0.0022887226659804583,-0.07415036112070084,-0.05644454434514046,-0.01698884554207325},{0.034278277307748795,-0.06412042677402496,-0.071653813123703,-0.013931593857705593,0.07027617841959},{-0.044629476964473724,-0.05208180844783783,-0.005358237307518721,-0.005820099730044603,0.007098861504346132}},{{-0.02619370073080063,-0.017971456050872803,0.03311910852789879,0.042141761630773544,-0.012816932052373886},{0.0029472464229911566,0.05514279380440712,-0.04536346718668938,0.08009856939315796,-0.00761311175301671},{0.008982122875750065,-0.02048477530479431,-0.002917711855843663,-0.06918877363204956,-0.05715121328830719},{-0.02181367389857769,0.0002909910981543362,-0.03877227008342743,-0.008549715392291546,-0.050532374531030655},{0.01805180497467518,-0.01379251480102539,-0.07216186821460724,-0.04585191607475281,-0.001917332992888987}},{{-0.05073250085115433,-0.04276498407125473,-0.030588768422603607,-0.06422466784715652,-0.07985614985227585},{-0.07808300107717514,-0.03175532817840576,-0.01202308852225542,-0.019986066967248917,-0.009572663344442844},{-0.051920052617788315,-0.061218369752168655,-0.01785247214138508,-0.02126406878232956,-0.04522320255637169},{-0.03218885138630867,-0.045534130185842514,-0.05512895807623863,-0.05573488399386406,-0.0071749198250472546},{-0.019357094541192055,-0.04750780761241913,-0.004859887529164553,-0.01345072966068983,-0.0438971109688282}},{{-0.005006982479244471,-0.03948242962360382,-0.02623012289404869,-0.008005269803106785,0.00020999644766561687},{0.00047436426393687725,-0.06097659096121788,-0.052637092769145966,-0.019033264368772507,-0.01598966121673584},{-0.011347964406013489,-0.009666888043284416,-0.009561453945934772,-0.05722487345337868,-0.007009582128375769},{-0.0640069767832756,-0.04635296016931534,-0.027135169133543968,-0.005395811516791582,-0.03392603620886803},{-0.034589916467666626,-0.06765581667423248,-0.06012379378080368,-0.019265104085206985,-0.0038687638007104397}},{{-0.024388868361711502,-0.07255205512046814,-0.05159662663936615,-0.0622447244822979,-0.02352203242480755},{0.021853435784578323,-0.004396509379148483,-0.05774267017841339,-0.023731345310807228,-0.010176311247050762},{0.026034744456410408,-0.056335221976041794,-0.07709045708179474,-0.06308365613222122,0.025349674746394157},{0.005203070119023323,-0.04117061197757721,-0.03134019672870636,-0.020234711468219757,-0.02225472405552864},{0.032419558614492416,-0.04165339469909668,-0.0798710435628891,-0.0676889419555664,-0.07406415045261383}}},{{{0.0057486980222165585,-0.0048567382618784904,-0.002624962944537401,0.06601855903863907,-0.052263468503952026},{0.033849261701107025,0.05276491865515709,0.07148869335651398,0.0600418746471405,-0.061758819967508316},{-0.07638835906982422,-0.04188815876841545,-0.04435248300433159,-0.052889857441186905,0.05809715390205383},{0.01242020633071661,-0.05791880190372467,-0.06845907121896744,-0.023059286177158356,-0.003210035152733326},{0.04849676042795181,0.008797435089945793,0.04805323854088783,-0.026561513543128967,-0.0022686978336423635}},{{0.02360234409570694,-0.021295856684446335,-0.02477387525141239,-0.01826924830675125,0.01862727850675583},{-0.02050577849149704,-0.014296476729214191,0.004361096769571304,-0.05846019089221954,-0.04289529472589493},{0.03214936703443527,-0.0011636987328529358,0.021067438647150993,-0.020144760608673096,-0.05606754124164581},{0.0206382405012846,0.009017100557684898,-0.0010251878993585706,-0.008785766549408436,-0.029011594131588936},{0.02697908878326416,0.03847886994481087,-0.07247484475374222,-0.07159291207790375,-0.04720441997051239}},{{-0.03211517259478569,-0.055416256189346313,-0.07708220928907394,-0.04653119295835495,-0.04949948191642761},{-0.01751936413347721,-0.06745028495788574,-0.014763017185032368,-0.022463031113147736,-0.06614170968532562},{0.015376761555671692,-0.010833253152668476,-0.06027599796652794,-0.020507248118519783,-0.01835877075791359},{-0.07317900657653809,-0.012560823000967503,-0.03051670454442501,-0.05208234116435051,-0.07644462585449219},{0.03444841131567955,-0.07849500328302383,-0.07530422508716583,-0.011111070401966572,-0.06720162183046341}},{{-0.019845519214868546,-0.054093848913908005,0.0007095334003679454,-0.02748952992260456,-0.019768837839365005},{0.001437054481357336,-0.054367922246456146,-0.008877871558070183,-0.031614750623703,0.03740858659148216},{0.06575308740139008,-0.015579130500555038,-0.07944381982088089,-0.06121554225683212,-0.053568724542856216},{0.025531364604830742,-0.02890590764582157,-0.01746426150202751,-0.004101925995200872,-0.007832369767129421},{-0.008924024179577827,-0.04395762458443642,0.001467705937102437,-0.007005344144999981,-0.029900990426540375}},{{-0.024044550955295563,0.03476934880018234,-0.03753532096743584,0.013397484086453915,-0.06946767121553421},{-0.073468878865242,0.015559556894004345,0.029039906337857246,0.028263544663786888,-0.0421609953045845},{-0.01945066638290882,0.037953931838274,-0.00733480229973793,-0.04174376279115677,0.03278359770774841},{0.03572731092572212,0.058809708803892136,-0.012304980307817459,-0.07124394178390503,0.05535191670060158},{-0.032794561237096786,-0.00019499563495628536,0.03697358816862106,-0.07101602852344513,0.06099530681967735}}},{{{0.10347403585910797,0.04894517362117767,0.023607773706316948,-0.041336651891469955,-0.030083993449807167},{-0.0835740938782692,-0.1259826272726059,-0.019056126475334167,0.029018044471740723,0.03951014205813408},{0.08423653990030289,-0.029092034325003624,-0.0559120699763298,0.017410168424248695,-0.05830959603190422},{-0.03303574398159981,0.05624246969819069,0.011978761292994022,0.031886011362075806,-0.01570039801299572},{-0.0271119624376297,0.0008791208965703845,-0.05657435953617096,-0.06759461760520935,-0.049086347222328186}},{{-0.031974539160728455,-0.07502681761980057,0.0009785267757251859,0.13862399756908417,0.049734555184841156},{0.12512120604515076,0.08242867141962051,0.11056918650865555,0.07314049452543259,-0.15843409299850464},{-0.16644717752933502,-0.03429828956723213,-0.000178879767190665,0.2156149446964264,-0.051571205258369446},{0.12233256548643112,0.12831425666809082,-0.04639701545238495,-0.1801307499408722,-0.06762394309043884},{0.2607579529285431,-0.26365017890930176,-0.2536068558692932,0.24277222156524658,0.13545329868793488}},{{-0.10466758161783218,-0.30191856622695923,-0.32270824909210205,-0.38750219345092773,-0.09706638008356094},{0.07420910894870758,0.03312943875789642,-0.14240328967571259,-0.13767394423484802,0.15970605611801147},{0.02610594592988491,0.06652568280696869,0.3016326129436493,0.15095193684101105,0.0600845105946064},{-0.030723297968506813,-0.30855849385261536,-0.02652798779308796,-0.05100005865097046,-0.1269511729478836},{-0.12204913794994354,0.31908631324768066,0.10917045176029205,0.10953545570373535,0.05932777747511864}},{{-0.14013513922691345,0.0007470244891010225,0.1562083214521408,-0.1359514445066452,-0.2207358181476593},{-0.031209787353873253,0.07040605694055557,0.032013311982154846,-0.032736342400312424,0.1965036243200302},{-0.014623104594647884,0.02781243808567524,-0.04046440124511719,0.06208891421556473,0.010426471009850502},{-0.15461142361164093,0.16878968477249146,-0.06412031501531601,0.010145497508347034,-0.013571861200034618},{-0.03988944739103317,0.06187368556857109,-0.07658263295888901,-0.12474022805690765,-0.1790534108877182}},{{-0.014192755334079266,-0.01379341073334217,0.025189030915498734,0.03303328901529312,-0.027198784053325653},{-0.00506413821130991,0.023209426552057266,-0.028674764558672905,-0.06428416818380356,0.0031747682951390743},{-0.011113116517663002,0.0722135677933693,-0.04406119883060455,0.01107120793312788,-0.0038998073432594538},{-0.0672818198800087,-0.03725038468837738,-0.04584824666380882,0.017189355567097664,-0.05734201520681381},{-0.036894991993904114,-0.048747699707746506,0.04183873161673546,-0.03142311051487923,-0.07821779698133469}}},{{{-0.025151655077934265,0.030004391446709633,0.022490566596388817,-0.03011777065694332,0.018881939351558685},{-0.04825466126203537,-0.07990474253892899,-0.01815875619649887,-0.020634504035115242,0.018005887046456337},{-0.03302787244319916,-0.027074020355939865,-0.011470887809991837,-0.0241091288626194,-0.04030374810099602},{0.031751152127981186,0.023488657549023628,0.018036944791674614,0.016110219061374664,-0.016255563125014305},{0.011931408196687698,-0.0359414704144001,-0.03924823924899101,0.03399540111422539,-0.0399937704205513}},{{-1.9902290659956634e-06,0.0022480504121631384,0.036388739943504333,-0.024119019508361816,-0.03950218856334686},{-0.020238490775227547,0.006877854000777006,-0.005433713551610708,-0.06420242041349411,-0.03439010679721832},{0.0015365007566288114,0.029095852747559547,0.031454384326934814,0.034287746995687485,0.0008836402557790279},{-0.02362803928554058,-0.03042195551097393,-0.0021641822531819344,-0.031122390180826187,0.02812138944864273},{-0.011324918828904629,-0.017436761409044266,0.028645193204283714,0.009117970243096352,0.0053693559020757675}},{{-0.03390150144696236,-0.021973298862576485,-0.054961878806352615,-0.07545068114995956,-0.02680724300444126},{-0.026113731786608696,-0.037964534014463425,-0.04026104882359505,-0.010946270078420639,-0.06654906272888184},{-0.06953755766153336,-0.06571696698665619,-0.05971570685505867,-0.05111318454146385,-0.031177159398794174},{-0.03813638538122177,-0.028896482661366463,-0.043025195598602295,-0.0464058518409729,-0.020611224696040154},{-0.006217405665665865,-0.03934508189558983,-0.013655658811330795,-0.0049203187227249146,-0.03584514185786247}},{{-0.071219302713871,-0.0158779788762331,-0.028983047232031822,-0.058702558279037476,-0.05552894249558449},{0.001834177877753973,-0.04840144142508507,-0.039728425443172455,-0.0033067052718251944,-0.07347524166107178},{-0.07412151992321014,-0.07116208225488663,-0.03876081481575966,-0.03414304926991463,-0.059998881071805954},{-0.03837594389915466,-0.05692116171121597,-0.0033972845412790775,-0.019192922860383987,-0.006198239978402853},{-0.06321502476930618,-0.04205829277634621,-0.06244845688343048,-0.06338358670473099,-0.022256653755903244}},{{0.02420053258538246,-0.023220960050821304,-0.00011664698831737041,-0.016345715150237083,-0.04629720747470856},{-0.030588878318667412,-0.029691943898797035,-0.02266133762896061,-0.04742329567670822,-0.038378164172172546},{-0.037972670048475266,0.03380136936903,-0.016309717670083046,-0.04224321246147156,-0.020895589143037796},{0.0021789218299090862,0.03889765962958336,-0.0601368173956871,-0.017178595066070557,-0.008684697560966015},{-0.007931342348456383,-0.015623023733496666,-0.019720353186130524,-0.013533789664506912,-0.016253547742962837}}},{{{0.04514792189002037,-0.0158454030752182,-0.06270039081573486,-0.07312735915184021,-0.026724575087428093},{-0.05106097087264061,-0.01181089412420988,-0.01649557799100876,-0.077713243663311,-0.03352264687418938},{-0.032693974673748016,-0.03836828097701073,-0.029738571494817734,0.023235103115439415,-0.017536789178848267},{-0.06497693061828613,-0.042704951018095016,-0.03290688991546631,-0.07270394265651703,-0.027308577671647072},{-0.020849360153079033,-0.04251418262720108,-0.04468440264463425,0.04357479140162468,-0.07359755039215088}},{{0.010986638255417347,-0.015481716953217983,0.03744371980428696,0.005836232099682093,0.004686068743467331},{0.011953646317124367,0.009325366467237473,0.025651715695858,-0.022918416187167168,-0.024585960432887077},{0.016143860295414925,0.014514857903122902,0.03873400390148163,0.026591967791318893,0.000624871056061238},{-0.007050866726785898,-0.013530166819691658,-0.0005190987139940262,-0.00078909273725003,0.0011735287262126803},{0.005635423585772514,0.036182500422000885,-0.019962074235081673,-0.03692396357655525,0.027957746759057045}},{{-0.05081969499588013,-0.07114351540803909,-0.005903694313019514,-0.050445809960365295,-0.008802667260169983},{-0.050700508058071136,-0.03805309906601906,-0.05518563464283943,-0.07612486183643341,-0.06495321542024612},{-0.014474720694124699,-0.03939327225089073,-0.06546514481306076,-0.06879957765340805,-0.02531297132372856},{-0.015608234331011772,-0.011589215137064457,-0.03168259933590889,-0.000930473324842751,-0.011869209818542004},{-0.0699412003159523,-0.02519039437174797,-0.03728826344013214,-0.028036784380674362,-0.010334119200706482}},{{0.025295818224549294,-0.001859105657786131,-0.02403818629682064,0.016303004696965218,0.022048287093639374},{-0.03974519670009613,-0.03793146088719368,0.016059555113315582,-0.004082702565938234,-0.01548671629279852},{0.03850042074918747,0.0049242679961025715,0.019315121695399284,0.008796271868050098,-0.01794029213488102},{-0.026177648454904556,0.009434808045625687,-0.020566299557685852,-0.004508289974182844,0.006491281557828188},{0.020133625715970993,-0.0195497814565897,-0.014573068358004093,-0.021461093798279762,-0.007373979780822992}},{{0.03906423598527908,0.004323352128267288,0.02072652243077755,-0.03425023704767227,-0.009801671840250492},{0.022443430498242378,-0.005434274673461914,0.02063603885471821,0.017527977004647255,-0.021223174408078194},{-0.033459946513175964,-0.01580977812409401,-0.02785305120050907,0.0034924300853163004,-0.03176048398017883},{-0.00048367169802077115,-0.032790202647447586,-0.03613852709531784,0.01372647937387228,0.03033428266644478},{-0.027416950091719627,0.03393714129924774,0.02180168591439724,-0.002576099941506982,0.020637230947613716}}},{{{0.04541078954935074,-0.006629093550145626,-0.015273485332727432,0.08852151781320572,-0.044809430837631226},{-0.023957720026373863,0.0069581265561282635,-0.026778949424624443,0.017920948565006256,-0.003919211216270924},{-0.04655491188168526,-0.07178610563278198,-0.0629163607954979,0.017493434250354767,0.041341885924339294},{0.01878661848604679,0.023890165612101555,-0.0878899022936821,0.0710967481136322,0.04233615845441818},{0.13047650456428528,0.11516854166984558,-0.059924330562353134,-0.00672149145975709,-0.009305150248110294}},{{0.021431894972920418,-0.004089757334440947,0.020689040422439575,-0.039312127977609634,0.06179622933268547},{0.018877239897847176,-0.06682191789150238,0.07396002113819122,-0.02495916746556759,-0.020354626700282097},{0.012170594185590744,0.01633632741868496,0.0007412680424749851,-0.029589112848043442,0.03645125404000282},{-0.01953539438545704,0.04127061739563942,0.04095512628555298,-0.01919703744351864,0.09687428176403046},{-0.032384224236011505,0.010980893857777119,0.04720401018857956,0.01926448941230774,0.011188842356204987}},{{-0.025192538276314735,-0.00286625768058002,-0.03718104958534241,-0.09339654445648193,-0.0743488222360611},{-0.06985659152269363,-0.006174957845360041,-0.02896164357662201,-0.05187061429023743,-0.07823207974433899},{-0.038822293281555176,-0.07747004926204681,-0.0580076202750206,0.046886879950761795,-0.005418351851403713},{0.02285567857325077,0.005576693918555975,0.007269481662660837,-0.022600511088967323,-0.008804872632026672},{0.04060368239879608,-0.043782494962215424,-0.05031627416610718,-0.04733646288514137,-0.014916417188942432}},{{-0.03509674221277237,0.0014153777156025171,-0.05728255212306976,-0.027574429288506508,-0.02270588092505932},{-0.07085105031728745,-0.006968420464545488,-0.061387185007333755,0.020352302119135857,-0.030978288501501083},{-0.005141021218150854,-0.03443120792508125,-0.06716475635766983,0.0071289255283772945,-0.0708809494972229},{-0.003739521838724613,-0.047442901879549026,-0.04757113754749298,-0.02317141927778721,-0.0044110664166510105},{-0.021830521523952484,-0.007074619177728891,-0.036506447941064835,-0.04928895831108093,-0.05531803146004677}},{{0.0044225361198186874,0.025881033390760422,-0.020808257162570953,0.038522869348526,-0.013332845643162727},{-0.04139353707432747,0.0150756249204278,-0.01165738981217146,-0.0472903810441494,0.012612296268343925},{-0.051527854055166245,0.007598144933581352,-0.0221127700060606,-0.036263059824705124,-0.01308001484721899},{-0.02665036730468273,0.04602580517530441,-0.06405527889728546,-0.06717411428689957,0.042570553719997406},{0.015469515696167946,-0.007372859865427017,-0.04709913209080696,-0.034812066704034805,-0.016866229474544525}}},{{{0.04666702821850777,-0.003313289023935795,-0.05551520362496376,-0.0739423856139183,-0.0621943473815918},{-0.029317382723093033,-0.009215544909238815,-0.03802258521318436,-0.04491659626364708,-0.05389748513698578},{-0.023928923532366753,-0.03008297272026539,-0.06926866620779037,-0.004777353722602129,0.0719403326511383},{0.0031454924028366804,-0.06957448273897171,-0.026054900139570236,-0.027870401740074158,0.021513912826776505},{-0.02412252314388752,0.03142232820391655,-0.0002567532064858824,-0.010409138165414333,-0.005493289791047573}},{{-0.016233185306191444,-0.02304493449628353,-0.03668125346302986,0.0006276305648498237,-0.012046554125845432},{0.003819225588813424,-0.01719285361468792,-0.03478673845529556,-0.060773443430662155,-0.05166492611169815},{0.00668460363522172,-0.02242511510848999,0.03342308849096298,-0.039229314774274826,-0.05832211673259735},{-0.002512495033442974,0.06557171046733856,-0.035109248012304306,-0.07086483389139175,-0.07831346243619919},{-0.005580892786383629,-0.036635369062423706,0.0013358703581616282,-0.0694369375705719,-0.05900090932846069}},{{-0.0032302704639732838,-0.06103017181158066,-0.04461583495140076,-0.026807205751538277,-0.044890645891427994},{-0.0587775781750679,-0.01891031302511692,-0.06856422871351242,-0.0313064269721508,-0.006705481093376875},{-0.05905262753367424,-0.0629778578877449,-0.040595781058073044,-0.04802367463707924,-0.007081431336700916},{0.0012910043587908149,-0.02425720915198326,-0.021658124402165413,-0.034009624272584915,-0.06363179534673691},{-0.008181328885257244,-0.01849336177110672,-0.05763481557369232,-0.04898526519536972,0.0017091726185753942}},{{-0.07237497717142105,-0.028721284121274948,-0.07392973452806473,-0.005234190262854099,-0.00045471457997336984},{-0.042753830552101135,-0.07024786621332169,-0.06926852464675903,-0.03577188029885292,-0.035649802535772324},{-0.022681493312120438,-0.044971831142902374,-0.031143171712756157,-0.01711224392056465,0.0011029341258108616},{-0.014694279059767723,-0.002193153603002429,-0.0662335455417633,-0.005398249253630638,-0.044321298599243164},{-0.07745013386011124,-0.058414120227098465,-0.02197202295064926,-0.0017628405475988984,-0.025009559467434883}},{{-0.031153954565525055,0.05088861659169197,-0.010963819921016693,0.020140094682574272,-0.04709642007946968},{-0.022000011056661606,0.0006463840254582465,-0.08013694733381271,-0.004782495088875294,0.027306098490953445},{-0.04680478945374489,0.032204605638980865,-0.055852558463811874,-0.008152133785188198,0.016227615997195244},{0.004787689074873924,-0.06245708465576172,-0.07053317129611969,-0.017077039927244186,0.03181885927915573},{0.021037451922893524,-0.03506293147802353,0.00017817082698456943,-0.07023341208696365,0.004880997352302074}}},{{{-0.6568353772163391,-1.4025602340698242,-0.7162859439849854,-0.11153090745210648,-0.048307497054338455},{-0.16892555356025696,-0.793706476688385,-0.28678157925605774,-0.0040569063276052475,-0.36341801285743713},{-0.0767960473895073,-0.7064911127090454,0.03046378493309021,0.08747401088476181,-0.3414084315299988},{-0.31872767210006714,-0.561721682548523,0.008710854686796665,0.49458828568458557,-0.2443544864654541},{-0.07485032081604004,0.03620107099413872,0.048718519508838654,0.6601800918579102,-0.5503197908401489}},{{0.3146407902240753,-0.04842408746480942,0.1458476185798645,0.16518867015838623,-0.2482195496559143},{-0.07326693832874298,-0.5158276557922363,-0.1836605668067932,0.7067098617553711,-0.11397220194339752},{0.26983705163002014,0.33833110332489014,-0.09530381858348846,-0.070472851395607,-0.32314494252204895},{0.10796135663986206,-0.1782522350549698,-0.18571315705776215,0.0967663824558258,-0.0077627189457416534},{-0.3341880738735199,-0.1414209008216858,-0.12762269377708435,0.1261339783668518,-0.04582754895091057}},{{-0.17135240137577057,-0.45975276827812195,0.3307464122772217,0.388456791639328,0.42995792627334595},{0.027308538556098938,0.18717901408672333,-0.2100761979818344,0.06869380176067352,0.07132703065872192},{-0.14357906579971313,0.05238436535000801,0.07070242613554001,0.4293782413005829,0.09338697046041489},{-0.3198821544647217,0.07923690974712372,0.003474915400147438,0.27162328362464905,-0.10450280457735062},{-0.2648494839668274,0.11860716342926025,0.18168728053569794,-0.08344817906618118,-0.18286818265914917}},{{0.0367240309715271,-0.06240531802177429,0.04829689487814903,0.1569029688835144,-0.047625891864299774},{0.13198868930339813,0.3428857624530792,0.06997408717870712,-0.1210421621799469,0.08387912809848785},{-0.08310064673423767,0.06708022207021713,0.152191162109375,0.15052036941051483,0.1870807707309723},{-0.007671562023460865,0.18963071703910828,0.21648220717906952,0.002639497397467494,-0.08600690960884094},{-0.014321631751954556,0.08342898637056351,-0.01965031772851944,-0.4110510051250458,0.07638562470674515}},{{0.205421581864357,0.3250613510608673,0.38572782278060913,0.36905840039253235,0.1130150854587555},{-0.09181278198957443,-0.3004606068134308,-0.012645508162677288,0.23573172092437744,0.029262548312544823},{-0.07402271777391434,-0.9677828550338745,0.020912736654281616,-0.04333874583244324,-0.025237850844860077},{-0.7796189785003662,-0.4128362834453583,0.29220330715179443,0.16532866656780243,-0.10085330158472061},{-0.31202757358551025,0.018541384488344193,-0.10635603219270706,-0.30875325202941895,0.44201967120170593}}},{{{-0.003170752665027976,-0.043815676122903824,-0.0753556564450264,0.04024368152022362,0.011065533384680748},{-0.017603984102606773,0.0407504141330719,-0.07145269960165024,-0.008859285153448582,0.0038627011235803366},{0.03340158239006996,0.014920872636139393,-0.07368231564760208,-0.030083075165748596,-0.023294776678085327},{0.0032320856116712093,-0.01026923581957817,0.02012767270207405,0.009109499864280224,-0.0319681279361248},{0.01655285619199276,-0.01568048633635044,0.03231215476989746,-0.03548607602715492,-0.05053115263581276}},{{0.026569789275527,0.010864796116948128,-0.001934756524860859,0.02853066474199295,-0.007978389970958233},{0.03742219880223274,-0.030352143570780754,-0.02422891929745674,-0.007051638327538967,-0.007466173730790615},{-0.014886385761201382,0.018823133781552315,-0.008605487644672394,0.007405593991279602,0.01716718077659607},{0.03633684292435646,-0.002257388550788164,-0.04358198866248131,-0.016912681981921196,0.009683988057076931},{-0.0341462641954422,-0.03438500314950943,-0.01302298903465271,-0.061406057327985764,-0.020619865506887436}},{{-0.04867159575223923,-0.046545837074518204,-0.013152203522622585,-0.06986688077449799,-0.05228837952017784},{-0.06481381505727768,-0.03870473802089691,-0.03244203329086304,-0.029038414359092712,-0.007074038498103619},{-0.03218600153923035,-0.04085482656955719,-0.06936181336641312,0.004696777556091547,-0.02937472052872181},{-0.08032845705747604,-0.0373658686876297,-0.07865330576896667,-0.018497249111533165,-0.04469786956906319},{-0.02474072575569153,-0.041569389402866364,-0.04094121232628822,-0.06890344619750977,-0.0016421463806182146}},{{-0.009358095936477184,-0.07187401503324509,-0.05082717537879944,-0.04245934262871742,-0.02019711211323738},{-0.06869365274906158,-0.031975675374269485,-0.04553823173046112,-0.027155401185154915,-0.021594859659671783},{-0.04236920177936554,-0.023042207583785057,-0.07925302535295486,-0.05171621963381767,-0.07172875851392746},{-0.051665980368852615,-0.00639686593785882,-0.07411522418260574,-0.014760499820113182,-0.07318053394556046},{-0.030450521036982536,-0.07627790421247482,-0.037646401673555374,-0.0742512196302414,-0.021703556180000305}},{{-0.040312305092811584,-0.059339702129364014,-0.03185906633734703,-0.00013243823195807636,0.025091759860515594},{0.03884218633174896,0.04043279215693474,0.035613998770713806,0.0012564606731757522,0.025764133781194687},{-0.007086670026183128,-0.007459123618900776,-0.07730715721845627,-0.03771122545003891,-0.0004599439271260053},{0.0030664398800581694,-0.023015571758151054,-0.01791231520473957,-0.0017339461483061314,-0.034744925796985626},{0.0383262075483799,-0.042452048510313034,-0.05334177613258362,-0.017668146640062332,-0.01756397634744644}}},{{{-0.05754359811544418,-0.06808379292488098,-0.010090887546539307,-0.027003267779946327,-0.024427948519587517},{0.0714082345366478,-0.014416636899113655,0.050732698291540146,0.008409017696976662,-0.07710719108581543},{0.004521797876805067,-0.10481633245944977,-0.0050720698200166225,-0.0047754691913723946,-0.03596935421228409},{-0.08555972576141357,-0.08375844359397888,-0.030004998669028282,0.01948115974664688,-0.040828581899404526},{-0.06812166422605515,-0.04125742241740227,0.008398289792239666,0.01896057277917862,-0.0778682678937912}},{{-0.010773959569633007,0.007073815446346998,0.1942788064479828,0.12671221792697906,0.039078548550605774},{0.03851683437824249,0.1335521936416626,-0.021015482023358345,-0.02309541217982769,0.10571881383657455},{-0.0759011059999466,0.056730445474386215,0.04136356711387634,-0.16836847364902496,-0.31929636001586914},{-0.2878245711326599,-0.01402806956321001,-0.15703612565994263,-0.25824475288391113,-0.13003219664096832},{0.1413225680589676,0.029748670756816864,-0.13066750764846802,-0.04634269326925278,0.113485187292099}},{{-0.011429181322455406,-0.08354690670967102,-0.12188664078712463,-0.3276098668575287,-0.0944787785410881},{-0.1573382467031479,-0.10714114457368851,-0.015357769094407558,-0.1598096638917923,-0.043981604278087616},{0.020464133471250534,0.17166559398174286,0.3240008056163788,-0.017975591123104095,0.07498165965080261},{0.15339624881744385,-0.07793765515089035,-0.17847079038619995,-0.04221305251121521,0.2095590978860855},{-0.005487075541168451,0.22672531008720398,0.28860199451446533,0.1588282436132431,0.10417220741510391}},{{-0.06739820539951324,-0.015545682981610298,0.04775591567158699,0.02024601213634014,0.020926663652062416},{-0.08008788526058197,0.005969411693513393,-0.12136442214250565,0.020025188103318214,0.07756505161523819},{-0.009872828610241413,0.15042231976985931,0.017235133796930313,0.025033174082636833,-0.02885620854794979},{0.22514361143112183,0.11407644301652908,-0.07322949916124344,0.026796618476510048,0.1308228075504303},{-0.024314798414707184,0.08510007709264755,-0.04800083860754967,-0.06545434892177582,-0.02155197411775589}},{{0.011587325483560562,-0.08714622259140015,-0.07873488962650299,-0.14118100702762604,-0.050797805190086365},{0.051559653133153915,-0.02625480853021145,-0.013016853481531143,-0.15409806370735168,0.0021163951605558395},{-0.048683468252420425,0.09140142798423767,-0.0339643619954586,-0.08074234426021576,-0.05197365954518318},{-0.07670573890209198,-0.09139897674322128,-0.05149638652801514,-0.008976495824754238,-0.05809153616428375},{-0.09118355065584183,-0.12086604535579681,-0.00918620079755783,0.12236981093883514,-0.08215844631195068}}},{{{-0.03980385139584541,-0.027973411604762077,0.02398063987493515,-0.020098593086004257,0.033044882118701935},{-0.044704992324113846,-0.028977053239941597,0.00255507486872375,-0.05634453892707825,-0.07112322002649307},{-0.11226384341716766,-0.04646856710314751,0.007098826579749584,0.028256133198738098,-0.045906148850917816},{-0.017418818548321724,0.01478591188788414,0.0072354506701231,0.04708734527230263,-0.0738724023103714},{0.041121672838926315,-0.020448876544833183,-0.02552966959774494,0.023900359869003296,-0.02957112528383732}},{{-0.22955717146396637,-0.21326155960559845,-0.05623967945575714,0.1416802853345871,0.13053755462169647},{-0.3818308115005493,-0.03166840970516205,0.006492345593869686,-0.04712790623307228,-0.32756826281547546},{0.05168449878692627,0.08134222775697708,0.022202471271157265,-0.08196322619915009,-0.41527071595191956},{0.13903063535690308,-0.16133539378643036,0.050190269947052,-0.20362348854541779,0.033923473209142685},{-0.0793694332242012,0.2666151821613312,-0.12383408844470978,-0.14559155702590942,0.09080187231302261}},{{0.06764625012874603,0.16538359224796295,0.06854750961065292,-0.14237095415592194,-0.10353944450616837},{0.014531062915921211,-0.15138551592826843,0.3212040662765503,-0.039525315165519714,0.09799602627754211},{-0.218656986951828,-0.29423677921295166,-0.354397177696228,-0.42530930042266846,0.027349121868610382},{0.01798418164253235,-0.1203920766711235,-0.15696246922016144,0.0677720233798027,-0.04688994586467743},{-0.1024189442396164,0.08158555626869202,0.3126264214515686,0.06852676719427109,-0.039057254791259766}},{{0.26055386662483215,0.025858569890260696,-0.08011332899332047,-0.1389213353395462,-0.3506700396537781},{0.024195179343223572,-0.15575753152370453,0.04378173127770424,-0.0032568175811320543,0.011066960170865059},{-0.5844791531562805,-0.29754921793937683,-0.01415014173835516,-0.030608044937253,0.043677978217601776},{-0.14382916688919067,-0.2194327414035797,0.028400728479027748,-0.13806159794330597,-0.10389511287212372},{-0.07435618340969086,-0.012191660702228546,0.09366805106401443,-0.04105465114116669,-0.026557182893157005}},{{-0.01627526804804802,-0.024990467354655266,0.012299767695367336,0.048510655760765076,-0.00039479878614656627},{-0.00878137443214655,-0.0011749230325222015,0.01089346781373024,-0.017746958881616592,-0.006119510158896446},{-0.027210695669054985,-0.019091641530394554,-0.016785580664873123,-0.014051536098122597,0.016023358330130577},{-0.018964378163218498,-0.047856565564870834,0.01786133088171482,0.05441560596227646,-0.002938546473160386},{-0.06971241533756256,-0.0016760684084147215,-0.018215270712971687,0.0498008169233799,0.00735984044149518}}},{{{0.002276815939694643,0.008743046782910824,-0.018772074952721596,0.009211573749780655,0.020655550062656403},{0.06987185776233673,0.047336213290691376,0.09891732782125473,0.0638246238231659,0.07362249493598938},{0.011023963801562786,0.002393588423728943,-0.006888500414788723,0.06005026772618294,0.06516218930482864},{-0.029529454186558723,-0.04237240180373192,0.027204548940062523,0.027981899678707123,-0.011891665868461132},{-0.010449990630149841,-0.03167174383997917,-0.01886492222547531,0.060613106936216354,-0.0001885709643829614}},{{-0.0821806937456131,-0.11509141325950623,0.01544292364269495,0.07408455014228821,-0.14321887493133545},{-0.05827978253364563,0.052135515958070755,-0.1129058301448822,-0.16340580582618713,0.08224912732839584},{0.20528125762939453,0.021542858332395554,0.2091059535741806,-0.18965081870555878,-0.015931563451886177},{0.08287915587425232,-0.04516137018799782,0.004866496659815311,0.14427083730697632,0.029664296656847},{0.22517675161361694,-0.08714108169078827,0.12381595373153687,0.10831442475318909,-0.04939248412847519}},{{-0.15765991806983948,-0.1314629167318344,-0.16804435849189758,-0.33385470509529114,-0.2256775051355362},{0.004599426873028278,-0.025578944012522697,-0.025916246697306633,-0.02806832827627659,0.08275683969259262},{-0.34195202589035034,-0.024425797164440155,0.18732263147830963,0.33947452902793884,-0.08567283302545547},{-0.14092381298542023,0.15327170491218567,0.11318608373403549,-0.1266767829656601,-0.0020444714464247227},{-0.2517821788787842,-0.17369167506694794,-0.25551387667655945,-0.03299741446971893,0.01616745814681053}},{{-0.1561383306980133,-0.13644151389598846,0.07290700078010559,-0.12055318802595139,-0.2977537214756012},{-0.09480234235525131,0.006453377194702625,-0.011638031341135502,-0.22310176491737366,-0.09807358682155609},{-0.006718109827488661,0.08461426198482513,0.012225348502397537,0.056718744337558746,0.03540116921067238},{-0.1557488590478897,0.08137716352939606,-0.016324881464242935,0.08326424658298492,-0.007258073426783085},{0.08354958891868591,-0.0036547784693539143,0.02517915517091751,0.016344375908374786,-0.02418183907866478}},{{0.0651300847530365,0.05310899391770363,0.03793391212821007,0.05859691649675369,0.005908699240535498},{0.07164821028709412,0.04450778290629387,0.057387739419937134,0.036263614892959595,0.03881550207734108},{0.05239584296941757,0.061748623847961426,0.045465342700481415,-0.0017453741747885942,0.054345712065696716},{0.0022486145608127117,0.031292423605918884,0.03233317285776138,0.06107514351606369,0.04445622116327286},{0.06538356095552444,0.05148901790380478,0.015352313406765461,0.08404091745615005,0.014781102538108826}}},{{{-0.5900685787200928,-0.9026628136634827,0.058747995644807816,-0.07988369464874268,-0.2952398955821991},{-1.3608293533325195,-0.256425678730011,0.05170118808746338,0.11424802243709564,-0.347947359085083},{-0.2515866458415985,0.3368476927280426,0.288152277469635,0.2144564390182495,-0.2457991987466812},{0.13871131837368011,0.46959376335144043,-0.11434748768806458,-0.3382217586040497,-0.8009615540504456},{0.04908391460776329,-0.2148292064666748,-0.3168325126171112,-0.23743586242198944,0.22804541885852814}},{{-0.4470439553260803,-0.6391906142234802,-0.12240678071975708,0.38601601123809814,0.2536770701408386},{-0.44025498628616333,-0.09985283017158508,0.3133271336555481,-0.20922981202602386,0.05197255313396454},{-0.387134850025177,0.2472458779811859,-0.04473072662949562,-0.432631254196167,-0.24325989186763763},{-0.11466260254383087,-0.16231368482112885,-0.03954281285405159,0.04493037983775139,-0.43578124046325684},{-0.5091391205787659,0.08991055935621262,0.09554849565029144,-0.0684974268078804,-0.08420436829328537}},{{0.251687228679657,-0.035351697355508804,-0.4841354191303253,-1.3144664764404297,-0.22369258105754852},{-0.04828917980194092,-0.054644305258989334,0.23661653697490692,0.13220146298408508,-0.0930512323975563},{0.06913594156503677,0.1924005001783371,-0.3788950741291046,0.1205233633518219,0.3978351056575775},{0.2590385377407074,0.38501471281051636,-0.1552811563014984,0.21592526137828827,0.44723862409591675},{0.24620458483695984,0.10099544376134872,0.29169514775276184,0.09953179955482483,0.015125167556107044}},{{0.26596584916114807,0.2915968596935272,0.37519755959510803,-0.16817526519298553,-0.28733426332473755},{0.07516352087259293,-0.30887988209724426,0.09166920930147171,0.11389221251010895,-0.6642836928367615},{-0.5617082715034485,-0.7022930979728699,-0.01802966184914112,0.11261959373950958,-0.1398211568593979},{-0.2601841688156128,-0.3404434025287628,0.19053910672664642,0.11238399893045425,-0.035208072513341904},{0.09116784483194351,0.17253467440605164,-0.11328241229057312,0.09615810215473175,0.017203019931912422}},{{-1.382866621017456,-0.7219337821006775,-0.3592197597026825,-0.165012389421463,0.03706555813550949},{0.024418801069259644,-0.19864828884601593,-0.0479884073138237,-0.2536366283893585,0.1930808424949646},{0.10052800178527832,0.05146005004644394,-0.28421255946159363,0.30429187417030334,-0.3751209080219269},{0.126056507229805,0.04898185282945633,-0.5366438031196594,-0.03566775843501091,0.07546833157539368},{0.1910785585641861,-0.07105375081300735,0.20170730352401733,0.22629205882549286,0.5606979727745056}}},{{{0.012262417003512383,0.002373742638155818,0.03547872230410576,0.029223434627056122,0.020883681252598763},{-0.02099265530705452,0.009141278453171253,-0.030710818246006966,0.018693560734391212,0.004961651749908924},{0.006714581977576017,-0.030605662614107132,-0.027813555672764778,-0.013905570842325687,-0.03491419926285744},{-0.014293806627392769,-0.03538599982857704,0.03689850866794586,0.0058045038022100925,-0.010219157673418522},{-0.02077057771384716,-0.04175196588039398,-0.006614449433982372,0.03684079647064209,0.0327543243765831}},{{-0.02442515641450882,0.007259633392095566,0.028023989871144295,-0.00024887477047741413,-0.009176583029329777},{0.02763763815164566,0.011823632754385471,0.024538949131965637,0.02541736513376236,0.00042106586624868214},{0.009410149417817593,0.03694511950016022,0.02713862992823124,0.0343579538166523,-0.005997062660753727},{-0.0004262295551598072,-0.004701647441834211,0.019531099125742912,-0.013101127929985523,0.00827808864414692},{0.0006460330914705992,0.01960103213787079,-0.015313614159822464,-0.010231769643723965,0.01309441402554512}},{{-0.07055945694446564,-0.0598326213657856,-0.04376200959086418,-0.05436882749199867,-0.06833013147115707},{-0.07556766271591187,-0.025532366707921028,-0.01418736856430769,-0.0703098401427269,-0.06296227127313614},{-0.07324972748756409,-0.02786319889128208,-0.022461002692580223,-0.04325944185256958,-0.04651812091469765},{-0.017693866044282913,0.0016486963722854853,-0.013651104643940926,-0.03640642762184143,-0.060754019767045975},{-0.016231559216976166,-0.0019444019999355078,-0.008849606849253178,-0.04335489124059677,-0.014605400152504444}},{{-0.033626385033130646,-0.00047081883531063795,-0.04143612086772919,-0.012543817050755024,-0.006243844982236624},{-0.08002427965402603,-0.045377422124147415,-0.0728449746966362,-0.04860439896583557,-0.07828205823898315},{-0.00706385588273406,-0.054987553507089615,-0.019072111696004868,0.00037488609086722136,-0.04709511995315552},{-0.0424700565636158,-0.009450926445424557,-0.046642035245895386,-0.06625913828611374,-0.04676805064082146},{-0.012348736636340618,-0.01245874259620905,-0.06924460083246231,-0.03248202055692673,-0.06206624582409859}},{{0.027044348418712616,-0.017983481287956238,0.014165150001645088,-0.030574394389986992,-0.05837321653962135},{0.0037353818770498037,-0.030203131958842278,-0.002527206903323531,-0.052882272750139236,-0.021684031933546066},{-0.02801620028913021,0.03189575672149658,-0.001292102038860321,-0.0018572491826489568,-0.02462947741150856},{0.007185503374785185,-0.015593360178172588,-0.00561194121837616,0.013293773867189884,0.004106863401830196},{-0.005137112457305193,-0.06793320178985596,-0.03181060776114464,0.03046824038028717,0.028729749843478203}}},{{{-0.018251419067382812,-0.019210459664463997,-0.03531165048480034,-0.06259452551603317,-0.006976570934057236},{-0.045839160680770874,-0.029956934973597527,-0.030300062149763107,-0.006562323309481144,-0.03197314962744713},{0.0009351118933409452,-0.004285633098334074,-0.05611104145646095,-0.05099804699420929,-0.04241952300071716},{-0.035392891615629196,-0.0015521706081926823,-0.04709795117378235,-0.05178535729646683,-0.0297616608440876},{-0.002548981225118041,-0.043044887483119965,-0.070520780980587,-0.00089490000391379,-0.00010967645357595757}},{{-0.03036869503557682,-0.025349831208586693,-0.020415663719177246,0.04082240164279938,0.014604542404413223},{-0.02083497680723667,0.0011036579962819815,-0.03378593549132347,0.0061731282621622086,0.011383315548300743},{0.010523691773414612,-0.031819384545087814,-0.0022168848663568497,-0.009811516851186752,0.014651873148977757},{0.006255836691707373,0.027198145166039467,0.034492697566747665,0.030887361615896225,0.026234807446599007},{0.007581685204058886,0.001286855200305581,0.012676012702286243,0.032008152455091476,-0.0351606085896492}},{{0.016702517867088318,-0.015360074117779732,-0.024787981063127518,-0.01644279807806015,-0.009108343161642551},{0.007136730942875147,-0.03607626259326935,-0.03621017187833786,0.020521752536296844,-0.004309919197112322},{0.02037017233669758,-0.010057415813207626,0.04314599931240082,0.018483100458979607,0.022349059581756592},{-0.021622566506266594,-0.006638915743678808,0.023267976939678192,-0.017279502004384995,0.01722036302089691},{0.009345226921141148,0.001707432558760047,0.01564379408955574,-0.024553701281547546,0.018190989270806313}},{{-0.0019021170446649194,0.0342678539454937,0.00014529407781083137,-0.02680988982319832,-0.010382715612649918},{0.016175702214241028,-0.023245127871632576,-0.02063871920108795,0.028584783896803856,-0.03068496473133564},{-0.019030729308724403,-0.0027586324140429497,0.006882364396005869,-0.015895191580057144,0.005113344173878431},{0.008441436104476452,0.04184819757938385,-0.041114382445812225,0.008897473104298115,-0.007699177134782076},{-0.037820350378751755,-0.01537327654659748,-0.035090379416942596,-0.024028927087783813,-0.03567182645201683}},{{-0.022086884826421738,0.0014157897094264627,-0.039321642369031906,-0.08043185621500015,-0.041945990175008774},{-0.05695651099085808,-0.062487319111824036,-0.028968824073672295,-0.06419941037893295,-0.03688202053308487},{-0.04695722833275795,-0.03488039970397949,-0.0578695610165596,0.00014387935516424477,-0.0552775003015995},{-0.016647571697831154,-0.06333085149526596,-0.004185989033430815,-0.04977685585618019,-0.0005765344831161201},{-0.06087730452418327,-0.00572246266528964,-0.0455293208360672,-0.06652200222015381,-0.018771294504404068}}},{{{-0.018864234909415245,-0.04961227625608444,-0.03210871294140816,-0.06155819073319435,-0.01512929704040289},{-0.06264827400445938,-0.07323051244020462,-0.06807984411716461,-0.0692923292517662,-0.0650235265493393},{-0.04578036442399025,-0.08426377922296524,-0.023379871621727943,-0.03390416502952576,-0.0014217841671779752},{-0.02831115387380123,-0.07114242762327194,-0.08330478519201279,-0.018149878829717636,-0.06650396436452866},{0.021273355931043625,-0.01818367838859558,-0.09698320180177689,-0.07904394716024399,-0.07681138068437576}},{{-0.012147080153226852,0.10631568729877472,0.023857947438955307,0.05579487234354019,-0.01777825318276882},{-0.07699282467365265,0.10804150998592377,0.01777973771095276,0.23272335529327393,-0.35948747396469116},{0.08070342242717743,0.03735620155930519,-0.19063517451286316,0.15961721539497375,0.15728896856307983},{-0.04133668914437294,-0.0266552846878767,0.17840571701526642,0.09437065571546555,-0.07365705072879791},{0.006565202958881855,-0.24437840282917023,0.16841474175453186,-0.07128019630908966,-0.2451893538236618}},{{-0.02633696049451828,-0.14593155682086945,-0.11155907064676285,0.06852153688669205,0.09541669487953186},{-0.14540034532546997,0.11958406865596771,0.14788685739040375,-0.09549053013324738,0.09233644604682922},{-0.031061645597219467,-0.09081752598285675,0.1677280217409134,-0.02731788158416748,0.14792199432849884},{-0.1878882646560669,-0.22019127011299133,0.3264968693256378,0.15499350428581238,-0.0026412978768348694},{-0.08031973987817764,0.23553837835788727,0.3174319565296173,0.07749661803245544,-0.009734813123941422}},{{-0.033373408019542694,0.04495101049542427,0.12879933416843414,0.19392839074134827,0.14096572995185852},{0.001587727339938283,0.058330632746219635,0.094892218708992,-0.0369364358484745,-0.04272870346903801},{-0.0026833771262317896,0.015820017084479332,0.1283482313156128,-0.0663825049996376,-0.10759720951318741},{-0.015856022015213966,-0.04504676163196564,0.09982717782258987,0.15820904076099396,-0.17356085777282715},{-0.07026657462120056,0.03114324063062668,0.04083722457289696,0.003225557040423155,-0.16124746203422546}},{{-0.036903612315654755,-0.03906882181763649,-0.01095141377300024,0.015109521336853504,-0.033837225288152695},{-0.0008326556417159736,-0.03667775169014931,-0.04721429944038391,-0.028565891087055206,-0.030677836388349533},{-0.06669942289590836,-0.024449508637189865,0.03064008615911007,-0.04671457037329674,-0.016034843400120735},{-0.05946900695562363,-0.055922094732522964,-0.025608036667108536,-0.025023004040122032,-0.036200303584337234},{-0.030643906444311142,0.027899453416466713,0.029596352949738503,-0.07515911757946014,-0.005060698837041855}}},{{{-0.006897599436342716,-0.019652336835861206,-0.06099369749426842,-0.06745502352714539,-0.011811475269496441},{-0.02082928642630577,-0.06343568116426468,-0.03130926936864853,0.021401911973953247,0.03543920814990997},{-0.06392371654510498,0.05776140093803406,-0.03518960252404213,-0.0228299368172884,0.030634446069598198},{-0.07412497699260712,-0.03227447345852852,-0.03867346793413162,-0.027693958953022957,0.06086387112736702},{-0.04666898027062416,-0.05635508522391319,-0.043187081813812256,-0.039326950907707214,0.0008260360336862504}},{{0.0020382229704409838,-0.0207477156072855,-0.004565064795315266,-0.0135203767567873,-0.019174043089151382},{0.031535327434539795,-0.01834440790116787,-0.011668100021779537,-0.05289273336529732,-0.051461391150951385},{0.023597801104187965,-0.0683598518371582,-0.01840105652809143,-0.03057769127190113,-0.0616416297852993},{0.04087339714169502,-0.07601099461317062,-0.014199472963809967,-0.03540791571140289,-0.019316690042614937},{-0.016537614166736603,-0.04854242131114006,-0.04901683330535889,-0.04693717509508133,-0.013241052627563477}},{{-0.03197906166315079,-0.03788068890571594,-0.006934840232133865,-0.04567757993936539,-0.0727749690413475},{-0.03538362309336662,-0.04056977108120918,-0.07476470619440079,-0.0074761612340807915,-0.04724385589361191},{-0.0015595605364069343,-0.052848730236291885,0.0012089281808584929,-0.07215623557567596,-0.050582241266965866},{-0.03857666626572609,-0.03218444436788559,-0.009039103984832764,-0.048685844987630844,-0.07937151193618774},{-0.06919881701469421,-0.023091843351721764,-0.01767190732061863,0.0014356332831084728,-0.06220019981265068}},{{-0.07305058091878891,-0.041334155946969986,-0.03377243131399155,-0.0019449384417384863,-0.05142601206898689},{-0.01527722179889679,-0.007294562645256519,-0.025382323190569878,-0.010515858419239521,-0.009846489876508713},{-0.0738547071814537,-0.05658813938498497,-0.01189684122800827,-0.016313377767801285,-0.027944529429078102},{-0.07881885766983032,-0.03410337120294571,-0.008446542546153069,-0.06764794141054153,-0.05998673662543297},{-0.06626583635807037,-0.0702514722943306,-0.041037630289793015,-0.06998177617788315,-0.07953381538391113}},{{-0.016326257959008217,