#include "main.h"
#include <cstring>

void store_input(float input[1][32][32], float input_oc[1][32][32])
{
	memcpy(input_oc, input, sizeof(float) * 32 * 32);
}

void store_output(float output[10], float output_oc[10])
{
	memcpy(output, output_oc, sizeof(float) * 10);
}

void fused_layer1(float input[1][32][32], float weights[6][1][5][5], float bias[6], float output[6][14][14]) {
    #pragma HLS array_partition variable=weights cyclic dim=4 factor=5
	#pragma HLS array_partition variable=input cyclic dim=3 factor=5

    float intermediate[6][28][28];
    //#pragma HLS array_partition variable=intermediate complete dim=1

    for(int co = 0; co < 6; co++) {
        for(int h = 0; h < 28; h++) {
            for(int w = 0; w < 28; w++) {
                #pragma HLS pipeline
                float sum[32] = {0.0f};

                for (int offset = 0; offset < 25; offset++) {
                	int m = offset / 5;
                	int n = offset % 5;
                	int i = h + m;
                	int j = w + n;
                	sum[offset] = weights[co][0][m][n] * input[0][i][j];
                }

                for (int offset = 16; offset > 0; offset /= 2) {
                	for (int r = 0; r < 16; r++) {
                		sum[r] = sum[r] + sum[r + offset];
                	}
                }

                sum[0] += bias[co];
                if (sum[0] < 0) sum[0] = 0;
                intermediate[co][h][w] = sum[0];
            }
        }
    }

    for (int c = 0; c < 6; c++) {
        for (int h = 0; h < 14; h++) {
            for (int w = 0; w < 14; w++) {
                #pragma HLS pipeline
                float max_value = -9999999;
                for (int di = 0; di < 2; di++) {
					#pragma HLS unroll factor=2
                    for (int dj = 0; dj < 2; dj++) {
                        #pragma HLS unroll factor=2
                        int i = h * 2 + di;
                        int j = w * 2 + dj;
                        max_value = (max_value > intermediate[c][i][j]) ? max_value : intermediate[c][i][j];
                    }
                }
                output[c][h][w] = max_value;
            }
        }
    }
}

void convolution_3_ReLU(float input[6][14][14], float weights[16][6][5][5], float bias[16], float output[16][10][10])
{
//    #pragma HLS array_partition variable=weights cyclic dim=2 factor=2
//    #pragma HLS array_partition variable=input cyclic dim=1 factor=2

#pragma HLS array_partition variable=weights complete dim=2 //factor=2
#pragma HLS array_partition variable=input complete dim=1
// #pragma HLS array_partition variable=input complete dim=1
    for(int co = 0; co < 16; co++)
        for(int h = 0; h < 10; h++)
            for(int w = 0; w < 10; w++)
            {
				#pragma HLS PIPELINE
				float sum[256] = {0.0f};

				for (int i = 0; i < 150; i++) {
					int m = i / 30;
					int n = (i - m * 30) / 6;
					int ci = (i - m * 30 - n * 6);

					sum[i] = (weights[co][ci][m][n] * input[ci][h+m][w+n]);
				}

				for (int offset = 128; offset > 0; offset /= 2) {
					for (int r = 0; r < 128; r++) {
						sum[r] = sum[r] + sum[r + offset];
					}
				}

				sum[0] = sum[0] + bias[co];
				if (sum[0] < 0) sum[0] = 0;
				output[co][h][w] = sum[0];
            }
}

void maxpool_4(float input[16][10][10],float output[16][5][5])
{
    for(int c = 0;c < 16; c++)
        for(int h = 0; h < 5; h++)
            for(int w = 0; w < 5; w++)
            {
				#pragma HLS PIPELINE
                float max_value=-1000000000000.0;
                for(int i = 0; i < 2; i++)
                {
                    for(int j = 0;j < 2; j++)
                        max_value = (max_value > input[c][h*2+i][w*2+j]) ? max_value:input[c][h*2+i][w*2+j];
                }
                output[c][h][w] = max_value;
            }
}

void convolution_5_ReLU(float input[16][5][5], unsigned char weights[120][16][5][5], float bias[120], float output[120][1][1], float q_scale[120][16], float q_bias[120][16])
{
	#pragma HLS array_partition variable=weights cyclic dim=4 factor=5
	#pragma HLS array_partition variable=input cyclic dim=3 factor=5
    for(int co = 0; co < 120; co++)
    {
        float sum = 0;
        for(int ci = 0; ci < 16; ci++)
        {
			#pragma HLS PIPELINE
        	float partial_sum[32] = {0.0f};

        	for (int i = 0; i < 25; i++) {
        		int m = i / 5;
        		int n = i % 5;
        		float t = weights[co][ci][m][n] * q_scale[co][ci] + q_bias[co][ci];
        		partial_sum[i] = t * input[ci][m][n];
        	}

        	for (int offset = 16; offset > 0; offset /= 2) {
        		for (int r = 0; r < 16; r++) {
        			partial_sum[r] = partial_sum[r] + partial_sum[r + offset];
        		}
        	}

        	sum += partial_sum[0];
        }
		sum = sum + bias[co];
		if (sum < 0) sum = 0;
        output[co][0][0] = sum;
    }
}

void fc_6_ReLU(const float input[120][1][1], const float weights[10][120][1][1], const float bias[10], float output[10])
{
    for(int n = 0; n < 10; n++)
    {
		// #pragma HLS PIPELINE
        output[n] = 0;

        for(int c = 0; c < 120; c++)
        {
            output[n] += weights[n][c][0][0] * input[c][0][0];
        }
        output[n] += bias[n];
		if (output[n] < 0) output[n] = 0;
    }
}

int lenet_accelerator(float input[1][32][32], float output[10])
{
#pragma HLS dataflow

#pragma HLS interface m_axi depth=1024 port=input offset=slave bundle=INPUT

#pragma HLS interface m_axi depth=10 port=output offset=slave bundle=OUTPUT

#pragma HLS interface s_axilite port=return bundle=CTL

	float input_oc[1][32][32];
	//store input on chip
	store_input(input, input_oc);
	float w1_oc[6][1][5][5] = {{{{0.0545767, 0.23989, 0.0460905, 0.189254, -0.05937},{-0.113319, -0.0641011, 0.116482, -0.149269, -0.0171202},{-0.131366, -0.311866, -0.210143, -0.0695679, 0.0284911},{0.0391543, -0.0259974, 0.094974, 0.0104539, 0.0778511},{0.168553, 0.104512, 0.0410958, 0.0146441, -0.00248896}}},{{{-0.0154949, 0.099448, 0.0110861, -0.067664, 0.0793657},{0.0402379, 0.150162, 0.0429996, 0.094292, -0.00749176},{-0.00506536, -0.112828, 0.120868, -0.0806194, 0.0422961},{-0.0107369, -0.054286, 0.0866676, 0.12219, -0.100322},{-0.17428, -0.0507913, -0.0691036, 0.141563, 0.102478}}},{{{0.174924, 0.134596, -0.187919, 0.0461813, -0.165645},{0.00977915, -0.0212893, -0.0484104, 0.0657643, -0.165713},{-0.0930862, 0.122882, 0.135085, 0.0390209, -0.0346848},{0.0081442, 0.0938551, 0.042818, 0.0999697, -0.10891},{-0.0067663, -0.12705, 0.0739289, 0.175849, 0.156797}}},{{{0.0263749, -0.181893, -0.164046, 0.182536, 0.130094},{0.221941, 0.0570199, 0.188594, 0.0110711, -0.0082457},{-0.0374623, 0.11972, -0.0154772, -0.0747878, -0.0887413},{0.0604595, 0.0796974, 0.220836, -0.0822295, -0.00671071},{0.243419, 0.0123286, -0.0656004, -0.0667637, 0.0790848}}},{{{-0.176736, -0.15172, 0.0584658, 0.140155, -0.108961},{0.150772, -0.084157, -0.0754009, -0.00868887, 0.0346975},{-0.162376, 0.0310157, 0.0312256, 0.0466559, -0.115986},{0.170055, 0.0399354, -0.0783964, 0.0863523, -0.0793049},{-0.135728, 0.0255421, -0.0162169, 0.181592, 0.099328}}},{{{0.0896063, 0.0715614, 0.0976575, -0.105534, 0.137008},{0.0331393, -0.13787, 0.0547835, -0.155438, 0.048253},{0.119975, 0.174484, -0.181807, 0.0147251, 0.115346},{0.161037, -0.00182935, -0.143296, -0.0300758, -0.147059},{0.166156, 0.0855182, -0.0660527, -0.0506291, -0.000405967}}}};
	float w3_oc[16][6][5][5] = {{{{-0.129261, -0.0289099, 0.0184702, -0.138075, -0.0124496},{-0.0285535, 0.00823692, -0.0297472, -0.0741726, -0.111873},{-0.00241776, -0.0357605, -0.0721717, -0.0690174, -0.0463054},{-0.0555739, -0.168166, 0.00849856, -0.0188851, -0.0601877},{0.00945889, -0.023853, -0.0596479, -0.0166567, 0.069691}},{{-0.142638, -0.0153503, -0.0468888, -0.0215886, -0.128881},{-0.133847, -0.0462115, -0.0044102, -0.174365, -0.0699026},{-0.0702239, -0.0377102, 0.0365786, -0.063224, -0.0226005},{-0.102342, -0.0337095, 0.0333703, -0.0414642, -0.0441285},{-0.0933843, -0.174715, 0.105353, 0.0221832, -0.164781}},{{-0.0781251, -0.0276996, -0.0470228, -0.162764, 0.0559927},{0.00366788, -0.069815, -0.0445151, 0.0447063, -0.00819102},{-0.021628, -0.0989205, -0.144545, -0.0866375, 0.0276147},{0.00398364, 0.0238648, -0.0190027, 0.0481727, -0.102903},{-0.133263, 0.0311742, -0.077264, 0.074022, 0.0818293}},{{-0.104329, 0.0790577, -0.0120822, -0.149289, -0.0478914},{0.0133649, -0.0382749, 0.0110402, -0.126987, 0.0120774},{-0.139748, 0.00418727, -0.0360503, -0.0977113, -0.143386},{-0.140293, -0.0616587, -0.141593, -0.173577, -0.177134},{-0.0386355, -0.106546, -0.169028, 0.148764, -0.0883557}},{{-0.0891919, -0.157275, -0.0989936, -0.0197369, -0.0124629},{-0.145393, -0.162981, -0.0940324, -0.102652, -0.103638},{-0.114461, -0.057649, 0.0344953, -0.175194, -0.0354439},{-0.160436, -0.0969764, 0.0891696, -0.000979664, -0.0645946},{-0.144691, -0.0462282, 0.0324772, 0.00783432, -0.0195419}},{{-0.0552662, 0.0359445, 0.0124199, -0.0252009, -0.0902319},{-0.0318873, -0.0549578, -0.131763, -0.110682, -0.219306},{-0.112414, -0.122503, -0.0131506, -0.161638, -0.0627306},{-0.121991, 0.0189145, -0.134296, 0.0830286, -0.116169},{-0.13894, -0.0507925, -0.0430381, -0.187582, -0.146764}}},{{{-0.0895522, -0.0414514, 0.10063, -0.0278707, 0.0159904},{-0.0470842, -0.0623859, -0.0888349, -0.0509604, -0.0720695},{0.0509305, -0.150708, -0.143679, 0.0929064, -0.0628851},{-0.0269158, 0.0982552, -0.0919063, 0.0753651, 0.0515129},{-0.0543418, -0.122054, -0.000856871, -0.0615378, 0.0251746}},{{0.0206155, -0.0112556, 0.0842336, -0.069518, -0.0256245},{-0.18057, 0.0316797, -0.088084, -0.0954881, -0.00277953},{0.0655662, 0.022198, 0.0556672, 0.0153003, -0.00909537},{-0.0381522, -0.0733511, 0.0221377, -0.0814525, 0.0166451},{-0.0739427, -0.105035, 0.00196501, 0.0106432, -0.0593914}},{{0.0511965, 0.0869132, 0.0378749, -0.00432896, -0.0485051},{-0.156816, -0.0906766, 0.0559867, -0.0259185, -0.138992},{-0.0529025, -0.088935, -0.0605052, -0.0838744, -0.0264925},{-0.150562, -0.170548, -0.0299732, -0.0500588, -0.164255},{-0.016338, -0.154449, -0.0638839, 0.0900813, -0.0508652}},{{-0.0639989, 0.00514697, -0.00906741, 0.01237, 0.0291043},{-0.0494463, -0.116657, -0.170625, -0.0298164, 0.0515654},{-0.0752444, -0.0231436, -0.0305314, 0.00626886, -0.0697285},{0.0102537, -0.0409231, -0.181532, -0.0952781, -0.0554903},{-0.0322557, 0.0243933, -0.026453, 0.013855, -0.101427}},{{0.0142398, 0.0892175, 0.0124474, -0.141523, 0.086917},{-0.18259, -0.0501907, 0.0898794, -0.0222907, -0.12287},{-0.0827385, -0.149408, 0.022225, -0.179166, -0.0695702},{-0.0898408, 0.089216, 0.0649454, 0.0878047, -0.107332},{-0.0217752, 0.0230026, 0.0970636, -0.176912, -0.147825}},{{-0.0303836, -0.0780598, -0.168039, -0.155981, 0.0428945},{0.00118545, -0.181787, -0.17995, -0.00758494, 0.0961368},{0.0963731, 0.0683355, -0.114628, -0.101038, -0.00461955},{-0.147631, -0.082423, -0.115081, -0.0791371, -0.156984},{0.000589146, 0.0646608, -0.0728179, -0.112348, -0.0456091}}},{{{0.0119388, -0.110373, -0.0628674, 0.00278134, -0.000864331},{-0.133999, -0.00798646, -0.179457, 0.08468, 0.0172873},{-0.0883792, -0.0946258, -0.0703178, -0.0321096, -0.0176235},{0.0161023, -0.124591, -0.158014, -0.00203667, 0.0140114},{-0.0592958, -0.0389376, -0.101205, 0.014594, -0.0604719}},{{-0.138822, -0.0938506, -0.0524952, 0.0642052, -0.004004},{-0.0385987, -0.0553011, 0.0820715, 0.0658219, -0.0637358},{0.00916214, -0.0660088, -0.144493, -0.0198533, -0.0614401},{0.023402, -0.174289, -0.173175, -0.18113, -0.0966702},{-0.0940631, 0.037408, -0.101008, 0.0874443, 0.0160654}},{{-0.184362, -0.00322744, 0.099591, -0.0202223, -0.105778},{-0.13124, 0.0989625, -0.0872646, -0.0581248, -0.151491},{0.0686936, -0.060686, -0.0643929, -0.0972577, 0.026754},{-0.0318161, -0.124788, -0.0382446, 0.0181377, 0.0412582},{0.0522304, -0.168824, -0.00514975, -0.0968274, -0.0267144}},{{-0.0195458, -0.0386267, 0.00366978, -0.00386224, -0.103473},{-0.11704, -0.129249, -0.0443041, -0.00681567, -0.0102625},{-0.109282, -0.104627, -0.134266, -0.01863, -0.179606},{-0.100578, -0.0733844, -0.0381478, -0.157249, -0.0545314},{-0.06716, -0.0145719, -0.149387, 0.0189755, -0.0964863}},{{-0.0428581, 0.0385743, -0.0629674, -0.12723, -0.0953111},{-0.182357, -0.112723, -0.138517, -0.0178248, -0.17777},{0.079377, 0.0108422, 0.00436017, -0.0210725, -0.0460026},{0.00367242, -0.128001, -0.181007, -0.131728, -0.122029},{0.0741337, 0.00849671, -0.0742102, 0.0751761, 0.0631189}},{{-0.145775, -0.0648572, -0.166994, 0.0487051, -0.0951986},{-0.0760277, -0.0917364, -0.0234135, -0.0604116, 0.0143839},{-0.170393, -0.00716433, 0.0651257, -0.11286, 0.0284651},{-0.170197, 0.0569963, -0.0255011, -0.0370339, -0.167812},{-0.134685, 0.100856, -0.0951683, -0.0665146, -0.0457028}}},{{{0.102804, 0.107052, 0.0495304, -0.130975, -0.0230085},{0.0427185, 0.0252026, -0.0322962, -0.0438177, -0.0325856},{-0.0418871, 0.0691676, 0.0188272, 0.039125, -0.03135},{0.10512, 0.0233852, 0.0734469, -0.0126155, -0.0378622},{0.0548269, 0.0419745, 0.0708264, 0.0168747, -0.0856699}},{{-0.0354236, -0.0556637, -0.0942579, -0.098927, -0.104745},{0.00302662, -0.0783154, -0.00621244, -0.152018, -0.0657526},{-0.0375333, -0.0723602, 6.22225e-05, -0.0169809, -0.0991931},{-0.0533926, -0.0551794, 0.0379048, 0.05448, -0.0250473},{0.00249969, -0.0544915, 0.0981555, 0.0114965, 0.102648}},{{0.0342179, -0.0825872, -0.0866728, -0.13839, -0.0498914},{-0.0155045, -0.120809, -0.0834408, -0.0922583, -0.0304057},{-0.0486374, 0.0668018, 0.0308724, -0.0724216, -0.0940492},{-0.0593514, 0.0143045, 0.0821808, 0.083597, 0.0733888},{-0.0665889, -0.0108314, -0.0131484, 0.0151598, 0.128973}},{{-0.0820233, 0.0884727, -0.0115823, 0.0219569, -0.0917826},{0.117808, 0.0806971, 0.104299, -0.0605797, 0.0661285},{0.0733661, 0.143311, -0.0157113, -0.0870225, -0.0807192},{0.0323176, 0.0798099, 0.0215246, 0.0378372, 0.0112849},{-0.00221242, 0.0678629, 0.0333929, -0.0959504, -0.0259208}},{{0.0549289, 0.0955187, 0.0474165, -0.0407647, -0.0451095},{-0.0344963, -0.0519297, -0.0565725, 0.022331, 0.0297794},{-0.0288773, 0.0511393, 0.064616, 0.00409213, -0.0149956},{0.0248715, 0.0429867, -0.097057, 0.105095, -0.00671784},{-0.0400305, 0.0836708, -0.080438, -0.0337606, 0.0807461}},{{-0.075969, 0.0195272, -0.0889619, 0.0386834, 0.087423},{0.0237334, -0.110231, 0.103967, 0.0301213, -0.00586264},{0.0275603, -0.0617973, -0.0177716, -0.0834612, -0.00207616},{-0.0401254, 0.000297911, -0.194064, -0.0176427, -0.054313},{0.00253792, -0.0110215, 0.0699961, -0.105004, -0.036865}}},{{{-0.0539518, 0.0261353, 0.0705259, 0.0511905, 0.0822311},{-0.186133, -0.0059026, -0.0378111, -0.0843846, -0.0336804},{-0.288492, -0.153133, -0.15696, -0.241432, -0.0380001},{-0.112926, -0.0397594, -0.227438, -0.161823, -0.202977},{0.0441074, 0.027958, -0.144117, -0.0521333, -0.147701}},{{0.167016, -0.0714575, 0.0665004, 0.0878336, 0.232736},{0.0253453, 0.0605375, 0.0342209, 0.1283, 0.279271},{0.079527, 0.0231912, -0.0405121, 0.104151, -0.060437},{0.267966, 0.043781, -0.187433, -0.0788761, -0.0201963},{0.222269, 0.150286, 0.0234425, -0.0399275, 0.00121588}},{{-0.0677622, -0.0367805, -0.0369337, -0.181288, -0.0211513},{0.0867513, 0.0420698, -0.246993, 0.0150135, -0.0612922},{0.133115, 0.0758477, 0.206381, -0.0835321, -0.0753008},{0.0147126, -0.0823702, 0.030231, -0.0875561, -0.0217631},{-0.0641224, 0.00504563, 0.0662692, -0.0287004, -0.0676327}},{{-0.000821245, 0.0464763, -0.0722191, -0.0321613, -0.028211},{-0.176889, -0.0302033, -0.00255953, -0.144664, -0.0917464},{-0.182237, 0.00655777, -0.0358131, -0.12942, -0.198091},{-0.311738, -0.0999347, 0.0748808, -0.0805315, -0.228158},{-0.16907, -0.0680484, 0.0413026, 0.00945603, -0.0621412}},{{-0.0922265, -0.166828, -0.280976, 0.189185, -0.0140929},{0.0254581, -0.0403104, -0.0624442, -0.0243184, -0.0119436},{-0.065358, 0.0157591, -0.0963534, -0.051139, -0.0952643},{0.0306271, -0.0943645, -0.186472, -0.0188328, 0.0131187},{-0.0269307, -0.00818961, 0.0219037, 0.0278908, -0.180014}},{{0.0220732, 0.158232, 0.0985136, -0.190685, -0.025946},{0.0926973, 0.177484, -0.132198, -0.0891592, 0.0226986},{-0.119123, 0.16614, -0.0764217, -0.00534477, -0.0101514},{-0.0175566, 0.154491, 0.0314746, -0.0747327, 0.0963112},{0.00831252, -0.0296708, -0.120025, -0.0279267, 0.0398743}}},{{{-0.105252, 0.030565, -0.0144114, 0.000944253, 0.0447709},{-0.0284984, 0.0623484, 0.0354501, 0.0041021, 0.011246},{0.00842158, -0.089184, 0.0454986, 0.0643984, -0.0607067},{-0.0245979, -0.0922544, -0.0109515, -0.108218, -0.0421516},{-0.119493, 0.0413378, 0.0253023, 0.0382327, -0.113783}},{{0.11265, -0.00923728, -0.00914131, 0.0266558, -0.0221231},{-0.0795667, -0.0856251, 0.0607741, 0.0627036, -0.0887475},{0.0225972, -0.03297, -0.0396581, -0.0787565, 0.0168849},{0.0458077, -0.118485, -0.0678753, 0.0479479, -0.0538719},{-0.13508, -0.0374318, -0.0966922, 0.0516805, 0.0315433}},{{-0.137981, -0.0806147, 0.00530453, -0.0432751, 0.0416812},{-0.00865472, -0.138746, -0.114378, -0.0353936, -0.0805674},{-0.0763495, 0.0408251, 0.035095, 0.0408087, -0.0277762},{-0.0368213, -0.000262611, -0.0886537, -0.0498485, 0.0394512},{-0.0131971, -0.0404211, -0.0838473, -0.0747933, -0.142494}},{{0.0424494, -0.0239662, -0.101731, -0.079388, 0.0267633},{-0.0363929, 0.0307809, 0.0469844, -0.035238, -0.0553589},{-0.110619, -0.0927672, 0.0537883, -0.0668858, -0.132028},{0.0502129, 0.0407371, 0.0512589, -0.02447, 0.0319282},{-0.065308, 0.0477783, -0.0105658, -0.0968397, -0.117749}},{{-0.126172, -0.0594891, -0.0969631, -0.0699949, -0.0787754},{-0.112871, -0.107939, 0.0344648, -0.0176287, -0.123138},{-0.0580512, 0.0546539, 0.0260837, -0.1096, -0.105774},{-0.0526579, 0.00217071, -0.110937, -0.0942379, 0.0392273},{-0.0244961, -0.0445015, -0.0715454, -0.0610661, -0.132547}},{{-0.0069035, -0.0966485, -0.133658, -0.00571999, -0.11547},{-0.0405742, 0.0182058, -0.0360275, -0.107252, -0.107949},{-0.0225701, -0.0252279, 0.0494322, 0.0637685, -0.121956},{0.026185, -0.0498922, -0.0202861, -0.111861, 0.0594309},{-0.0808988, 0.0438837, 0.0151738, 0.059963, -0.0134868}}},{{{-0.140229, 0.0027806, -0.0410435, -0.0240733, -0.138452},{-0.130828, -0.0549352, 0.032291, -0.0754715, -0.0783877},{0.0592988, -0.0178931, -0.109311, 0.0949787, 0.113649},{0.022409, 0.0158738, -0.103526, 0.0906753, -0.0555571},{-0.0122962, -0.0139284, -0.00487873, -0.134061, 0.0319951}},{{-0.0754255, -0.146366, 0.0478861, -0.00702309, 0.0756998},{-0.0416549, -0.0980797, 0.0051907, -0.0413872, -0.0558671},{0.0274184, -0.0488976, -0.017158, -0.0480913, -0.00930165},{-0.0621795, -0.121071, 0.0141921, -0.000372628, -0.0043231},{0.0631807, 0.0611851, -0.0298194, -0.0996271, 0.0294799}},{{-0.074275, -0.017685, 0.0605159, -0.0651568, 0.00892166},{-0.0915392, -0.046671, 0.112813, -0.0366743, -0.117578},{-0.0791671, -0.140671, -0.0469803, 0.0780369, -0.00579832},{0.0375159, 0.0164328, 0.00777356, -0.040324, -0.0639412},{-0.139659, 0.03581, -0.0360136, 0.0420516, 0.0234908}},{{-0.050286, -0.141645, 0.0575939, -0.0058419, -0.00205707},{-0.000976834, 0.0129776, -0.0505923, -0.0266149, 0.0211158},{-0.116328, -0.00984384, 0.0242763, -0.143446, -0.129583},{-0.0432527, -0.0743604, 0.0350591, -0.0265444, 0.0217874},{-0.014392, -0.00884263, -0.0487523, -0.00374398, 0.0212005}},{{-0.0249827, -0.0952586, -0.0909775, -0.0549951, -0.028095},{0.0219366, -0.0103157, -0.0323278, -0.00981532, -0.0937031},{0.0333802, -0.144703, -0.111418, -0.0864473, 0.010772},{-0.0937372, -0.0861521, -0.0236115, 6.47008e-05, -0.0928776},{-0.0651737, -0.0368549, 0.021966, -0.0715667, -0.0707039}},{{-0.147891, -0.0998048, 0.0284441, 0.0152214, 0.0290793},{1.84884e-05, 0.0593189, 0.00835666, -0.137568, 0.0738553},{-0.110376, -0.0981981, -0.107846, -0.0996781, 0.0418954},{-0.102888, -0.0874814, -0.114698, -0.0410717, -0.091869},{0.00886917, -0.138884, -0.107488, -0.12094, 0.0411298}}},{{{-0.0134998, -0.0216333, 0.00769715, -0.000516624, -0.127624},{-0.111104, -0.103394, 0.069326, -0.100834, -0.0187336},{0.0438482, -0.0157666, -0.0107471, -0.0363038, -0.0287438},{-0.129929, -0.081618, -0.0583595, 0.0294522, -0.0431867},{-0.053514, 0.00461604, 0.0979553, -0.124788, 0.00304299}},{{-0.150463, 0.00607812, -0.0488111, -0.117948, -0.065927},{0.0653303, 0.0965907, -0.111054, -0.0593994, -0.102124},{0.0434828, -0.0744066, 0.056119, -0.0600111, -0.0511943},{-0.113791, -0.0757582, 0.000863658, -0.0726155, -0.105019},{-0.134628, -0.0103612, -0.061664, 0.0119004, 0.0442323}},{{-0.12363, 0.0883909, -0.019802, 0.026217, 0.0119996},{0.056395, 0.0583066, -0.081474, -0.0197107, 0.0494621},{0.000591542, -0.0609284, 0.00696281, -0.0692173, 0.053022},{-0.0678364, -0.0810269, 0.0436927, 0.0189459, -0.0738357},{-0.132718, 0.0107926, 0.0256404, 0.0115595, -0.104287}},{{-0.0450636, -0.0634837, -0.133659, -0.083932, -0.102433},{-0.127599, -0.128535, 0.0359789, 0.0390415, -0.0671238},{0.00615947, -0.0349231, -0.0576515, -0.0469836, -0.0240302},{-0.121034, -0.101266, -0.107041, -0.0216885, -0.128531},{0.0337999, -0.0388798, -0.0284326, -0.129752, -0.0212632}},{{-0.0828965, 0.0139576, -0.130386, 0.0337976, 0.0104112},{-0.0415436, -0.16382, 0.0123937, 0.0542327, 0.0114941},{-0.118405, 0.0227896, -0.0250342, -0.00672879, -0.148641},{0.0387622, -0.010925, -0.135222, -0.110317, -0.0432467},{-0.0446624, -0.0557681, 0.000477248, -0.0680331, -0.12547}},{{-0.09294, -0.0293277, -0.0105383, -0.0315087, -0.0300583},{0.0974144, 0.0322619, 0.0543613, 0.0902003, -0.107566},{-0.0198575, 0.0356127, 0.100719, -0.0912006, 0.0494184},{0.032615, -0.0743267, -0.0872081, 0.0526338, -0.0602165},{-0.00884503, 0.0140507, -0.102983, 0.0565964, 0.00916943}}},{{{0.0833679, 0.109878, -0.0411061, -0.0116293, -0.0576758},{-0.0726363, 0.100439, -0.034684, 0.0730063, -0.031588},{0.0795504, 0.109673, 0.118653, 0.066671, 0.0740152},{-0.0748624, 0.0902079, 0.0923406, 0.0616899, 0.00861184},{0.00404745, -0.0904279, 0.0884733, 0.0538638, -0.0193435}},{{0.021319, -0.00479295, -0.0720208, 0.0274616, -0.0329993},{-0.0701407, 0.0450236, 0.0442456, -0.018129, 0.106034},{0.0411685, -0.0603372, 0.0109108, -0.0296978, -0.0616099},{-0.148852, -0.125383, 0.00423001, 0.0969713, 0.115895},{-0.115707, -0.0591366, -0.01297, -0.0141053, 0.00149408}},{{-0.0652515, -0.142372, -0.0563349, -0.0158333, 0.0155152},{0.101515, -0.0438642, -0.0739774, 0.0129048, 0.00184177},{0.000671584, -0.0803233, 0.0903722, 0.0341143, -0.00980729},{-0.0803867, -0.0700458, -0.00539356, 0.0428024, 0.00330835},{-0.0493277, -0.0633204, -0.0107666, 0.0673363, 0.0328666}},{{-0.0160969, 0.0361874, 0.0925772, 0.0666718, -0.0280364},{-0.0487263, -0.0186208, 0.0501665, -0.04769, -0.0500939},{-0.109573, 0.0197903, 0.0470008, -0.101676, -0.0563059},{-0.0226977, -0.0797615, 0.0588004, -0.0371762, 0.0625914},{0.0687493, 0.0367218, 0.0693316, 0.0291466, 0.122362}},{{0.00112146, -0.020688, 0.066966, -0.0112029, -0.0902761},{0.0337661, 0.0155081, 0.0575603, 0.0851888, 0.0913282},{0.00154101, -0.079087, -0.067218, -0.0751321, 0.0802889},{0.0485308, -0.0516994, 0.0908411, 0.0462283, 0.0213017},{0.00806369, 0.0891957, 0.0890507, 0.0732447, 0.0246495}},{{0.0509855, 0.0554976, -0.0591561, -0.16706, -0.00362119},{0.0942237, 0.00293974, -0.0865472, -0.106283, -0.0772263},{-0.0311456, 0.0822817, -0.0161322, -0.130283, -0.117583},{0.0477309, -0.157793, -0.0189967, -0.0263117, -0.00550587},{0.0085211, -0.115684, -0.0153355, 0.0583896, 0.0374569}}},{{{0.0136459, -0.0062497, -0.100307, 0.0352212, 0.0157456},{0.0365293, -0.0319178, -0.0798601, -0.00517026, 0.0430616},{0.0580729, -0.00594497, -0.0181286, 0.0341047, -0.00309146},{-0.0500672, -0.00136324, 0.0244932, 0.0988878, 0.1156},{0.148688, 0.0731645, 0.00263841, 0.16165, 0.0903321}},{{-0.0814003, -0.0670692, 0.00117759, -0.0390284, -0.0684568},{-0.0686867, 0.0659109, 0.0641414, -0.0588136, -0.0826171},{-0.0718039, 0.0750218, -0.0642317, -0.0298705, -0.0608711},{0.0506554, 0.0147265, 0.00730247, -0.0604984, 0.0467181},{-0.0611616, -0.0621433, -0.124927, 0.00479014, -0.0459531}},{{-0.0317324, -0.105646, -0.0104251, 0.0496922, 0.0380115},{0.0595132, 0.0250573, 0.125314, 0.0352286, 0.105304},{0.0703704, 0.0304645, 0.0661383, -0.0852436, -0.0978714},{-0.0807614, -0.00749534, -0.0720313, -0.0841334, -0.136705},{-0.0833789, -0.158943, -0.0174596, -0.0791942, 0.0443447}},{{0.00851981, -0.0487614, -0.00116826, 0.0155863, 0.0434757},{0.060902, -0.0683892, -0.0300416, 0.0420408, 0.0272906},{-0.00793585, 0.0220265, -0.0584638, 0.0178032, 0.0505305},{0.00254375, -0.0325679, -0.138712, -0.0655454, 0.024765},{-0.0246706, -0.0631361, -0.214798, -0.00907197, -0.0183152}},{{0.0805733, 0.0736055, -0.0501414, 0.0961003, 0.0384409},{-0.0510654, 0.0997122, 0.0428427, 0.0186567, 0.0390571},{0.0840248, -0.00382984, -0.0515525, -0.028565, -0.0160622},{0.0696635, 0.0280728, -0.0352281, -0.0808243, -0.177312},{-0.114359, -0.0565487, -0.0278831, -0.0210536, 0.0284301}},{{-0.0306501, -0.111828, -0.041045, 0.0345406, 0.0266684},{-0.0457194, -0.0054004, 0.00093062, 0.0377796, -0.0591581},{0.0264342, 0.0152956, -0.120955, 0.0159504, -0.0379388},{0.0269715, 0.0127659, -0.0924439, -0.176279, -0.053813},{-0.0924963, -0.150656, -0.035364, -0.0940865, -0.0857302}}},{{{-0.0739168, -0.100902, -0.0421982, 0.0291905, -0.0656708},{-0.0654756, -0.00577797, -0.0973977, 0.0255491, -0.0209548},{0.0236901, -0.0498975, 0.0104153, -0.0873722, -0.0348857},{0.0162024, -0.00772257, 0.08599, -0.0492656, -0.144282},{0.00422573, 0.0442395, -0.0343463, 0.0919012, -0.0780296}},{{-0.0252503, -0.0642015, -0.0940773, -0.0595245, -0.0352087},{-0.0874449, -0.0230818, -0.0852736, 0.00716566, -0.113328},{-0.0285439, 0.0382516, 0.0642185, 0.0835255, 0.0346627},{-0.103774, -0.0468067, 0.0583616, -0.051541, -0.0638438},{0.0360915, -0.0191605, -0.0581786, -0.0502974, -0.0688397}},{{-0.0348117, 0.0764726, 0.0543849, 0.0786103, 0.0347377},{-0.0205503, -0.0268072, -0.054606, 0.0375151, -0.122201},{-0.00845636, 0.110361, 0.149153, 0.0927693, 0.0198816},{-0.174182, -0.0475718, 0.0317887, 0.0876434, 0.0449889},{0.016368, -0.0421333, -0.0299371, 0.12244, 0.0348522}},{{-0.0152248, -0.039399, -0.167982, 0.0497738, -0.069283},{0.0258371, -0.0417523, -0.0755979, -0.0160094, 0.0406449},{-0.061844, -0.139028, -0.0218922, 0.0757115, -0.0966512},{-0.116438, -0.147944, -0.0543374, 0.114087, 0.0172543},{-0.0484327, -0.0464722, -0.0212026, 0.0484245, 0.0109813}},{{-0.157573, 0.099463, -0.0326312, -0.0516097, -0.0964099},{0.0364291, 0.0693004, -0.0307666, 0.032068, -0.0900186},{-0.113897, -0.0619576, -0.0274739, -0.0947871, 0.0493942},{0.0857068, -0.0161497, -0.063065, 0.0552022, 0.0556705},{-0.00747703, 0.021096, 0.0243649, -0.00114968, -0.0948769}},{{-0.0872427, -0.0556899, -0.166012, 0.0125794, -0.146867},{-0.0619092, -0.106107, 0.0116869, 0.12785, -0.0894844},{-0.066041, -0.0225763, 0.0289269, 0.140481, 0.000285462},{-0.11226, -0.00504773, 0.0449915, 0.0743904, 0.0199676},{-0.0126643, 0.0266437, 0.0277476, 0.00470388, -0.0440987}}},{{{-0.0920882, 0.140767, 0.138497, 0.0822469, -0.0481175},{0.284996, 0.0933539, -0.060772, 0.00925033, -0.0869506},{0.181932, 0.0818412, -0.200448, -0.186582, -0.337831},{-0.0939565, -0.122249, -0.123578, -0.246309, -0.0871063},{-0.0160753, -0.209635, 0.0551513, 0.0891372, 0.124891}},{{0.122462, 0.172698, -0.0978215, -0.13804, -0.201072},{-0.0555092, 0.275737, 0.0510169, 0.0830972, -0.0352117},{-0.191073, 0.0380023, -0.145257, -0.250895, -0.0493314},{0.0914468, -0.0248962, -0.00985023, -0.192296, -0.0894993},{0.160736, -0.0841007, 0.0717301, -0.0180769, -0.203032}},{{-0.0470614, 0.128526, 0.120869, 0.230857, -0.0660361},{-0.419255, -0.234607, -0.0374896, 0.108621, 0.089286},{-0.0551167, -0.105326, -0.270235, 0.00454762, -0.143789},{0.106779, 0.0791002, 0.121085, -0.165484, -0.462817},{0.099558, 0.109847, 0.0896899, 0.143875, 0.0935614}},{{0.0433463, 0.00397697, -0.0384615, -0.0361398, 0.0144595},{-0.11151, -0.178566, -0.230928, -0.180447, -0.144353},{-0.388848, -0.616195, -0.32271, -0.413469, -0.161286},{0.0270838, -0.102949, -0.200438, -0.113958, -0.272868},{0.0295301, 0.0795945, 0.00658216, 0.0408629, -0.164253}},{{-0.132423, -0.08337, 0.00859046, -0.000407973, 0.0327532},{-0.2697, -0.296337, -0.105187, 0.0214579, 0.104885},{-0.121487, -0.295125, -0.180082, -0.0208934, -0.0740473},{0.130762, 0.0736735, -0.164461, -0.16662, -0.383654},{0.18384, 0.148051, 0.192942, 0.190401, 0.13584}},{{0.0943832, 0.0127344, 0.111761, 0.160721, 0.0542136},{-0.16598, -0.232542, -0.290998, -0.163265, -0.325584},{0.00616371, -0.1488, -0.573173, -0.493826, -0.168845},{-0.0220861, -0.069354, 0.018541, -0.141385, -0.168402},{0.131412, 0.150349, 0.0443967, 0.0575643, -0.154393}}},{{{-0.0918551, -0.0118418, -0.0687312, 0.0672411, 0.0783003},{-0.0392285, -0.0981931, -0.022162, 0.0369225, 0.0408319},{-0.0500071, 0.0650534, -0.132239, -0.0440378, 0.0930152},{-0.107536, -0.162287, -0.073402, 0.0288976, -0.00389108},{-0.120293, -0.102469, -0.00717181, 0.0577299, -0.0164696}},{{0.020626, 0.0528204, -0.0650507, -0.0181911, -0.0639276},{0.104133, -0.0466748, -0.110855, -0.0320097, -0.0157315},{0.0825102, -0.040521, 0.00284234, -0.00551302, -0.0433551},{0.0787176, 0.10612, -0.0844044, -0.0258847, -0.0303557},{0.0365299, 0.00478732, -4.3273e-05, 0.0425782, -0.129664}},{{-0.122086, -0.10239, 0.0505654, -0.0346697, -0.0171881},{-0.0458772, -0.0962558, -0.104169, -0.00705438, -0.0117347},{-0.189307, -0.0947591, -0.121595, -0.000958914, -0.0185872},{-0.166765, -0.089556, 0.0401252, -0.0126539, 0.00907193},{-0.0711962, 0.0348857, 0.0181111, 0.00722798, 0.0855436}},{{-0.0725385, 0.00505443, 0.00714073, -0.00378772, 0.0734437},{-0.0842778, -0.0777906, -0.00241708, 0.0741412, 0.000418081},{-0.00836205, -0.0456052, 0.109407, 0.0892006, -0.0329025},{-0.0353419, 0.045227, 0.0478774, -0.0547005, -0.0273723},{0.00874879, 0.0117565, 0.0714176, 0.00710361, -0.00650539}},{{-0.0860937, 0.00320494, 0.0938315, -0.0226071, 0.0462188},{0.0776627, 0.0722204, -0.0338566, 0.0908892, -0.0576445},{-0.0772328, 0.00148911, -0.034729, 0.00085627, -0.0928303},{-0.04727, 0.0194588, 0.013639, -0.0112872, -0.0512872},{-0.0857779, 0.0549627, 0.0100229, -0.0177597, -0.137597}},{{0.107082, 0.0680283, 0.0346225, 0.0388272, -0.0288544},{-0.0949866, -0.0290471, 0.028516, -0.0200151, -0.0455285},{-0.0361919, 0.0887494, 0.11117, 0.0976022, 0.088537},{-0.0137098, 0.102217, 0.134811, 0.0474692, -0.0730626},{-0.187031, 0.115696, 0.0579718, 0.0400077, -0.0151297}}},{{{-0.10643, 0.106649, 0.171873, -0.0221392, -0.32045},{0.046251, 0.0917398, -0.010598, -0.0372021, -0.184749},{-0.215173, -0.146763, 0.0145548, 0.19367, -0.0243501},{-0.145582, -0.0950416, 0.15378, 0.182534, -0.191034},{0.155504, 0.200386, 0.0650928, -0.0862275, -0.0830411}},{{-0.0783404, -0.28154, 0.0956417, 0.0577722, -0.233304},{-0.380268, -0.34086, -0.0672899, -0.205606, -0.0734398},{-0.224416, -0.0423655, -0.296133, -0.330333, -0.282924},{-0.235319, -0.250801, -0.33259, -0.330365, -0.149234},{-0.529298, -0.438408, -0.281517, -0.0642203, 0.0652382}},{{0.0540541, -0.174544, -0.090547, -0.0268361, -0.248468},{0.0608416, -0.219582, 0.0365487, -0.120444, -0.178017},{-0.231566, -0.312402, -0.434223, -0.29983, 0.198346},{-0.255452, -0.195707, -0.210323, -0.00657898, -0.0650288},{-0.0162558, -0.0321461, 0.10011, -0.0622065, -0.126825}},{{-0.239392, -0.389471, 0.0254484, 0.0816054, 0.142932},{0.0721241, 0.0339921, 0.0989347, -0.0122507, 0.137338},{0.106107, 0.00812645, -0.0751439, -0.00307351, -0.309589},{0.0780506, 0.0056312, -0.120937, -0.29743, 0.0399128},{-0.0270076, -0.0378532, -0.0207855, -0.131004, 0.100026}},{{0.00632242, 0.0785286, 0.207234, 0.00101617, -0.304807},{0.042644, 0.00507404, 0.00323471, -0.184063, -0.204875},{-0.0183832, 0.0381419, 0.0846892, -0.0933303, -0.0278139},{-0.0238163, -0.000988492, -0.0461127, 0.112848, 0.0711399},{0.130673, 0.152999, 0.0020296, -0.0101544, 0.0968374}},{{-0.286048, -0.18262, 0.0975274, 0.273095, 0.264497},{-0.289082, 0.0278545, -0.0154251, 0.21944, 0.166291},{-0.0437145, -0.097161, -0.033292, -0.19045, -0.0471908},{-0.0682109, -0.095521, -0.162619, -0.181277, -0.142797},{-0.278072, -0.23656, -0.161759, -0.135475, 0.13208}}},{{{0.0236985, -0.0392232, -0.021665, -0.0227191, -0.0427599},{-0.11538, -0.0742112, -0.0533134, -0.0295603, -0.109639},{-0.351767, -0.193254, -0.12178, 0.0124221, -0.036894},{-0.332015, -0.297395, -0.393294, -0.0487955, 0.035321},{-0.153882, -0.122598, -0.113016, -0.0554465, -0.0696655}},{{0.16611, -0.177835, -0.0384244, 0.20957, 0.295102},{0.0315874, -0.189245, 0.0916268, -0.0153294, -0.0619332},{-0.0287145, -0.32053, -0.0203595, -0.05846, -0.0941725},{-0.240367, -0.246881, -0.0536145, -0.048281, -0.250404},{-0.196124, -0.113277, -0.148265, -0.0798971, -0.200454}},{{-0.0287232, -0.0534751, -0.128599, -0.157294, 0.0279795},{0.080569, -0.142872, -0.0238009, 0.0209582, 0.0138886},{-0.0704962, -0.166923, 0.173035, 0.0783086, -0.0131765},{-0.094786, -0.010272, 0.00446273, -0.0687187, -0.00130252},{-0.0474363, 0.0602918, -0.0204654, -0.0125003, -0.0187084}},{{0.0323294, 0.047029, 0.025425, 0.00202473, -0.0139537},{0.0149134, 0.0233069, 0.0301405, 0.0191441, 0.103646},{-0.0231095, 0.136383, 0.0176123, -0.123589, -0.0608785},{-0.054272, 0.164411, -0.0831616, 0.053993, -0.0509725},{0.0506318, 0.0112089, 0.0584746, 0.128254, 0.0491131}},{{0.10543, -0.0522101, -0.0933127, -0.041915, 0.0675785},{0.0973044, -0.000440631, -0.011989, -0.0614305, 0.000939527},{0.0302037, -0.0171251, -0.0823747, 0.00434778, -0.0580576},{0.00588694, -0.0348043, 0.0465786, 0.116703, 0.0802154},{-0.027686, 0.0819166, 0.1231, 0.00273088, 0.118521}},{{0.0707456, 0.0747052, 0.0658723, -0.111295, -0.0111421},{0.164547, 0.13202, 0.0214965, -0.123253, 0.0285198},{0.198542, -0.00763734, 0.0468534, -0.0226308, -0.0778749},{0.123513, 0.0198033, 0.0745755, -0.00781344, -0.0219797},{0.0980913, -0.0840027, 0.143071, -0.0179059, -0.0643576}}},{{{-0.0127664, 0.0708241, -0.0532108, -0.107884, 0.0153186},{0.00821942, 0.0187836, 0.0649163, -0.0631211, -0.000753712},{-0.0947621, -0.153074, -0.114102, -0.00505697, 0.0227641},{-0.0175101, -0.105016, 0.0232986, 0.0229431, -0.00753246},{0.0039268, -0.0152001, -0.0684588, -0.0808882, -0.088869}},{{-0.0985737, -0.107092, 0.000172298, -0.158665, 0.0153984},{0.0280994, -0.00539674, -0.0179821, -0.128481, 0.0225494},{0.0704439, 0.0898147, 0.0934945, -0.0732724, -0.144264},{-0.101957, -0.0824765, -0.008026, -0.084337, 0.0127313},{-0.0131972, -0.0214325, -0.0814771, -0.00267536, 0.0148881}},{{-0.0967123, -0.116459, -0.129716, -0.1627, 0.0858143},{0.0285505, -0.179793, -0.0430133, -0.0129181, 0.0187994},{-0.145076, -0.100257, -0.0411954, 0.0975937, -0.110246},{-0.0623691, 0.0990596, 0.0010419, -0.0788009, -0.126703},{-0.0652662, 0.0685771, 0.0813517, -0.053574, 0.0174222}},{{-0.0945103, -0.0398473, -0.0749687, -0.104287, -0.167276},{-0.136902, -0.0343525, -0.0740736, -0.096417, -0.14195},{-0.037113, 0.00278924, -0.157419, -0.00201406, 0.0586825},{-0.0381606, -0.129808, -0.0861627, -0.158871, 0.0683362},{0.0202781, -0.0808708, -0.0801663, -0.108516, -0.137609}},{{-0.0468771, -0.0454765, 0.0087258, 0.0206858, -0.0236095},{0.0589784, -0.0014874, -0.103067, -0.0512966, -0.182509},{0.0804152, 0.00303145, -0.0243858, -0.0213431, -0.0422859},{-0.142735, -0.0345454, -0.0904369, -0.144575, -0.160199},{-0.0797607, -0.0674096, 0.0703939, -0.0445425, 0.0509925}},{{-0.0404334, -0.0610879, -0.053788, -0.133708, -0.112979},{-0.0542541, 0.0646651, 0.0289004, 0.0640439, -0.0360216},{0.0106462, -0.0903596, -0.0437141, 0.0794916, 0.100559},{-0.0883645, -0.0960646, -0.0248774, 0.0417907, -0.0514112},{-0.00312966, 0.0190895, 0.0186544, -0.0148745, -0.0627911}}}};
	unsigned char w5_oc[120][16][5][5] = {{{{144,18,21,82,121},{255,13,0,131,175},{125,22,104,129,193},{166,1,149,194,239},{86,10,119,181,110}},{{2,34,81,217,183},{255,3,236,102,79},{87,199,98,134,154},{209,161,116,82,146},{229,201,56,10,0}},{{133,19,84,58,153},{143,255,50,92,31},{92,252,206,253,164},{9,92,160,177,55},{95,0,17,69,108}},{{171,74,0,39,144},{251,128,180,59,153},{99,197,124,136,139},{184,92,252,186,232},{235,24,179,53,255}},{{17,0,255,93,60},{171,171,117,21,200},{53,254,130,87,25},{237,100,153,139,126},{87,4,144,85,139}},{{160,94,171,177,159},{173,114,175,30,141},{0,85,124,155,168},{243,182,150,175,255},{144,108,158,189,44}},{{8,40,200,6,135},{45,0,255,72,68},{139,28,201,186,13},{139,143,205,209,109},{169,202,244,26,18}},{{193,68,127,234,77},{194,233,152,106,212},{194,228,159,248,188},{255,210,32,70,14},{249,15,108,0,26}},{{255,57,24,56,221},{100,179,244,127,75},{90,74,92,129,66},{16,239,156,190,209},{6,0,121,8,73}},{{99,0,101,129,125},{255,59,45,166,116},{122,45,0,42,154},{135,124,143,102,218},{68,139,55,129,129}},{{175,70,55,47,120},{94,255,28,100,126},{174,88,132,124,47},{191,0,175,19,26},{177,133,63,157,230}},{{121,255,192,26,60},{241,163,171,144,171},{255,0,240,4,47},{83,161,51,61,3},{157,48,20,59,158}},{{255,203,83,30,47},{188,174,79,113,166},{103,245,134,76,151},{228,149,0,158,144},{152,254,77,155,15}},{{235,38,0,253,130},{55,102,234,148,230},{129,239,172,18,194},{226,80,155,76,33},{134,72,255,19,108}},{{110,27,13,251,35},{41,44,150,176,197},{145,103,225,222,56},{123,160,120,0,45},{129,163,223,24,255}},{{167,127,42,32,34},{29,21,5,118,0},{255,64,10,5,96},{36,47,84,85,38},{36,35,43,78,128}}},{{{197,139,221,242,193},{224,194,120,65,169},{30,20,0,143,186},{149,98,77,186,175},{198,102,255,102,186}},{{186,14,32,152,237},{193,253,0,219,177},{202,139,170,251,152},{184,55,253,218,207},{255,183,213,114,157}},{{37,196,116,34,121},{255,163,85,23,164},{16,101,166,32,144},{93,147,88,0,174},{130,250,48,186,174}},{{55,66,104,207,97},{94,146,94,255,104},{15,40,157,209,0},{105,109,186,48,216},{115,117,193,141,43}},{{185,255,221,196,200},{97,202,233,212,131},{183,205,199,168,149},{219,219,210,189,40},{145,255,113,0,123}},{{217,116,158,245,0},{116,208,214,247,122},{125,104,249,193,221},{251,174,243,255,158},{80,106,6,233,117}},{{248,37,108,241,226},{152,248,219,112,24},{43,255,59,111,201},{0,80,47,228,4},{203,144,251,208,201}},{{127,204,131,29,40},{17,218,221,44,83},{45,26,255,175,116},{219,144,117,0,117},{52,180,43,22,76}},{{199,133,211,172,221},{220,153,135,161,226},{81,93,41,240,148},{188,28,52,197,194},{147,0,243,232,255}},{{165,133,250,116,163},{51,210,210,40,158},{65,11,144,74,0},{30,67,255,112,163},{238,125,140,249,82}},{{57,233,180,209,54},{16,213,229,134,51},{113,118,193,208,107},{139,152,236,0,59},{193,255,193,85,178}},{{158,0,137,186,225},{168,251,143,237,248},{3,171,216,255,222},{235,167,151,139,129},{87,169,172,249,236}},{{183,134,199,220,207},{171,147,91,46,113},{144,220,196,23,94},{141,255,215,227,127},{132,201,0,92,90}},{{207,122,125,146,255},{175,60,132,161,137},{81,44,129,68,55},{8,0,110,168,189},{22,179,87,71,129}},{{146,226,230,250,244},{147,166,175,150,10},{3,167,199,230,82},{0,58,157,80,162},{255,205,9,94,135}},{{136,255,214,113,51},{63,204,147,9,112},{43,83,116,83,112},{0,50,95,95,151},{129,212,174,224,83}}},{{{170,234,236,81,75},{192,146,182,118,186},{16,239,159,211,99},{77,0,157,101,188},{255,49,206,162,115}},{{249,229,37,254,173},{157,92,255,223,8},{51,248,212,79,241},{208,94,211,133,231},{9,117,0,243,233}},{{126,159,251,253,18},{143,175,93,85,0},{125,60,95,2,170},{149,63,153,52,255},{37,103,32,129,226}},{{196,120,54,3,207},{198,242,167,143,170},{247,140,140,66,29},{255,111,0,55,227},{110,246,243,105,48}},{{143,189,172,178,206},{163,194,147,158,255},{143,200,159,147,146},{185,180,207,155,51},{253,154,135,98,0}},{{118,68,99,0,49},{255,183,114,149,186},{153,161,92,183,52},{3,93,236,250,238},{119,137,100,248,140}},{{67,225,157,49,99},{127,164,72,73,193},{227,215,8,123,0},{90,2,137,30,9},{99,85,255,188,19}},{{96,191,165,166,79},{130,91,98,109,103},{156,66,156,205,92},{193,59,149,130,206},{194,80,89,255,0}},{{212,0,138,202,64},{191,94,230,97,255},{250,158,232,73,116},{18,144,249,209,94},{251,129,149,157,181}},{{212,136,70,250,106},{240,72,182,86,252},{49,255,65,227,182},{76,249,156,209,35},{67,10,248,140,0}},{{181,196,152,148,144},{102,227,138,222,202},{99,81,110,153,26},{89,142,255,143,0},{137,217,225,217,178}},{{127,147,86,198,133},{189,61,53,92,217},{161,112,192,56,0},{255,168,146,180,30},{15,138,73,121,104}},{{9,142,209,199,204},{57,140,169,255,206},{113,247,142,61,226},{81,86,208,204,242},{0,166,213,139,138}},{{186,255,165,158,75},{149,23,199,171,145},{38,44,203,59,0},{112,174,130,160,221},{186,146,138,84,157}},{{44,143,222,191,104},{95,108,123,107,62},{6,35,255,132,79},{0,144,133,63,93},{102,124,110,96,64}},{{71,105,100,128,0},{198,177,212,251,142},{118,185,114,16,51},{239,252,215,27,185},{254,221,255,182,34}}},{{{89,25,178,0,45},{192,240,189,123,152},{255,211,180,209,157},{172,152,243,171,190},{183,202,152,169,179}},{{172,237,166,47,231},{202,94,243,46,0},{16,51,189,26,140},{191,242,17,159,255},{108,97,142,227,155}},{{144,185,178,255,234},{201,135,122,181,216},{123,90,0,193,178},{140,92,126,68,196},{73,165,59,177,63}},{{151,195,120,73,180},{24,54,103,83,141},{74,103,149,175,0},{228,255,204,140,169},{46,118,42,166,55}},{{102,84,209,255,125},{168,183,128,125,116},{232,169,151,16,252},{162,231,204,82,212},{172,126,108,0,61}},{{0,159,54,255,131},{166,204,8,45,118},{140,84,207,136,82},{71,42,28,140,172},{185,176,62,225,182}},{{47,92,234,97,241},{192,191,126,67,241},{80,111,127,17,162},{174,144,198,141,189},{245,0,255,178,239}},{{179,243,122,199,217},{255,193,204,168,204},{209,163,234,215,109},{125,209,136,251,0},{235,211,139,142,133}},{{109,152,0,191,69},{217,235,20,124,211},{45,143,122,210,245},{225,230,255,116,54},{82,24,203,139,75}},{{138,0,107,119,169},{228,106,168,227,191},{178,222,246,225,130},{182,211,132,143,89},{37,107,218,255,169}},{{126,137,247,192,199},{151,156,202,148,187},{184,129,249,239,0},{167,50,226,160,135},{154,255,227,213,106}},{{255,15,33,235,228},{0,112,53,169,96},{19,158,221,157,56},{22,152,91,238,180},{18,211,192,184,118}},{{114,33,157,107,199},{88,171,188,120,166},{78,159,219,177,218},{152,83,162,181,255},{67,125,201,35,0}},{{195,219,124,176,177},{249,169,177,125,143},{79,85,147,72,183},{0,51,238,46,86},{255,198,147,106,84}},{{174,255,231,210,185},{202,180,158,220,229},{178,0,224,76,179},{207,227,117,183,175},{74,190,215,190,200}},{{147,10,174,158,250},{0,123,220,255,159},{157,184,221,146,161},{179,169,185,182,61},{32,185,57,138,136}}},{{{200,13,27,5,105},{123,64,134,72,52},{173,87,131,169,42},{0,118,164,82,255},{182,80,51,94,220}},{{255,133,0,126,171},{60,160,42,5,118},{160,255,168,28,61},{68,167,206,87,170},{245,67,66,77,233}},{{174,210,215,236,241},{197,165,190,232,97},{25,32,180,82,255},{153,41,182,40,200},{170,126,0,14,222}},{{243,56,254,209,45},{80,239,183,255,32},{0,113,124,202,255},{89,205,23,127,159},{100,188,9,56,235}},{{147,162,242,94,236},{108,201,106,177,250},{225,103,244,0,52},{255,136,111,170,100},{207,238,70,137,136}},{{53,73,107,112,29},{132,178,175,198,131},{32,164,47,154,255},{113,77,0,96,51},{33,84,167,38,30}},{{157,5,160,112,131},{23,83,158,171,141},{49,189,0,255,193},{252,116,4,183,152},{47,255,15,144,98}},{{101,171,65,0,165},{27,232,101,73,149},{255,186,55,2,39},{150,88,82,28,163},{214,29,86,122,135}},{{40,251,0,43,123},{185,43,184,163,110},{136,36,199,55,98},{81,255,249,130,245},{121,0,192,177,146}},{{150,91,92,126,140},{44,255,100,168,0},{88,118,160,67,215},{136,14,0,164,144},{168,72,60,150,32}},{{182,214,101,163,162},{0,45,73,255,215},{46,76,239,39,39},{83,117,44,206,121},{177,132,174,210,101}},{{62,194,105,240,255},{108,125,132,192,3},{0,94,16,115,209},{234,205,16,108,188},{251,136,244,153,106}},{{7,25,39,247,77},{85,0,56,183,79},{238,185,149,207,148},{106,168,56,82,117},{100,99,157,255,221}},{{92,56,68,92,181},{210,87,96,75,13},{192,44,204,54,0},{140,115,179,77,249},{136,255,11,86,134}},{{196,191,64,149,89},{0,67,10,101,183},{45,220,75,0,20},{103,255,25,126,118},{244,78,194,215,114}},{{221,206,157,171,203},{81,245,142,229,194},{143,81,141,0,195},{71,117,218,143,255},{123,170,235,33,230}}},{{{220,72,179,159,220},{83,239,0,255,115},{202,139,152,92,218},{254,128,180,239,107},{251,95,247,157,155}},{{246,14,65,211,176},{134,159,135,227,210},{10,0,139,223,170},{1,248,175,173,147},{6,161,255,90,226}},{{18,38,69,50,151},{0,81,5,103,75},{54,81,170,83,120},{76,35,104,205,145},{76,171,255,12,18}},{{211,22,82,44,51},{97,254,222,61,66},{255,161,122,160,0},{103,107,6,192,193},{40,72,85,100,220}},{{94,169,168,131,18},{154,139,198,0,245},{251,231,152,38,96},{249,34,217,177,169},{231,176,79,255,195}},{{45,73,11,255,168},{186,252,165,235,248},{64,68,254,246,0},{179,216,204,44,150},{22,221,44,185,159}},{{29,237,165,37,68},{229,254,84,44,164},{70,238,0,53,117},{224,149,194,154,95},{251,255,88,201,117}},{{65,180,5,120,212},{137,179,55,189,101},{118,130,138,24,137},{2,32,19,191,98},{185,0,154,234,255}},{{22,69,62,103,108},{49,27,202,67,236},{2,205,255,44,157},{45,96,161,3,0},{99,21,115,159,241}},{{169,141,33,114,119},{214,53,34,161,94},{113,236,86,17,196},{113,151,4,179,0},{48,10,164,179,255}},{{255,129,155,115,0},{150,151,11,85,1},{138,121,171,82,166},{238,36,111,24,85},{190,107,239,255,142}},{{199,190,189,112,33},{118,87,135,255,22},{167,43,163,121,83},{85,103,0,131,47},{158,56,83,61,217}},{{239,96,81,126,50},{168,204,156,6,114},{249,85,206,8,0},{201,19,93,129,111},{156,97,173,250,255}},{{74,36,254,255,214},{10,9,26,105,58},{0,213,47,120,122},{172,33,45,5,43},{11,137,238,196,206}},{{118,255,226,192,171},{106,62,192,58,96},{95,129,196,8,244},{78,224,255,65,53},{105,0,158,155,141}},{{130,61,133,3,129},{224,69,0,76,159},{154,255,167,223,209},{81,11,125,94,63},{144,145,3,142,88}}},{{{51,0,93,174,239},{146,102,59,201,146},{223,157,144,151,147},{52,108,129,184,255},{169,150,174,178,143}},{{229,112,180,186,250},{193,199,124,122,137},{16,0,247,229,255},{126,125,41,146,189},{117,153,201,156,186}},{{152,255,216,233,117},{82,153,150,227,81},{56,131,113,215,190},{181,152,43,0,42},{138,165,12,81,250}},{{219,171,149,141,163},{173,194,222,191,0},{198,43,187,197,247},{213,165,228,255,255},{154,139,255,203,126}},{{207,139,0,234,242},{100,135,143,57,119},{195,152,160,142,51},{255,76,98,116,137},{150,123,100,239,174}},{{155,116,243,102,0},{13,170,252,111,187},{199,234,190,124,109},{249,154,123,255,99},{195,167,235,191,162}},{{252,255,116,111,144},{122,118,104,16,251},{0,102,35,61,156},{46,245,206,224,174},{235,207,122,216,191}},{{32,153,243,113,54},{0,212,12,164,48},{161,51,190,35,216},{11,182,139,153,40},{63,124,255,25,181}},{{228,230,137,255,105},{183,101,125,141,122},{174,36,248,235,229},{136,0,147,166,170},{232,200,247,139,160}},{{210,25,183,20,187},{144,175,51,59,238},{129,30,198,145,167},{255,182,252,186,220},{134,223,80,0,84}},{{101,96,176,51,41},{178,0,223,85,47},{170,247,255,194,190},{65,202,250,34,58},{80,46,10,97,165}},{{192,168,237,219,189},{142,217,196,209,124},{0,150,147,184,90},{226,212,109,199,110},{255,186,216,171,172}},{{132,42,132,18,124},{137,242,33,0,97},{166,219,17,135,38},{201,237,255,161,210},{143,69,127,74,19}},{{110,255,24,227,217},{174,197,178,173,148},{174,225,160,224,160},{200,176,154,55,176},{229,201,190,0,20}},{{212,134,120,145,168},{255,253,226,194,166},{160,227,244,186,245},{0,77,98,146,154},{136,192,249,157,53}},{{139,235,219,119,109},{18,231,126,92,192},{0,132,125,83,116},{109,103,68,199,142},{152,184,255,81,75}}},{{{181,255,57,161,104},{118,61,203,107,181},{135,213,142,167,108},{0,195,128,174,146},{64,147,136,133,178}},{{108,211,157,149,137},{175,127,197,244,0},{146,242,134,218,254},{252,121,155,240,255},{249,174,28,203,131}},{{83,0,231,169,171},{198,110,118,232,199},{149,120,44,153,255},{140,75,120,80,135},{149,79,16,131,201}},{{131,255,61,68,80},{121,158,156,0,126},{23,179,146,229,139},{128,148,120,57,223},{175,113,173,86,241}},{{154,125,0,144,68},{148,238,86,49,32},{201,88,37,79,53},{118,43,92,94,89},{212,163,172,166,255}},{{162,227,56,136,255},{21,25,0,126,182},{237,255,63,203,180},{198,176,174,244,206},{99,4,66,64,61}},{{198,113,238,0,193},{182,76,128,254,82},{255,234,55,48,80},{149,99,43,208,176},{236,183,163,244,82}},{{0,99,159,40,147},{204,196,172,181,119},{131,107,255,32,108},{78,73,38,161,176},{94,126,40,59,71}},{{162,246,82,155,78},{137,116,249,0,104},{190,5,78,120,43},{35,154,83,255,192},{174,11,30,74,87}},{{126,38,119,194,0},{62,71,150,191,128},{255,101,134,219,244},{236,248,63,240,88},{238,201,93,175,133}},{{49,42,42,155,201},{127,0,99,177,156},{146,124,112,255,145},{52,149,160,32,66},{53,200,128,52,52}},{{156,94,134,103,122},{236,142,66,184,217},{106,125,0,234,153},{38,130,166,133,120},{255,156,59,133,102}},{{216,110,114,214,202},{74,152,31,165,164},{178,0,145,225,255},{87,188,92,34,215},{121,119,143,123,123}},{{85,89,22,134,236},{121,121,161,239,255},{158,92,78,167,82},{73,24,103,0,113},{112,170,136,73,88}},{{159,119,150,125,155},{120,95,146,108,150},{102,181,99,0,87},{183,150,104,110,76},{138,255,224,212,127}},{{47,0,24,181,152},{89,255,206,173,195},{217,204,163,143,86},{111,132,217,155,156},{156,163,162,198,174}}},{{{70,107,4,41,165},{13,30,80,136,71},{255,50,57,18,96},{44,65,215,117,78},{179,0,81,88,179}},{{121,66,205,150,55},{79,156,174,174,0},{48,255,126,35,143},{111,146,67,156,42},{136,184,60,0,117}},{{77,137,118,242,149},{86,15,255,213,142},{95,121,100,227,182},{177,142,34,59,255},{32,6,0,141,235}},{{53,145,137,207,89},{40,138,233,171,129},{99,120,237,254,20},{62,0,255,69,27},{126,38,10,117,22}},{{124,132,25,78,39},{6,0,255,57,6},{27,99,85,133,222},{45,15,129,10,42},{121,113,51,41,71}},{{132,255,91,200,251},{82,26,17,34,139},{176,85,68,0,191},{203,24,98,237,149},{189,199,10,249,20}},{{81,148,180,214,149},{108,144,162,181,38},{88,255,93,100,164},{49,0,104,35,115},{71,183,247,2,68}},{{21,36,33,226,181},{33,16,231,0,118},{255,88,106,77,230},{39,5,123,32,140},{106,108,115,78,30}},{{23,4,57,164,67},{42,53,255,83,111},{115,7,37,112,45},{145,18,6,56,112},{93,142,91,0,190}},{{37,118,13,39,164},{117,176,7,61,124},{246,42,78,255,94},{236,242,145,216,178},{71,0,166,53,19}},{{170,21,3,114,24},{231,130,137,128,64},{202,249,86,96,35},{87,255,49,89,103},{152,15,0,22,113}},{{99,170,160,156,230},{164,255,9,0,231},{134,140,2,229,92},{56,227,100,162,58},{132,155,247,93,95}},{{91,104,247,107,0},{84,255,37,118,22},{90,73,102,122,99},{179,36,7,27,112},{86,187,121,59,82}},{{112,134,140,62,31},{137,44,122,255,22},{105,84,7,98,63},{59,127,0,121,47},{136,122,122,9,130}},{{0,145,115,16,79},{82,76,60,52,102},{96,66,144,48,33},{255,143,139,60,89},{77,155,121,12,30}},{{168,255,34,95,51},{83,23,36,117,224},{114,34,18,110,123},{0,115,21,19,205},{195,96,62,196,126}}},{{{231,159,222,255,113},{82,161,171,116,137},{171,97,139,212,75},{66,221,146,151,123},{0,151,178,145,104}},{{170,190,183,153,148},{185,95,136,169,151},{73,173,138,170,137},{255,162,188,145,145},{157,0,153,197,164}},{{14,46,154,129,255},{133,17,173,134,188},{145,67,92,221,219},{0,46,3,231,178},{192,90,177,53,0}},{{129,155,99,144,64},{64,183,149,89,0},{111,200,201,51,89},{175,174,255,216,174},{202,112,252,198,109}},{{63,132,127,172,225},{148,116,117,183,137},{154,69,73,255,128},{144,91,139,149,173},{176,2,76,0,131}},{{255,134,18,89,213},{115,121,24,98,146},{118,114,0,22,72},{196,27,233,25,71},{128,41,139,191,32}},{{12,90,194,20,27},{114,97,110,213,63},{133,102,255,46,100},{216,26,118,0,154},{60,37,43,67,196}},{{223,68,22,226,148},{113,39,76,255,153},{194,254,197,234,171},{192,153,59,135,0},{174,143,136,133,238}},{{139,127,93,49,86},{145,255,88,70,133},{154,213,148,0,105},{72,89,35,62,173},{73,109,172,145,155}},{{59,66,45,25,79},{0,84,18,132,61},{112,41,100,112,0},{133,90,157,216,255},{179,160,60,57,143}},{{204,89,153,167,166},{158,115,169,117,99},{181,62,255,97,106},{0,109,127,67,153},{122,168,20,168,77}},{{198,157,109,114,100},{162,188,96,131,144},{59,69,21,66,62},{164,138,6,27,7},{71,144,255,0,124}},{{139,52,47,106,82},{237,0,12,24,102},{104,98,79,127,126},{255,189,146,152,54},{147,38,32,6,207}},{{64,131,87,168,83},{183,251,180,64,175},{233,255,121,136,114},{134,139,39,0,112},{166,100,50,36,29}},{{178,144,9,93,181},{255,250,221,208,160},{230,186,172,199,197},{0,103,104,79,97},{193,125,156,110,23}},{{177,41,32,255,228},{66,252,105,241,76},{163,190,234,169,97},{194,187,124,132,113},{14,197,236,0,158}}},{{{78,133,190,179,0},{75,165,175,255,86},{75,131,179,225,240},{165,230,214,229,241},{166,171,158,202,154}},{{249,218,130,149,1},{161,231,233,149,114},{241,182,189,163,160},{155,179,158,45,240},{197,255,139,221,0}},{{85,163,151,198,236},{133,127,99,125,255},{89,0,99,198,229},{100,19,61,64,222},{139,175,159,75,121}},{{93,117,98,125,56},{92,94,27,50,49},{125,102,53,0,29},{94,136,110,122,126},{103,100,191,255,182}},{{190,137,160,151,193},{193,210,236,181,214},{183,209,245,187,185},{164,201,210,166,114},{195,255,236,0,24}},{{120,0,130,77,130},{137,219,41,154,218},{226,196,22,255,65},{125,30,2,139,246},{219,216,8,131,163}},{{215,152,226,255,77},{0,146,233,158,112},{199,249,160,64,53},{211,177,38,136,205},{67,38,0,210,60}},{{172,117,169,255,114},{245,79,99,213,91},{108,231,223,134,90},{35,111,75,240,0},{6,8,203,109,242}},{{173,255,161,136,170},{188,171,0,91,153},{152,27,90,197,77},{182,114,87,180,162},{202,129,183,186,152}},{{86,61,66,77,48},{0,10,145,172,91},{12,17,110,247,201},{203,95,238,255,138},{199,138,233,250,234}},{{154,50,93,43,250},{172,1,32,154,212},{226,189,89,244,255},{55,211,0,71,104},{216,176,114,21,62}},{{140,191,255,217,167},{40,92,128,158,108},{38,147,215,155,0},{79,153,159,157,9},{122,179,190,238,175}},{{94,189,152,89,101},{157,96,100,91,165},{235,255,82,0,237},{247,65,75,98,222},{133,114,17,21,113}},{{175,202,255,143,20},{158,194,166,89,9},{143,178,191,168,195},{0,120,157,207,234},{143,63,156,153,204}},{{190,161,130,0,107},{158,146,108,158,142},{59,176,255,217,123},{89,98,147,110,170},{146,119,61,147,152}},{{44,67,24,120,91},{23,45,62,133,82},{100,246,0,88,8},{227,245,255,169,40},{162,152,96,45,4}}},{{{225,0,74,102,188},{181,121,188,204,255},{104,247,181,130,168},{252,144,108,166,121},{134,89,151,148,134}},{{122,116,249,57,111},{70,4,83,67,122},{0,83,28,208,93},{168,34,255,167,132},{89,160,158,65,86}},{{124,25,71,15,136},{246,0,4,135,255},{219,88,147,57,194},{252,19,82,87,225},{30,35,142,149,28}},{{3,36,255,54,87},{21,42,92,100,104},{99,102,46,91,129},{26,113,18,67,3},{27,45,12,0,13}},{{86,85,126,245,100},{14,13,2,0,218},{43,115,132,255,40},{60,97,16,224,129},{75,121,177,74,26}},{{29,130,29,0,5},{24,13,170,7,255},{92,92,91,28,106},{14,10,116,41,103},{70,131,119,116,55}},{{103,141,165,178,118},{163,5,142,57,76},{13,104,120,51,240},{21,254,0,220,133},{139,255,177,94,48}},{{197,78,97,104,68},{206,4,223,184,129},{37,160,255,132,176},{192,138,131,155,1},{133,185,112,0,84}},{{85,0,25,88,99},{121,22,210,115,128},{28,97,49,5,32},{220,113,72,68,76},{255,113,18,97,69}},{{124,102,64,255,72},{214,4,24,201,163},{117,135,0,163,134},{109,66,199,75,191},{42,124,116,0,129}},{{79,135,41,250,238},{78,243,0,216,249},{125,120,33,231,130},{179,51,233,235,99},{210,37,255,237,144}},{{199,74,169,35,52},{121,196,125,36,18},{108,0,125,8,89},{79,52,59,13,30},{79,163,255,110,59}},{{171,71,3,92,251},{175,3,128,93,194},{141,106,0,143,120},{71,255,217,251,79},{111,167,20,60,203}},{{240,107,55,130,1},{174,89,106,78,69},{66,32,122,104,201},{34,55,0,87,30},{98,255,32,86,13}},{{30,152,104,136,255},{115,97,124,157,95},{34,117,133,222,112},{64,22,2,42,11},{84,26,126,0,27}},{{78,158,255,53,185},{136,115,182,245,11},{166,3,250,49,70},{0,158,232,34,172},{147,213,30,109,113}}},{{{94,73,133,0,134},{255,141,160,187,193},{134,143,83,97,188},{19,4,170,185,143},{117,48,23,252,174}},{{113,146,246,80,113},{28,155,192,176,255},{196,190,205,4,0},{220,107,2,111,106},{226,245,138,57,142}},{{18,0,128,27,156},{40,52,209,36,125},{192,3,162,62,96},{255,145,104,49,77},{6,75,74,114,196}},{{139,139,76,144,34},{76,244,79,142,0},{95,111,37,84,184},{167,30,234,114,131},{185,16,231,255,63}},{{208,252,91,254,82},{0,242,11,93,161},{163,58,255,89,4},{185,78,6,55,55},{238,244,140,204,8}},{{0,196,9,175,51},{169,181,255,196,231},{117,195,254,40,121},{15,161,39,164,34},{161,141,246,169,124}},{{132,67,0,77,86},{93,255,33,179,110},{88,29,172,189,58},{207,6,155,132,170},{65,185,119,18,237}},{{255,151,62,167,0},{23,78,111,114,93},{200,150,107,66,226},{88,81,227,219,26},{129,46,43,55,15}},{{178,255,183,23,202},{159,94,60,220,155},{178,38,182,239,211},{67,160,45,105,55},{0,115,151,59,142}},{{55,79,82,175,0},{208,163,18,16,86},{94,4,107,118,232},{25,80,36,86,255},{8,120,108,113,101}},{{104,90,118,40,99},{76,217,67,117,22},{101,255,51,4,170},{124,180,98,0,102},{109,96,41,47,113}},{{73,228,162,156,162},{128,46,108,0,97},{96,197,109,140,91},{107,108,118,97,10},{203,4,255,113,68}},{{143,177,130,76,107},{183,41,253,119,32},{212,65,139,12,28},{170,50,68,99,56},{201,143,97,0,255}},{{126,230,0,83,212},{133,94,131,15,163},{152,234,115,150,197},{255,216,187,192,97},{108,144,200,241,236}},{{172,68,201,34,186},{2,80,70,37,62},{104,65,20,240,239},{83,202,94,101,147},{27,0,255,160,178}},{{127,255,23,7,0},{26,56,5,20,94},{133,15,58,112,126},{60,49,64,125,127},{196,76,109,152,172}}},{{{159,106,121,150,186},{14,129,140,179,127},{255,168,200,202,154},{0,103,141,158,75},{60,231,209,159,142}},{{70,255,129,1,78},{85,106,94,0,92},{69,94,19,97,40},{185,50,62,94,85},{4,87,94,118,50}},{{136,12,77,255,200},{88,116,0,27,199},{106,40,23,217,80},{100,83,51,196,182},{120,47,211,29,66}},{{71,98,214,0,187},{83,178,8,121,139},{64,160,195,195,228},{157,255,34,137,190},{126,134,181,11,120}},{{0,115,74,45,180},{132,246,21,255,100},{200,128,73,113,162},{170,56,44,197,24},{38,223,198,114,228}},{{0,134,119,16,225},{116,36,217,174,46},{193,9,154,190,230},{146,178,10,186,255},{125,147,136,151,43}},{{109,110,255,229,8},{111,48,19,27,35},{64,104,143,49,9},{127,41,13,124,113},{134,116,105,68,0}},{{108,122,45,2,120},{187,148,0,49,23},{159,114,255,116,3},{61,70,121,25,141},{62,20,68,173,223}},{{67,190,74,255,44},{73,158,85,55,155},{169,125,196,173,101},{197,81,20,0,36},{43,198,190,27,37}},{{92,81,20,64,0},{11,46,118,121,7},{146,216,74,255,255},{93,66,42,131,135},{35,76,37,223,211}},{{116,44,90,41,77},{207,0,118,128,230},{188,215,50,128,255},{169,65,100,60,239},{156,79,26,206,209}},{{190,189,138,168,94},{196,252,99,12,139},{88,145,208,16,247},{121,69,166,0,195},{153,119,83,170,255}},{{85,150,105,98,58},{177,104,168,87,245},{190,71,0,104,94},{93,90,28,255,238},{91,71,97,170,78}},{{175,9,245,173,244},{0,232,6,8,4},{194,116,12,193,238},{255,133,54,41,202},{138,203,18,223,181}},{{82,6,34,237,211},{254,150,240,109,255},{14,179,0,243,83},{62,71,109,125,109},{245,7,110,1,75}},{{71,255,173,35,250},{125,172,117,127,84},{136,100,102,153,86},{219,249,178,161,62},{0,23,6,123,96}}},{{{91,140,111,112,188},{110,0,150,120,229},{217,243,174,124,63},{168,185,247,255,240},{243,206,195,248,45}},{{63,83,110,136,162},{86,32,107,82,204},{71,6,85,255,0},{178,26,224,215,200},{224,100,7,246,57}},{{64,10,10,72,23},{250,50,82,140,208},{57,151,218,154,0},{99,194,255,253,81},{68,143,162,252,186}},{{184,127,216,147,144},{206,210,89,0,91},{227,136,203,15,255},{30,29,92,24,82},{140,241,168,38,51}},{{145,24,140,0,115},{233,193,61,84,197},{230,141,15,135,147},{255,86,141,92,130},{77,45,155,199,58}},{{205,82,129,79,83},{0,65,104,4,12},{106,247,187,204,171},{168,7,210,7,255},{181,196,124,167,194}},{{2,73,86,47,138},{14,145,0,252,74},{26,24,163,116,41},{160,90,209,255,190},{64,122,73,186,96}},{{160,88,61,150,231},{189,209,182,157,234},{243,193,0,178,167},{193,233,6,165,255},{119,107,164,154,155}},{{81,136,153,28,149},{68,95,159,255,151},{197,135,233,9,0},{192,159,99,111,83},{83,15,140,40,54}},{{55,35,250,87,133},{0,166,75,99,172},{188,141,101,95,255},{215,27,37,168,18},{84,142,1,116,134}},{{176,255,81,225,233},{164,162,254,233,130},{108,88,0,211,169},{214,158,160,76,197},{80,188,91,162,81}},{{243,33,78,143,146},{116,114,255,125,4},{99,224,87,144,195},{226,93,0,40,12},{86,223,3,142,17}},{{199,162,0,139,122},{123,255,154,191,31},{174,63,58,215,76},{164,134,66,134,65},{174,176,223,98,219}},{{193,219,81,61,235},{206,151,225,255,159},{50,132,0,44,104},{13,35,131,13,185},{179,60,199,113,79}},{{83,33,255,87,153},{102,152,251,175,0},{134,61,116,80,146},{109,22,29,155,144},{54,168,132,98,103}},{{178,1,0,231,227},{88,77,200,81,178},{88,176,35,129,255},{111,182,160,13,173},{115,48,91,190,2}}},{{{244,82,212,94,190},{210,214,72,0,59},{44,86,88,117,191},{98,255,1,191,125},{124,43,240,147,97}},{{116,167,200,0,148},{46,143,76,178,100},{131,119,191,207,177},{72,122,21,39,135},{138,255,174,104,135}},{{127,199,218,103,190},{121,0,93,255,175},{168,187,135,217,199},{210,132,128,163,132},{196,44,20,217,164}},{{126,189,126,248,16},{0,0,214,58,243},{9,255,13,242,73},{29,82,229,98,35},{181,90,85,90,212}},{{60,176,82,123,137},{75,1,149,87,6},{148,18,17,210,49},{255,70,220,0,26},{214,116,55,84,98}},{{162,115,219,87,212},{36,127,255,5,194},{100,76,183,26,0},{35,136,79,208,13},{87,41,87,135,173}},{{240,220,106,4,180},{159,142,74,251,140},{38,77,188,0,84},{113,255,126,84,123},{252,248,220,218,150}},{{124,0,107,47,36},{9,25,227,41,14},{132,225,176,0,191},{68,127,80,5,159},{96,159,41,255,79}},{{165,231,36,229,0},{202,199,169,138,55},{149,211,105,176,152},{10,103,255,113,6},{153,58,126,155,9}},{{219,253,80,220,37},{93,175,138,175,241},{160,98,255,244,41},{0,185,191,103,205},{135,44,105,35,138}},{{154,148,124,185,153},{122,29,21,69,125},{12,255,22,196,188},{67,0,125,140,33},{74,240,230,103,141}},{{203,255,119,135,56},{135,82,73,158,50},{79,98,19,43,239},{0,175,97,205,10},{108,179,202,63,137}},{{137,205,53,219,191},{51,234,222,60,11},{0,232,69,62,176},{139,86,105,235,4},{240,255,103,209,102}},{{122,0,193,141,190},{36,163,25,154,10},{134,43,74,37,41},{5,13,255,249,169},{134,98,5,12,244}},{{1,254,204,239,101},{255,17,73,33,123},{170,197,103,235,14},{184,93,232,0,5},{61,99,123,22,111}},{{96,200,50,24,0},{125,149,19,139,33},{34,96,65,20,130},{140,242,109,137,250},{255,171,237,8,152}}},{{{82,111,52,128,142},{145,90,110,91,108},{196,0,61,128,160},{255,30,177,142,206},{29,51,76,184,116}},{{17,255,178,97,56},{116,84,21,238,26},{23,77,105,8,115},{76,123,47,16,46},{94,32,116,0,77}},{{98,67,108,187,187},{72,66,39,255,161},{92,126,0,139,179},{116,138,136,127,185},{45,70,131,94,67}},{{164,34,121,255,169},{42,56,2,94,85},{137,186,196,104,60},{108,102,39,192,0},{195,17,203,37,147}},{{167,166,190,99,0},{98,83,191,255,105},{101,124,117,188,74},{43,32,184,111,100},{3,147,171,12,123}},{{9,0,70,129,215},{10,73,7,31,48},{42,189,230,170,255},{131,191,45,227,120},{61,236,247,26,84}},{{101,7,255,245,226},{38,161,118,16,78},{70,131,16,0,114},{15,71,128,39,28},{78,51,34,3,80}},{{140,31,118,29,255},{74,30,122,51,94},{131,10,39,16,0},{55,28,44,0,131},{45,131,72,1,8}},{{37,30,89,198,27},{136,243,61,31,0},{189,16,254,40,115},{167,213,165,101,128},{213,220,197,149,255}},{{41,36,8,94,26},{116,87,100,18,101},{255,119,0,29,95},{180,17,4,100,239},{49,37,114,113,135}},{{126,17,64,40,128},{231,171,50,127,158},{241,53,6,38,239},{193,88,110,135,131},{255,87,0,28,13}},{{77,91,176,191,99},{126,213,45,255,108},{136,87,116,5,25},{84,121,56,107,36},{151,98,0,44,118}},{{195,77,22,18,64},{123,255,64,6,13},{102,57,25,45,134},{71,62,118,121,75},{183,107,11,0,45}},{{234,105,155,223,254},{255,25,56,182,193},{211,217,217,39,227},{14,80,152,233,126},{124,0,28,181,239}},{{99,126,168,53,0},{6,164,231,204,239},{95,63,211,199,118},{162,117,84,82,247},{206,110,255,226,122}},{{133,255,18,104,76},{40,3,29,66,46},{125,52,20,64,175},{91,0,110,97,6},{128,58,8,55,80}}},{{{171,148,48,130,177},{218,157,255,179,184},{0,175,46,235,143},{18,240,3,153,53},{109,254,190,43,172}},{{131,95,139,21,14},{0,75,255,64,98},{75,183,173,11,136},{100,66,109,126,80},{138,96,70,57,143}},{{120,14,208,56,124},{214,101,255,70,0},{235,4,122,145,23},{241,57,72,255,131},{136,115,15,150,189}},{{61,12,105,184,67},{254,86,118,42,249},{16,19,137,177,0},{144,175,202,243,131},{130,255,234,104,109}},{{128,34,255,125,56},{61,54,69,0,106},{59,117,25,102,44},{50,36,240,90,67},{58,7,80,114,113}},{{117,184,95,129,243},{97,0,88,217,15},{133,103,123,88,216},{255,155,177,134,154},{89,215,201,84,139}},{{51,8,66,0,42},{131,70,25,255,82},{96,176,21,229,242},{70,105,32,106,16},{37,54,79,197,85}},{{206,139,111,252,157},{174,3,84,108,254},{0,83,48,255,138},{221,172,11,47,225},{37,179,175,167,77}},{{134,151,136,130,164},{2,32,117,90,51},{132,20,255,0,37},{5,172,102,153,149},{98,74,91,30,144}},{{151,125,127,250,41},{193,237,255,237,24},{0,70,59,38,235},{148,22,13,93,128},{227,159,224,86,130}},{{100,220,70,165,9},{0,182,200,199,55},{98,215,129,65,203},{207,248,116,10,249},{78,142,206,6,255}},{{221,118,112,137,209},{122,134,179,38,82},{238,163,198,118,49},{212,201,167,141,110},{228,255,4,0,52}},{{141,155,8,170,255},{161,75,241,165,168},{168,86,38,14,235},{192,252,126,0,132},{138,89,148,182,232}},{{102,42,138,90,104},{142,42,122,82,204},{255,112,0,29,39},{183,87,107,127,120},{125,60,141,131,86}},{{108,56,8,76,84},{165,29,148,137,53},{244,170,36,136,158},{21,153,116,63,14},{255,0,10,157,32}},{{105,93,13,67,0},{106,237,202,211,243},{255,58,200,212,149},{9,90,209,222,156},{198,210,209,147,139}}},{{{46,73,136,255,1},{119,97,146,141,17},{137,188,133,167,9},{100,58,241,11,72},{115,229,144,0,104}},{{116,134,159,110,152},{140,175,176,248,255},{94,131,0,138,235},{202,104,126,129,137},{119,254,123,183,198}},{{252,255,145,145,160},{216,175,110,213,151},{211,186,143,123,192},{150,108,188,28,185},{180,180,201,0,159}},{{188,27,47,111,255},{28,90,163,206,169},{218,125,205,156,222},{34,27,242,65,19},{0,51,35,221,78}},{{185,148,212,82,255},{120,116,185,13,162},{138,150,201,120,0},{143,137,147,62,42},{81,190,171,227,187}},{{198,237,114,60,219},{224,40,188,148,20},{165,214,95,102,185},{86,78,0,255,63},{152,176,17,218,56}},{{56,23,90,51,32},{159,204,117,181,13},{177,212,171,221,228},{187,225,143,157,200},{68,164,99,255,0}},{{99,247,24,186,2},{245,154,82,55,255},{1,233,211,239,136},{0,5,100,27,33},{218,252,234,142,78}},{{106,129,124,197,149},{37,142,241,255,8},{220,130,207,80,84},{194,216,137,21,158},{213,35,206,0,197}},{{255,196,199,174,116},{154,134,245,200,255},{227,178,158,247,113},{0,236,181,173,149},{119,221,113,125,138}},{{160,186,232,249,129},{161,255,204,165,230},{217,99,139,200,204},{140,0,188,243,150},{169,124,223,167,127}},{{98,67,92,165,110},{167,146,167,167,37},{39,108,127,209,65},{164,174,104,31,97},{255,28,0,219,149}},{{117,0,149,255,96},{26,159,185,207,252},{128,121,174,228,109},{35,192,171,253,161},{117,45,237,224,183}},{{73,149,247,52,0},{135,194,158,123,255},{150,143,114,196,114},{20,182,90,166,124},{137,176,121,107,47}},{{122,31,30,0,119},{187,146,83,82,184},{173,188,222,175,149},{112,64,151,134,89},{91,255,194,184,154}},{{183,178,147,139,197},{238,170,162,204,111},{255,215,216,130,40},{232,134,107,219,46},{0,184,247,112,136}}},{{{28,246,171,42,18},{126,36,1,255,118},{207,155,58,184,217},{0,2,227,135,128},{17,223,250,173,147}},{{172,97,32,146,71},{255,217,190,42,85},{147,21,107,72,128},{0,120,41,17,35},{73,81,104,125,47}},{{127,213,136,255,236},{160,4,26,244,63},{104,189,206,94,180},{14,160,144,118,168},{130,124,72,0,244}},{{176,75,175,0,143},{14,56,255,83,180},{74,206,185,141,17},{156,12,238,196,221},{158,214,116,197,78}},{{219,113,173,78,223},{73,131,221,250,38},{255,197,181,2,0},{172,178,181,160,171},{11,15,27,112,154}},{{53,143,44,47,13},{10,169,164,221,9},{203,54,30,134,150},{20,242,108,35,0},{193,28,144,255,211}},{{110,126,239,43,173},{70,255,189,182,132},{185,23,97,158,153},{136,142,164,194,70},{42,173,110,36,0}},{{87,162,28,166,149},{84,93,100,35,134},{189,37,5,61,107},{44,67,91,0,255},{151,62,40,88,173}},{{145,28,100,101,51},{0,196,196,189,82},{179,18,21,126,146},{218,222,255,170,202},{155,106,55,39,18}},{{123,246,229,111,221},{71,0,138,133,219},{105,118,153,125,89},{250,231,219,215,142},{206,98,91,255,89}},{{217,95,155,113,36},{76,78,96,33,56},{57,242,113,46,101},{160,255,0,111,132},{134,115,104,120,113}},{{163,168,255,102,63},{111,180,149,0,76},{167,237,242,250,165},{103,86,157,84,234},{134,119,235,186,176}},{{93,208,80,0,55},{118,100,23,100,114},{255,106,246,105,32},{163,30,253,18,250},{84,137,34,55,179}},{{10,196,152,52,62},{255,86,115,238,2},{0,10,119,134,47},{120,58,237,184,228},{37,108,39,36,174}},{{150,193,74,0,176},{178,136,127,233,32},{21,35,57,88,160},{135,168,117,105,198},{250,131,223,255,143}},{{184,173,198,171,114},{110,9,185,59,136},{151,119,72,93,254},{183,131,0,255,209},{138,134,170,191,223}}},{{{5,97,35,82,17},{255,151,5,8,154},{94,162,26,0,101},{178,163,85,87,132},{240,121,103,196,251}},{{140,210,4,26,170},{23,132,30,3,163},{176,175,255,202,139},{137,72,172,203,175},{0,84,112,166,132}},{{86,114,155,71,242},{40,93,91,116,233},{65,48,137,149,221},{87,50,0,212,58},{120,16,33,255,90}},{{0,42,198,255,37},{11,130,167,127,24},{192,84,125,35,231},{137,209,176,20,231},{66,123,191,214,85}},{{149,190,251,204,20},{2,209,173,214,82},{202,49,111,0,131},{169,255,138,244,168},{195,215,112,135,134}},{{120,204,176,65,61},{60,52,48,226,137},{139,243,56,55,255},{204,35,0,140,126},{202,67,82,67,55}},{{100,8,138,111,201},{124,251,4,35,163},{100,214,39,255,218},{40,18,179,223,16},{193,206,224,0,232}},{{191,78,131,167,62},{112,110,105,81,49},{167,158,181,50,75},{242,251,0,55,154},{166,185,73,46,255}},{{29,15,121,191,161},{113,212,180,107,33},{240,42,155,255,0},{111,176,85,55,55},{3,36,191,7,143}},{{255,128,31,10,106},{55,137,127,0,92},{93,82,100,210,125},{26,73,93,10,105},{118,73,69,252,9}},{{255,137,193,6,89},{199,104,193,182,51},{9,69,28,134,15},{121,11,0,169,225},{30,238,196,114,193}},{{161,72,251,144,140},{165,156,211,47,42},{179,173,255,214,127},{101,79,123,122,128},{143,246,57,0,219}},{{205,187,188,167,61},{176,225,9,148,4},{198,171,0,105,39},{214,92,192,155,229},{184,62,248,255,197}},{{212,123,51,183,201},{0,6,182,116,79},{255,146,192,158,71},{44,160,62,115,151},{195,66,82,60,105}},{{86,17,238,87,228},{86,129,71,0,38},{209,125,36,25,172},{205,219,151,255,218},{21,173,132,163,223}},{{223,144,169,196,94},{212,39,226,72,179},{0,242,101,174,174},{255,84,169,12,235},{199,160,37,91,82}}},{{{231,205,30,132,55},{113,255,216,165,59},{190,63,210,252,187},{0,133,107,117,183},{25,239,190,90,52}},{{73,52,63,55,0},{74,77,220,116,73},{2,93,255,72,41},{52,61,197,172,50},{112,18,28,158,63}},{{199,127,196,0,107},{222,54,143,91,236},{157,127,254,224,93},{169,108,23,185,159},{230,69,24,255,165}},{{128,42,21,47,145},{75,145,157,46,180},{0,119,255,21,146},{77,189,178,168,58},{65,116,179,178,95}},{{63,66,71,1,151},{61,153,2,148,4},{255,115,97,234,88},{110,5,96,94,146},{36,151,0,139,16}},{{202,80,116,244,0},{254,108,222,46,118},{65,119,195,196,191},{25,135,255,77,177},{234,76,121,233,128}},{{76,47,8,28,11},{100,0,130,165,39},{3,123,69,133,146},{75,60,3,168,246},{77,46,59,225,255}},{{0,43,41,158,204},{255,26,61,229,1},{191,8,128,203,179},{156,230,17,193,154},{146,228,125,127,218}},{{9,127,122,132,97},{10,74,129,0,49},{108,136,255,111,103},{100,73,27,85,41},{56,72,36,6,21}},{{209,99,51,249,55},{79,129,67,132,114},{35,2,28,164,180},{175,197,0,255,193},{242,249,53,103,145}},{{133,199,82,166,98},{36,164,100,20,166},{71,213,81,73,124},{81,255,16,0,222},{129,78,64,54,125}},{{156,115,172,64,183},{150,0,244,95,130},{142,160,158,63,200},{96,196,178,93,255},{78,129,167,118,108}},{{139,75,45,132,179},{70,54,224,15,221},{66,0,62,83,255},{161,186,80,70,3},{117,109,140,210,56}},{{107,192,44,137,149},{1,170,70,255,125},{168,112,28,216,0},{188,79,76,131,145},{132,157,64,39,38}},{{94,112,74,0,23},{18,103,98,76,3},{28,5,58,212,97},{189,143,127,77,86},{255,82,45,29,72}},{{107,108,47,253,200},{21,146,110,170,129},{231,57,167,165,171},{245,0,153,246,255},{191,177,208,136,187}}},{{{145,27,191,255,70},{97,161,105,170,70},{104,108,107,248,68},{60,230,52,171,111},{0,157,180,96,179}},{{251,246,218,236,8},{138,201,76,22,149},{249,151,45,169,161},{150,68,223,22,93},{255,59,248,0,49}},{{27,67,183,19,28},{32,142,100,115,96},{29,82,126,255,82},{105,58,21,22,12},{41,161,0,92,196}},{{144,158,209,54,120},{208,13,156,150,144},{98,76,197,151,255},{227,223,40,52,51},{57,218,0,113,237}},{{237,99,25,122,33},{242,219,71,0,227},{107,85,212,144,171},{190,104,212,19,130},{130,129,255,43,203}},{{75,0,70,181,102},{255,123,38,171,249},{91,49,38,212,1},{26,71,127,236,86},{186,170,3,34,236}},{{168,34,0,246,123},{106,149,182,243,44},{220,255,26,6,181},{220,191,249,213,68},{161,62,31,182,185}},{{3,126,118,4,255},{207,202,63,165,183},{185,121,62,110,107},{91,177,119,0,176},{203,157,109,126,29}},{{7,85,1,150,91},{28,7,226,132,160},{0,126,123,255,96},{8,246,209,13,149},{16,81,218,112,204}},{{211,123,32,0,21},{78,113,63,51,35},{87,77,8,121,255},{135,8,84,81,167},{87,184,129,111,120}},{{95,255,135,195,64},{113,157,0,147,209},{65,219,47,140,188},{165,34,19,123,218},{197,88,156,19,165}},{{110,98,74,140,117},{146,108,77,31,47},{151,99,198,69,35},{134,255,77,13,0},{129,74,141,16,34}},{{183,160,16,170,174},{255,74,174,84,91},{239,164,30,14,112},{187,100,0,72,80},{227,186,156,200,91}},{{16,158,11,234,250},{113,23,27,135,136},{178,105,150,196,255},{204,244,36,234,108},{0,62,180,246,170}},{{237,27,87,152,86},{36,180,0,135,224},{35,20,101,75,223},{253,161,170,125,18},{219,182,40,71,255}},{{105,156,50,112,38},{99,180,116,88,77},{255,28,33,195,149},{116,114,107,129,20},{1,134,177,0,189}}},{{{42,222,255,153,229},{147,15,149,220,60},{9,69,70,0,133},{102,120,69,81,113},{17,6,127,229,94}},{{105,78,80,96,87},{104,73,75,96,93},{82,73,73,82,96},{63,255,81,57,83},{49,0,100,56,105}},{{96,238,0,64,62},{0,165,18,113,125},{90,255,93,62,76},{130,170,27,251,1},{123,247,60,22,81}},{{120,214,0,231,222},{20,150,122,230,212},{184,129,159,147,214},{101,103,206,208,41},{202,255,179,100,155}},{{45,102,98,48,0},{51,134,226,147,91},{161,61,129,157,20},{160,255,166,84,27},{93,182,148,112,132}},{{3,13,51,255,30},{117,48,37,236,11},{18,108,56,0,99},{85,130,19,185,224},{59,20,118,45,16}},{{166,83,47,9,167},{255,218,161,102,20},{63,33,148,147,118},{108,86,0,89,38},{52,34,211,106,118}},{{27,132,255,61,216},{125,93,117,88,22},{8,100,68,77,91},{68,26,231,96,84},{123,0,120,52,111}},{{0,123,150,111,111},{92,187,98,94,104},{91,255,152,102,120},{102,218,193,64,26},{120,144,159,88,95}},{{90,0,84,163,170},{153,69,138,175,128},{178,90,175,188,132},{137,107,184,235,146},{153,181,182,255,101}},{{208,237,204,198,206},{158,143,133,185,179},{170,0,149,165,167},{18,82,237,234,147},{110,168,181,110,255}},{{172,97,146,130,90},{88,0,72,255,106},{155,171,90,104,41},{138,77,73,139,106},{41,82,91,119,102}},{{0,122,159,208,214},{145,94,171,195,205},{255,208,197,192,136},{175,181,202,195,165},{210,201,201,187,124}},{{174,132,126,198,106},{193,255,148,94,196},{83,194,194,153,244},{133,223,170,117,96},{129,113,90,0,170}},{{50,0,215,220,195},{113,143,84,133,133},{70,146,162,255,151},{4,192,124,172,103},{26,110,141,54,111}},{{206,10,255,139,132},{85,55,79,87,39},{19,138,47,0,151},{13,14,7,144,35},{67,75,6,218,152}}},{{{34,79,179,235,117},{238,52,0,106,168},{200,140,89,88,139},{255,175,199,178,93},{144,120,105,105,105}},{{193,204,237,148,92},{161,54,236,254,13},{123,64,74,255,0},{73,86,167,95,86},{65,146,237,155,12}},{{153,76,210,206,154},{41,253,229,240,197},{149,86,103,121,96},{215,0,125,124,255},{12,129,132,168,239}},{{42,92,66,106,139},{79,109,168,94,106},{104,107,60,153,255},{62,88,0,23,131},{25,151,32,88,60}},{{150,245,31,255,100},{168,59,76,240,110},{50,97,220,67,141},{241,0,196,226,82},{255,174,108,122,153}},{{146,0,152,49,200},{180,243,26,32,51},{221,180,190,5,255},{189,19,161,145,168},{207,76,103,136,39}},{{13,71,58,255,40},{43,108,136,139,154},{130,171,25,197,140},{46,209,203,0,252},{157,194,230,191,30}},{{109,179,177,200,24},{196,192,0,109,255},{32,7,188,184,114},{65,69,128,117,138},{160,137,153,133,79}},{{1,231,57,98,213},{76,210,240,214,15},{0,29,9,42,18},{64,233,54,255,229},{195,134,57,152,179}},{{159,69,0,254,190},{127,255,9,146,174},{239,198,4,99,114},{173,143,210,186,95},{202,131,236,88,55}},{{80,39,98,167,222},{252,255,245,170,223},{152,151,0,86,166},{174,118,129,164,92},{250,75,52,129,129}},{{227,186,153,232,138},{255,80,96,140,139},{120,207,136,178,203},{252,153,46,115,183},{70,70,125,0,105}},{{106,191,223,139,0},{154,255,214,149,36},{207,137,89,141,44},{234,108,106,213,20},{96,115,159,89,184}},{{245,26,99,129,207},{37,165,118,182,202},{129,197,0,96,26},{97,255,18,226,21},{171,10,146,17,201}},{{95,101,201,31,84},{47,125,144,154,220},{144,118,33,255,153},{0,129,5,185,107},{167,116,118,34,236}},{{214,150,202,244,77},{37,16,134,165,148},{164,38,173,73,206},{202,171,138,0,160},{236,175,148,255,245}}},{{{148,99,88,151,62},{77,0,1,135,87},{22,255,170,66,71},{215,1,175,220,76},{127,82,130,128,95}},{{214,253,128,126,197},{223,224,253,111,180},{121,180,148,133,185},{197,115,2,207,215},{255,177,165,0,173}},{{102,255,107,235,115},{61,116,146,149,106},{77,210,0,236,105},{85,128,42,212,155},{94,114,151,103,123}},{{53,112,217,244,151},{160,0,127,73,113},{51,231,84,245,234},{178,85,197,255,86},{170,229,204,92,122}},{{137,120,143,109,84},{144,122,84,128,102},{255,161,181,67,192},{105,124,0,24,92},{68,2,141,229,184}},{{26,164,152,73,86},{93,255,242,37,171},{90,177,149,19,49},{58,41,200,146,194},{103,120,54,0,121}},{{135,165,0,227,255},{219,148,167,84,196},{223,176,235,19,213},{199,154,183,236,173},{215,216,205,220,235}},{{131,173,145,0,50},{140,193,175,82,92},{28,235,152,78,45},{4,33,231,130,122},{104,246,255,225,63}},{{208,153,77,115,68},{108,190,161,255,222},{85,73,0,90,62},{63,165,137,125,95},{87,209,151,186,177}},{{6,96,226,149,138},{184,58,181,134,34},{198,91,198,165,123},{76,33,132,255,135},{3,68,150,164,0}},{{139,34,153,23,93},{143,82,231,0,192},{74,180,160,22,83},{49,36,142,139,82},{43,50,224,255,31}},{{164,166,255,217,179},{188,234,150,130,180},{101,175,185,86,3},{0,148,88,31,102},{248,195,119,147,210}},{{72,161,152,86,22},{162,177,123,19,33},{104,255,16,202,91},{140,0,103,246,147},{186,84,99,78,105}},{{67,130,179,138,139},{76,144,0,154,198},{124,255,126,171,101},{252,165,80,129,200},{114,195,150,78,111}},{{118,115,114,0,116},{86,115,126,74,128},{131,204,255,121,137},{177,116,81,121,185},{145,207,251,202,147}},{{104,111,241,205,3},{122,0,39,66,87},{91,72,113,16,70},{157,186,29,69,78},{172,135,11,255,187}}},{{{80,110,98,116,56},{140,99,160,77,99},{0,106,141,146,58},{255,143,137,114,123},{91,120,88,94,87}},{{104,179,0,196,94},{153,246,166,139,168},{157,203,255,84,85},{55,140,159,45,255},{172,55,132,181,162}},{{186,255,243,157,53},{137,143,0,142,183},{174,183,125,76,147},{111,111,101,166,180},{146,110,65,171,136}},{{227,11,100,0,202},{57,249,123,74,154},{159,122,194,181,182},{223,163,255,87,172},{74,205,158,47,91}},{{173,206,191,125,17},{135,157,100,39,173},{194,145,0,17,187},{89,158,145,153,195},{79,126,241,184,255}},{{5,244,221,172,229},{159,255,150,148,121},{117,89,177,0,208},{190,3,97,30,67},{7,198,139,167,55}},{{227,125,30,74,94},{168,143,144,87,222},{98,17,120,185,16},{255,6,141,209,153},{0,219,193,123,110}},{{156,255,242,229,0},{162,179,161,215,118},{110,156,163,130,100},{148,111,189,126,237},{140,113,234,232,193}},{{226,32,38,182,27},{103,144,44,4,44},{127,73,13,194,178},{215,4,149,22,0},{42,87,255,86,89}},{{90,108,203,129,240},{81,105,163,61,32},{6,122,194,226,82},{23,113,118,190,0},{255,147,126,182,95}},{{136,104,214,255,187},{156,168,225,98,179},{78,112,137,113,218},{91,45,211,212,159},{0,169,186,213,178}},{{79,88,153,225,215},{16,158,174,154,41},{194,206,183,141,0},{233,114,196,90,181},{123,255,102,102,199}},{{30,27,233,188,146},{177,0,173,255,192},{44,56,181,159,187},{185,132,205,135,193},{151,64,221,241,68}},{{255,185,153,136,72},{184,129,189,176,180},{0,87,173,168,192},{135,112,186,135,146},{150,169,208,165,169}},{{171,208,174,108,117},{150,91,255,142,185},{70,44,24,0,157},{172,119,94,185,155},{114,183,251,179,153}},{{57,64,179,214,139},{236,155,185,180,0},{38,132,146,134,177},{187,196,204,254,57},{64,127,244,255,58}}},{{{208,146,246,255,248},{118,169,107,92,187},{0,101,192,197,123},{38,169,111,168,96},{140,114,95,119,189}},{{4,218,190,111,10},{117,1,141,255,97},{0,130,125,122,224},{72,189,228,69,8},{179,94,184,202,189}},{{73,0,129,153,72},{198,255,135,147,42},{72,181,159,2,142},{120,135,228,207,74},{149,160,89,107,41}},{{234,100,107,130,102},{230,138,126,130,63},{253,157,50,23,158},{145,47,38,0,134},{192,177,255,136,78}},{{247,88,33,55,146},{69,0,83,89,107},{59,65,136,143,135},{93,108,213,104,86},{255,33,196,101,82}},{{37,89,12,27,92},{82,0,61,172,184},{6,76,255,175,1},{105,57,89,139,204},{11,45,45,117,109}},{{160,107,86,241,195},{252,255,226,15,190},{145,127,139,43,222},{27,174,181,0,201},{88,252,180,152,190}},{{131,118,195,49,76},{141,59,121,155,157},{90,103,191,174,121},{90,152,255,0,43},{141,163,130,97,86}},{{184,69,235,50,38},{116,85,71,0,154},{199,25,148,103,216},{179,84,189,25,171},{255,41,103,104,182}},{{90,198,24,11,72},{216,64,221,181,255},{39,98,65,245,236},{39,45,236,118,0},{138,89,26,212,32}},{{183,163,207,212,64},{196,91,200,110,133},{103,171,122,59,149},{13,215,65,201,120},{151,238,0,255,33}},{{71,54,127,180,48},{93,154,51,12,167},{234,124,220,0,124},{158,74,125,197,123},{255,85,209,192,100}},{{86,78,35,182,255},{124,8,163,63,170},{59,200,138,63,90},{238,0,50,115,218},{215,68,156,181,26}},{{93,108,248,118,0},{142,211,191,52,134},{189,250,208,243,225},{87,248,184,251,186},{255,215,230,224,203}},{{71,77,73,23,68},{133,118,116,136,171},{0,111,199,255,102},{74,178,162,73,125},{43,65,38,113,132}},{{55,53,118,239,255},{8,16,237,181,154},{0,227,211,4,254},{85,16,131,211,54},{126,109,83,4,244}}},{{{104,132,150,155,85},{120,77,17,197,197},{0,148,159,87,125},{197,255,226,108,160},{145,117,125,216,150}},{{172,184,163,155,130},{157,140,196,190,155},{112,76,177,174,124},{0,234,163,171,160},{139,17,255,150,154}},{{5,82,161,251,180},{192,221,220,210,129},{242,135,95,189,255},{227,179,77,206,176},{248,21,0,18,165}},{{148,175,216,174,0},{174,176,170,163,82},{255,98,54,39,139},{22,241,188,102,147},{5,154,172,92,15}},{{164,113,141,176,70},{108,157,124,211,166},{153,119,91,255,223},{205,0,11,177,185},{155,155,108,177,143}},{{34,5,62,19,43},{62,125,137,251,117},{124,0,67,255,29},{38,63,26,177,42},{73,73,127,66,248}},{{208,152,148,141,175},{100,202,255,231,40},{110,80,235,122,180},{0,248,243,165,225},{52,208,211,31,79}},{{23,48,45,206,206},{233,81,144,0,224},{232,105,87,112,141},{27,77,255,158,103},{158,10,27,15,87}},{{112,218,247,158,74},{66,74,131,212,169},{107,89,199,172,129},{71,191,255,215,50},{124,203,184,192,0}},{{134,88,221,193,171},{0,170,226,233,167},{202,255,254,246,180},{238,251,193,162,97},{220,173,176,202,244}},{{0,98,171,185,207},{180,150,192,153,210},{167,178,122,200,133},{201,203,88,178,194},{228,178,224,217,255}},{{24,8,170,179,143},{34,131,255,50,98},{31,208,112,22,80},{145,124,90,163,89},{0,123,152,123,122}},{{188,246,196,70,0},{240,198,212,181,114},{203,208,118,172,198},{58,145,154,195,246},{196,255,180,183,156}},{{196,230,255,131,98},{193,106,176,200,5},{40,0,149,172,148},{111,118,206,166,169},{185,199,160,175,171}},{{217,221,180,0,196},{193,200,241,246,214},{212,212,138,191,255},{234,249,192,243,240},{217,212,242,240,202}},{{154,74,123,144,74},{142,0,48,230,194},{181,6,226,248,202},{255,113,137,32,138},{205,161,86,77,206}}},{{{245,139,177,152,255},{0,245,121,124,245},{183,121,205,15,110},{126,30,176,69,36},{147,6,60,156,248}},{{69,106,67,222,24},{159,170,255,144,177},{178,115,96,185,0},{146,137,48,184,183},{100,148,77,45,159}},{{90,20,172,167,99},{158,99,16,5,255},{114,88,176,106,232},{91,10,0,188,213},{72,104,186,103,150}},{{105,255,136,106,102},{78,123,35,183,234},{84,12,138,103,41},{170,63,23,133,237},{32,0,180,43,37}},{{21,14,119,30,173},{228,212,60,255,0},{102,228,204,178,12},{102,238,114,91,117},{63,15,104,155,32}},{{122,77,159,0,76},{66,228,224,57,216},{201,101,246,114,196},{47,219,83,127,110},{144,16,167,89,255}},{{130,255,0,21,115},{214,56,27,55,180},{64,246,32,189,249},{3,43,95,149,192},{44,102,68,170,178}},{{117,171,37,26,34},{97,111,154,66,41},{0,168,89,156,255},{26,147,87,62,103},{0,18,34,205,208}},{{71,150,255,25,221},{9,24,130,103,46},{32,235,146,113,42},{0,219,224,68,228},{134,77,206,242,142}},{{175,143,250,230,203},{67,165,36,196,151},{157,36,45,90,22},{89,21,255,154,102},{68,0,114,255,242}},{{243,128,210,95,24},{183,96,167,38,118},{102,255,170,169,111},{192,134,159,207,184},{160,0,92,251,247}},{{0,132,218,100,63},{216,151,203,207,103},{141,255,214,244,77},{100,82,183,47,136},{104,183,38,59,156}},{{240,201,232,186,112},{135,118,255,74,247},{110,137,0,66,178},{133,159,113,116,139},{153,156,96,186,167}},{{147,252,122,214,234},{0,110,23,100,6},{231,79,193,255,104},{119,224,106,44,105},{215,214,34,151,57}},{{17,52,105,70,24},{0,165,203,17,42},{8,158,175,107,96},{191,255,204,129,49},{196,243,220,106,201}},{{118,107,195,199,112},{65,255,128,169,107},{195,166,0,252,237},{180,28,96,116,204},{7,147,186,157,114}}},{{{76,189,224,59,119},{96,207,5,207,57},{142,17,97,218,176},{205,174,255,43,50},{196,209,39,0,81}},{{3,223,100,144,51},{61,200,237,0,167},{230,139,244,255,103},{216,243,172,159,15},{195,89,22,126,157}},{{208,182,213,255,231},{15,170,27,198,191},{185,165,2,84,176},{76,0,45,135,219},{148,67,89,127,170}},{{201,18,158,166,244},{74,176,23,140,216},{162,219,176,108,135},{53,237,150,161,26},{0,229,255,139,238}},{{247,139,61,148,190},{49,213,83,196,246},{138,54,156,0,172},{172,50,124,255,216},{93,101,178,210,64}},{{233,41,108,128,139},{73,240,131,112,23},{109,108,33,68,0},{152,112,42,253,255},{139,142,166,185,100}},{{244,48,80,11,127},{195,203,176,3,83},{194,246,16,245,92},{214,178,65,0,110},{169,120,255,156,53}},{{174,49,25,0,233},{2,118,65,47,214},{195,122,47,86,89},{27,42,255,47,188},{88,73,141,240,142}},{{129,69,22,0,94},{12,78,32,34,178},{153,74,198,26,51},{136,79,25,255,176},{20,36,173,113,218}},{{190,187,131,36,230},{99,150,149,233,144},{243,247,66,77,108},{127,242,88,74,150},{247,107,0,248,255}},{{181,255,127,0,125},{72,62,164,54,139},{97,143,68,246,75},{198,54,241,109,235},{59,236,109,46,189}},{{18,33,50,255,180},{50,124,5,146,165},{157,14,116,108,218},{135,212,236,229,216},{139,113,164,227,0}},{{219,72,45,66,179},{224,192,121,174,34},{104,154,3,11,97},{94,0,95,59,63},{227,255,124,123,46}},{{134,247,134,45,97},{187,57,66,224,32},{72,111,153,80,146},{146,255,0,157,105},{3,85,19,54,12}},{{195,72,43,67,85},{154,0,8,205,136},{221,94,255,199,247},{75,118,205,65,216},{176,148,184,45,224}},{{43,39,8,93,76},{202,185,43,41,116},{190,199,0,150,185},{37,185,119,231,255},{252,35,2,49,114}}},{{{50,92,109,0,80},{68,255,127,33,87},{56,132,99,130,96},{152,117,120,69,54},{100,123,121,104,86}},{{113,137,255,70,169},{56,126,39,245,253},{168,75,34,241,252},{86,0,151,180,153},{71,95,214,176,249}},{{189,165,171,155,210},{120,134,77,255,77},{136,68,0,178,108},{189,172,207,74,132},{170,92,126,118,69}},{{61,25,16,47,223},{146,22,157,106,63},{192,209,23,189,181},{39,210,125,48,255},{127,0,234,32,19}},{{173,214,173,198,120},{136,179,213,0,173},{226,139,63,111,229},{192,202,207,220,201},{178,255,187,217,169}},{{90,40,51,219,116},{18,224,209,238,38},{135,255,59,113,76},{134,49,8,228,0},{214,42,136,30,145}},{{115,215,168,105,197},{169,116,255,93,251},{0,70,141,137,115},{41,100,84,3,185},{38,49,143,185,253}},{{182,155,227,207,162},{119,233,152,210,198},{144,215,242,255,101},{230,214,161,187,106},{148,254,156,0,158}},{{54,175,192,247,206},{0,105,237,14,224},{186,138,19,90,44},{7,9,212,230,255},{220,55,51,143,200}},{{183,110,178,80,174},{45,0,44,30,20},{136,62,204,130,220},{177,119,18,176,54},{223,255,18,19,18}},{{96,102,99,123,105},{179,136,0,115,132},{59,163,182,103,161},{55,71,122,150,110},{89,255,244,54,172}},{{123,176,138,164,120},{90,180,140,255,0},{162,142,33,221,205},{109,111,225,172,92},{135,18,211,90,15}},{{84,59,170,112,255},{146,129,2,212,198},{78,173,147,127,169},{0,216,109,67,175},{133,145,172,22,158}},{{115,172,212,255,229},{137,163,191,108,107},{112,130,202,82,58},{114,73,171,222,0},{94,138,126,129,27}},{{106,48,54,135,141},{52,163,167,57,123},{88,47,188,68,153},{30,0,250,166,125},{101,233,255,150,116}},{{114,2,91,113,54},{108,141,173,0,131},{168,99,250,123,71},{34,255,24,19,166},{219,127,66,117,137}}},{{{0,89,7,138,157},{221,134,71,80,180},{255,170,26,36,246},{116,101,167,207,212},{141,26,99,249,237}},{{126,114,255,38,58},{158,25,244,75,84},{190,200,77,168,18},{127,117,31,0,209},{23,103,48,195,217}},{{79,5,32,71,152},{133,99,49,144,158},{28,14,116,13,252},{83,11,60,0,255},{40,126,16,54,164}},{{165,116,13,133,132},{252,61,96,210,167},{61,227,255,17,251},{0,31,58,176,10},{225,19,186,71,105}},{{76,28,196,70,246},{237,148,190,255,182},{247,208,62,56,73},{0,217,93,149,193},{40,155,7,107,138}},{{83,36,253,200,72},{156,168,64,211,0},{104,74,197,158,87},{48,89,74,69,255},{205,202,96,58,81}},{{43,133,114,38,164},{155,59,56,0,123},{136,106,75,13,96},{113,255,82,105,115},{120,83,60,159,145}},{{239,0,95,125,143},{60,143,105,200,44},{83,54,83,136,9},{56,84,94,226,144},{255,190,120,31,70}},{{138,102,197,11,139},{255,209,105,198,69},{204,66,205,170,236},{0,117,130,119,233},{32,36,57,222,66}},{{127,103,25,13,118},{101,20,81,180,207},{19,249,74,97,198},{0,79,67,88,255},{52,34,58,66,142}},{{111,62,61,92,175},{86,224,106,137,235},{98,127,59,119,255},{68,14,1,132,127},{125,0,42,142,80}},{{170,121,156,136,124},{235,126,140,50,54},{217,17,126,99,31},{255,0,135,89,124},{130,60,59,63,137}},{{196,118,69,134,164},{242,0,255,150,235},{239,210,92,243,183},{152,13,217,56,73},{160,193,169,209,42}},{{21,126,150,255,92},{211,237,178,227,229},{19,75,222,208,170},{2,149,234,39,64},{44,30,127,31,0}},{{150,131,229,106,21},{139,122,15,227,101},{246,84,254,23,91},{129,149,222,97,0},{32,178,195,255,54}},{{96,255,78,122,100},{37,27,74,220,60},{148,2,147,111,89},{122,19,79,131,114},{172,0,143,22,70}}},{{{76,164,122,143,121},{65,155,148,99,50},{165,20,109,61,59},{255,0,134,131,57},{152,149,109,110,75}},{{117,68,0,158,97},{57,149,248,100,213},{53,21,91,46,253},{129,33,71,217,77},{58,255,147,90,229}},{{237,155,178,140,223},{130,103,0,219,255},{149,85,168,96,189},{101,197,101,86,140},{126,21,171,146,248}},{{156,210,62,123,40},{0,96,247,164,105},{255,21,170,48,214},{236,214,151,171,39},{112,163,210,13,95}},{{178,144,219,83,122},{196,175,132,51,0},{173,150,164,207,255},{26,159,142,174,67},{196,190,204,169,127}},{{195,143,101,28,194},{201,43,57,214,26},{132,255,241,116,114},{218,0,3,238,20},{21,214,194,239,73}},{{139,207,219,175,205},{138,158,136,188,152},{189,89,0,30,204},{97,237,221,255,246},{136,246,240,242,190}},{{105,213,216,199,219},{244,115,210,246,0},{140,115,202,229,149},{117,213,255,244,122},{213,31,199,236,223}},{{168,0,163,171,104},{72,85,192,219,26},{179,78,212,108,92},{182,63,255,192,59},{158,180,149,150,110}},{{117,229,255,227,242},{105,221,0,76,139},{250,74,200,188,95},{156,254,176,168,206},{147,194,32,221,213}},{{85,139,199,164,199},{152,5,199,170,140},{212,255,127,237,222},{42,139,0,122,118},{94,204,25,211,66}},{{148,251,73,161,130},{116,110,220,136,138},{0,176,114,110,136},{56,255,81,225,194},{184,204,28,18,48}},{{130,69,193,176,195},{130,164,114,141,218},{153,32,255,191,138},{91,148,118,238,231},{177,171,231,173,0}},{{192,142,122,0,67},{140,243,39,193,132},{106,202,228,139,147},{173,214,212,255,230},{140,205,209,177,194}},{{139,157,47,88,151},{202,208,58,125,146},{0,120,70,81,121},{118,255,153,76,170},{61,212,135,129,128}},{{119,122,171,177,184},{153,133,0,133,217},{106,164,72,231,175},{224,151,130,255,217},{228,147,159,225,101}}},{{{161,208,166,255,191},{0,161,163,8,88},{100,31,91,99,183},{58,143,77,100,98},{214,62,50,161,117}},{{127,213,30,8,187},{142,98,179,73,57},{242,53,234,26,60},{14,114,47,0,11},{104,172,238,255,253}},{{96,39,52,41,30},{117,131,255,135,0},{86,175,106,37,38},{223,143,48,183,80},{209,217,59,204,52}},{{139,171,167,50,255},{218,170,76,44,137},{97,182,31,213,11},{81,183,199,36,181},{83,60,139,0,217}},{{33,83,0,58,77},{220,178,97,54,62},{59,153,109,24,129},{38,62,177,46,52},{65,255,113,83,9}},{{0,255,134,66,142},{60,110,15,38,67},{104,44,25,4,109},{44,19,208,124,246},{39,192,11,77,186}},{{103,126,127,4,70},{133,101,126,93,9},{80,185,124,45,39},{0,33,28,114,49},{33,59,255,138,37}},{{237,248,96,127,204},{234,80,112,205,179},{130,104,255,150,93},{141,213,168,0,92},{90,215,234,58,122}},{{209,60,170,203,139},{116,163,145,219,242},{230,0,121,70,183},{133,155,185,136,185},{152,255,198,237,128}},{{111,138,237,27,42},{218,226,82,171,142},{187,12,255,139,0},{74,43,151,215,161},{140,172,253,67,138}},{{201,82,148,225,83},{52,130,113,81,241},{44,206,133,207,214},{107,86,0,209,68},{240,23,187,255,115}},{{35,181,130,129,126},{37,40,91,79,255},{178,140,216,36,205},{212,245,134,87,13},{178,192,159,109,0}},{{217,113,171,114,147},{97,78,167,236,114},{38,0,144,251,170},{67,189,255,79,20},{165,139,105,243,106}},{{179,141,255,185,212},{119,92,94,177,41},{96,152,126,125,68},{127,161,221,170,149},{0,133,201,160,72}},{{60,59,115,45,172},{78,167,62,92,129},{72,40,191,0,168},{48,177,211,171,128},{24,255,224,132,120}},{{255,43,179,92,226},{212,119,83,231,36},{3,70,110,0,19},{205,30,70,172,208},{203,230,93,119,228}}},{{{185,158,173,193,255},{151,220,197,146,164},{165,173,191,151,135},{0,117,219,221,203},{193,209,189,127,133}},{{114,129,107,113,120},{6,80,108,127,125},{98,54,103,73,113},{122,112,106,113,104},{255,156,0,63,128}},{{107,27,15,0,13},{146,136,158,82,199},{173,130,255,251,1},{170,22,150,158,24},{71,43,189,150,123}},{{41,87,180,167,231},{0,98,245,214,208},{136,102,193,91,119},{170,132,175,158,199},{255,169,186,223,121}},{{170,222,160,167,244},{152,242,195,124,0},{167,115,191,196,201},{177,26,103,119,111},{212,255,36,1,67}},{{150,216,66,205,229},{197,196,137,255,195},{162,52,178,134,54},{214,158,68,228,130},{3,170,0,15,104}},{{91,255,178,210,143},{123,89,128,220,92},{202,202,252,204,71},{87,219,0,159,203},{101,151,183,98,102}},{{16,0,105,30,186},{178,189,74,250,126},{214,228,113,135,110},{182,27,161,255,112},{203,230,156,40,17}},{{41,28,29,46,255},{112,0,138,202,90},{76,62,51,143,169},{145,66,92,104,36},{196,122,217,122,124}},{{0,58,233,224,247},{161,236,189,255,218},{207,192,185,211,209},{196,190,222,195,220},{219,222,231,206,189}},{{199,214,152,97,100},{183,177,182,19,52},{255,249,214,172,196},{173,207,231,203,232},{219,164,0,79,65}},{{255,166,136,151,164},{0,170,218,243,223},{173,248,116,246,228},{188,215,183,196,116},{122,157,220,237,234}},{{173,184,179,255,95},{212,84,159,235,0},{177,203,163,57,58},{30,86,114,173,55},{89,153,203,149,231}},{{216,141,195,183,195},{154,185,236,224,205},{170,203,112,153,0},{202,181,185,130,118},{255,203,159,156,158}},{{157,227,235,232,184},{131,200,188,153,0},{185,115,82,156,153},{145,131,117,122,163},{255,188,59,113,141}},{{112,67,105,121,126},{6,245,217,103,109},{30,44,76,33,9},{27,0,120,37,255},{202,213,136,225,159}}},{{{131,18,0,198,204},{81,237,36,13,15},{42,47,130,171,110},{112,248,234,255,93},{37,146,89,64,148}},{{246,118,144,141,139},{244,80,17,0,255},{25,87,40,203,112},{77,189,203,72,219},{142,158,246,31,179}},{{77,122,174,74,184},{37,83,68,85,118},{93,90,27,100,160},{126,255,0,119,120},{67,109,80,31,102}},{{148,228,239,222,255},{10,100,140,185,95},{186,142,205,42,153},{204,37,25,239,48},{177,0,8,9,150}},{{90,204,152,70,236},{180,87,187,255,122},{241,126,91,0,173},{230,176,137,214,143},{86,77,84,137,245}},{{149,118,255,241,66},{229,0,246,196,29},{78,14,185,123,32},{237,196,29,92,42},{147,36,56,57,10}},{{74,170,0,213,91},{220,61,233,24,235},{70,87,123,218,172},{99,64,103,119,159},{178,255,249,173,13}},{{207,92,1,223,179},{197,85,212,85,0},{180,206,106,16,94},{85,19,53,78,255},{50,120,0,66,189}},{{106,49,34,8,199},{28,209,133,0,255},{90,122,237,231,142},{220,42,25,101,105},{160,244,194,110,251}},{{224,255,121,103,113},{238,230,183,79,21},{152,139,215,128,36},{244,135,174,217,130},{39,238,4,0,181}},{{78,247,93,7,0},{50,140,102,98,134},{119,142,11,253,255},{203,227,49,79,173},{18,135,25,215,26}},{{255,83,9,203,93},{236,249,121,147,200},{241,51,162,50,157},{98,205,93,75,80},{154,148,49,0,119}},{{92,250,177,192,53},{133,46,23,75,255},{0,154,88,78,214},{44,4,102,6,158},{96,186,16,63,221}},{{102,92,203,181,80},{87,255,72,79,0},{62,68,224,142,246},{100,190,216,198,64},{81,236,120,36,98}},{{129,41,50,163,25},{44,16,81,21,0},{118,209,132,93,76},{11,193,142,0,34},{81,255,230,160,147}},{{101,14,135,159,161},{90,199,50,84,213},{78,59,116,123,87},{229,103,255,190,188},{29,38,170,0,114}}},{{{107,77,135,94,76},{255,8,0,207,122},{155,105,184,111,178},{164,70,125,153,127},{106,11,201,154,154}},{{154,66,106,5,148},{14,25,73,32,0},{7,211,60,33,139},{34,125,194,73,141},{150,77,121,255,104}},{{93,108,169,74,7},{193,159,72,44,203},{177,98,0,58,140},{74,26,249,25,188},{58,158,27,255,148}},{{35,149,194,216,0},{152,77,239,10,124},{99,160,131,113,255},{236,222,183,209,155},{213,218,214,234,70}},{{149,101,52,0,85},{36,239,69,126,226},{220,96,126,36,10},{62,152,76,255,189},{37,53,162,7,167}},{{61,16,207,68,229},{92,155,245,44,143},{8,11,97,16,0},{245,255,204,189,103},{184,169,134,44,111}},{{90,177,175,7,148},{14,33,161,255,113},{100,217,100,112,167},{77,41,168,116,0},{139,131,15,134,91}},{{236,72,110,89,153},{186,82,45,3,41},{137,120,61,4,255},{177,162,65,29,158},{204,125,12,0,136}},{{9,202,11,255,142},{245,142,140,71,206},{16,251,199,156,23},{149,148,135,126,167},{127,232,85,162,0}},{{102,45,100,133,39},{133,204,58,215,103},{82,213,66,196,255},{102,119,53,0,74},{11,113,76,42,136}},{{120,105,52,146,200},{88,141,101,23,246},{99,21,0,31,47},{177,189,33,174,160},{73,178,255,0,121}},{{105,225,217,120,142},{87,255,74,0,36},{168,105,210,125,46},{120,59,53,162,144},{163,120,52,26,134}},{{200,132,80,87,255},{107,0,170,15,207},{217,177,111,74,69},{118,61,107,144,2},{117,107,226,194,18}},{{60,115,140,20,9},{177,32,170,255,0},{163,1,72,34,173},{46,51,139,160,130},{112,21,87,128,117}},{{96,1,80,25,49},{19,143,155,130,230},{233,210,40,109,4},{164,34,0,7,147},{146,23,199,28,255}},{{66,182,19,88,164},{134,55,211,181,111},{147,0,255,26,140},{127,166,32,153,140},{125,232,83,13,145}}},{{{57,98,0,28,94},{56,46,59,141,59},{227,121,110,33,96},{255,22,208,83,100},{201,23,95,137,70}},{{191,104,166,236,234},{125,114,98,173,255},{231,192,0,178,249},{156,187,205,201,163},{116,170,117,45,174}},{{60,186,83,230,176},{62,210,0,222,255},{49,105,65,166,222},{92,225,151,51,209},{69,152,235,85,179}},{{66,68,156,113,99},{113,251,72,120,89},{205,236,158,253,42},{32,0,234,195,94},{255,173,219,30,170}},{{174,181,226,169,141},{145,123,216,119,198},{255,129,209,76,9},{179,180,210,65,8},{69,0,44,161,162}},{{101,164,172,192,0},{159,42,20,183,246},{162,49,216,150,123},{238,221,255,72,225},{237,33,238,238,241}},{{182,231,219,204,155},{208,209,141,65,218},{130,138,176,255,155},{151,186,175,174,181},{203,174,246,119,0}},{{223,24,201,125,0},{129,213,201,161,255},{20,202,189,0,5},{10,10,241,237,110},{143,67,85,28,55}},{{181,192,151,142,212},{230,200,170,232,175},{176,161,0,198,222},{182,150,255,146,158},{188,220,236,189,241}},{{20,18,252,121,204},{255,0,231,127,184},{245,186,168,3,95},{90,241,212,56,62},{1,112,160,191,153}},{{81,75,190,70,126},{165,0,164,109,98},{213,57,137,60,53},{115,67,210,184,81},{47,88,255,138,117}},{{122,115,211,192,168},{0,42,180,159,36},{80,93,179,117,255},{91,27,105,106,153},{87,217,162,152,123}},{{79,73,137,12,59},{128,244,255,42,0},{93,172,63,230,135},{45,21,93,17,229},{51,107,118,47,183}},{{132,186,255,195,74},{16,0,179,127,68},{131,136,208,40,38},{81,189,149,163,156},{160,106,106,75,157}},{{147,173,103,139,79},{132,164,87,139,70},{0,175,255,147,74},{65,105,103,118,169},{111,128,144,140,172}},{{147,67,254,109,77},{39,128,255,180,222},{17,107,188,121,138},{92,197,99,52,0},{83,16,107,34,70}}},{{{113,55,141,209,61},{80,115,62,57,49},{110,193,183,99,42},{162,0,198,57,255},{193,112,221,180,251}},{{147,166,229,54,201},{55,106,131,143,255},{52,169,43,42,193},{137,16,242,16,237},{0,20,162,52,121}},{{135,1,184,146,255},{1,92,122,255,168},{48,158,125,175,171},{0,28,43,108,101},{171,115,115,102,140}},{{208,236,33,186,5},{113,110,189,207,255},{3,171,110,185,58},{28,0,209,225,239},{174,14,84,237,156}},{{201,87,61,182,1},{255,155,201,30,13},{234,180,169,0,3},{205,45,195,163,116},{136,86,72,22,100}},{{201,60,178,255,22},{225,89,188,115,60},{83,19,218,21,146},{225,107,54,74,10},{0,154,8,192,65}},{{240,203,255,11,188},{195,0,70,72,91},{11,15,99,86,43},{128,126,191,54,23},{40,18,155,175,121}},{{166,70,28,77,186},{189,162,118,45,32},{120,45,0,52,104},{139,70,97,98,34},{255,112,135,174,119}},{{30,238,255,151,146},{81,17,12,237,217},{169,21,64,238,0},{199,212,133,48,15},{234,57,65,176,77}},{{190,155,117,144,170},{144,246,108,0,214},{137,246,94,255,79},{148,82,66,41,85},{224,90,135,72,114}},{{241,255,135,48,97},{174,255,29,115,165},{128,132,24,69,44},{220,63,53,168,147},{110,226,105,0,160}},{{137,200,169,7,192},{147,219,14,173,177},{123,168,235,154,188},{255,0,165,39,95},{166,137,187,113,194}},{{161,116,170,18,91},{108,99,136,77,151},{226,33,154,56,0},{168,145,91,81,142},{167,236,24,255,161}},{{56,28,192,0,92},{255,173,61,225,26},{36,179,189,92,221},{161,213,184,52,172},{227,51,245,205,124}},{{17,204,