#include "main.h"
#include <cstring>

void store_input(float input[1][32][32], float input_oc[1][32][32])
{
	memcpy(input_oc, input, sizeof(float) * 32 * 32);
}

void store_weights_5(float weights[120][16][5][5], float weights_oc[120][16][5][5])
{
	memcpy(weights_oc, weights, sizeof(float) * 48000);
}

void store_output(float output[10], float output_oc[10])
{
	memcpy(output, output_oc, sizeof(float) * 10);
}

void fused_layer1(float input[1][32][32], float weights[6][1][5][5], float bias[6], float output[6][14][14]) {
    #pragma HLS array_partition variable=weights cyclic dim=3 factor=5
    #pragma HLS array_partition variable=input cyclic dim=2 factor=5

    float intermediate[6][28][28];
    //#pragma HLS array_partition variable=intermediate complete dim=1

    for(int co = 0; co < 6; co++) {
        for(int h = 0; h < 28; h++) {
            for(int w = 0; w < 28; w++) {
                #pragma HLS pipeline
                float sum[32] = {0.0};

                for (int offset = 0; offset < 32; offset++) {
                	int m = offset / 5;
                	int n = offset % 5;
                	int i = h + m;
                	int j = w + n;
                	sum[offset] = (offset < 25) ? weights[co][0][m][n] * input[0][i][j] : 0;
                }

                for (int offset = 16; offset > 0; offset /= 2) {
                	for (int r = 0; r < 16; r++) {
                		sum[r] = sum[r] + sum[r + offset];
                	}
                }

                sum[0] += bias[co];
                if (sum[0] < 0) sum[0] = 0;
                intermediate[co][h][w] = sum[0];
            }
        }
    }

    for (int c = 0; c < 6; c++) {
        for (int h = 0; h < 14; h++) {
            for (int w = 0; w < 14; w++) {
                #pragma HLS pipeline
                float max_value = -9999999;
                for (int di = 0; di < 2; di++) {
					#pragma HLS unroll factor=2
                    for (int dj = 0; dj < 2; dj++) {
                        #pragma HLS unroll factor=2
                        int i = h * 2 + di;
                        int j = w * 2 + dj;
                        max_value = (max_value > intermediate[c][i][j]) ? max_value : intermediate[c][i][j];
                    }
                }
                output[c][h][w] = max_value;
            }
        }
    }
}

void convolution_3_ReLU(float input[6][14][14], float weights[16][6][5][5], float bias[16], float output[16][10][10])
{
//    #pragma HLS array_partition variable=weights cyclic dim=2 factor=2
//    #pragma HLS array_partition variable=input cyclic dim=1 factor=2

#pragma HLS array_partition variable=weights complete dim=4 //factor=2
#pragma HLS array_partition variable=input complete dim=1 //factor=2
    for(int co = 0; co < 16; co++)
        for(int h = 0; h < 10; h++)
            for(int w = 0; w < 10; w++)
            {
				#pragma HLS PIPELINE
				float sum[256] = {0};

				for (int i = 0; i < 256; i++) {
					int m = i / 30;
					int n = (i - m * 30) / 6;
					int ci = (i - m * 30 - n * 6);

					sum[i] = (i < 150) ? (weights[co][ci][m][n] * input[ci][h+m][w+n]) : 0;
				}

				for (int offset = 128; offset > 0; offset /= 2) {
					for (int r = 0; r < 128; r++) {
						sum[r] = sum[r] + sum[r + offset];
					}
				}

				sum[0] = sum[0] + bias[co];
				if (sum[0] < 0) sum[0] = 0;
				output[co][h][w] = sum[0];
            }
}

void maxpool_4_ReLU(float input[16][10][10],float output[16][5][5])
{
    for(int c = 0;c < 16; c++)
        for(int h = 0; h < 5; h++)
            for(int w = 0; w < 5; w++)
            {
				#pragma HLS PIPELINE
                float max_value=-1000000000000.0;
                for(int i = 0; i < 2; i++)
                {
                    for(int j = 0;j < 2; j++)
                        max_value = (max_value > input[c][h*2+i][w*2+j]) ? max_value:input[c][h*2+i][w*2+j];
                }
				if (max_value < 0) max_value = 0;
                output[c][h][w] = max_value;
            }
}

void convolution_5_ReLU(float input[16][5][5], float weights[120][16][5][5], float bias[120], float output[120][1][1])
{
    for(int co = 0; co < 120; co++)
    {
        float sum = 0;
        for(int ci = 0; ci < 16; ci++)
        {
			#pragma HLS PIPELINE
        	float partial_sum[32] = {0};

        	for (int i = 0; i < 32; i++) {
        		int m = i / 5;
        		int n = i % 5;
        		partial_sum[i] = (i < 25) ? weights[co][ci][m][n] * input[ci][m][n] : 0.0;
        	}

        	for (int offset = 16; offset > 0; offset /= 2) {
        		for (int r = 0; r < 16; r++) {
        			partial_sum[r] = partial_sum[r] + partial_sum[r + offset];
        		}
        	}

        	sum += partial_sum[0];
        }
		sum = sum + bias[co];
		if (sum < 0) sum = 0;
        output[co][0][0] = sum;
    }
}

void fc_6_ReLU(const float input[120][1][1], const float weights[10][120][1][1], const float bias[10], float output[10])
{
    for(int n = 0; n < 10; n++)
    {
		#pragma HLS PIPELINE
        output[n] = 0;

        for(int c = 0; c < 120; c++)
        {
            output[n] += weights[n][c][0][0] * input[c][0][0];
        }
        output[n]+=bias[n];
		if (output[n] < 0) output[n] = 0;
    }
}

int lenet_accelerator(float input[1][32][32], float w5[120][16][5][5], float output[10])
{
#pragma HLS dataflow

#pragma HLS interface m_axi depth=1024 port=input offset=slave bundle=INPUT
#pragma HLS interface m_axi depth=48000 port=w5 offset=slave bundle=W5

#pragma HLS interface m_axi depth=10 port=output offset=slave bundle=OUTPUT

#pragma HLS interface s_axilite port=return bundle=CTL

	float input_oc[1][32][32];
	//store input on chip
	store_input(input, input_oc);
	float w1_oc[6][1][5][5] = {{{{0.0545767, 0.23989, 0.0460905, 0.189254, -0.05937},{-0.113319, -0.0641011, 0.116482, -0.149269, -0.0171202},{-0.131366, -0.311866, -0.210143, -0.0695679, 0.0284911},{0.0391543, -0.0259974, 0.094974, 0.0104539, 0.0778511},{0.168553, 0.104512, 0.0410958, 0.0146441, -0.00248896}}},{{{-0.0154949, 0.099448, 0.0110861, -0.067664, 0.0793657},{0.0402379, 0.150162, 0.0429996, 0.094292, -0.00749176},{-0.00506536, -0.112828, 0.120868, -0.0806194, 0.0422961},{-0.0107369, -0.054286, 0.0866676, 0.12219, -0.100322},{-0.17428, -0.0507913, -0.0691036, 0.141563, 0.102478}}},{{{0.174924, 0.134596, -0.187919, 0.0461813, -0.165645},{0.00977915, -0.0212893, -0.0484104, 0.0657643, -0.165713},{-0.0930862, 0.122882, 0.135085, 0.0390209, -0.0346848},{0.0081442, 0.0938551, 0.042818, 0.0999697, -0.10891},{-0.0067663, -0.12705, 0.0739289, 0.175849, 0.156797}}},{{{0.0263749, -0.181893, -0.164046, 0.182536, 0.130094},{0.221941, 0.0570199, 0.188594, 0.0110711, -0.0082457},{-0.0374623, 0.11972, -0.0154772, -0.0747878, -0.0887413},{0.0604595, 0.0796974, 0.220836, -0.0822295, -0.00671071},{0.243419, 0.0123286, -0.0656004, -0.0667637, 0.0790848}}},{{{-0.176736, -0.15172, 0.0584658, 0.140155, -0.108961},{0.150772, -0.084157, -0.0754009, -0.00868887, 0.0346975},{-0.162376, 0.0310157, 0.0312256, 0.0466559, -0.115986},{0.170055, 0.0399354, -0.0783964, 0.0863523, -0.0793049},{-0.135728, 0.0255421, -0.0162169, 0.181592, 0.099328}}},{{{0.0896063, 0.0715614, 0.0976575, -0.105534, 0.137008},{0.0331393, -0.13787, 0.0547835, -0.155438, 0.048253},{0.119975, 0.174484, -0.181807, 0.0147251, 0.115346},{0.161037, -0.00182935, -0.143296, -0.0300758, -0.147059},{0.166156, 0.0855182, -0.0660527, -0.0506291, -0.000405967}}}};
	float w3_oc[16][6][5][5] = {{{{-0.129261, -0.0289099, 0.0184702, -0.138075, -0.0124496},{-0.0285535, 0.00823692, -0.0297472, -0.0741726, -0.111873},{-0.00241776, -0.0357605, -0.0721717, -0.0690174, -0.0463054},{-0.0555739, -0.168166, 0.00849856, -0.0188851, -0.0601877},{0.00945889, -0.023853, -0.0596479, -0.0166567, 0.069691}},{{-0.142638, -0.0153503, -0.0468888, -0.0215886, -0.128881},{-0.133847, -0.0462115, -0.0044102, -0.174365, -0.0699026},{-0.0702239, -0.0377102, 0.0365786, -0.063224, -0.0226005},{-0.102342, -0.0337095, 0.0333703, -0.0414642, -0.0441285},{-0.0933843, -0.174715, 0.105353, 0.0221832, -0.164781}},{{-0.0781251, -0.0276996, -0.0470228, -0.162764, 0.0559927},{0.00366788, -0.069815, -0.0445151, 0.0447063, -0.00819102},{-0.021628, -0.0989205, -0.144545, -0.0866375, 0.0276147},{0.00398364, 0.0238648, -0.0190027, 0.0481727, -0.102903},{-0.133263, 0.0311742, -0.077264, 0.074022, 0.0818293}},{{-0.104329, 0.0790577, -0.0120822, -0.149289, -0.0478914},{0.0133649, -0.0382749, 0.0110402, -0.126987, 0.0120774},{-0.139748, 0.00418727, -0.0360503, -0.0977113, -0.143386},{-0.140293, -0.0616587, -0.141593, -0.173577, -0.177134},{-0.0386355, -0.106546, -0.169028, 0.148764, -0.0883557}},{{-0.0891919, -0.157275, -0.0989936, -0.0197369, -0.0124629},{-0.145393, -0.162981, -0.0940324, -0.102652, -0.103638},{-0.114461, -0.057649, 0.0344953, -0.175194, -0.0354439},{-0.160436, -0.0969764, 0.0891696, -0.000979664, -0.0645946},{-0.144691, -0.0462282, 0.0324772, 0.00783432, -0.0195419}},{{-0.0552662, 0.0359445, 0.0124199, -0.0252009, -0.0902319},{-0.0318873, -0.0549578, -0.131763, -0.110682, -0.219306},{-0.112414, -0.122503, -0.0131506, -0.161638, -0.0627306},{-0.121991, 0.0189145, -0.134296, 0.0830286, -0.116169},{-0.13894, -0.0507925, -0.0430381, -0.187582, -0.146764}}},{{{-0.0895522, -0.0414514, 0.10063, -0.0278707, 0.0159904},{-0.0470842, -0.0623859, -0.0888349, -0.0509604, -0.0720695},{0.0509305, -0.150708, -0.143679, 0.0929064, -0.0628851},{-0.0269158, 0.0982552, -0.0919063, 0.0753651, 0.0515129},{-0.0543418, -0.122054, -0.000856871, -0.0615378, 0.0251746}},{{0.0206155, -0.0112556, 0.0842336, -0.069518, -0.0256245},{-0.18057, 0.0316797, -0.088084, -0.0954881, -0.00277953},{0.0655662, 0.022198, 0.0556672, 0.0153003, -0.00909537},{-0.0381522, -0.0733511, 0.0221377, -0.0814525, 0.0166451},{-0.0739427, -0.105035, 0.00196501, 0.0106432, -0.0593914}},{{0.0511965, 0.0869132, 0.0378749, -0.00432896, -0.0485051},{-0.156816, -0.0906766, 0.0559867, -0.0259185, -0.138992},{-0.0529025, -0.088935, -0.0605052, -0.0838744, -0.0264925},{-0.150562, -0.170548, -0.0299732, -0.0500588, -0.164255},{-0.016338, -0.154449, -0.0638839, 0.0900813, -0.0508652}},{{-0.0639989, 0.00514697, -0.00906741, 0.01237, 0.0291043},{-0.0494463, -0.116657, -0.170625, -0.0298164, 0.0515654},{-0.0752444, -0.0231436, -0.0305314, 0.00626886, -0.0697285},{0.0102537, -0.0409231, -0.181532, -0.0952781, -0.0554903},{-0.0322557, 0.0243933, -0.026453, 0.013855, -0.101427}},{{0.0142398, 0.0892175, 0.0124474, -0.141523, 0.086917},{-0.18259, -0.0501907, 0.0898794, -0.0222907, -0.12287},{-0.0827385, -0.149408, 0.022225, -0.179166, -0.0695702},{-0.0898408, 0.089216, 0.0649454, 0.0878047, -0.107332},{-0.0217752, 0.0230026, 0.0970636, -0.176912, -0.147825}},{{-0.0303836, -0.0780598, -0.168039, -0.155981, 0.0428945},{0.00118545, -0.181787, -0.17995, -0.00758494, 0.0961368},{0.0963731, 0.0683355, -0.114628, -0.101038, -0.00461955},{-0.147631, -0.082423, -0.115081, -0.0791371, -0.156984},{0.000589146, 0.0646608, -0.0728179, -0.112348, -0.0456091}}},{{{0.0119388, -0.110373, -0.0628674, 0.00278134, -0.000864331},{-0.133999, -0.00798646, -0.179457, 0.08468, 0.0172873},{-0.0883792, -0.0946258, -0.0703178, -0.0321096, -0.0176235},{0.0161023, -0.124591, -0.158014, -0.00203667, 0.0140114},{-0.0592958, -0.0389376, -0.101205, 0.014594, -0.0604719}},{{-0.138822, -0.0938506, -0.0524952, 0.0642052, -0.004004},{-0.0385987, -0.0553011, 0.0820715, 0.0658219, -0.0637358},{0.00916214, -0.0660088, -0.144493, -0.0198533, -0.0614401},{0.023402, -0.174289, -0.173175, -0.18113, -0.0966702},{-0.0940631, 0.037408, -0.101008, 0.0874443, 0.0160654}},{{-0.184362, -0.00322744, 0.099591, -0.0202223, -0.105778},{-0.13124, 0.0989625, -0.0872646, -0.0581248, -0.151491},{0.0686936, -0.060686, -0.0643929, -0.0972577, 0.026754},{-0.0318161, -0.124788, -0.0382446, 0.0181377, 0.0412582},{0.0522304, -0.168824, -0.00514975, -0.0968274, -0.0267144}},{{-0.0195458, -0.0386267, 0.00366978, -0.00386224, -0.103473},{-0.11704, -0.129249, -0.0443041, -0.00681567, -0.0102625},{-0.109282, -0.104627, -0.134266, -0.01863, -0.179606},{-0.100578, -0.0733844, -0.0381478, -0.157249, -0.0545314},{-0.06716, -0.0145719, -0.149387, 0.0189755, -0.0964863}},{{-0.0428581, 0.0385743, -0.0629674, -0.12723, -0.0953111},{-0.182357, -0.112723, -0.138517, -0.0178248, -0.17777},{0.079377, 0.0108422, 0.00436017, -0.0210725, -0.0460026},{0.00367242, -0.128001, -0.181007, -0.131728, -0.122029},{0.0741337, 0.00849671, -0.0742102, 0.0751761, 0.0631189}},{{-0.145775, -0.0648572, -0.166994, 0.0487051, -0.0951986},{-0.0760277, -0.0917364, -0.0234135, -0.0604116, 0.0143839},{-0.170393, -0.00716433, 0.0651257, -0.11286, 0.0284651},{-0.170197, 0.0569963, -0.0255011, -0.0370339, -0.167812},{-0.134685, 0.100856, -0.0951683, -0.0665146, -0.0457028}}},{{{0.102804, 0.107052, 0.0495304, -0.130975, -0.0230085},{0.0427185, 0.0252026, -0.0322962, -0.0438177, -0.0325856},{-0.0418871, 0.0691676, 0.0188272, 0.039125, -0.03135},{0.10512, 0.0233852, 0.0734469, -0.0126155, -0.0378622},{0.0548269, 0.0419745, 0.0708264, 0.0168747, -0.0856699}},{{-0.0354236, -0.0556637, -0.0942579, -0.098927, -0.104745},{0.00302662, -0.0783154, -0.00621244, -0.152018, -0.0657526},{-0.0375333, -0.0723602, 6.22225e-05, -0.0169809, -0.0991931},{-0.0533926, -0.0551794, 0.0379048, 0.05448, -0.0250473},{0.00249969, -0.0544915, 0.0981555, 0.0114965, 0.102648}},{{0.0342179, -0.0825872, -0.0866728, -0.13839, -0.0498914},{-0.0155045, -0.120809, -0.0834408, -0.0922583, -0.0304057},{-0.0486374, 0.0668018, 0.0308724, -0.0724216, -0.0940492},{-0.0593514, 0.0143045, 0.0821808, 0.083597, 0.0733888},{-0.0665889, -0.0108314, -0.0131484, 0.0151598, 0.128973}},{{-0.0820233, 0.0884727, -0.0115823, 0.0219569, -0.0917826},{0.117808, 0.0806971, 0.104299, -0.0605797, 0.0661285},{0.0733661, 0.143311, -0.0157113, -0.0870225, -0.0807192},{0.0323176, 0.0798099, 0.0215246, 0.0378372, 0.0112849},{-0.00221242, 0.0678629, 0.0333929, -0.0959504, -0.0259208}},{{0.0549289, 0.0955187, 0.0474165, -0.0407647, -0.0451095},{-0.0344963, -0.0519297, -0.0565725, 0.022331, 0.0297794},{-0.0288773, 0.0511393, 0.064616, 0.00409213, -0.0149956},{0.0248715, 0.0429867, -0.097057, 0.105095, -0.00671784},{-0.0400305, 0.0836708, -0.080438, -0.0337606, 0.0807461}},{{-0.075969, 0.0195272, -0.0889619, 0.0386834, 0.087423},{0.0237334, -0.110231, 0.103967, 0.0301213, -0.00586264},{0.0275603, -0.0617973, -0.0177716, -0.0834612, -0.00207616},{-0.0401254, 0.000297911, -0.194064, -0.0176427, -0.054313},{0.00253792, -0.0110215, 0.0699961, -0.105004, -0.036865}}},{{{-0.0539518, 0.0261353, 0.0705259, 0.0511905, 0.0822311},{-0.186133, -0.0059026, -0.0378111, -0.0843846, -0.0336804},{-0.288492, -0.153133, -0.15696, -0.241432, -0.0380001},{-0.112926, -0.0397594, -0.227438, -0.161823, -0.202977},{0.0441074, 0.027958, -0.144117, -0.0521333, -0.147701}},{{0.167016, -0.0714575, 0.0665004, 0.0878336, 0.232736},{0.0253453, 0.0605375, 0.0342209, 0.1283, 0.279271},{0.079527, 0.0231912, -0.0405121, 0.104151, -0.060437},{0.267966, 0.043781, -0.187433, -0.0788761, -0.0201963},{0.222269, 0.150286, 0.0234425, -0.0399275, 0.00121588}},{{-0.0677622, -0.0367805, -0.0369337, -0.181288, -0.0211513},{0.0867513, 0.0420698, -0.246993, 0.0150135, -0.0612922},{0.133115, 0.0758477, 0.206381, -0.0835321, -0.0753008},{0.0147126, -0.0823702, 0.030231, -0.0875561, -0.0217631},{-0.0641224, 0.00504563, 0.0662692, -0.0287004, -0.0676327}},{{-0.000821245, 0.0464763, -0.0722191, -0.0321613, -0.028211},{-0.176889, -0.0302033, -0.00255953, -0.144664, -0.0917464},{-0.182237, 0.00655777, -0.0358131, -0.12942, -0.198091},{-0.311738, -0.0999347, 0.0748808, -0.0805315, -0.228158},{-0.16907, -0.0680484, 0.0413026, 0.00945603, -0.0621412}},{{-0.0922265, -0.166828, -0.280976, 0.189185, -0.0140929},{0.0254581, -0.0403104, -0.0624442, -0.0243184, -0.0119436},{-0.065358, 0.0157591, -0.0963534, -0.051139, -0.0952643},{0.0306271, -0.0943645, -0.186472, -0.0188328, 0.0131187},{-0.0269307, -0.00818961, 0.0219037, 0.0278908, -0.180014}},{{0.0220732, 0.158232, 0.0985136, -0.190685, -0.025946},{0.0926973, 0.177484, -0.132198, -0.0891592, 0.0226986},{-0.119123, 0.16614, -0.0764217, -0.00534477, -0.0101514},{-0.0175566, 0.154491, 0.0314746, -0.0747327, 0.0963112},{0.00831252, -0.0296708, -0.120025, -0.0279267, 0.0398743}}},{{{-0.105252, 0.030565, -0.0144114, 0.000944253, 0.0447709},{-0.0284984, 0.0623484, 0.0354501, 0.0041021, 0.011246},{0.00842158, -0.089184, 0.0454986, 0.0643984, -0.0607067},{-0.0245979, -0.0922544, -0.0109515, -0.108218, -0.0421516},{-0.119493, 0.0413378, 0.0253023, 0.0382327, -0.113783}},{{0.11265, -0.00923728, -0.00914131, 0.0266558, -0.0221231},{-0.0795667, -0.0856251, 0.0607741, 0.0627036, -0.0887475},{0.0225972, -0.03297, -0.0396581, -0.0787565, 0.0168849},{0.0458077, -0.118485, -0.0678753, 0.0479479, -0.0538719},{-0.13508, -0.0374318, -0.0966922, 0.0516805, 0.0315433}},{{-0.137981, -0.0806147, 0.00530453, -0.0432751, 0.0416812},{-0.00865472, -0.138746, -0.114378, -0.0353936, -0.0805674},{-0.0763495, 0.0408251, 0.035095, 0.0408087, -0.0277762},{-0.0368213, -0.000262611, -0.0886537, -0.0498485, 0.0394512},{-0.0131971, -0.0404211, -0.0838473, -0.0747933, -0.142494}},{{0.0424494, -0.0239662, -0.101731, -0.079388, 0.0267633},{-0.0363929, 0.0307809, 0.0469844, -0.035238, -0.0553589},{-0.110619, -0.0927672, 0.0537883, -0.0668858, -0.132028},{0.0502129, 0.0407371, 0.0512589, -0.02447, 0.0319282},{-0.065308, 0.0477783, -0.0105658, -0.0968397, -0.117749}},{{-0.126172, -0.0594891, -0.0969631, -0.0699949, -0.0787754},{-0.112871, -0.107939, 0.0344648, -0.0176287, -0.123138},{-0.0580512, 0.0546539, 0.0260837, -0.1096, -0.105774},{-0.0526579, 0.00217071, -0.110937, -0.0942379, 0.0392273},{-0.0244961, -0.0445015, -0.0715454, -0.0610661, -0.132547}},{{-0.0069035, -0.0966485, -0.133658, -0.00571999, -0.11547},{-0.0405742, 0.0182058, -0.0360275, -0.107252, -0.107949},{-0.0225701, -0.0252279, 0.0494322, 0.0637685, -0.121956},{0.026185, -0.0498922, -0.0202861, -0.111861, 0.0594309},{-0.0808988, 0.0438837, 0.0151738, 0.059963, -0.0134868}}},{{{-0.140229, 0.0027806, -0.0410435, -0.0240733, -0.138452},{-0.130828, -0.0549352, 0.032291, -0.0754715, -0.0783877},{0.0592988, -0.0178931, -0.109311, 0.0949787, 0.113649},{0.022409, 0.0158738, -0.103526, 0.0906753, -0.0555571},{-0.0122962, -0.0139284, -0.00487873, -0.134061, 0.0319951}},{{-0.0754255, -0.146366, 0.0478861, -0.00702309, 0.0756998},{-0.0416549, -0.0980797, 0.0051907, -0.0413872, -0.0558671},{0.0274184, -0.0488976, -0.017158, -0.0480913, -0.00930165},{-0.0621795, -0.121071, 0.0141921, -0.000372628, -0.0043231},{0.0631807, 0.0611851, -0.0298194, -0.0996271, 0.0294799}},{{-0.074275, -0.017685, 0.0605159, -0.0651568, 0.00892166},{-0.0915392, -0.046671, 0.112813, -0.0366743, -0.117578},{-0.0791671, -0.140671, -0.0469803, 0.0780369, -0.00579832},{0.0375159, 0.0164328, 0.00777356, -0.040324, -0.0639412},{-0.139659, 0.03581, -0.0360136, 0.0420516, 0.0234908}},{{-0.050286, -0.141645, 0.0575939, -0.0058419, -0.00205707},{-0.000976834, 0.0129776, -0.0505923, -0.0266149, 0.0211158},{-0.116328, -0.00984384, 0.0242763, -0.143446, -0.129583},{-0.0432527, -0.0743604, 0.0350591, -0.0265444, 0.0217874},{-0.014392, -0.00884263, -0.0487523, -0.00374398, 0.0212005}},{{-0.0249827, -0.0952586, -0.0909775, -0.0549951, -0.028095},{0.0219366, -0.0103157, -0.0323278, -0.00981532, -0.0937031},{0.0333802, -0.144703, -0.111418, -0.0864473, 0.010772},{-0.0937372, -0.0861521, -0.0236115, 6.47008e-05, -0.0928776},{-0.0651737, -0.0368549, 0.021966, -0.0715667, -0.0707039}},{{-0.147891, -0.0998048, 0.0284441, 0.0152214, 0.0290793},{1.84884e-05, 0.0593189, 0.00835666, -0.137568, 0.0738553},{-0.110376, -0.0981981, -0.107846, -0.0996781, 0.0418954},{-0.102888, -0.0874814, -0.114698, -0.0410717, -0.091869},{0.00886917, -0.138884, -0.107488, -0.12094, 0.0411298}}},{{{-0.0134998, -0.0216333, 0.00769715, -0.000516624, -0.127624},{-0.111104, -0.103394, 0.069326, -0.100834, -0.0187336},{0.0438482, -0.0157666, -0.0107471, -0.0363038, -0.0287438},{-0.129929, -0.081618, -0.0583595, 0.0294522, -0.0431867},{-0.053514, 0.00461604, 0.0979553, -0.124788, 0.00304299}},{{-0.150463, 0.00607812, -0.0488111, -0.117948, -0.065927},{0.0653303, 0.0965907, -0.111054, -0.0593994, -0.102124},{0.0434828, -0.0744066, 0.056119, -0.0600111, -0.0511943},{-0.113791, -0.0757582, 0.000863658, -0.0726155, -0.105019},{-0.134628, -0.0103612, -0.061664, 0.0119004, 0.0442323}},{{-0.12363, 0.0883909, -0.019802, 0.026217, 0.0119996},{0.056395, 0.0583066, -0.081474, -0.0197107, 0.0494621},{0.000591542, -0.0609284, 0.00696281, -0.0692173, 0.053022},{-0.0678364, -0.0810269, 0.0436927, 0.0189459, -0.0738357},{-0.132718, 0.0107926, 0.0256404, 0.0115595, -0.104287}},{{-0.0450636, -0.0634837, -0.133659, -0.083932, -0.102433},{-0.127599, -0.128535, 0.0359789, 0.0390415, -0.0671238},{0.00615947, -0.0349231, -0.0576515, -0.0469836, -0.0240302},{-0.121034, -0.101266, -0.107041, -0.0216885, -0.128531},{0.0337999, -0.0388798, -0.0284326, -0.129752, -0.0212632}},{{-0.0828965, 0.0139576, -0.130386, 0.0337976, 0.0104112},{-0.0415436, -0.16382, 0.0123937, 0.0542327, 0.0114941},{-0.118405, 0.0227896, -0.0250342, -0.00672879, -0.148641},{0.0387622, -0.010925, -0.135222, -0.110317, -0.0432467},{-0.0446624, -0.0557681, 0.000477248, -0.0680331, -0.12547}},{{-0.09294, -0.0293277, -0.0105383, -0.0315087, -0.0300583},{0.0974144, 0.0322619, 0.0543613, 0.0902003, -0.107566},{-0.0198575, 0.0356127, 0.100719, -0.0912006, 0.0494184},{0.032615, -0.0743267, -0.0872081, 0.0526338, -0.0602165},{-0.00884503, 0.0140507, -0.102983, 0.0565964, 0.00916943}}},{{{0.0833679, 0.109878, -0.0411061, -0.0116293, -0.0576758},{-0.0726363, 0.100439, -0.034684, 0.0730063, -0.031588},{0.0795504, 0.109673, 0.118653, 0.066671, 0.0740152},{-0.0748624, 0.0902079, 0.0923406, 0.0616899, 0.00861184},{0.00404745, -0.0904279, 0.0884733, 0.0538638, -0.0193435}},{{0.021319, -0.00479295, -0.0720208, 0.0274616, -0.0329993},{-0.0701407, 0.0450236, 0.0442456, -0.018129, 0.106034},{0.0411685, -0.0603372, 0.0109108, -0.0296978, -0.0616099},{-0.148852, -0.125383, 0.00423001, 0.0969713, 0.115895},{-0.115707, -0.0591366, -0.01297, -0.0141053, 0.00149408}},{{-0.0652515, -0.142372, -0.0563349, -0.0158333, 0.0155152},{0.101515, -0.0438642, -0.0739774, 0.0129048, 0.00184177},{0.000671584, -0.0803233, 0.0903722, 0.0341143, -0.00980729},{-0.0803867, -0.0700458, -0.00539356, 0.0428024, 0.00330835},{-0.0493277, -0.0633204, -0.0107666, 0.0673363, 0.0328666}},{{-0.0160969, 0.0361874, 0.0925772, 0.0666718, -0.0280364},{-0.0487263, -0.0186208, 0.0501665, -0.04769, -0.0500939},{-0.109573, 0.0197903, 0.0470008, -0.101676, -0.0563059},{-0.0226977, -0.0797615, 0.0588004, -0.0371762, 0.0625914},{0.0687493, 0.0367218, 0.0693316, 0.0291466, 0.122362}},{{0.00112146, -0.020688, 0.066966, -0.0112029, -0.0902761},{0.0337661, 0.0155081, 0.0575603, 0.0851888, 0.0913282},{0.00154101, -0.079087, -0.067218, -0.0751321, 0.0802889},{0.0485308, -0.0516994, 0.0908411, 0.0462283, 0.0213017},{0.00806369, 0.0891957, 0.0890507, 0.0732447, 0.0246495}},{{0.0509855, 0.0554976, -0.0591561, -0.16706, -0.00362119},{0.0942237, 0.00293974, -0.0865472, -0.106283, -0.0772263},{-0.0311456, 0.0822817, -0.0161322, -0.130283, -0.117583},{0.0477309, -0.157793, -0.0189967, -0.0263117, -0.00550587},{0.0085211, -0.115684, -0.0153355, 0.0583896, 0.0374569}}},{{{0.0136459, -0.0062497, -0.100307, 0.0352212, 0.0157456},{0.0365293, -0.0319178, -0.0798601, -0.00517026, 0.0430616},{0.0580729, -0.00594497, -0.0181286, 0.0341047, -0.00309146},{-0.0500672, -0.00136324, 0.0244932, 0.0988878, 0.1156},{0.148688, 0.0731645, 0.00263841, 0.16165, 0.0903321}},{{-0.0814003, -0.0670692, 0.00117759, -0.0390284, -0.0684568},{-0.0686867, 0.0659109, 0.0641414, -0.0588136, -0.0826171},{-0.0718039, 0.0750218, -0.0642317, -0.0298705, -0.0608711},{0.0506554, 0.0147265, 0.00730247, -0.0604984, 0.0467181},{-0.0611616, -0.0621433, -0.124927, 0.00479014, -0.0459531}},{{-0.0317324, -0.105646, -0.0104251, 0.0496922, 0.0380115},{0.0595132, 0.0250573, 0.125314, 0.0352286, 0.105304},{0.0703704, 0.0304645, 0.0661383, -0.0852436, -0.0978714},{-0.0807614, -0.00749534, -0.0720313, -0.0841334, -0.136705},{-0.0833789, -0.158943, -0.0174596, -0.0791942, 0.0443447}},{{0.00851981, -0.0487614, -0.00116826, 0.0155863, 0.0434757},{0.060902, -0.0683892, -0.0300416, 0.0420408, 0.0272906},{-0.00793585, 0.0220265, -0.0584638, 0.0178032, 0.0505305},{0.00254375, -0.0325679, -0.138712, -0.0655454, 0.024765},{-0.0246706, -0.0631361, -0.214798, -0.00907197, -0.0183152}},{{0.0805733, 0.0736055, -0.0501414, 0.0961003, 0.0384409},{-0.0510654, 0.0997122, 0.0428427, 0.0186567, 0.0390571},{0.0840248, -0.00382984, -0.0515525, -0.028565, -0.0160622},{0.0696635, 0.0280728, -0.0352281, -0.0808243, -0.177312},{-0.114359, -0.0565487, -0.0278831, -0.0210536, 0.0284301}},{{-0.0306501, -0.111828, -0.041045, 0.0345406, 0.0266684},{-0.0457194, -0.0054004, 0.00093062, 0.0377796, -0.0591581},{0.0264342, 0.0152956, -0.120955, 0.0159504, -0.0379388},{0.0269715, 0.0127659, -0.0924439, -0.176279, -0.053813},{-0.0924963, -0.150656, -0.035364, -0.0940865, -0.0857302}}},{{{-0.0739168, -0.100902, -0.0421982, 0.0291905, -0.0656708},{-0.0654756, -0.00577797, -0.0973977, 0.0255491, -0.0209548},{0.0236901, -0.0498975, 0.0104153, -0.0873722, -0.0348857},{0.0162024, -0.00772257, 0.08599, -0.0492656, -0.144282},{0.00422573, 0.0442395, -0.0343463, 0.0919012, -0.0780296}},{{-0.0252503, -0.0642015, -0.0940773, -0.0595245, -0.0352087},{-0.0874449, -0.0230818, -0.0852736, 0.00716566, -0.113328},{-0.0285439, 0.0382516, 0.0642185, 0.0835255, 0.0346627},{-0.103774, -0.0468067, 0.0583616, -0.051541, -0.0638438},{0.0360915, -0.0191605, -0.0581786, -0.0502974, -0.0688397}},{{-0.0348117, 0.0764726, 0.0543849, 0.0786103, 0.0347377},{-0.0205503, -0.0268072, -0.054606, 0.0375151, -0.122201},{-0.00845636, 0.110361, 0.149153, 0.0927693, 0.0198816},{-0.174182, -0.0475718, 0.0317887, 0.0876434, 0.0449889},{0.016368, -0.0421333, -0.0299371, 0.12244, 0.0348522}},{{-0.0152248, -0.039399, -0.167982, 0.0497738, -0.069283},{0.0258371, -0.0417523, -0.0755979, -0.0160094, 0.0406449},{-0.061844, -0.139028, -0.0218922, 0.0757115, -0.0966512},{-0.116438, -0.147944, -0.0543374, 0.114087, 0.0172543},{-0.0484327, -0.0464722, -0.0212026, 0.0484245, 0.0109813}},{{-0.157573, 0.099463, -0.0326312, -0.0516097, -0.0964099},{0.0364291, 0.0693004, -0.0307666, 0.032068, -0.0900186},{-0.113897, -0.0619576, -0.0274739, -0.0947871, 0.0493942},{0.0857068, -0.0161497, -0.063065, 0.0552022, 0.0556705},{-0.00747703, 0.021096, 0.0243649, -0.00114968, -0.0948769}},{{-0.0872427, -0.0556899, -0.166012, 0.0125794, -0.146867},{-0.0619092, -0.106107, 0.0116869, 0.12785, -0.0894844},{-0.066041, -0.0225763, 0.0289269, 0.140481, 0.000285462},{-0.11226, -0.00504773, 0.0449915, 0.0743904, 0.0199676},{-0.0126643, 0.0266437, 0.0277476, 0.00470388, -0.0440987}}},{{{-0.0920882, 0.140767, 0.138497, 0.0822469, -0.0481175},{0.284996, 0.0933539, -0.060772, 0.00925033, -0.0869506},{0.181932, 0.0818412, -0.200448, -0.186582, -0.337831},{-0.0939565, -0.122249, -0.123578, -0.246309, -0.0871063},{-0.0160753, -0.209635, 0.0551513, 0.0891372, 0.124891}},{{0.122462, 0.172698, -0.0978215, -0.13804, -0.201072},{-0.0555092, 0.275737, 0.0510169, 0.0830972, -0.0352117},{-0.191073, 0.0380023, -0.145257, -0.250895, -0.0493314},{0.0914468, -0.0248962, -0.00985023, -0.192296, -0.0894993},{0.160736, -0.0841007, 0.0717301, -0.0180769, -0.203032}},{{-0.0470614, 0.128526, 0.120869, 0.230857, -0.0660361},{-0.419255, -0.234607, -0.0374896, 0.108621, 0.089286},{-0.0551167, -0.105326, -0.270235, 0.00454762, -0.143789},{0.106779, 0.0791002, 0.121085, -0.165484, -0.462817},{0.099558, 0.109847, 0.0896899, 0.143875, 0.0935614}},{{0.0433463, 0.00397697, -0.0384615, -0.0361398, 0.0144595},{-0.11151, -0.178566, -0.230928, -0.180447, -0.144353},{-0.388848, -0.616195, -0.32271, -0.413469, -0.161286},{0.0270838, -0.102949, -0.200438, -0.113958, -0.272868},{0.0295301, 0.0795945, 0.00658216, 0.0408629, -0.164253}},{{-0.132423, -0.08337, 0.00859046, -0.000407973, 0.0327532},{-0.2697, -0.296337, -0.105187, 0.0214579, 0.104885},{-0.121487, -0.295125, -0.180082, -0.0208934, -0.0740473},{0.130762, 0.0736735, -0.164461, -0.16662, -0.383654},{0.18384, 0.148051, 0.192942, 0.190401, 0.13584}},{{0.0943832, 0.0127344, 0.111761, 0.160721, 0.0542136},{-0.16598, -0.232542, -0.290998, -0.163265, -0.325584},{0.00616371, -0.1488, -0.573173, -0.493826, -0.168845},{-0.0220861, -0.069354, 0.018541, -0.141385, -0.168402},{0.131412, 0.150349, 0.0443967, 0.0575643, -0.154393}}},{{{-0.0918551, -0.0118418, -0.0687312, 0.0672411, 0.0783003},{-0.0392285, -0.0981931, -0.022162, 0.0369225, 0.0408319},{-0.0500071, 0.0650534, -0.132239, -0.0440378, 0.0930152},{-0.107536, -0.162287, -0.073402, 0.0288976, -0.00389108},{-0.120293, -0.102469, -0.00717181, 0.0577299, -0.0164696}},{{0.020626, 0.0528204, -0.0650507, -0.0181911, -0.0639276},{0.104133, -0.0466748, -0.110855, -0.0320097, -0.0157315},{0.0825102, -0.040521, 0.00284234, -0.00551302, -0.0433551},{0.0787176, 0.10612, -0.0844044, -0.0258847, -0.0303557},{0.0365299, 0.00478732, -4.3273e-05, 0.0425782, -0.129664}},{{-0.122086, -0.10239, 0.0505654, -0.0346697, -0.0171881},{-0.0458772, -0.0962558, -0.104169, -0.00705438, -0.0117347},{-0.189307, -0.0947591, -0.121595, -0.000958914, -0.0185872},{-0.166765, -0.089556, 0.0401252, -0.0126539, 0.00907193},{-0.0711962, 0.0348857, 0.0181111, 0.00722798, 0.0855436}},{{-0.0725385, 0.00505443, 0.00714073, -0.00378772, 0.0734437},{-0.0842778, -0.0777906, -0.00241708, 0.0741412, 0.000418081},{-0.00836205, -0.0456052, 0.109407, 0.0892006, -0.0329025},{-0.0353419, 0.045227, 0.0478774, -0.0547005, -0.0273723},{0.00874879, 0.0117565, 0.0714176, 0.00710361, -0.00650539}},{{-0.0860937, 0.00320494, 0.0938315, -0.0226071, 0.0462188},{0.0776627, 0.0722204, -0.0338566, 0.0908892, -0.0576445},{-0.0772328, 0.00148911, -0.034729, 0.00085627, -0.0928303},{-0.04727, 0.0194588, 0.013639, -0.0112872, -0.0512872},{-0.0857779, 0.0549627, 0.0100229, -0.0177597, -0.137597}},{{0.107082, 0.0680283, 0.0346225, 0.0388272, -0.0288544},{-0.0949866, -0.0290471, 0.028516, -0.0200151, -0.0455285},{-0.0361919, 0.0887494, 0.11117, 0.0976022, 0.088537},{-0.0137098, 0.102217, 0.134811, 0.0474692, -0.0730626},{-0.187031, 0.115696, 0.0579718, 0.0400077, -0.0151297}}},{{{-0.10643, 0.106649, 0.171873, -0.0221392, -0.32045},{0.046251, 0.0917398, -0.010598, -0.0372021, -0.184749},{-0.215173, -0.146763, 0.0145548, 0.19367, -0.0243501},{-0.145582, -0.0950416, 0.15378, 0.182534, -0.191034},{0.155504, 0.200386, 0.0650928, -0.0862275, -0.0830411}},{{-0.0783404, -0.28154, 0.0956417, 0.0577722, -0.233304},{-0.380268, -0.34086, -0.0672899, -0.205606, -0.0734398},{-0.224416, -0.0423655, -0.296133, -0.330333, -0.282924},{-0.235319, -0.250801, -0.33259, -0.330365, -0.149234},{-0.529298, -0.438408, -0.281517, -0.0642203, 0.0652382}},{{0.0540541, -0.174544, -0.090547, -0.0268361, -0.248468},{0.0608416, -0.219582, 0.0365487, -0.120444, -0.178017},{-0.231566, -0.312402, -0.434223, -0.29983, 0.198346},{-0.255452, -0.195707, -0.210323, -0.00657898, -0.0650288},{-0.0162558, -0.0321461, 0.10011, -0.0622065, -0.126825}},{{-0.239392, -0.389471, 0.0254484, 0.0816054, 0.142932},{0.0721241, 0.0339921, 0.0989347, -0.0122507, 0.137338},{0.106107, 0.00812645, -0.0751439, -0.00307351, -0.309589},{0.0780506, 0.0056312, -0.120937, -0.29743, 0.0399128},{-0.0270076, -0.0378532, -0.0207855, -0.131004, 0.100026}},{{0.00632242, 0.0785286, 0.207234, 0.00101617, -0.304807},{0.042644, 0.00507404, 0.00323471, -0.184063, -0.204875},{-0.0183832, 0.0381419, 0.0846892, -0.0933303, -0.0278139},{-0.0238163, -0.000988492, -0.0461127, 0.112848, 0.0711399},{0.130673, 0.152999, 0.0020296, -0.0101544, 0.0968374}},{{-0.286048, -0.18262, 0.0975274, 0.273095, 0.264497},{-0.289082, 0.0278545, -0.0154251, 0.21944, 0.166291},{-0.0437145, -0.097161, -0.033292, -0.19045, -0.0471908},{-0.0682109, -0.095521, -0.162619, -0.181277, -0.142797},{-0.278072, -0.23656, -0.161759, -0.135475, 0.13208}}},{{{0.0236985, -0.0392232, -0.021665, -0.0227191, -0.0427599},{-0.11538, -0.0742112, -0.0533134, -0.0295603, -0.109639},{-0.351767, -0.193254, -0.12178, 0.0124221, -0.036894},{-0.332015, -0.297395, -0.393294, -0.0487955, 0.035321},{-0.153882, -0.122598, -0.113016, -0.0554465, -0.0696655}},{{0.16611, -0.177835, -0.0384244, 0.20957, 0.295102},{0.0315874, -0.189245, 0.0916268, -0.0153294, -0.0619332},{-0.0287145, -0.32053, -0.0203595, -0.05846, -0.0941725},{-0.240367, -0.246881, -0.0536145, -0.048281, -0.250404},{-0.196124, -0.113277, -0.148265, -0.0798971, -0.200454}},{{-0.0287232, -0.0534751, -0.128599, -0.157294, 0.0279795},{0.080569, -0.142872, -0.0238009, 0.0209582, 0.0138886},{-0.0704962, -0.166923, 0.173035, 0.0783086, -0.0131765},{-0.094786, -0.010272, 0.00446273, -0.0687187, -0.00130252},{-0.0474363, 0.0602918, -0.0204654, -0.0125003, -0.0187084}},{{0.0323294, 0.047029, 0.025425, 0.00202473, -0.0139537},{0.0149134, 0.0233069, 0.0301405, 0.0191441, 0.103646},{-0.0231095, 0.136383, 0.0176123, -0.123589, -0.0608785},{-0.054272, 0.164411, -0.0831616, 0.053993, -0.0509725},{0.0506318, 0.0112089, 0.0584746, 0.128254, 0.0491131}},{{0.10543, -0.0522101, -0.0933127, -0.041915, 0.0675785},{0.0973044, -0.000440631, -0.011989, -0.0614305, 0.000939527},{0.0302037, -0.0171251, -0.0823747, 0.00434778, -0.0580576},{0.00588694, -0.0348043, 0.0465786, 0.116703, 0.0802154},{-0.027686, 0.0819166, 0.1231, 0.00273088, 0.118521}},{{0.0707456, 0.0747052, 0.0658723, -0.111295, -0.0111421},{0.164547, 0.13202, 0.0214965, -0.123253, 0.0285198},{0.198542, -0.00763734, 0.0468534, -0.0226308, -0.0778749},{0.123513, 0.0198033, 0.0745755, -0.00781344, -0.0219797},{0.0980913, -0.0840027, 0.143071, -0.0179059, -0.0643576}}},{{{-0.0127664, 0.0708241, -0.0532108, -0.107884, 0.0153186},{0.00821942, 0.0187836, 0.0649163, -0.0631211, -0.000753712},{-0.0947621, -0.153074, -0.114102, -0.00505697, 0.0227641},{-0.0175101, -0.105016, 0.0232986, 0.0229431, -0.00753246},{0.0039268, -0.0152001, -0.0684588, -0.0808882, -0.088869}},{{-0.0985737, -0.107092, 0.000172298, -0.158665, 0.0153984},{0.0280994, -0.00539674, -0.0179821, -0.128481, 0.0225494},{0.0704439, 0.0898147, 0.0934945, -0.0732724, -0.144264},{-0.101957, -0.0824765, -0.008026, -0.084337, 0.0127313},{-0.0131972, -0.0214325, -0.0814771, -0.00267536, 0.0148881}},{{-0.0967123, -0.116459, -0.129716, -0.1627, 0.0858143},{0.0285505, -0.179793, -0.0430133, -0.0129181, 0.0187994},{-0.145076, -0.100257, -0.0411954, 0.0975937, -0.110246},{-0.0623691, 0.0990596, 0.0010419, -0.0788009, -0.126703},{-0.0652662, 0.0685771, 0.0813517, -0.053574, 0.0174222}},{{-0.0945103, -0.0398473, -0.0749687, -0.104287, -0.167276},{-0.136902, -0.0343525, -0.0740736, -0.096417, -0.14195},{-0.037113, 0.00278924, -0.157419, -0.00201406, 0.0586825},{-0.0381606, -0.129808, -0.0861627, -0.158871, 0.0683362},{0.0202781, -0.0808708, -0.0801663, -0.108516, -0.137609}},{{-0.0468771, -0.0454765, 0.0087258, 0.0206858, -0.0236095},{0.0589784, -0.0014874, -0.103067, -0.0512966, -0.182509},{0.0804152, 0.00303145, -0.0243858, -0.0213431, -0.0422859},{-0.142735, -0.0345454, -0.0904369, -0.144575, -0.160199},{-0.0797607, -0.0674096, 0.0703939, -0.0445425, 0.0509925}},{{-0.0404334, -0.0610879, -0.053788, -0.133708, -0.112979},{-0.0542541, 0.0646651, 0.0289004, 0.0640439, -0.0360216},{0.0106462, -0.0903596, -0.0437141, 0.0794916, 0.100559},{-0.0883645, -0.0960646, -0.0248774, 0.0417907, -0.0514112},{-0.00312966, 0.0190895, 0.0186544, -0.0148745, -0.0627911}}}};
	float w5_oc[120][16][5][5] ;//= {{{{-0.00990553, -0.0727418, -0.0713616, -0.0410725, -0.0214859},{0.0452103, -0.0753419, -0.0819585, -0.0165632, 0.0054716},{-0.019692, -0.0707688, -0.0303366, -0.017653, 0.0144854},{0.000605106, -0.0813036, -0.00744167, 0.0149867, 0.0372271},{-0.0392017, -0.0771236, -0.0226082, 0.00840059, -0.0273142}},{{-0.0760695, -0.0664666, -0.0521876, -0.011076, -0.0213105},{0.000545815, -0.0755785, -0.00523796, -0.0458964, -0.0528234},{-0.0501561, -0.0164558, -0.0470622, -0.0360964, -0.0299921},{-0.0134134, -0.0279989, -0.0413662, -0.0516829, -0.0324425},{-0.00736804, -0.0158648, -0.0598148, -0.0735869, -0.0766149}},{{-0.0368904, -0.0700638, -0.0512593, -0.0588328, -0.031236},{-0.0339431, -0.0014527, -0.0610466, -0.049004, -0.0665688},{-0.0489917, -0.00227026, -0.0155814, -0.00199433, -0.0278097},{-0.0730079, -0.0489153, -0.0290871, -0.024123, -0.0595199},{-0.0480653, -0.0756546, -0.0705724, -0.0556109, -0.0441371}},{{-0.0265851, -0.0539115, -0.0747015, -0.0636952, -0.0343371},{-0.00422768, -0.038715, -0.024067, -0.058169, -0.0316973},{-0.0468547, -0.0192765, -0.0397837, -0.0364735, -0.0355714},{-0.0231518, -0.0487504, -0.00382561, -0.0225408, -0.00953403},{-0.00879934, -0.0679404, -0.0243203, -0.0599002, -0.00309974}},{{-0.0759918, -0.0813257, 0.000216659, -0.051448, -0.062148},{-0.0267653, -0.0265069, -0.0439258, -0.0744778, -0.0173913},{-0.0643, -6.34082e-05, -0.0397626, -0.0535399, -0.0731905},{-0.00567829, -0.0493364, -0.0324959, -0.0368083, -0.0409201},{-0.0535094, -0.0800448, -0.0353033, -0.0541039, -0.0369107}},{{-0.0287845, -0.0491905, -0.0254302, -0.02351, -0.0292289},{-0.0250044, -0.0430694, -0.0242633, -0.0688786, -0.0348336},{-0.0779829, -0.0519236, -0.0398948, -0.0304966, -0.0264115},{-0.00339077, -0.0222426, -0.0318597, -0.0242451, 0.000293694},{-0.0338124, -0.0449564, -0.0295619, -0.0198685, -0.0644166}},{{-0.0788489, -0.0688732, -0.0177582, -0.079679, -0.0384634},{-0.0672452, -0.0815614, -0.00010198, -0.0587186, -0.0597201},{-0.0370734, -0.0727677, -0.0174864, -0.02225, -0.0775475},{-0.0370372, -0.035878, -0.0161229, -0.0147111, -0.0467527},{-0.0274323, -0.0170556, -0.00375094, -0.0732092, -0.0757296}},{{-0.0181301, -0.0587517, -0.0394984, -0.00477688, -0.0556554},{-0.0177349, -0.00531099, -0.03162, -0.0463025, -0.0120248},{-0.0179716, -0.00672551, -0.0292135, -0.000283446, -0.0198966},{0.00188426, -0.0128623, -0.0702754, -0.0581647, -0.0760814},{-0.000177309, -0.0758358, -0.0457149, -0.0807695, -0.0722023}},{{-0.000359129, -0.0635338, -0.0740463, -0.0638225, -0.0112883},{-0.0496958, -0.0244423, -0.00371284, -0.0410453, -0.057671},{-0.0528802, -0.0580486, -0.052296, -0.0406417, -0.0606816},{-0.0764045, -0.0054675, -0.0318508, -0.0210422, -0.0150925},{-0.0798301, -0.0816636, -0.0432328, -0.0791064, -0.0583743}},{{-0.0245663, -0.0795741, -0.0233961, -0.00767979, -0.0100066},{0.062722, -0.0466772, -0.0543047, 0.0128826, -0.0149199},{-0.0115963, -0.0547329, -0.0796707, -0.0561407, 0.00640896},{-0.00403025, -0.0102958, 7.05644e-05, -0.0229568, 0.0419087},{-0.0415582, -0.00202952, -0.048877, -0.00740132, -0.00749979}},{{0.00151504, -0.0442469, -0.050691, -0.0540938, -0.0223264},{-0.0335747, 0.0362724, -0.0623819, -0.0311602, -0.0198576},{0.00120656, -0.0363284, -0.016986, -0.0205552, -0.0539191},{0.00859317, -0.0745283, 0.00157461, -0.0664731, -0.0633807},{0.00225601, -0.0169166, -0.0469632, -0.00625744, 0.0252605}},{{-0.0239143, 0.0363963, 0.00804075, -0.0670637, -0.0515765},{0.0302517, -0.00508709, -0.00157038, -0.0139293, -0.00139588},{0.0364767, -0.0788251, 0.0294874, -0.0771693, -0.0573907},{-0.0415213, -0.00590731, -0.0557374, -0.0511233, -0.0773286},{-0.00777785, -0.0573164, -0.0698849, -0.0520967, -0.00759844}},{{0.0381165, 0.013895, -0.0419301, -0.0665759, -0.0586314},{0.00706159, 0.000252489, -0.0440375, -0.0279553, -0.00326744},{-0.0326619, 0.0334177, -0.018318, -0.0451635, -0.0104305},{0.0253217, -0.0110766, -0.0806868, -0.00719059, -0.0135476},{-0.00992722, 0.0375247, -0.0447208, -0.00845684, -0.0734663}},{{-0.00568901, -0.0630368, -0.0739937, -0.000401106, -0.0361566},{-0.0580951, -0.0442574, -0.0057718, -0.0309638, -0.00718695},{-0.0363954, -0.00450246, -0.0238626, -0.0688892, -0.0175311},{-0.00809689, -0.0507503, -0.0289101, -0.051877, -0.064312},{-0.0349463, -0.0530128, 0.000195723, -0.0685725, -0.0426073}},{{-0.0446756, -0.0708, -0.0749698, -0.000642862, -0.0681188},{-0.0661588, -0.0654405, -0.0322152, -0.0239504, -0.0173472},{-0.0337992, -0.0467839, -0.00863451, -0.00973292, -0.0614549},{-0.0406523, -0.0291107, -0.0415513, -0.0791155, -0.0650635},{-0.038639, -0.0279972, -0.00948281, -0.0715006, 0.000674848}},{{0.0239218, -0.00121323, -0.0550137, -0.0607652, -0.0594488},{-0.0631984, -0.0681528, -0.078014, -0.00707881, -0.0811404},{0.0792868, -0.0408235, -0.07481, -0.0781869, -0.0204638},{-0.0586239, -0.0516985, -0.0282397, -0.0279367, -0.0572302},{-0.0586501, -0.0593526, -0.0539393, -0.0323804, -0.000518128}}},{{{0.0427506, 0.0096804, 0.0569611, 0.068641, 0.0406005},{0.058252, 0.041179, -0.00159828, -0.0335691, 0.0266393},{-0.0532465, -0.0595571, -0.0708143, 0.0115071, 0.0367221},{0.0151732, -0.0143879, -0.0261167, 0.0368018, 0.0303801},{0.0431953, -0.0119626, 0.0763832, -0.0120782, 0.0366106}},{{0.000431925, -0.0981851, -0.0881701, -0.0189353, 0.029837},{0.00432301, 0.0391408, -0.106439, 0.0193798, -0.0048527},{0.00962767, -0.0264425, -0.00874111, 0.0375645, -0.0193073},{-0.000530024, -0.0750553, 0.0389739, 0.0186917, 0.0125199},{0.0400188, -0.00118225, 0.01592, -0.0407383, -0.0159955}},{{-0.0699486, 0.0125902, -0.0288763, -0.0715641, -0.0263979},{0.0430061, -0.00452071, -0.0450111, -0.07702, -0.00426014},{-0.0806022, -0.0366538, -0.00290057, -0.0723731, -0.0142261},{-0.0408803, -0.0128355, -0.0431984, -0.0890099, 0.00117491},{-0.0218633, 0.0405126, -0.0643286, 0.00714413, 0.00118212}},{{-0.0425886, -0.0362355, -0.0149614, 0.0431655, -0.0190714},{-0.02046, 0.00894151, -0.0207264, 0.0706198, -0.0151331},{-0.0650812, -0.0509441, 0.0153553, 0.0443539, -0.0738517},{-0.0141969, -0.0118335, 0.0313596, -0.0466563, 0.0484425},{-0.00845829, -0.00740311, 0.035733, 0.00625216, -0.0497131}},{{0.0470916, 0.231582, 0.1416, 0.0758591, 0.0873498},{-0.184425, 0.0927372, 0.173425, 0.118923, -0.0965281},{0.0404271, 0.0982666, 0.0834636, 0.00155938, -0.0470583},{0.137348, 0.137772, 0.113905, 0.0581603, -0.335288},{-0.0588737, 0.231308, -0.144644, -0.441793, -0.11599}},{{0.0569447, 0.00537937, 0.0264729, 0.0710837, -0.0542667},{0.00512527, 0.0520984, 0.055434, 0.0722703, 0.00810652},{0.00984159, -0.00110996, 0.0730915, 0.0448105, 0.0590909},{0.0741879, 0.0349502, 0.0702839, 0.0763289, 0.0264267},{-0.0135443, 0.00027293, -0.0511502, 0.0652732, 0.00581274}},{{0.065706, -0.0472097, -0.0090401, 0.062275, 0.0542525},{0.0146444, 0.0658573, 0.0506092, -0.00660158, -0.0538942},{-0.0438438, 0.069636, -0.0351409, -0.00760736, 0.0405144},{-0.0667663, -0.0238411, -0.0418606, 0.0553663, -0.0644579},{0.0417037, 0.0104819, 0.0675774, 0.0447374, 0.0404838}},{{0.011779, 0.067293, 0.0150027, -0.0583278, -0.0502036},{-0.0670113, 0.077131, 0.0794765, -0.0479195, -0.0196721},{-0.046711, -0.0601775, 0.104051, 0.0468235, 0.00434374},{0.0782483, 0.0243763, 0.00477569, -0.0791797, 0.00500766},{-0.0414874, 0.0500078, -0.0484954, -0.0631466, -0.024859}},{{0.00739253, -0.0343498, 0.0153923, -0.00983203, 0.0217412},{0.0212331, -0.0214748, -0.0331208, -0.0164707, 0.025162},{-0.0679799, -0.0602314, -0.093178, 0.0338421, -0.0246445},{0.000372799, -0.10167, -0.0865691, 0.00604298, 0.00411817},{-0.025287, -0.119483, 0.0358594, 0.028382, 0.0433821}},{{-0.0157747, -0.0363655, 0.0375872, -0.0472079, -0.0175719},{-0.0884972, 0.0125133, 0.012772, -0.0952589, -0.0203563},{-0.0795591, -0.113775, -0.0293721, -0.0738688, -0.12071},{-0.101586, -0.0782872, 0.0409972, -0.0494559, -0.0176367},{0.0304824, -0.04168, -0.0321794, 0.0374978, -0.0689101}},{{-0.0849925, 0.0256556, -0.00766671, 0.0105932, -0.0870207},{-0.110472, 0.0134803, 0.0232005, -0.0365418, -0.0885639},{-0.0496371, -0.0465348, 0.000870467, 0.0100943, -0.0531209},{-0.0332362, -0.0252063, 0.0277067, -0.12078, -0.0836875},{0.000895941, 0.0397146, 0.00058913, -0.0670405, -0.00870305}},{{-0.160588, -0.666885, -0.227881, -0.0712647, 0.0559188},{-0.128525, 0.137853, -0.206215, 0.0942919, 0.129073},{-0.657438, -0.117029, 0.0254645, 0.151753, 0.0457032},{0.0865121, -0.132303, -0.18164, -0.219616, -0.253445},{-0.38665, -0.123343, -0.116077, 0.13252, 0.0893975}},{{-0.000940269, -0.0262519, 0.00726014, 0.0178292, 0.0114506},{-0.00704815, -0.0193468, -0.0482189, -0.071813, -0.0372427},{-0.0209556, 0.0180827, 0.00555046, -0.083393, -0.0470273},{-0.0226618, 0.0360331, 0.0156816, 0.0216044, -0.0297506},{-0.027115, 0.00837341, -0.0953308, -0.0477976, -0.0488056}},{{0.195457, 0.0256456, 0.0334658, 0.0735022, 0.29143},{0.131923, -0.0965896, 0.046008, 0.105091, 0.0562418},{-0.0549008, -0.129614, 0.0400054, -0.0802276, -0.106547},{-0.200326, -0.216413, 0.00241856, 0.118692, 0.159778},{-0.172748, 0.140663, -0.0430977, -0.0754639, 0.039678}},{{0.0368206, 0.216421, 0.22515, 0.270697, 0.256083},{0.0388459, 0.0812872, 0.100687, 0.0453712, -0.267013},{-0.282718, 0.0836484, 0.155505, 0.223746, -0.105369},{-0.289825, -0.159092, 0.0609096, -0.111029, 0.0716853},{0.280801, 0.169814, -0.269136, -0.0795792, 0.0131796}},{{-0.0300513, 0.0345936, 0.0124154, -0.0428156, -0.0765358},{-0.0700695, 0.0066534, -0.0239908, -0.0991297, -0.0430784},{-0.080556, -0.0589532, -0.041107, -0.0589031, -0.0431233},{-0.104219, -0.0772696, -0.0522602, -0.0526196, -0.0218442},{-0.034, 0.0110579, -0.00965132, 0.0176996, -0.0591878}}},{{{0.0163263, 0.0602775, 0.0620648, -0.0453371, -0.0497943},{0.0311681, -0.000733057, 0.0242354, -0.0200383, 0.0273075},{-0.0901916, 0.0636331, 0.00882593, 0.0444964, -0.0331646},{-0.0480407, -0.101466, 0.00678999, -0.0313861, 0.0288765},{0.074867, -0.067568, 0.0407288, 0.0102871, -0.0217134}},{{0.0382107, 0.0318442, -0.029283, 0.0397851, 0.0140866},{0.00875946, -0.011904, 0.0400116, 0.029907, -0.0383354},{-0.024661, 0.0376603, 0.0263892, -0.0158529, 0.035628},{0.0249946, -0.0111016, 0.0260977, 0.00128776, 0.032312},{-0.0382308, -0.00369519, -0.0409791, 0.0361809, 0.0330259}},{{0.0196585, 0.0347015, 0.076498, 0.0775685, -0.0299582},{0.0272757, 0.0419413, 0.00445827, 0.000733089, -0.0380915},{0.0190059, -0.0104492, 0.00550754, -0.0371772, 0.0393615},{0.0297882, -0.00923736, 0.0320386, -0.0145138, 0.0784253},{-0.0210431, 0.00898194, -0.0235705, 0.0207651, 0.0651721}},{{0.0208894, -0.000537214, -0.0191049, -0.0333757, 0.0238699},{0.0213286, 0.0338197, 0.0126474, 0.00608967, 0.01361},{0.0351607, 0.00501264, 0.00505211, -0.0158001, -0.0260347},{0.0374154, -0.00299274, -0.0342078, -0.0186344, 0.029642},{-0.00324307, 0.0348989, 0.0341702, -0.00457933, -0.020852}},{{0.0186739, 0.0681866, 0.049467, 0.0559481, 0.0860734},{0.039661, 0.073056, 0.0225295, 0.0339994, 0.139698},{0.0184092, 0.0795644, 0.0353172, 0.0226065, 0.0213871},{0.0635372, 0.0584411, 0.0871042, 0.0310621, -0.0821},{0.137908, 0.0299366, 0.0094499, -0.0309662, -0.136901}},{{0.0383068, 0.0227607, 0.0324975, 0.00148449, 0.0168111},{0.0811436, 0.0587405, 0.0370499, 0.0480897, 0.059709},{0.0491316, 0.0518302, 0.0302973, 0.0587436, 0.0177328},{0.00228572, 0.0305538, 0.0752908, 0.079566, 0.0758618},{0.0386214, 0.0443684, 0.032601, 0.0789767, 0.0452377}},{{0.0215965, 0.0688905, 0.0485813, 0.0162333, 0.0313009},{0.0396329, 0.0507559, 0.0229784, 0.0232495, 0.059248},{0.0695313, 0.0660279, 0.00385458, 0.0384109, 0.0015099},{0.0284209, 0.00214155, 0.0426647, 0.0106322, 0.00418207},{0.0312076, 0.0270497, 0.07793, 0.057815, 0.00730017}},{{0.0138495, 0.0523968, 0.0416021, 0.0423205, 0.00714388},{0.0276695, 0.0117954, 0.0146436, 0.0190549, 0.0165249},{0.0379662, 0.00167321, 0.0382862, 0.0579092, 0.0121861},{0.052925, -0.00106846, 0.0353882, 0.027463, 0.0583943},{0.0535181, 0.00723131, 0.011115, 0.0781192, -0.0249026}},{{0.0256424, -0.0308459, 0.00583062, 0.0230568, -0.0138278},{0.0198814, -0.0058209, 0.0305064, -0.00492949, 0.037039},{0.0355976, 0.0113434, 0.0309305, -0.0114192, -7.80347e-05},{-0.0259418, 0.00739738, 0.035362, 0.0247536, -0.0058874},{0.0359019, 0.00337937, 0.00891002, 0.0108948, 0.0174619}},{{0.0193854, -0.00983796, -0.0355063, 0.0343038, -0.0214866},{0.030453, -0.0344879, 0.00799955, -0.0292241, 0.0349638},{-0.0433615, 0.036159, -0.0373156, 0.0253929, 0.00812705},{-0.0328947, 0.0340027, -0.00195149, 0.0182101, -0.0489116},{-0.0365473, -0.0584163, 0.0334904, -0.00838004, -0.0624199}},{{-0.00135826, 0.00711789, -0.017104, -0.0191814, -0.0212501},{-0.0442882, 0.0238091, -0.0245395, 0.0211975, 0.0099617},{-0.0457152, -0.055455, -0.0397647, -0.0163453, -0.0853746},{-0.0511067, -0.0221699, 0.0389265, -0.0218332, -0.0994694},{-0.0250182, 0.0185447, 0.0224452, 0.0185679, -0.00294077}},{{0.00216037, 0.0288283, -0.0513569, 0.0956614, 0.00968189},{0.0828052, -0.0845376, -0.0952681, -0.0438148, 0.120858},{0.045968, -0.0171533, 0.0870513, -0.0909852, -0.165052},{0.170207, 0.0555454, 0.0271516, 0.0710902, -0.126158},{-0.144891, 0.0158347, -0.0685025, -0.00662187, -0.0282588}},{{-0.0718926, -0.0183599, 0.00850097, 0.00433581, 0.00641406},{-0.0524731, -0.0193411, -0.00747092, 0.027042, 0.00740487},{-0.0302651, 0.0237516, -0.0184879, -0.0508099, 0.0151741},{-0.0427659, -0.0408536, 0.00793666, 0.00639871, 0.0216464},{-0.075553, -0.0087687, 0.0101028, -0.0194815, -0.0200139}},{{0.0428739, 0.129199, 0.016873, 0.00878555, -0.0951076},{-0.00300587, -0.160085, 0.0591347, 0.0240611, -0.00814733},{-0.1415, -0.133501, 0.064102, -0.114999, -0.188824},{-0.0487048, 0.0286494, -0.0264367, 0.0105494, 0.0867117},{0.0426278, -0.00699345, -0.0168501, -0.0845629, 0.00733309}},{{-0.0813455, 0.0762861, 0.202724, 0.152301, 0.0138061},{0.000148028, 0.0201681, 0.0441622, 0.0189707, -0.0522865},{-0.142458, -0.0954831, 0.255289, 0.0591323, -0.0262912},{-0.151903, 0.0777572, 0.0610936, -0.0514165, -0.00276317},{0.0114237, 0.0467567, 0.023349, 0.00109734, -0.049612}},{{-0.0553671, -0.0395798, -0.0417083, -0.0289045, -0.0881151},{0.00333263, -0.00643605, 0.00991509, 0.0279001, -0.0226021},{-0.0335006, -0.00283107, -0.0354842, -0.080752, -0.064462},{0.0224198, 0.0285008, 0.0112814, -0.075677, -0.00273026},{0.0292962, 0.0140261, 0.0297439, -0.00391985, -0.0724056}}},{{{-0.0595289, -0.112619, 0.0149374, -0.133662, -0.0959266},{0.0259121, 0.0661284, 0.0240102, -0.0313479, -0.00684186},{0.078741, 0.0422265, 0.016675, 0.0404237, -0.00283418},{0.00976907, -0.00675807, 0.0691285, 0.00852211, 0.0246223},{0.0189843, 0.0345587, -0.00725316, 0.00676281, 0.0154851}},{{0.0160269, 0.0374766, 0.0142081, -0.0251883, 0.035387},{0.0258235, -0.00976781, 0.0394484, -0.0257349, -0.0407704},{-0.0355776, -0.0239272, 0.0215514, -0.032147, 0.00544931},{0.0224812, 0.0390728, -0.0351853, 0.0118594, 0.0434616},{-0.00499988, -0.00875085, 0.00615763, 0.0340829, 0.0103496}},{{0.0138208, 0.0394439, 0.0350303, 0.0818828, 0.0689696},{0.0488063, 0.00843944, 0.000757691, 0.0368202, 0.0580395},{0.00110392, -0.0190756, -0.0737895, 0.0443321, 0.034985},{0.0115045, -0.0177455, 0.00334357, -0.0323987, 0.0461159},{-0.029301, 0.0271466, -0.0375604, 0.034306, -0.0350646}},{{0.008548, 0.0236992, -0.0021335, -0.0182882, 0.0182758},{-0.0349734, -0.0247147, -0.00806726, -0.0146505, 0.00494142},{-0.0177995, -0.00808973, 0.00771653, 0.0166214, -0.0432011},{0.0349963, 0.0440909, 0.026466, 0.00465532, 0.0145612},{-0.0273329, -0.00264286, -0.0288837, 0.0135378, -0.0245135}},{{-0.000848247, -0.013015, 0.0704278, 0.100997, 0.0141482},{0.0432228, 0.0527254, 0.0160698, 0.0141632, 0.00843453},{0.0855234, 0.0436365, 0.0316297, -0.0582116, 0.0990673},{0.0387966, 0.0850035, 0.0672418, -0.0139947, 0.0726026},{0.045871, 0.0151944, 0.00322051, -0.0689537, -0.0281784}},{{-0.00063926, 0.0500309, 0.016544, 0.0803868, 0.040963},{0.0520532, 0.0642229, 0.00181416, 0.0135366, 0.0369381},{0.0438503, 0.0261163, 0.0650534, 0.0427038, 0.0253895},{0.021915, 0.0128347, 0.00826355, 0.043693, 0.0541391},{0.0582778, 0.0552372, 0.0191762, 0.0708458, 0.057256}},{{0.00911373, 0.0227964, 0.0650889, 0.0241825, 0.0674539},{0.0526161, 0.0523125, 0.0328639, 0.0152081, 0.0671845},{0.0191499, 0.0282972, 0.0331522, 0.000119761, 0.0435117},{0.0473313, 0.0381042, 0.0543904, 0.0372659, 0.0518844},{0.0685522, -0.00491475, 0.0715262, 0.0483182, 0.0666125}},{{0.0344241, 0.0717414, 0.00067987, 0.0459656, 0.0564068},{0.0789866, 0.0422411, 0.0489515, 0.0276845, 0.0487331},{0.0516317, 0.0248179, 0.0666214, 0.0552241, -0.00670303},{0.00235736, 0.0521945, 0.00904073, 0.0768626, -0.0710629},{0.0670037, 0.0530393, 0.0109283, 0.0127279, 0.00739186}},{{-0.0106734, 0.00362413, -0.0465293, 0.0165423, -0.0238161},{0.0251527, 0.0311474, -0.0399557, -0.0057224, 0.0232283},{-0.0317027, 0.000680939, -0.00610309, 0.022894, 0.0342808},{0.0278846, 0.0292787, 0.0376366, -0.00825506, -0.0285658},{-0.0195026, -0.0387287, 0.0204389, -0.000531134, -0.021787}},{{-0.0268613, -0.105686, -0.0443086, -0.037803, -0.00896779},{0.0246912, -0.0449079, -0.00974471, 0.0240272, 0.00346697},{-0.00391985, 0.0214355, 0.0350979, 0.022934, -0.0315353},{-0.00153388, 0.0152632, -0.030408, -0.0237648, -0.0547764},{-0.0847927, -0.044168, 0.0191757, 0.0402807, -0.00922112}},{{-0.0339084, -0.027707, 0.0356734, 0.00418964, 0.00811911},{-0.0195306, -0.0167937, 0.00962419, -0.0214344, 0.00129078},{-0.000640738, -0.032515, 0.0368272, 0.0309234, -0.10642},{-0.0103236, -0.0777512, 0.0235095, -0.0143714, -0.0286634},{-0.0177127, 0.0401222, 0.0241513, 0.0159292, -0.0455706}},{{0.123092, -0.278996, -0.247602, 0.0895014, 0.0776028},{-0.303579, -0.11648, -0.215375, -0.0210998, -0.14323},{-0.271469, -0.0388775, 0.0660264, -0.0414685, -0.210459},{-0.266189, -0.0493326, -0.151549, 0.0947641, -0.00160315},{-0.273452, 0.0487258, 0.0184166, 0.00467827, -0.10625}},{{-0.0378679, -0.0793693, -0.0163064, -0.0414946, 0.00527813},{-0.0516485, -0.00878642, -0.00053312, -0.0352541, -0.0116253},{-0.0564332, -0.014911, 0.0157165, -0.0057724, 0.0149817},{-0.0186141, -0.0538176, -0.0138054, -0.0039447, 0.0339697},{-0.0622357, -0.0323811, 0.00653601, -0.0783912, -0.0963791}},{{0.0835243, 0.120085, -0.0256849, 0.0538876, 0.0561808},{0.166911, 0.0435684, 0.0552074, -0.0243361, 0.00376694},{-0.0946718, -0.0863574, 0.00880748, -0.106079, 0.0641216},{-0.216609, -0.138242, 0.149951, -0.146315, -0.0839784},{0.175535, 0.0872677, 0.00903278, -0.0540189, -0.0873569}},{{-0.0174721, 0.139145, 0.0934651, 0.0516312, 0.00407461},{0.0354269, -0.00561976, -0.0485138, 0.0710939, 0.0887732},{-0.00996488, -0.355849, 0.079554, -0.208837, -0.00745788},{0.0460457, 0.0852292, -0.128455, -0.00114067, -0.0162018},{-0.212226, 0.0131395, 0.0617686, 0.0131476, 0.0321336}},{{-0.0298148, -0.113216, -0.0133081, -0.0232193, 0.0326923},{-0.119205, -0.0442243, 0.0148166, 0.0359588, -0.022543},{-0.0237087, -0.00726023, 0.0153724, -0.030306, -0.0212803},{-0.0103163, -0.016338, -0.00634884, -0.00867594, -0.0822498},{-0.0999714, -0.00648269, -0.0842465, -0.0349362, -0.036616}}},{{{0.0229013, -0.0348737, -0.0304808, -0.0372719, -0.00636071},{-0.000862345, -0.0191595, 0.00244695, -0.0167187, -0.0226729},{0.0144862, -0.0120517, 0.00149439, 0.0133419, -0.0260379},{-0.0388461, -0.00259323, 0.0118454, -0.0134813, 0.0397388},{0.0171812, -0.0141796, -0.0230126, -0.00989745, 0.0289848}},{{0.000596039, -0.0377963, -0.0796596, -0.0399479, -0.0257113},{-0.0606945, -0.0293877, -0.0663682, -0.0781122, -0.0423676},{-0.0292685, 0.00048136, -0.0269414, -0.070842, -0.0605001},{-0.0581928, -0.0270742, -0.0147411, -0.0521339, -0.0261553},{-0.0026125, -0.058588, -0.0588425, -0.0555727, -0.00622572}},{{-0.00672569, 0.00700641, 0.00863582, 0.0165208, 0.0184281},{0.00192114, -0.00998022, -0.000556644, 0.0152164, -0.035315},{-0.062097, -0.0593115, -0.0042321, -0.0406829, 0.0236251},{-0.0145636, -0.0561815, -0.00367917, -0.0563841, 0.00329849},{-0.00797536, -0.0244476, -0.0714155, -0.0661621, 0.011213}},{{-0.00235175, -0.0586759, 0.00110564, -0.0125097, -0.0617554},{-0.0513823, -0.00356371, -0.0203933, 0.00132285, -0.0658421},{-0.0754648, -0.0415589, -0.0380812, -0.0144929, 0.0013851},{-0.0486547, -0.013665, -0.0684335, -0.0372051, -0.027483},{-0.0453526, -0.0187164, -0.0726897, -0.0584675, -0.00453574}},{{-0.00408642, 0.00171934, 0.0336444, -0.0251606, 0.031253},{-0.0195683, 0.0174072, -0.0205855, 0.00763718, 0.0367523},{0.0266654, -0.0218289, 0.034249, -0.062608, -0.0417977},{0.0387698, -0.00863459, -0.0182812, 0.00515945, -0.0230296},{0.0196535, 0.0318248, -0.0346592, -0.00820333, -0.00842226}},{{-0.0249367, -0.0185155, -0.0078607, -0.00642644, -0.0325198},{-0.000169829, 0.0142791, 0.013444, 0.0207588, -0.000316229},{-0.0315833, 0.0101214, -0.0267613, 0.00692633, 0.0385978},{-0.00602128, -0.0173438, -0.0415903, -0.0113216, -0.0256658},{-0.031343, -0.0151057, 0.0108203, -0.0296598, -0.0320989}},{{0.00828942, -0.0399183, 0.00936783, -0.00584413, 7.83801e-06},{-0.0343449, -0.0150517, 0.00875149, 0.0128762, 0.00339664},{-0.0260214, 0.0185768, -0.0415143, 0.0393122, 0.0197391},{0.0386053, -0.00474663, -0.0403602, 0.016622, 0.00661785},{-0.0264617, 0.0394698, -0.0367473, 0.00420849, -0.0102409}},{{-0.00375488, 0.016467, -0.0144574, -0.0333699, 0.0148195},{-0.025555, 0.0343191, -0.00386875, -0.0120025, 0.0101786},{0.0411449, 0.0210146, -0.0173472, -0.0327888, -0.021929},{0.0104705, -0.0077636, -0.00946361, -0.0252785, 0.0142905},{0.0292389, -0.0249059, -0.00835107, 0.00234565, 0.00613884}},{{-0.0675439, -0.000271771, -0.0804389, -0.066752, -0.0410964},{-0.0211749, -0.0665344, -0.0216764, -0.0283768, -0.0452923},{-0.0369271, -0.0690796, -0.0169, -0.0629035, -0.0489932},{-0.0545631, 0.0011222, -0.000881717, -0.0387217, -0.00210137},{-0.0417792, -0.080299, -0.0190426, -0.0239475, -0.033893}},{{-0.0334546, -0.0515552, -0.0511903, -0.0409036, -0.0366135},{-0.0661176, -0.00119225, -0.0489408, -0.0277833, -0.0794911},{-0.0525457, -0.0431482, -0.0304972, -0.058948, -0.0135086},{-0.0377554, -0.0753796, -0.079549, -0.0292067, -0.0353718},{-0.0277778, -0.0573917, -0.0610541, -0.0334895, -0.0696738}},{{-0.0204434, -0.0104568, -0.0450126, -0.0261309, -0.0262921},{-0.0757142, -0.0619359, -0.0535047, 0.00189071, -0.0103464},{-0.0616025, -0.0524509, -0.002963, -0.0638498, -0.0637583},{-0.0505685, -0.0402046, -0.06223, -0.0130157, -0.0388373},{-0.021803, -0.0355684, -0.0227278, -0.0117586, -0.045004}},{{-0.0185687, 0.021355, -0.00580274, 0.0352832, 0.0396902},{-0.00492744, 0.000430707, 0.00234957, 0.0206399, -0.0364603},{-0.0374827, -0.0091769, -0.0326273, -0.00275251, 0.0258121},{0.0331982, 0.0244637, -0.0327197, -0.00465612, 0.0194194},{0.0383731, 0.00382034, 0.0363049, 0.00895077, -0.00542477}},{{-0.0795061, -0.0740923, -0.0696792, -0.00627187, -0.058149},{-0.0557798, -0.0815991, -0.0646136, -0.0257879, -0.057323},{-0.0088921, -0.0250172, -0.0360539, -0.0182911, -0.0363735},{-0.0492997, -0.0302771, -0.0644378, -0.0566201, -0.0459282},{-0.0511968, -0.0514709, -0.0337038, -0.00369117, -0.0140206}},{{-0.01458, -0.0250709, -0.0216166, -0.0144909, 0.0118718},{0.0204095, -0.0159444, -0.0133654, -0.019514, -0.0380083},{0.015036, -0.0288718, 0.0188185, -0.0257205, -0.0417947},{-0.000410642, -0.00775697, 0.0113528, -0.0190073, 0.0319449},{-0.00147114, 0.0338198, -0.038653, -0.0162017, -0.0019489}},{{0.0212882, 0.0197767, -0.0182797, 0.00715318, -0.0110418},{-0.0375347, -0.0174145, -0.0344981, -0.00725143, 0.0174159},{-0.0239687, 0.0284438, -0.0152082, -0.0376209, -0.0317651},{-0.00684649, 0.0389013, -0.030156, 0.000334639, -0.00234346},{0.0355476, -0.0140897, 0.0206816, 0.0267819, -0.00355347}},{{-0.0142864, -0.0186074, -0.0333491, -0.0292439, -0.0196522},{-0.0564876, -0.00700646, -0.0381802, -0.0117393, -0.0221622},{-0.0377744, -0.0563569, -0.0384332, -0.0809562, -0.0219349},{-0.0594698, -0.045589, -0.0150684, -0.0376491, -0.00387331},{-0.0436645, -0.0294701, -0.00986055, -0.0708503, -0.0112849}}},{{{0.0216402, -0.0468554, 0.0022605, -0.00692901, 0.0213293},{-0.041801, 0.0301294, -0.0802986, 0.037601, -0.0273489},{0.0129838, -0.0158151, -0.0102338, -0.0377717, 0.0203815},{0.0373004, -0.0209179, 0.00282645, 0.0301445, -0.0307876},{0.0355394, -0.0363752, 0.0337811, -0.00773045, -0.00875873}},{{-0.00112613, -0.0749471, -0.0586293, -0.0123081, -0.0231989},{-0.0367284, -0.0288694, -0.0364614, -0.0070593, -0.012679},{-0.076095, -0.0793191, -0.0350541, -0.00824418, -0.0252776},{-0.0790978, -0.000417169, -0.0237652, -0.0242454, -0.0326493},{-0.0774981, -0.0280902, 0.001786, -0.0505786, -0.00739743}},{{-0.0588565, -0.0511507, -0.0392062, -0.0463454, -0.00757502},{-0.0657321, -0.0345138, -0.0636635, -0.0262892, -0.0367763},{-0.0449245, -0.0345398, -0.000331718, -0.0338269, -0.0196194},{-0.0363335, -0.05219, -0.0258791, 0.0128992, -0.00994674},{-0.0364188, 7.1317e-05, 0.0322672, -0.0610218, -0.0588935}},{{-0.0138539, -0.0729284, -0.05424, -0.0659379, -0.0639782},{-0.0494896, -0.000409614, -0.0102524, -0.0608164, -0.0592525},{-5.69858e-05, -0.029383, -0.0417246, -0.0296192, -0.0797695},{-0.0477251, -0.0464431, -0.0777791, -0.0197114, -0.0194295},{-0.0672321, -0.057162, -0.0532777, -0.0485308, -0.0111154}},{{-0.0503133, -0.0260824, -0.0262542, -0.0385113, -0.0747544},{-0.031001, -0.0358076, -0.0168237, -0.0807121, -0.00164327},{0.000583675, -0.00588122, -0.0317301, -0.0683746, -0.0497359},{-0.000164744, -0.0696783, -0.0105136, -0.0234582, -0.0259859},{-0.00590477, -0.0237311, -0.0552811, 0.00172396, -0.0176097}},{{-0.0664139, -0.0578534, -0.0769435, -0.00158508, -0.0284463},{-0.0230018, -0.00243045, -0.0294963, -0.00782293, -0.00381078},{-0.0606596, -0.0594041, -0.00196955, -0.00440887, -0.0804218},{-0.0250377, -0.0136441, -0.0172007, -0.0668041, -0.033981},{-0.073538, -0.0119461, -0.0666734, -0.0233407, -0.0312026}},{{-0.06969, -0.00996088, -0.0305488, -0.0674914, -0.0585387},{-0.0122215, -0.0050582, -0.0539759, -0.0653522, -0.0309045},{-0.0580023, -0.00967516, -0.0779984, -0.062717, -0.0444038},{-0.0135595, -0.035161, -0.0221243, -0.0338187, -0.0506929},{-0.00594078, -0.00464693, -0.0528194, -0.0201681, -0.0444079}},{{-0.0547633, -0.0104893, -0.0778866, -0.0335446, 0.00198494},{-0.027061, -0.0108169, -0.0586212, -0.00696966, -0.0410507},{-0.0341668, -0.0298374, -0.0267901, -0.0708004, -0.0269885},{-0.0792428, -0.0675196, -0.0724794, -0.00622579, -0.0418919},{-0.00850641, -0.0799874, -0.0203888, 0.0106037, 0.0186611}},{{-0.0738096, -0.058732, -0.0609231, -0.0477577, -0.0461756},{-0.0651335, -0.0722767, -0.0160932, -0.0592769, -0.00527009},{-0.0802371, -0.0152174, 0.000752289, -0.0667086, -0.0306257},{-0.0663123, -0.0502198, -0.0291997, -0.0797793, -0.0808629},{-0.0492551, -0.0741731, -0.0439856, -0.0298851, -0.00378821}},{{-0.00606472, -0.0186094, -0.0666546, -0.030355, -0.028496},{0.0138769, -0.0576786, -0.0663757, -0.00951895, -0.0395017},{-0.0310096, 0.0240709, -0.0432265, -0.0738907, 0.00616813},{-0.0310888, -0.0141121, -0.079818, -0.00157892, -0.081413},{-0.0601926, -0.0770038, -0.00828868, -0.00156267, 0.0323583}},{{0.0357663, -0.0194358, -0.00793477, -0.0254838, -0.0756966},{-0.0102842, -0.00962953, -0.0708924, -0.0383724, -0.0754751},{-0.0152124, -0.0228734, -0.00109653, -0.0398141, -0.00317701},{0.0283684, -0.0601606, -0.0271509, -0.0650832, -0.0383819},{0.00746983, -0.0288037, 0.0287773, 0.0355863, -0.0137182}},{{0.0113646, 0.00726152, 0.00682953, -0.0283771, -0.0643639},{-0.0256593, -0.0397654, -0.0180393, 0.0367026, -0.0693945},{-0.00344738, -0.059664, -0.00499473, -0.0240777, -0.0417246},{-0.0407406, -0.0326327, -0.079299, -0.0197044, -0.057849},{-0.00746999, -0.0537256, -0.041638, -0.051574, 0.0192605}},{{0.0258092, -0.0328979, -0.0389854, -0.0206418, -0.0518936},{-0.00339299, 0.0116177, -0.0081429, -0.0699904, -0.0253622},{0.0300561, -0.0371696, 0.0122299, -0.06889, -0.0723202},{0.0101884, -0.064521, -0.0338873, -0.0193724, -0.0268172},{-0.00811547, -0.0323336, -0.00130478, 0.0306267, 0.0325527}},{{-0.0584005, -0.0704605, -0.00145107, -0.000984512, -0.0139403},{-0.0784263, -0.0789751, -0.0736534, -0.0483606, -0.0632522},{-0.0817468, -0.0142414, -0.0669103, -0.0437072, -0.0431826},{-0.0271241, -0.0712775, -0.0673621, -0.0803036, -0.0680006},{-0.0782133, -0.0382481, -0.0062502, -0.0198109, -0.0164604}},{{-0.0431524, 0.000259347, -0.00894593, -0.019688, -0.0265224},{-0.0470925, -0.0610804, -0.0198913, -0.0622724, -0.0502318},{-0.0505818, -0.0396841, -0.0184397, -0.078278, -0.00320541},{-0.056023, -0.00959358, 0.000172328, -0.0600283, -0.0640132},{-0.0473698, -0.0807008, -0.030628, -0.0315956, -0.0360648}},{{-0.0208602, -0.0493011, -0.0198228, -0.0734847, -0.0214243},{0.0178321, -0.0462158, -0.074602, -0.0434452, -0.0092409},{-0.011211, 0.0305358, -0.00583821, 0.0175134, 0.0115099},{-0.0411384, -0.0702577, -0.0232675, -0.0359022, -0.0488099},{-0.0151084, -0.0150045, -0.0735237, -0.015925, -0.0383125}}},{{{-0.0789791, -0.107598, -0.0552903, -0.00961933, 0.0268756},{-0.0252657, -0.0503756, -0.0744123, 0.00559935, -0.0252097},{0.0180624, -0.019023, -0.0265539, -0.0228414, -0.0250679},{-0.0782599, -0.0469021, -0.0347303, -0.00412584, 0.0359095},{-0.0127095, -0.0230687, -0.00980642, -0.00735002, -0.0268597}},{{0.0278715, -0.0362813, 0.000988644, 0.00430571, 0.0390733},{0.00815174, 0.0110078, -0.0297923, -0.0307659, -0.0226024},{-0.0891443, -0.0979437, 0.037478, 0.0277882, 0.0419006},{-0.0291068, -0.0293657, -0.0756159, -0.0176057, 0.0058535},{-0.0338681, -0.0138265, 0.0123167, -0.0125531, 0.00390886}},{{-0.00142213, 0.072675, 0.0443451, 0.0567132, -0.0271508},{-0.0518329, -0.000727765, -0.00272408, 0.0523178, -0.0524898},{-0.0711477, -0.0167168, -0.0298007, 0.0435184, 0.0261062},{0.0192933, -0.00187552, -0.080326, -0.111255, -0.081117},{-0.0115073, 0.00770831, -0.102835, -0.0528936, 0.0691924}},{{0.0194609, -0.0102927, -0.0239128, -0.0288625, -0.0152709},{-0.00912979, 0.00393007, 0.0212588, 0.00181201, -0.116428},{0.00657907, -0.0896092, -0.000453036, 0.00575773, 0.036574},{0.0159409, -0.0138092, 0.0252144, 0.041687, 0.0414337},{-0.0207897, -0.0299549, 0.0416589, 0.00927704, -0.0386058}},{{0.0748207, -0.0270411, -0.234511, 0.115562, 0.128104},{-0.0849129, -0.0320795, -0.0204742, -0.149328, -0.0569892},{0.0571072, -0.00616776, 0.00491102, -0.0212209, -0.15881},{0.147356, -0.120636, -0.0882481, -0.0602801, -0.0290854},{-0.00989464, -0.0508561, -0.0841219, 0.123099, 0.0267839}},{{0.0281796, 0.0102513, 0.0679826, 0.00406235, -0.0421699},{-0.0364051, 0.0350663, 0.0721342, 0.00793654, 0.0426703},{0.0480467, 0.0636685, 0.0440923, 0.013824, 0.00742002},{0.0704929, 0.0274594, 0.0137376, 0.0734111, 0.00259097},{0.0464309, 0.0334024, 0.0645385, 0.0446291, 0.0314681}},{{0.0795489, 0.0813444, 0.0056958, 0.00301227, 0.0210044},{0.00902733, 0.00682188, -0.00125927, -0.0492019, 0.0789855},{-0.0576988, -0.00199976, -0.0388814, -0.0242713, 0.0272503},{-0.0328232, 0.0759773, 0.0547393, 0.0643075, 0.0374058},{0.0703301, 0.0549154, 0.00887138, 0.0600208, 0.0463049}},{{-0.0606793, 0.0160361, 0.0731358, -0.00899845, -0.046573},{-0.0807442, 0.053746, -0.0731226, 0.0235205, -0.0504124},{0.0213716, -0.0482246, 0.0399442, -0.0587156, 0.0562453},{-0.0739132, 0.0348232, 0.00719089, 0.0163678, -0.0552904},{-0.040762, -0.00212526, 0.0810432, -0.064581, 0.0338028}},{{0.0230784, 0.0241196, -0.0204323, 0.0358505, -0.0360451},{0.00156564, -0.0377104, -0.0263069, -0.0186525, -0.0279592},{-0.00267114, -0.0689703, 0.0324568, 0.0265089, 0.0232408},{-0.0211884, -0.0861086, -0.0155687, -0.0068809, -0.00458466},{0.0246681, 0.00972849, 0.0319091, -0.0198604, -0.009646}},{{-0.0147905, -0.110053, -0.0288613, -0.113026, -0.0264855},{-0.0487178, -0.0329055, -0.0966338, -0.0924352, -0.000357214},{-0.0564048, -0.107873, -0.0211097, -0.0482957, -0.0370463},{0.00841182, -0.0290083, 0.00681827, -0.0273409, -0.00985177},{-0.0537609, -0.00819587, -0.0816614, -0.123114, -0.0797472}},{{-0.0575208, -0.0602151, -0.0133551, -0.087065, -0.0928584},{-0.0123855, -0.116795, 0.0137762, -0.0671517, -0.0892061},{-0.0172105, 0.0282164, 0.0327239, -0.00326679, -0.00522761},{-0.0789576, 0.00186859, 0.029796, -0.0966298, -0.0827099},{-0.0697349, -0.0896248, -0.111055, -0.0598035, -0.0203025}},{{0.11439, 0.0192499, 0.295856, 0.222541, 0.103284},{-0.085836, 0.213433, 0.132099, 0.180812, -0.15663},{-0.650932, -0.0510457, -0.0664168, 0.0823924, -0.291087},{0.250295, 0.195336, -0.216589, 0.141587, -0.210609},{0.365859, 0.0923632, 0.208918, 0.0322904, 0.0332597}},{{-0.0407423, -0.0797747, -0.0405444, -0.0903846, -0.0441259},{-0.0383283, 0.00751064, -0.0840798, -0.0983679, -0.0558069},{-0.0257989, -0.00264948, -0.0909624, -0.0391347, -0.0817716},{-0.0105102, 0.00550163, 0.0132442, -0.0278563, -0.00629244},{-0.0358016, -0.0683148, -0.0425743, -0.0661876, -0.090127}},{{-0.0622377, 0.255234, -0.249743, 0.193398, 0.171797},{0.0778618, 0.129257, 0.0865757, 0.0762203, 0.0216952},{0.0791145, 0.189164, 0.0484348, 0.187302, 0.0473636},{0.135845, 0.0831995, 0.0343, -0.182476, 0.0815624},{0.198128, 0.137915, 0.112873, -0.302421, -0.259282}},{{0.1055, -0.126548, -0.167025, -0.0927224, -0.0256297},{0.231672, 0.224775, 0.1447, 0.0510358, -0.0320972},{-0.0489368, 0.149771, 0.19784, 0.0276167, 0.201145},{-0.5204, -0.29382, -0.231981, -0.089795, -0.066552},{-0.118715, 0.0446862, 0.215146, -0.0567685, -0.363187}},{{-0.0392245, 0.0137732, 0.00540957, -0.0504169, -0.0560481},{-0.106013, 0.0120033, -0.0461177, -0.0652746, -0.00981804},{-0.116176, -0.0427628, -0.047076, -0.070135, -0.0516283},{-0.0556217, -0.0588958, -0.0787572, -0.0061803, -0.0373833},{-0.0318664, -0.0144878, 0.0251227, -0.0711396, -0.0746619}}},{{{0.0416203, 0.110073, -0.0733434, 0.0226391, -0.0298001},{-0.0174205, -0.0698957, 0.0615214, -0.0271903, 0.0416572},{-0.000926915, 0.0708845, 0.00481332, 0.0285719, -0.0265581},{-0.126475, 0.0544404, -0.00818544, 0.035222, 0.00936928},{-0.0672136, 0.0103263, -0.000282168, -0.00264015, 0.0386901}},{{-0.0364117, 0.0152935, -0.0118384, -0.0159118, -0.0218426},{-0.00253358, -0.0266579, 0.00833824, 0.0321499, -0.0905597},{-0.0172496, 0.0310177, -0.0230031, 0.019073, 0.036855},{0.0358988, -0.0298939, -0.0125145, 0.0298955, 0.0375347},{0.0345565, -0.00325038, -0.0766317, 0.0116193, -0.0249696}},{{-0.0201068, -0.0685805, 0.0659887, 0.0302552, 0.0312751},{0.0471754, -0.0043725, 0.000490561, 0.0666514, 0.0476479},{0.0182989, 0.00117799, -0.0429241, 0.020916, 0.0801381},{0.0130987, -0.0249179, 0.00133296, -0.0217884, 0.0101328},{0.0182425, -0.0224715, -0.0592013, 0.00770351, 0.0486569}},{{0.00279738, 0.0442355, -0.0203646, -0.0181237, -0.014179},{-0.000369953, 0.0118454, 0.0111718, -0.0408414, 0.00112646},{-0.033277, 0.0188963, 0.00774926, 0.0354705, 0.00538405},{0.00186335, 0.008529, -0.0009025, -0.0216848, 0.033439},{0.0174203, -0.00320041, 0.0167817, -0.0121315, 0.0394187}},{{0.0716379, 0.04599, -0.0635012, 0.062115, -0.00384878},{0.0656819, 0.144712, 0.0116661, -0.0208737, -0.0357342},{0.112435, 0.013511, -0.0314236, 0.00533062, -0.0168277},{0.0395724, -0.0259168, 0.0166613, 0.0184646, 0.0147609},{0.121958, 0.0788371, 0.0868872, 0.0820186, 0.159701}},{{0.0510012, 0.0713585, 0.0176599, 0.0428362, 0.0802317},{0.00665798, 0.00783766, 5.14351e-05, 0.0397795, 0.0572907},{0.0746119, 0.0802544, 0.0197308, 0.0639583, 0.056633},{0.0622412, 0.0553472, 0.0547402, 0.0767611, 0.0648268},{0.0311048, 0.00135336, 0.0208919, 0.020229, 0.0191944}},{{0.0564159, 0.0261277, 0.0708311, -0.0145831, 0.0546691},{0.0507906, 0.0127783, 0.0314774, 0.0766569, 0.0148858},{0.0770082, 0.0694438, 0.00527223, 0.00279392, 0.0142062},{0.0389668, 0.0211109, 0.000990961, 0.0600297, 0.0484667},{0.0701922, 0.0513235, 0.0441126, 0.0732095, 0.0147646}},{{-0.00654297, 0.0328642, 0.0570716, 0.00957372, 0.0520431},{0.0750674, 0.0715897, 0.0622245, 0.0658427, 0.0408577},{0.0456808, 0.0360985, 0.095276, 0.00621153, 0.0364985},{0.0247652, 0.0225426, 0.00866436, 0.0576668, 0.0637202},{0.030957, 0.0437703, 0.00927385, 0.016994, 0.0217883}},{{0.0135388, 0.0355983, -0.00717068, 0.0119323, -0.0083106},{0.00705842, 0.00159842, 0.0364741, -0.0286175, -0.00154088},{0.0209975, -0.0272928, -0.00835203, 0.00258585, -0.0173282},{-0.0195382, 0.011569, -0.00689536, 0.0379271, 0.0214024},{0.0168667, -0.0256623, -0.0208621, -0.00943222, -0.00578924}},{{-0.0337949, -0.0935557, -0.0387186, 0.0124128, -0.119214},{-0.0771577, -0.0707614, -0.0175177, 0.0104959, -0.0324353},{0.0537206, -0.0503866, -0.028044, 0.0290245, 0.0463927},{0.0411472, 0.048803, -0.0765755, 0.0435222, -0.0598282},{0.0419618, 0.0171338, -0.0559431, -0.000644321, -0.0292016}},{{-0.0657829, -0.0703416, -0.0700722, -0.000763201, 0.0271917},{-0.0184725, -0.0960685, -0.0354625, 0.0124882, -0.000324355},{-0.00684725, -0.0199986, -0.0273281, 0.0602966, -0.00711444},{-0.0640246, -0.00469217, 0.00210514, -0.0766006, -0.0557278},{-0.0633788, 0.0264037, -0.0177311, -0.0643026, -0.0641798}},{{0.0549317, -0.0209041, 0.027205, -0.0107351, 0.0133742},{0.153091, 0.0376789, -0.0564379, 0.0888926, 0.129483},{-0.00641867, 0.0161354, -0.137177, 0.150449, 0.0514182},{-0.089971, 0.0233027, 0.0667198, 0.0258883, 0.0100573},{0.176606, 0.0545643, -0.0639971, 0.0263128, -0.0115819}},{{0.00647684, -0.0382144, -0.0362803, 0.00536675, 0.000531293},{-0.0529167, -0.0203189, -0.0708977, -0.0150938, -0.0155825},{-0.00966002, -0.0840257, -0.0232075, 0.00986464, 0.0226043},{-0.0477616, -0.00528177, -0.045348, -0.0699968, 0.005861},{-0.0334656, -0.034131, -0.0241217, -0.0323857, -0.0325643}},{{-0.0119931, -0.00670528, -0.0845918, 0.0450711, 0.161676},{0.0292827, 0.0295882, 0.0761106, 0.165552, 0.183626},{0.0721273, -0.00314612, -0.0200575, 0.0820919, -0.0157237},{-0.025266, -0.0814127, 0.00929039, -0.10937, 0.0199506},{0.0189475, 0.0854124, 0.0466236, -0.0252907, -0.00800448}},{{0.0740407, 0.0241423, 0.0629884, 0.0324416, 0.0691238},{0.0257965, -0.00482319, 0.0574157, 0.0111833, 0.0622776},{0.00390378, 0.101441, -0.000761507, -0.122464, -0.0155108},{0.10343, 0.0632012, 0.00650907, 0.0133324, -0.0291743},{0.0483493, 0.192395, 0.154487, 0.139555, 0.0341026}},{{-0.0765937, -0.103154, -0.0894589, -9.21004e-05, -0.0170397},{-0.0524789, 0.0416896, 0.0140589, -0.0050346, 0.00788944},{0.0203353, 0.0127622, -0.010521, -0.021968, -0.0543246},{-0.0398641, -0.0281509, 0.0198465, -0.0152919, -0.01457},{-0.0147185, -0.0103564, -0.0108601, 0.00944659, -0.00435349}}},{{{-0.0267926, -0.00579937, -0.0649597, -0.0437365, 0.0273921},{-0.0596579, -0.0500641, -0.0209575, 0.0110687, -0.0264014},{0.0791685, -0.0381395, -0.0345559, -0.0565351, -0.0118538},{-0.0416063, -0.0300019, 0.056363, 0.000150654, -0.0224766},{0.0356791, -0.0670608, -0.0204842, -0.0168137, 0.035666}},{{-0.011112, -0.0417267, 0.0361543, 0.00537326, -0.0477013},{-0.0341471, 0.00851234, 0.01857, 0.0185865, -0.0786827},{-0.0519962, 0.0642066, -0.00796974, -0.0590885, 0.001649},{-0.0167193, 0.00289685, -0.0409809, 0.00896132, -0.055295},{-0.00221219, 0.0243739, -0.0450379, -0.078477, -0.0132344}},{{-0.0371083, -0.00194828, -0.0128154, 0.0598822, 0.00503365},{-0.0314095, -0.0728776, 0.0670026, 0.0424371, 0.000900324},{-0.0265443, -0.0109729, -0.0236375, 0.0507961, 0.0242734},{0.0217599, 0.001158, -0.0620424, -0.0471497, 0.0672301},{-0.0630161, -0.0784345, -0.0819137, 0.000695243, 0.0555978}},{{-0.0504103, -0.00201857, -0.00590453, 0.0308497, -0.031412},{-0.0567778, -0.00536707, 0.0445148, 0.0118061, -0.0104277},{-0.0259338, -0.0152175, 0.0464022, 0.0555183, -0.0673058},{-0.0457039, -0.0780628, 0.0559984, -0.0417794, -0.0638578},{-0.011821, -0.058152, -0.0729131, -0.0166578, -0.0663285}},{{-0.00387396, 0.000794217, -0.0660406, -0.0330065, -0.0571335},{-0.077813, -0.0814853, 0.0780212, -0.0457484, -0.0776291},{-0.064338, -0.0198144, -0.0281163, 0.00177842, 0.0576024},{-0.053306, -0.0720287, -0.00104969, -0.0751064, -0.0549921},{-0.00586041, -0.0109468, -0.0493043, -0.0558874, -0.0371929}},{{-0.0391343, -0.00107961, -0.0519404, -0.0182349, -0.00227951},{-0.0546571, -0.0722471, -0.0747952, -0.0696777, -0.0369731},{-0.0254352, -0.0537678, -0.0589838, -0.0801855, -0.0209906},{-0.0172184, -0.0726637, -0.049669, -0.00677451, -0.0340075},{-0.0215806, -0.018513, -0.0772023, -0.00296095, -0.0741284}},{{-0.0305618, 0.0065449, 0.0244731, 0.0430001, 0.00723256},{-0.0156844, 0.00419389, 0.0140976, 0.0248491, -0.0541324},{-0.0264859, 0.0655505, -0.0236031, -0.0196445, 0.0154422},{-0.0482427, -0.0750459, -0.0177373, -0.0559252, -0.0116348},{-0.0360019, 0.0260758, 0.0613952, -0.073731, -0.037504}},{{-0.0664191, -0.0578957, -0.0596068, 0.0504308, 0.0248872},{-0.0597548, -0.0695005, 0.0528272, -0.0783333, -0.0112738},{0.0667328, -0.0283251, -0.0181214, -0.0344855, 0.0527108},{-0.0562029, -0.0753316, -0.00834071, -0.0599073, 0.00107024},{-0.0177842, -0.0166867, -0.0128008, -0.0338122, -0.0614847}},{{-0.0701381, -0.0786111, -0.055522, -0.00918263, -0.0511858},{-0.0621008, -0.0574837, 0.0299478, -0.0445405, -0.0323705},{-0.0307047, -0.0772279, -0.0641182, -0.0318501, -0.061024},{-0.0176345, -0.0725851, -0.0776337, -0.0561623, -0.0317857},{-0.0402142, -0.0190674, -0.0408556, -0.0802849, 0.00163712}},{{-0.0465015, 0.000423025, -0.0605207, -0.0453231, 0.0269259},{-0.000328273, 0.0337666, -0.0639946, -0.0327307, 0.00345485},{0.0741816, -0.0439091, -0.0229346, 0.0792507, -0.0133782},{0.0682419, 0.071576, 0.0159746, 0.0569838, 0.0349053},{-0.0266829, -0.0678529, 0.0277801, -0.0375538, -0.0566869}},{{0.0246576, -0.0677561, -0.0789933, -0.0100229, -0.0659301},{0.0631273, 0.000116106, 0.00418917, -0.00128487, -0.0414602},{0.0447136, 0.0743056, -0.0277187, -0.021426, -0.0591054},{-0.0266237, 0.0779819, -0.0506301, -0.0257357, -0.0167363},{0.0140147, -0.0719453, -0.0810739, -0.0670401, -0.0103402}},{{-0.0168599, 0.0233841, 0.017987, 0.0155367, 0.0582131},{0.0202297, 0.0723321, -0.0688491, -0.0738478, 0.0583761},{0.00306037, 0.00612416, -0.0726122, 0.0573856, -0.0209595},{-0.0417873, 0.0565055, -0.0167916, 0.019278, -0.0407085},{0.00197057, 0.015162, 0.067491, -0.0207385, -0.0196196}},{{-0.0154882, -0.00825478, 0.0722433, -0.00673529, -0.0668653},{-0.0196516, 0.0768055, -0.0457802, -0.000448484, -0.0545043},{-0.0164265, -0.0260175, -0.00954375, 0.00194333, -0.0112507},{0.03389, -0.046332, -0.0627833, -0.0514521, -0.00378466},{-0.0182789, 0.0386199, 0.00144129, -0.0335297, -0.020521}},{{-0.0172183, -0.00465577, -0.00166526, -0.0460207, -0.0640936},{-0.00341633, -0.0562745, -0.011531, 0.0644155, -0.0689201},{-0.021681, -0.033758, -0.0778746, -0.0254216, -0.0456907},{-0.0479124, -0.00897819, -0.0815984, -0.0122939, -0.0546747},{-0.00397233, -0.0115222, -0.0119341, -0.0767295, -0.00734366}},{{-0.0731509, -0.0103063, -0.0230454, -0.0662146, -0.0388101},{-0.0374235, -0.0401524, -0.0470788, -0.0506183, -0.0288235},{-0.0313028, -0.0444786, -0.0104694, -0.0523268, -0.0587415},{0.0374836, -0.011032, -0.0128575, -0.0470047, -0.0347364},{-0.0399171, -0.0057344, -0.0207076, -0.067968, -0.0602709}},{{0.0223331, 0.0754129, -0.0599137, -0.0229914, -0.0494936},{-0.0300048, -0.0670339, -0.0590696, -0.00908595, 0.0564315},{-0.0110144, -0.0603971, -0.0697816, -0.0134121, -0.00580665},{-0.081043, -0.0107809, -0.0680158, -0.0692359, 0.0448487},{0.0386696, -0.0221637, -0.0430059, 0.0393598, -0.00401836}}},{{{0.0878985, 0.0326793, 0.080737, 0.106548, -0.00300133},{-0.0272753, 0.0342293, 0.0416579, -0.000439227, 0.0151943},{0.0415922, -0.0151006, 0.0168842, 0.0732028, -0.0328051},{-0.0392449, 0.0802438, 0.0225972, 0.0264648, 0.00486209},{-0.0904002, 0.0260518, 0.0472083, 0.0214937, -0.010076}},{{-0.0114445, 0.0299407, 0.0141308, -0.0468189, -0.05621},{0.0183358, -0.163577, -0.0805758, -0.0140478, -0.0494628},{-0.207652, -0.00463516, -0.0772743, -0.012425, -0.0775783},{0.161313, -0.0286431, 0.024762, -0.0630912, -0.062578},{-0.0374972, -0.357035, -0.045171, 0.0425353, -0.0228699}},{{-0.0637249, -0.0446654, 0.0189517, 0.00431002, 0.0786131},{0.00648383, -0.0619437, 0.0303646, 0.00695524, 0.0387116},{0.0134458, -0.0322633, -0.0176321, 0.0586311, 0.0575343},{-0.0720339, -0.0452137, -0.0702219, 0.0646805, 0.0333847},{0.0414702, -0.0189497, 0.0327396, -0.0406912, -0.0721371}},{{-0.0398063, 0.016697, -0.101966, -0.00774194, -0.176267},{-0.175792, 0.0755073, 0.00419201, -0.122334, -0.311063},{-0.0761712, 0.110681, 0.112126, -0.203582, -0.122454},{0.058804, 0.0556613, 0.227107, 0.144543, 0.055785},{0.115816, -0.0753481, 0.220411, 0.10608, -0.081589}},{{-0.16754, -0.0357807, -0.0452899, 0.040392, 0.141009},{-0.0059266, -0.0655564, -0.0649039, 0.0620517, -0.0261159},{0.00665843, -0.156767, -0.148554, 0.199044, -0.0437057},{-0.0121511, -0.114382, -0.0222198, -0.00270554, 0.0425594},{0.0485689, -0.284663, -0.142911, -0.287954, -0.0371468}},{{0.0633789, 0.000960618, -0.0582019, -0.0218661, 0.0415699},{-0.00833311, -0.00567434, -0.0551427, -0.0173934, 0.00733178},{-0.00701034, -0.00930302, -0.0676525, -0.0565113, -0.0308709},{0.0332207, -0.0536959, 0.0522674, -0.0548367, -0.0311694},{-0.00192136, -0.0466422, 0.00356321, 0.030433, -0.05098}},{{-0.0716998, -0.022608, 0.0428442, -0.0671354, -0.062444},{-0.00743613, -0.0185912, -0.0104873, 0.0546916, -0.0399473},{0.00403379, -0.0149092, 0.0811058, -0.0504003, -0.0164339},{0.0563485, -0.062866, -0.00487717, -0.0794242, 0.0174163},{-0.0418134, -0.0563289, -0.0523718, -0.0374298, 0.0439028}},{{0.0627269, -0.0265847, -0.0533896, 0.0649705, 0.0198596},{-0.000870775, -0.0433606, -0.0219951, 0.0814549, 0.0228023},{0.046457, 0.080865, 0.0480151, 0.0690898, 0.0331309},{0.0450742, 0.0226677, -0.0317855, 0.0120757, -0.0658677},{0.0345165, 0.0169996, 0.0128222, 0.0109304, 0.0718057}},{{0.0143824, -0.00472673, -0.0596929, -0.131494, -0.0714121},{0.0240265, 0.203322, -0.0678208, -0.097395, 0.00417675},{0.038828, 0.135681, 0.0289691, -0.211351, -0.0404548},{-0.0939111, -0.0658339, -0.153925, -0.110851, 0.0697417},{-0.0926608, -0.0335852, 0.0678452, 0.024309, 0.0400319}},{{-0.0173031, -0.00442328, -0.0433704, -0.0807483, 0.0200938},{-0.127273, 0.0295135, -0.0940639, 0.117773, -0.0136876},{0.0812797, -0.0503994, 0.0586098, 0.0810445, -0.126615},{0.120094, 0.0406303, 0.165341, 0.275289, 0.347738},{0.20611, 0.17044, -0.0148212, -0.0210336, 0.138833}},{{0.196098, -0.0433487, 0.0894722, 0.118961, 0.11623},{0.10086, 0.0103869, 0.122338, 0.0153369, -0.0225292},{0.147377, -0.0997092, 0.302875, -0.0280454, -0.00797455},{-0.230096, -0.00315485, 0.0352888, -0.089529, 0.0904209},{0.0254841, 0.120465, -0.187274, 0.120917, -0.0688172}},{{0.277301, 0.169901, 0.0473385, 0.0596881, 0.0245391},{0.184612, 0.250268, 0.0117306, 0.102391, 0.137306},{-0.0837011, -0.0557695, -0.181356, -0.0654541, -0.0736778},{0.188371, 0.121582, -0.21947, -0.165565, -0.217671},{-0.0504977, 0.136284, 0.423532, -0.234926, 0.0847418}},{{0.0797011, -0.113741, -0.124254, 0.00551458, -0.045907},{0.295496, -0.227689, -0.201301, -0.174954, -0.00359443},{0.000620414, -0.0119987, -0.0528884, 0.0515341, 0.0492713},{0.334656, 0.189367, 0.0951241, 0.106597, -0.109168},{0.0959294, -0.143846, -0.157944, -0.215402, 0.229043}},{{-0.129555, 0.0408737, -0.070086, 0.135873, -0.0815282},{0.173586, 0.344669, 0.164421, -0.130124, 0.151702},{0.300217, 0.355229, 0.0159653, 0.054063, -0.00231781},{0.0473701, 0.062113, -0.191547, -0.29119, -0.00850367},{0.129383, -0.0386934, -0.163579, -0.199458, -0.217791}},{{0.0199568, -0.0933561, -0.540385, -0.262588, 0.030392},{0.274034, 0.257654, 0.161768, 0.118161, -0.0407282},{0.192756, 0.0462208, -0.000818308, 0.0883423, 0.0822125},{-0.569864, -0.228748, -0.224284, -0.307659, -0.248475},{0.0698531, -0.157636, -0.0549805, -0.205874, -0.492148}},{{0.0320184, -0.0539623, -0.0595691, 0.0818162, 0.0644099},{-0.0378474, 0.0800262, -0.0134579, 0.0726259, -0.0318478},{0.0235039, 0.0405789, 0.0686802, 0.0272744, -0.0181203},{0.0431723, 0.0387029, -0.00144435, 0.00399898, -0.00834332},{-0.0709812, 0.0451619, 0.069738, -0.0799618, 0.0201372}}},{{{-0.0434599, -0.0178657, 0.00857287, 0.00358548, -0.0794257},{-0.0444749, -0.00316446, 0.00142636, 0.0387029, -0.0395376},{-0.0447852, -0.0186454, 0.00349842, 0.0248536, 0.031921},{-0.00280457, 0.0270007, 0.0197194, 0.0268828, 0.0321959},{-0.00270382, -0.00040542, -0.00609189, 0.0142724, -0.00831193}},{{0.019172, 0.00690808, -0.0282845, -0.0207626, -0.0801347},{-0.0161128, 0.0120781, 0.0130026, -0.020954, -0.0347518},{0.016023, -0.00739155, -0.00476987, -0.0150752, -0.0164328},{-0.018446, -0.00856014, -0.0171271, -0.0626378, 0.0155589},{-0.00153433, 0.0217522, -0.0249534, 0.00820373, -0.0805264}},{{-0.0232841, 0.0208013, 0.0141945, 0.0408874, 0.0623205},{0.00406662, 0.000218537, -0.0155952, -0.00067538, 0.073397},{-0.0209566, -0.0718991, -0.0154407, 0.041193, 0.0584076},{-0.0150538, -0.0613412, -0.0368589, -0.0353875, 0.0544843},{0.00718375, 0.0279793, 0.0187971, -0.0293705, -0.00305202}},{{-0.0282764, 0.00424946, -0.0205943, 0.015836, -0.0777854},{-0.0292083, -0.0260949, -0.117555, -0.0860813, -0.0883703},{0.0152439, -0.0160241, -0.0818838, -0.154557, -0.115708},{-0.0267018, 0.0311161, -0.00421202, 0.0115269, 0.0168773},{-0.0149819, -0.0180144, 0.10553, 0.192491, 0.0933819}},{{0.0399379, -0.159069, -0.0711555, -0.107312, 0.0514078},{0.0513817, 0.116319, 0.216625, 0.00860359, 0.133466},{0.0125455, 0.111771, 0.247982, 0.0288031, 0.02155},{-0.0561199, 0.0826402, 0.117615, -0.0506819, -0.246807},{0.0610966, 0.287185, 0.216743, -0.679082, -0.589224}},{{0.0406349, 0.00625362, 0.0433163, 0.028281, 0.0434325},{0.0453518, 0.0688957, 0.0180361, 0.05016, 0.0685613},{0.0707124, 0.0623354, 0.0124169, 0.0791127, 0.0248884},{0.0419306, 0.0147471, 0.00694077, 0.0460043, 0.0766825},{0.0686858, 0.0680808, 0.00857969, 0.0437313, 0.0527523}},{{0.0682517, 0.047718, 0.0720671, 0.0814962, 0.0231955},{-0.00193206, 0.0459842, 0.0744093, 0.0496846, 0.0346624},{0.0632415, 0.0793811, 0.0502611, 0.0189306, 0.0153378},{0.0669524, 0.056084, 0.0103991, 0.0426873, 0.0652144},{0.020107, 0.0104461, -0.00196286, 0.0666378, 0.0177766}},{{0.0375396, 0.0145825, 0.0362874, 0.071784, 0.013248},{0.0677834, -0.00107275, 0.00707311, 0.054593, 0.00395718},{0.011064, 0.0619768, 0.0585179, 0.0219208, 0.00335215},{-0.0191724, 0.0122339, -0.00284631, 0.0654544, -0.0337295},{-0.0312927, -0.030616, 0.0504592, 0.0113795, 0.066353}},{{0.00546684, 0.0911652, -0.00696616, -0.0335728, 0.00201792},{0.0211555, 0.00302299, -0.175087, -0.0799065, -0.015265},{-0.0165221, -0.146403, -0.0814425, 0.0301521, -0.0949505},{0.0146288, -0.0557832, -0.0839382, 0.0128062, -0.00559642},{0.0355221, -0.0407531, 0.0163548, 0.0194634, -0.0164259}},{{-0.0757481, -0.0982133, -0.0939668, -0.0838961, -0.10917},{-0.151692, -0.142663, -0.0242386, -0.000385984, -0.0719588},{-0.141016, -0.136551, -0.0552721, 0.0651687, 0.0249725},{0.0269246, -0.0681214, 0.0580122, 0.0725247, -0.0299834},{0.0232894, -0.0299866, 0.0529786, 0.0679202, 0.0540745}},{{0.0050054, -0.0639457, -0.0354909, -0.0685382, 0.0685743},{0.0167189, -0.0957442, -0.0754404, 0.00510591, 0.0435406},{0.052736, 0.0279665, -0.0380596, 0.0642931, 0.0717059},{-0.0605709, 0.0429335, -0.0967249, -0.0499997, -0.0277067},{0.0458203, 0.0196943, -0.0215164, -0.082641, -0.0559726}},{{-0.137758, 0.17422, 0.56459, 0.332404, 0.0298405},{-0.748856, -0.428831, -0.210223, -0.0278753, -0.332951},{-0.758269, -0.0968507, 0.319713, -0.0484408, -0.99274},{-0.509091, -0.0565953, -0.0206173, -0.0364648, -0.938055},{-0.24898, 0.0984103, 0.16937, 0.459416, 0.0767335}},{{-0.067217, 0.0168409, -0.0165719, -0.071711, -0.0611489},{-0.0113822, -0.0660378, -0.0622877, -0.0701789, -0.00463647},{0.0569313, 0.0749404, -0.0785389, -0.150665, 0.0592702},{0.0678743, -0.0932335, -0.0842174, -0.0640967, 0.0455943},{-0.0331285, -0.0496819, -0.135285, -0.131961, -0.0509853}},{{-0.0100068, 0.128122, 0.388682, -0.167177, -0.776932},{-0.0928721, 0.0860628, -0.0524712, -0.436006, -0.830092},{-0.167685, 0.00703157, 0.0733926, -0.0404098, 0.0917923},{-0.875662, -0.279204, -0.0974586, 0.152772, 0.283351},{-0.168143, -0.562559, -0.102976, -0.117554, 0.134606}},{{0.278946, 0.125249, -0.0352132, -0.712981, -0.151846},{0.11114, 0.0482242, -0.149611, 0.111342, 0.0257579},{-0.40649, 0.20371, 0.618118, 0.420687, -0.0692874},{-0.250289, -0.200252, 0.0518824, -0.137758, 0.176912},{0.0477079, -0.0933861, -0.394404, 0.0547958, 0.0818194}},{{-0.0581115, -0.0470934, -0.0672519, -0.0222413, -0.0358361},{-0.0679086, -0.057486, -0.0493276, -0.0162939, -0.0401726},{-0.0318031, 0.0365476, -0.0784461, -0.0373741, -0.0745703},{0.0276403, 0.0361345, 0.0406756, 0.000448637, -0.059553},{-0.00275858, -0.00722863, -0.0334152, -0.0576183, -0.0765876}}},{{{0.0251217, -0.0766728, -0.0433542, -0.030505, 0.00820076},{0.00516562, -0.0221244, 0.00849679, 0.0157628, 0.0386503},{-0.0295164, 0.035094, 0.00501467, -0.017787, -0.000476465},{0.0371596, -0.0116684, -0.0277617, -0.00155696, -0.0220968},{-0.0159281, -0.0365809, -0.00837696, -0.00996348, -0.0161391}},{{-0.0128773, -0.0158673, 0.0538226, -0.04685, -0.018879},{-0.0402711, -0.0749867, -0.033503, -0.0418844, -0.0131423},{-0.0770506, -0.0331655, -0.0622284, 0.0321133, -0.028141},{0.0114793, -0.0593844, 0.0569796, 0.0104829, -0.00780148},{-0.0301555, 0.0070958, 0.00617435, -0.0428378, -0.0319763}},{{-0.00349068, -0.0618048, -0.0346554, -0.0680841, 0.00380206},{0.0691917, -0.0766747, -0.0745872, 0.00296581, 0.0742556},{0.0529837, -0.0248037, 0.0103061, -0.0430065, 0.0383423},{0.0722701, -0.0655277, -0.028233, -0.0253863, 0.0564009},{-0.0589577, -0.0561851, 0.00709395, 0.0115996, -0.0600853}},{{-0.0731583, -0.0539336, 0.0737596, -0.0429625, -0.0239357},{-0.0623157, -0.0504588, -0.0208856, -0.0166021, -0.0141889},{-0.0168518, -0.0155497, -0.0479924, -0.0218731, 0.000695951},{-0.0593528, -0.00888962, -0.0643261, -0.035515, -0.0728392},{-0.0587341, -0.04868, -0.0676567, -0.0746761, -0.0673368}},{{-0.0269434, -0.0275834, -0.00220574, 0.0714568, -0.0185198},{-0.0718773, -0.0721869, -0.0792093, -0.0802868, 0.0542445},{-0.053871, -0.00920712, 0.00141034, 0.0774206, -0.0557249},{-0.0433814, -0.0200448, -0.0705455, 0.0581909, -0.000397909},{-0.033897, -0.00540149, 0.0288788, -0.0342366, -0.0645081}},{{-0.0590654, 0.000328567, -0.0590841, -0.076472, -0.0736525},{-0.0621597, -0.0689391, 0.0239439, -0.0725755, 0.0744044},{-0.0221214, -0.0220729, -0.0225698, -0.0597123, -0.0136096},{-0.0681867, -0.0707938, -0.00803055, -0.0523157, -0.0153168},{-0.0349814, 0.00121561, -0.00608793, -0.00813174, -0.0436947}},{{-0.0326102, -0.0145364, -0.00356759, 0.00261159, -0.0253926},{-0.00439231, -0.078693, -0.0143424, -0.0542552, -0.0450457},{-0.0745705, -0.0322337, -0.0245614, -0.056919, 0.0314297},{-0.0707704, 0.0382311, -0.0808144, 0.0223325, -0.0187251},{-0.0157739, 0.0386737, 0.00189861, -0.0368769, -0.0583881}},{{0.043149, -0.0323872, -0.0205515, -0.0156228, -0.0388699},{0.0485351, -0.0792843, 0.0593644, 0.034645, -3.32482e-05},{-0.0585266, 0.0194092, 0.0795377, 0.0015263, 0.0293605},{0.0399974, 0.00591413, 0.00109642, 0.01658, -0.080871},{0.00274311, 0.0350281, -0.0107232, -0.0816059, -0.0282775}},{{-0.0305149, -0.0817188, -0.0666027, -0.0290873, -0.0221255},{-0.00882572, -0.068595, 0.0446701, -0.012394, -0.00461693},{-0.0646853, -0.0232281, -0.0524152, -0.0787862, -0.0626356},{0.0506891, -0.0141486, -0.0385132, -0.0408172, -0.0361423},{0.0714075, -0.0139228, -0.071076, -0.0231787, -0.0400871}},{{-0.00299463, -0.0167583, -0.0411, 0.0804175, -0.0361637},{0.0545634, -0.0792745, -0.0666318, 0.046075, 0.0218253},{-0.00726891, 0.0042614, -0.0817907, 0.0220773, 0.00316015},{-0.0124568, -0.0401438, 0.0449656, -0.0339454, 0.0393825},{-0.0555299, -0.00332253, -0.00795363, -0.0819966, 8.63485e-05}},{{-0.0412046, -0.012432, -0.0608397, 0.0468002, 0.0404763},{-0.04187, 0.0433953, -0.081759, 0.0291651, 0.046402},{-0.0174157, -0.0199649, -0.0650028, 0.0370689, -0.0147641},{0.0105343, -0.0554631, 0.0379956, 0.039366, -0.030845},{0.0261537, -0.0625439, 0.049438, 0.0401163, -0.00767842}},{{0.0418732, -0.0271455, 0.0251062, -0.0485974, -0.0391745},{-0.00124238, 0.0403707, 0.00122654, -0.047917, -0.0581272},{-0.00849843, -0.068091, 0.00108578, -0.0634757, -0.0187798},{-0.0242416, -0.0395143, -0.0356191, -0.0611218, -0.0513443},{-0.024188, 0.0219066, 0.0729077, -0.00743375, -0.0353082}},{{0.0235465, -0.0337313, -0.0728433, -0.0221487, 0.0694477},{0.025564, -0.0727978, -0.00105841, -0.0214982, 0.0366534},{0.00611847, -0.0139355, -0.0746952, 0.00704083, -0.00594389},{-0.0338583, 0.0714584, 0.0494748, 0.0688885, -0.0292157},{-0.0109585, 0.0207366, -0.0632752, -0.0400404, 0.0417657}},{{0.0717086, -0.0133378, -0.0465612, 0.00152799, -0.0816446},{0.0293517, -0.0249031, -0.0137706, -0.0319155, -0.0376132},{-0.0396487, -0.061245, -0.00380331, -0.0153923, 0.0469957},{-0.0600152, -0.0467332, -0.0819746, -0.0260291, -0.0625702},{-0.0193603, 0.0814507, -0.061235, -0.0268756, -0.0738496}},{{-0.0634677, 0.0010484, -0.0243601, -0.00721758, 0.0557051},{-0.0182545, -0.0281746, -0.0136728, 0.00391813, -0.0292303},{-0.0615885, -0.0174974, -0.00884312, 0.0382443, -0.0202774},{-0.0454165, -0.0679085, -0.0782087, -0.0569216, -0.0738338},{-0.0347293, -0.0658389, -0.0125727, -0.0794192, -0.0651612}},{{-0.0363628, 0.00653178, 0.0593705, -0.0499228, 0.0214024},{-0.00535322, -0.0166505, 0.0198758, 0.0541155, -0.0729057},{0.0108992, -0.0773073, 0.0565425, -0.0524613, -0.0408846},{-0.0788448, 0.00685666, 0.0469745, -0.0606267, 0.0144977},{0.000687331, 0.036679, -0.0627639, -0.0196928, -0.0176927}}},{{{-0.0399118, -0.0488261, -0.0229977, -0.0800212, -0.0226307},{0.0292243, -0.019448, -0.0115577, 0.000137553, 0.00280967},{-0.0227424, -0.0187886, -0.0444778, -0.0384113, 0.000499111},{-0.0718301, -0.0785141, -0.00710097, -0.000898201, -0.0189713},{-0.0300539, -0.0595152, -0.0700355, 0.0278685, -0.00559969}},{{-0.0434086, -0.0335965, -0.00383608, -0.0531864, -0.0431947},{-0.0685243, -0.0308949, -0.0197159, -0.0246599, -0.00109245},{-0.0185863, -0.0203694, -0.0160544, -0.0755334, -0.0768286},{-0.0113578, -0.0450207, -0.076335, -0.0438173, -0.0453508},{-0.00958439, -0.00396781, -0.0359148, -0.0598967, -0.034547}},{{-0.0712575, -0.080173, -0.0179669, -0.0669258, -0.00398818},{-0.0604531, -0.0546382, 0.0216059, -0.0624771, -0.0191612},{0.0133182, -0.0789016, -0.00107972, -0.0498512, -0.0335596},{0.044105, -0.00974647, -0.0293815, -0.0561011, -0.0426579},{-0.0772665, -0.0434328, -0.043881, -0.0246132, 0.0153885}},{{-0.0384414, -0.038405, -0.0571932, -0.0368083, -0.0698507},{-0.0572832, -0.00676556, -0.056177, -0.0373542, -0.0799773},{-0.0515865, -0.0466875, -0.0688714, -0.054813, -0.0249667},{-0.0299607, -0.071003, -0.00977377, -0.0459053, -0.0406182},{-0.0245287, -0.0750594, -0.0107128, -0.00358029, -0.0610018}},{{-0.0140953, -0.00031231, -0.0512986, 0.000539694, -0.0542215},{-0.0801843, -0.00320609, -0.0767254, -0.0505109, -0.0290633},{-0.0285902, -0.0617635, 0.000777196, -0.0519929, -0.0789215},{-0.021303, -0.055574, -0.0781816, -0.0625806, -0.0625648},{-0.00451407, -0.00267539, -0.0357035, -0.0154704, -0.0774955}},{{-0.0745964, -0.0185548, -0.0719014, -0.0245338, -0.0600724},{-0.0263746, -0.022902, -0.00171106, -0.0185833, -0.00852711},{-0.0412825, -0.0187226, -0.00206034, -0.0633007, -0.0401081},{-0.0704128, -0.0286201, -0.06345, -0.0277803, -0.0647421},{-0.0284404, -0.0342898, -0.00439515, -0.0263015, -0.0391593}},{{-0.0376963, -0.0571641, -0.0772736, -0.054048, -0.0514964},{-0.0493095, -0.000702795, -0.0674052, -0.0235729, -0.0443205},{-0.0509439, -0.0684572, -0.0255803, -0.0206087, -0.0597343},{-0.0151398, -0.0754986, -0.0306359, -0.0376416, -0.0263599},{-0.0576628, -0.0218194, -0.0415414, -0.0717923, -0.0062255}},{{0.01048, -0.027251, -0.0592481, -0.0212326, -0.0817859},{-0.0733885, -0.0534929, -0.0417089, -0.040678, -0.0480365},{-0.00947648, -0.0276613, -0.0431526, -0.0578337, 0.000152692},{-0.0498243, -0.0525338, 0.0004136, -0.0025693, -0.0723619},{-0.0350816, -0.0652126, -0.0660927, -0.0619244, -0.0764955}},{{-0.0234777, 0.000726726, -0.0220465, -0.0721201, -0.0160758},{-0.0295843, -0.0499942, -0.0604517, -0.0103922, -0.0308314},{-0.0234195, -0.0675326, -0.0220824, -0.00418676, -0.0129475},{-0.058335, -0.0291681, -0.0653915, -0.0465341, -0.0620511},{-0.0794207, -0.0433922, -0.03198, -0.060888, -0.0346427}},{{-0.0460729, -0.0315295, -0.030212, 0.025109, -0.0784126},{0.0446024, 0.0181441, -0.0675862, -0.068741, -0.0274008},{-0.0227558, -0.0759839, -0.0150751, -0.00848554, 0.0586242},{-0.0637798, -0.0313206, -0.0573201, -0.0275525, 0.0723222},{-0.073815, -0.00777141, -0.0146229, -0.0117475, -0.01876}},{{-0.0145403, -0.0229013, -0.00619614, -0.0528527, -0.0171637},{-0.0312469, 0.0532746, -0.0363554, -0.00640956, -0.0638713},{-0.0161934, 0.0763004, -0.0463221, -0.0743063, 0.0252328},{-0.00214506, 0.0310827, -0.0181234, -0.0768486, -0.0156956},{-0.0114741, -0.0192484, -0.0523463, -0.0484975, -0.00927812}},{{-0.0402338, 0.0326573, 0.00180126, -0.00109549, 0.00167922},{-0.0144342, -0.0528344, -0.0237553, -0.0747098, -0.0288184},{-0.0293721, 0.0183593, -0.0231201, -0.00891456, -0.0319478},{-0.0240202, -0.0236086, -0.0191869, -0.0291134, -0.0698536},{0.0208579, -0.0730282, 0.0455523, -0.0214889, -0.0424589}},{{0.00221116, 0.020228, -0.00479603, -0.0335149, -0.0166278},{0.0233372, -0.0518663, 0.0608061, -0.0103125, -0.0566138},{0.0388303, -0.038951, 0.000255156, -0.0673517, -0.0586828},{0.016403, -0.0471395, -0.0376825, -0.0210948, -0.0441484},{0.0331754, 0.00233706, -0.0222457, -0.0736553, 0.0616802}},{{-0.0384827, -0.00778759, -0.0757897, -0.0511785, -0.0132732},{-0.0364254, -0.0479165, -0.0370787, -0.0714784, -0.0276005},{-0.0309766, -0.00679786, -0.0417813, -0.0315287, -0.0176831},{-0.00051719, -0.0121161, -0.0204967, -0.0191124, -0.0471169},{-0.0438489, -0.0331829, -0.0167573, -0.00451788, -0.00612452}},{{-0.0300439, -0.0569876, -0.0223624, -0.0657909, -0.0264487},{-0.0742599, -0.0537664, -0.0564345, -0.0649248, -0.0586703},{-0.0477452, -0.0577126, -0.0693411, -0.0122742, -0.0125824},{-0.0529978, -0.0223177, -0.0502865, -0.0483129, -0.0363858},{-0.0676093, -0.0746578, -0.00842648, -0.0329925, -0.0283162}},{{0.00127954, 0.0817219, -0.0638334, -0.0735132, -0.0780242},{-0.0614356, -0.04275, -0.0749796, -0.0652587, -0.019436},{0.00547991, -0.0686011, -0.0416608, -0.00793383, 0.00120116},{-0.0407153, -0.0475136, -0.0378009, 0.00022801, 0.00155459},{0.0446566, -0.0304173, -0.00991829, 0.0171013, 0.0295352}}},{{{0.0159107, -0.0155575, -0.00661451, 0.0110501, 0.0325996},{-0.0705616, -0.00156933, 0.0045136, 0.0279191, -0.00327242},{0.0737987, 0.021868, 0.0410023, 0.0420068, 0.0131212},{-0.0792302, -0.0174874, 0.00542072, 0.0155801, -0.0343068},{-0.0433374, 0.0594838, 0.0461635, 0.0162361, 0.00622224}},{{-0.0262351, 0.0687416, 0.0042331, -0.061806, -0.0220972},{-0.0183882, -0.00776638, -0.0137574, -0.0621396, -0.015044},{-0.0269471, -0.0141468, -0.0523549, -0.0123345, -0.0416371},{0.0330678, -0.0363015, -0.0300944, -0.0136485, -0.0185547},{-0.0602124, -0.0173345, -0.0139823, -0.00146916, -0.0366926}},{{-8.49888e-05, -0.0720014, -0.0345423, 0.0693196, 0.0371205},{-0.0276172, -0.0118099, -0.0791224, -0.0635198, 0.036827},{-0.0175836, -0.0558798, -0.0658748, 0.0470925, -0.0322728},{-0.0211465, -0.0310241, -0.0494753, 0.0350216, 0.0267992},{-0.00937126, -0.0516927, 0.0436524, -0.0624794, -0.0406069}},{{-0.0552577, -0.0468786, -0.0115854, -0.0767785, -0.0199617},{-0.0515813, -0.0225398, -0.0742101, -0.0399726, -0.034485},{-0.0571516, -0.0281949, -0.0174872, -0.0175015, -0.00745788},{-0.0288646, 0.000866763, -0.0662919, -0.035159, -0.0189748},{-0.0383765, -0.0358945, -0.0217461, -0.073424, -0.0400997}},{{-0.0799221, -0.0441509, -0.0569084, -0.066016, -0.0240352},{-0.0388408, -0.00363763, -0.0734817, -0.000803597, -0.0489341},{-0.0177733, -0.0402318, -0.05737, -0.0447525, -0.0297439},{-0.027138, -0.0625919, -0.066247, -0.0189369, -0.0723828},{-0.0680719, -0.010857, -0.0184479, -0.0446769, -0.00903185}},{{-0.0818195, -0.0383609, -0.0433655, -0.0764938, -0.0090225},{-0.0442936, -0.0700922, -0.0116164, -0.0254822, -0.0669055},{-0.019386, -0.0787686, -0.0318918, -0.0204497, -0.00750253},{-0.0347033, -0.0240788, -0.0784744, -0.0214931, 0.000738773},{-0.0414629, -0.0341747, -0.0379092, -0.0328451, -0.067802}},{{-0.0156422, -0.0145058, 0.0738226, 0.0579398, -0.0769037},{-0.0144166, -0.0527266, -0.0700646, -0.0651968, -0.0608084},{-0.0429269, -0.0186217, 0.00567455, -0.0521429, -0.0762873},{-0.00407532, -0.0567282, -0.0741142, -0.00602793, -0.0126338},{-4.55044e-05, -0.0113763, -0.0178429, -0.0404988, -0.0819457}},{{-0.0270306, -0.0202368, -0.0584961, -0.0801601, -0.0212459},{0.0121533, -0.0071453, -0.0811248, -0.0564528, -0.0694786},{-0.0015196, -0.0242443, 0.0462632, -0.0230268, -0.079818},{-0.0508313, -0.0459717, -0.0205754, -0.0686799, -0.0108201},{-0.0503379, -0.0710556, -0.0470493, 0.00531925, 0.0304038}},{{-0.0507606, -0.00742242, -0.0480752, 0.0155057, -0.0587857},{-0.0484627, -0.0186453, -0.0444236, -0.0549725, -0.0198446},{-0.0147825, -0.0301119, -0.00544275, -0.0132801, -0.0388951},{-0.00491131, -0.0459294, -0.0671467, -0.0743127, 